0.4176469394516016,-0.30641279820451794,-0.8459255732396178,-0.40260502036569745,-0.32930223444115714,-0.7359701307865578,0.812277793175088,0.5076233770916436,0.49026399077052996,0.71997956681576,-0.09834300357287473,-0.5559500807093005,0.13623638101963342,-0.34878425800023316,-0.8409639525814668,-0.80379395019335,0.781471997680462,-0.10080338499493278,-0.6240794180433705,0.3125751693334179,0.43901560127915773,0.831511293534672,0.6448779605458347,0.6343580068520596,-0.9864559200816378,0.14579559849148915,0.06106663676709445,0.7741242292647066,-0.14338617159539968,-0.3093016878015231,0.6620544939878006,0.16290916410761502,-0.6013541830655593,0.2716853487587614,-0.6146333159871862,-0.7991636468075456,0.4261785102223017,-0.9851401906271473,0.10424697728769579,-0.8468734265791664,0.5648109811471227,-0.5128837641300439,0.21503927279280605,0.05467949858836382,0.30531836495382475,0.6123515602148992,0.10620836971964452,1.0165551746710124,-0.48846270512999485,0.4738809034418931,0.42014527832994963,-0.5519846510616212,-0.26995668984364657,0.398918741090871,-0.42298114527631814,-0.02497396119902362,0.13066754256416302,0.8798672659473854,-0.9001179349808459,0.6360508595364918,-0.11607566996375462,-0.90977394121097,0.42458438255278685,-0.9416865329478841,0.6123548532242789,0.5418488893659518,0.7804595379666303,-0.241027982413513,0.6764741250105256,-0.20421499721758726,0.673251225899744,0.6173731617541357,-0.8642431386051274,0.8879992821217203,-0.3352143262880902,0.7556629252082745,0.8724791976479926,-0.038146852757969314,-0.021600886296688493,0.13741790697047493,0.6865147358942278,-0.9869468873159298,-0.5869045189210005,-0.24884828728911845,0.36020998255930414,-0.406552448683436,0.9604394503648508,-0.3591880718976961,0.33037435991936737,-0.047888809197167426,0.15543375927347225,-0.6593820865105948,0.029354255058798143,-0.10012331548038166,-0.01248871952703355,0.5042450929644599,-0.8462306870248069,0.7927720160238843,0.6663210235733836,-0.24403087266732554,-0.5362200255268361,0.10157784118874308,-0.5453490028461784,-0.8598686617432137,0.7187738825836527,0.8810542152354794,-0.11770307499649152,0.8599984168780168,0.09221265883957934,-0.055339901462260734,0.09107992983332047,0.3131816066936104,0.6157567423222998,-0.027296116944224957,0.9970789529224626,0.3252701516705663,0.32714035867351643,0.14686925224150604,-0.927153586816027,-0.6323874446708883,-0.9552915184990214,0.785036378304287,-1.010030561862546,-0.412687160204794,0.3969008252948469,0.17935147767589577,0.8115700607716838,0.4527751115519804,-0.6130005146629798,-0.7742505290971236,-0.07607832985060972,-0.04441688304584361,0.22604264331788404,-0.26499180801416417,-0.6603821426456172,0.06914581485786524,0.46121635542425116,-0.12547432243302936,0.7538211984799179,0.40000670214870593,-0.2722282055793839,0.2684313720088891,-0.6083544878470724,-0.09575869521202507,-0.8230935728170392,0.48773489142760273,0.42226509308068744,-0.7064453886298293,-0.06355810684505131,0.32247163108724686,-0.5047686827309672,0.8183348877084037,0.8467779864109576,-0.24754877869007855,0.09545285737449966,0.3773082408267829,-0.4814700601877961,-0.4416219092046451,0.40254875552617697,0.847509235952218,0.6139334418920738,0.9774599358188677,-0.5464115994806159,-0.44062505891577003,0.8021849467080938,0.9772995478774916,-0.975866284943335,0.886264255229184,-0.683956052955196,-0.23721419839328384,-0.8120498716106499,-0.15226704529525503,0.5236954103269327,0.7329723366180405,-0.6641306903910013,-0.635020717505201,0.6785817037701345,0.10043749447350937,0.7891361690686068,0.24431165585405845,-0.62687383371398,1.078909495728842,-0.7209760775242421,0.06718128857976904,-0.24024170969393827,0.8938645244040385,-0.211566381085588,0.5136938423669973,0.12132423189575296,-0.10900886956885752,-0.5910669853496584,0.06333709762170252,0.8257977541516601,-0.43819639015229833,0.2245652357200625,0.2926457369562019,0.46565483351158177,-0.7209328208178547,0.4993749260947935,0.2876971802125887,-0.34833387907102487,0.04833115888985584,0.635704497475569,-0.6509887577596816,0.24689204697479136,-0.17027524050381526,-0.34240266593994395,0.47284394678752845,0.5892775364984507,-0.6327867299129499,-0.6948052231004981,0.8786231663346166,0.0179373798109615,0.9068557928562162,-0.2869639225426367,0.9839281430919349,0.8816477713602383,-0.512369368794285,1.109613382482551,-0.06803945087888959,-0.7375579373658661,0.6102650547086802,-0.8697917955123514,-0.7786346392276717,0.6116681514770979,-0.2618277195740262,-0.2977524688255557,-0.16063127261759802,0.2184035230310557,0.32324075488733706,0.8807013503918026,0.4261379597762603,0.334378180415535,-0.09853070715543197,0.5631501510810553,0.5604507794194656,0.5187050450788387,0.8197070917687165,0.9466305163988331,0.4337643102284651,0.02969950936333284,0.5189141528918984,-0.23725495627852236,-0.8131110964393923,-0.11991248956869233,-0.015243205812636424,-0.31125146853702224,-0.9230451307821422,-0.6166971222984852,0.42874228772756534,-0.9257175442213076,0.24604632257702738,-0.81777485178395,0.24897555384676728,-0.23653281616106359,0.5657765084056254,0.8260275037246547,0.6169229740512197,0.7534823120210697,0.20139969329761986,0.02184116541934296,0.14012807193609672,0.41163111092784693,0.38451431808596775,0.14637952599679174,-0.1511958603164982,0.40649964591950816,-0.0679235483134403,-0.1572744846935917,0.1405723421379773,0.7683624647656909,0.6949073843827558,0.12177221439493179,0.17407492678176772,-0.9187692891384446,0.22776617669858812,0.6856254542675794,-0.660463094424771,0.2123422105764021,0.029450398983354827,-0.7863373018292497,-0.7692376595256982,-0.748157121984997,-0.24523846253659998,0.5404888411764213,-0.39255067156212325,0.402150377528105,-0.7368517938196054,0.5226987031498312,0.5154168753633719,0.572710843015659,1.054886234998463,-0.13444352848278424,0.4254696529775808,-0.5511114069224282,-0.43246669445049063,0.1366607340864139,-0.47286130569205304,-0.7441728011524145,0.19450030687497288,0.2508788343803183,-0.5317520223830462,-0.18574159623516234,-0.8424722023652158,-0.5850208919253277,-0.8691090017651536,-0.27226630428211984,0.42337295986593,-0.47876111027820056,0.634874423728429,-0.6869608252728627,-0.5203156657795307,0.5288608876573226,-0.13322995475509491,0.6923568400006367,-0.35715831558531963,0.06734468805180395,-0.14643988068105648,0.15714424849886233,0.9655253780289292,0.44186031276439053,-0.846769340233975,-0.7611786232985269,-0.5600678458268574,0.26252158000573045,-0.8809548452716496,0.6360715373356959,-0.14494816870617896,0.6803055417251929,0.6320656442280965,-0.0864631525248021,-0.503582129379518,-0.26462824962590115,-0.7492523054092496,0.311003156429803,-0.15341768302781109,0.15651850159917857,-0.22626716011907422,-0.15417211605994874,-0.8624062171768911,0.8335062729225151,0.3801727393796084,-0.1918270618004769,0.5863261795766854,-0.4436143366540544,0.43073596201164793,-0.05077118958551882,-0.3148632273117407,0.3002977969119494,0.8615451791543443,0.1625772952941764,-0.020903936468008807,-0.0004435024489090139,-0.09726214178467683,0.8421257363044296,-0.4010872630685521,-0.790884411615935,0.1612929489941202,0.05906645886903933,0.3079343281802778,-0.6751932942694494,-0.07345558805064246,0.8340871494202758,0.4005104691231901,0.916933825043885,0.3124971407071597,0.6834038127026929,-0.860792924190563,-0.5469487560511092,-0.6615166204028627,0.21991491053236709,0.8668970421486737,-0.08727035990740546,0.023429160954560994,-0.22884362680578962,-0.5039064910825181,0.5736435991950882,0.9295735592827172,0.14305043897409936,0.930951505516714,0.7404004833392073,-0.30658821125476343,-0.12628182708569294,0.500492631007676,-0.13413901779244783,0.755840810050738,-0.5866656498205103,0.7711280107962759,0.35036542743876703,0.5284886011779851,0.029934128464080396,0.9206348428906259,-0.24858432655023455,-0.47128816854224076,-0.37993498089915767,-0.2324056749179173,0.08674634940202897,0.6896274744879151,0.18221920450640564,0.8004251069862036,-0.6078598750911982,0.2468964756633088,0.7669401949431703,-0.4027281066872998,0.4021322593562742,-0.46376682709351424,0.33736146395761357,0.05400330362006439,1.0693409043875541,0.13534603051475738,0.3418743236431161,-0.2665700046915596,-0.07448416326925676,-0.6960141032952264,-0.6757603282036226,-0.3252860474158304,0.5595765640330369,0.6448839875350891,-0.5001816413261603,-0.9057867625155837,0.5704116920043469,0.6737929444934785,0.2483090558459593,0.2141375004425281,-0.6915987915995185,-0.33043405311287394,0.47445548040278535,-1.0716330645159644,-0.08415417002179301,-0.8456135649354211,0.6560689810993048,-0.6150803951809408,0.6733614514161111,-0.6882954874265583,-0.10773159557227799,-0.684742672040437,0.9438698839786238,0.7316069061149408,-0.5324567921647864,-0.11896693594106394,0.24919869584607504,-0.6387608897630905,0.9050179042968121,0.07822642050754282,-1.049795967650474,-0.5570544392599801,-0.08997836219165056,-0.44897078241925664,-0.8608699691416801,-0.5304236732291252,0.6655265189871247,0.9954753803028045,0.635075580032084,0.7490010678071638,-0.9552904346584405,0.6920622086559909,-0.9842453516006849,0.21304162208445904,-0.9089562610643791,-0.9931350092334084,0.7139242201399059,0.3033329160630638,0.1873652399573696,0.7661960764887493,0.3595034376212595,0.5163589932046101,-0.41937863670927766,0.564446196287356,-0.0691633643815143,-0.02724499629516253,1.017993177137631,0.2074384134778777,0.20311237978293975,0.6635179333852377,-0.8879104256726816,-0.23797916609489675,-0.2488443143504071,0.8279359385220793,-0.8786807599182911,-0.5412515107947831,-0.17161405123657375,-0.6572136333234037,-0.4325223976747434,-0.8035972888472868,0.5142420392097129,0.5039822163484449,-0.6347053802073102,0.8771716025182125,-0.5671008718210244,-0.43662270111835727,-0.11495609367236828,0.5656032122850664,-0.739703088401822,-0.08231878921818335,-0.2781150155588968,-0.2172445850564225,0.05811993505706741,0.7088229815368333,0.33211881362482426,0.8319413064876305,0.07154278212822476,0.33045426967677766,0.4150159644506751,-0.6287507514962088,0.32277881482801085,-0.28632860431832774,-0.4698109469134246,-0.9077979292850666,-0.577801118932783,0.06773395673887325,0.6693807731901119,-1.020382063572248,-0.6847176703612738,0.006885128553961695,-0.4759026526068902,-0.5229144504326689,-0.653892352302188,-0.6181900076969146,-0.9139967164394308,0.769507583597328,0.24579381577292178,-0.3934537919910186,0.5107922125423856,-0.4613096629407803,-0.6394893088697072,0.3929952902885577,0.8193462246614948,-0.2357605084558032,-0.08776696439672521,0.1426257989250501,0.49870005941482415,0.018616762530138244,0.8689752057646414,-0.7146772963285775,-0.18161967541415724,0.9333261763594334,-1.005632120586354,0.2357945437178215,0.021281792428340798,0.9090430620333861,0.047640861561963975,-0.5350873493945127,0.3942544225144959,0.10136315801554001,-0.16527296416210224,-0.6893293175087217,0.4896338348632433,0.9001750301670678,0.61217224517998,-0.2837541557547233,0.2911901496990294,-0.716413410762246,-0.2796993847450459,0.7142787798289683,0.32000437973274815,0.6158031461963256,0.39693609443685257,-0.7703090500679122,0.5281440248196958,0.4213600393297155,0.10416617708507347,-0.00014800957007055082,0.6897875325367491,-0.24114408479509386,0.18616666102962556,0.7192283941069768,-0.6020721381809886,-0.3855449328725308,-0.04202106780755669,-0.2775172276277132,-0.40581878830243456,-0.6002874691760952,-0.21278316916930204,0.6941655178104886,-0.373813457874675,0.6334177710150313,0.8295042933046421,0.2153230860095362,0.3024943531350376,0.4926463484577054,-0.15530442016875753,-0.78828958064769,0.8348102381422031,0.511969922233318,0.1663933401652312,-0.39580147481885763,0.5373432212530808,-0.7750792833399068,-0.25563510735251493,0.8998410265171768,0.11727054793256753,-0.15910395293162205,0.20171019046464303,0.425005755532581,0.608368344720871,-0.6505033185926947,0.7832354974015896,-0.353692662443014,-0.11913456788325218,0.5301038117303348,0.8845467746041388,-0.5681229781943536,-0.11324206077149636,-0.20202944175698287,-0.2494913661235494,0.5796110298740069,0.7035558559853106,0.11273668576719527,0.5002650189823795,-0.10370252528858667,-0.5641744469831614,0.3895616354646975,0.5244018966755326,-0.6180662627514104,-0.15142220729308703,-0.4623503354064089,-0.6284427668139192,0.030245632282570156,-0.8729960555000182,0.8505419046089562,0.6328630289413674,0.703484870472707,-0.940835849095908,0.8554922210703977,-0.8300690172281734,-0.8158638661636497,-0.6362872569380412,-0.9535004574962812,-0.8320907197461255,-0.3793602467902256,0.7465608856250526,-0.4491906300963009,0.4949628551678694,0.8880450637478885,0.5899391838889564,-0.03660242245770094,0.8811591761571638,0.10731054217711754,1.0825673038145396,-0.23327022801931332,-0.4925130738854054,-0.412505928927479,-0.665456299671976,0.17178106202466203,-0.650892385274545,-0.529599738382204,-0.6937367182068059,0.06657183438990288,-0.5810477910076124,-0.9362702451268398,0.6524440509545898,-0.5684065047210215,0.7047893963548875,-0.03541876083180473,0.5017615530199591,-0.14256266918688576,-0.5245698609301852,0.6177432172611855,0.9793402020360659,-0.727395992048975,0.6256644867645623,-0.23763884250340508,-0.7785855018781682,0.41096520931562447,-0.4430419474292925,1.0429348088652073,0.19267192057659516,0.554415350015627,0.3858427564602747,-0.9362064846454077,0.6559188199587193,-0.7487185510540987,0.33885320108788153,0.9438814784514247,-0.5556291114894314,0.9859237804558509,-0.3011099244986475,0.9791112530182899,-0.3646279386931627,0.4586973497196623,0.11625651435626998,0.9301835014001691,0.653396218413287,-0.8145284187235212,0.6375662115566384,-0.259926927939065,-0.2783951006818535,0.9023985331408118,-0.7397171863013657,0.38391542918191546,-0.23112458089144156,0.39869205938511804,0.7739471683325547,-0.46721734704004375,-0.759301460536172,0.0519070895505514,0.9302895725978575,-0.5865227944066883,-0.4839943556258915,0.5086819058511646,-0.266055517930438,-0.7232037963956139,0.7231838784887394,0.44428998100739503,0.16019233699847923,-0.13182282044088292,0.9379959702042681,-0.07026267677803057,-0.37540059871027504,-0.9630155703757259,0.23366973093650176,0.5289889612794603,-0.14907307718245216,0.6530159382736319,-0.11444665007992447,0.49109526631957595,-0.026732712616547017,0.26171113307861443,-0.12728563062896972,0.7973475609246669,-0.17534317051834106,-0.8042450523447169,-0.5236285162923939,0.5886051173697617,-0.10937944957631897,0.30230323572248524,0.8123122811996011,0.5436325916756172,0.6394027106471023,0.09611490545505119,0.5213390002680178,0.9479595145132986,0.6862361398899537,-0.8842764967931686,-0.8028883623674403,-0.5710600908704792,-0.25388525235631937,0.8684696612840831,0.7958275915256587,0.3299580035148202,-0.712871224197856,-0.46756470206837686,0.18207243302707524,-0.16961659831885353,0.5412863170798717,-0.025244435690683617,0.31370809292745505,0.917525301092574,-0.17484667171592647,0.11905713635378776,0.28276161058726257,0.5047154114541746,0.4996636589294395,-0.3762044901834782,0.35404221628153565,0.6456609471197096,0.42333188784095754,0.6125250351483931,-0.022130689854783725,-0.5281654464898671,0.06244778614021684,-0.3135169998931351,-0.7905462541787474,0.6879194784056691,-0.9976675353121379,0.7502307967798088,-0.27080911354669873,0.6474714446933626,-0.41472324235305624,-0.8239791216724307,0.40327342347003875,1.1100802550553386,0.24592377132571144,0.18747394584790814,-0.5059418654781741,0.8797357193959267,-0.5811899756632006,-0.41410739768738336,-0.3874759548682865,0.7131747163194756,0.7897107348839069,-0.021891013332429727,0.3406264143271753,0.9775527782697939,
0.7143152882807062,0.35396723462317015,0.2838814453386629,-0.5977288827775984,-0.7720872268939585,0.6904527099207964,0.5792908274422381,-0.6482800770501194,-0.16233232137436127,0.06068854412541902,-0.7478342600737331,0.39684352204444284,0.716982982432758,0.35450701363507053,0.2742696812318588,-0.16693620152493097,0.9821259856375372,0.48787229841458646,0.0011666550831350337,-0.0617232667295843,0.12867463971393278,0.310576876687533,0.515636917913717,-0.8043234292013959,0.21820957060389246,-0.9403367919763301,-0.7355826134247818,-0.35703347427928156,-0.12404210225024315,-0.027041467396424768,0.6781698922518566,-0.5372900974307702,0.18541135927406094,-0.47058317518977244,0.4423450402436462,-0.6204208800907989,-0.239827380122817,0.41322534145966294,0.9281976229128075,0.10147637880762032,0.549648062737985,0.3305359248380284,-0.15966815877959353,0.3478470804428884,0.3058979314746209,0.038881286048106575,0.6584416015266117,-0.5647817741771775,0.17268854760680724,-0.06798926887339875,0.8799277722632652,-0.3192459765367517,-0.8505799558388503,-0.8262091742907667,0.13731170740658016,0.685007342061412,0.41565193840735204,0.44619941176584543,-0.609006605111722,-0.6441149505052015,0.048860222910342976,0.4359341964092338,0.858164692726469,0.7220120710145135,0.3238081397642969,-0.6327063795553627,-0.33342728290139584,0.8005655428625363,-0.8171648602440031,0.5048837590430723,-0.2210230217518746,-0.10965813634544584,-0.480972795291333,-0.7375203057313343,0.9264788666061096,0.31629200479159225,-0.03921150988889472,0.676607642603823,0.5331501282842107,0.9779607782844293,-0.7202151313874205,-0.4115835349669521,-0.6905253351935279,0.8163811875765787,-0.6964545575843477,0.1354376913441211,0.8022125142323595,0.8834029747341008,-0.169684898765446,-0.004083544209803502,0.10885010123720473,0.9514101787004932,-0.10305322624731844,0.6006199129368642,0.46858622273061373,0.6954751220961536,-0.551014350429445,0.6624200410918324,-1.0048121185055268,0.045203043482296874,0.32722482891981336,-0.407644685937391,0.2517676547881061,0.731246084881047,-0.6992197661428179,-0.019715881957179125,-0.5369093395917781,-0.8404562255819925,0.7886388177629542,0.7933794015276683,-0.42537307872945007,0.7388301034338025,-0.44238242049551446,-0.9766999582317752,-0.4309818731218751,0.848920037532094,-0.6234078166299875,-0.9499075003080579,-0.10674323832554311,-0.008943506866193347,0.8771552664144049,-0.015202510308108106,-0.1592014169645914,-0.08499097658658097,0.5495458305621184,-0.6081020037296057,-0.6372044882467018,0.06156528961137025,-0.804912906740871,-0.8257587351104547,0.3994507962195809,-0.6765441196596336,-0.6227806775809008,-0.5622528049704894,-0.4305826053564757,0.9160194861105294,-0.44904889740934967,-0.8616031386438101,0.4143498964711725,-0.5571513430150181,-0.4969700913580133,-0.9056828028686463,0.3026065844027457,-0.01777172769723334,-0.45694833087462716,-0.6717841556784407,-0.4465721958427533,-0.9121602664019369,-0.35270925453179164,0.29713586565379,0.17226734937610025,0.18668018106996995,-0.02745064208606795,-0.8583060217272187,0.7600747475325624,0.31985918912813593,0.39476268223486577,0.05090963352016865,-0.36328480600710233,0.11064890484690451,0.7535011213220528,0.3746903423099075,-0.01241860509494438,-0.26958720536804376,-0.8566042768103308,0.782614888435113,0.9416629082859387,-0.4284288019223286,-0.724466091419472,0.5847806078685953,-0.722366465732261,0.02065622269583911,0.5452256336215611,-0.8273181236258531,-0.9292734757028267,-0.4899145241150539,-0.25902572663145307,0.38312913703511303,-0.48418558650673993,-0.32770497489179895,-0.7136896793638706,0.8542001755329585,-0.4356175214693969,-1.194661958299855,0.6677151720078502,-0.13888601962267116,-0.29117538749041794,-0.12451868465003442,-0.21987537127317264,-0.05319325640644459,-0.23181247507274014,-0.5331605796398543,-0.418337435961862,-0.028778194461923777,0.9326759837763396,0.8353656491604255,-0.6931975782584194,-0.4196764587992039,0.5931691703013262,0.6998985231170811,0.6586004932704546,-0.5914312788034044,0.042335729073509645,0.5509265607977983,-0.3788157791898513,-0.8956353826542595,-0.45902670212886676,0.09630547996673974,-0.7416994796557478,0.1079642601528907,-0.0758554713563176,-0.8405909768541984,0.6625629541360684,-0.181604550182321,-0.5075756490044548,-0.43331481619270235,-0.7920889216316956,-0.3030004666086661,-0.13106591517793287,-0.022394643689824214,-0.18131735490726852,-0.6401943997841667,-0.6595271234138198,0.37616997805323704,0.0966847609740813,-0.6822803728966829,-0.14879593095611443,-0.5380149810238024,-0.39425574224663795,-0.07007683637021,-0.8236240749608297,0.4358341319252045,-0.5505706958930067,0.6041134771943968,0.04368300165305065,-0.7096532582273863,0.6780819457664286,0.7909321323055953,-0.8884120460341582,-0.6490937418161667,-0.07125411612520312,-0.15749180119339304,-0.802799763732613,-0.811726851395128,-0.6432775371783138,-0.8388859762409276,-0.41808520607333,-0.7228465769658784,0.38620120976983324,-0.5843705595990261,0.16551222340566318,-0.37295013752021,0.9246885227943684,-0.8203711787887031,0.44917073490762505,0.8221841425270691,0.949389966667221,0.9939117994651971,-0.17723162159136013,0.23918089071642737,0.5222692096835002,-0.9375245137574388,-0.009426059462621974,-0.523311035882948,-0.3629965068944927,-0.2457607434562061,-0.5402709119022204,0.11283555501586924,0.20492720746499085,-0.22128965819067478,-0.5687977774057392,0.8537037332277346,-0.5132735819076465,-0.9548666919730546,0.6575989434420242,-0.8773777560722671,-0.4077093851160414,0.14521558633847823,-0.9433662563080247,0.2949173287878246,0.27472388137024395,0.7848585218854709,-0.14089148404267382,0.22898961109456217,0.6143443765086034,0.10324476579046604,0.0019529737671860191,-0.34302678633948736,0.23999194418125339,0.7086692917362678,-0.053888347672226354,0.6163149975511188,0.8266889565974367,-0.7527808513548794,-0.597939559476692,0.678463916176903,0.48603671506588647,-0.43728972353582046,-0.7110896080070032,0.8650899965277052,-0.8898171234081568,0.13102321587209018,-0.3818160572610168,0.48501480716780476,0.07603706742860653,-0.06761055464856175,-0.0914533931705619,0.3150539485665531,0.7494986169957045,-0.7452200859327398,0.8047354344074862,-0.12511154339958996,-0.33240190740167663,-0.4237347423064479,-0.6616005680963577,-0.5182994981006088,0.5371533144337726,-0.39886058750095493,-0.08501278036478592,-0.7336205994381522,-0.949051249203691,0.10327226024974488,-0.011476322934545242,-0.7398804848367092,0.05018289119668509,-0.8639906277451972,-0.6713079667641149,0.8678806616111351,-0.5617115934106313,-0.6221836322793705,0.8688925503680669,-0.17684313797430956,0.8984452147066653,-0.07768457050530199,0.24919627009794884,-0.6054813958357115,0.6107680030124969,-0.3772372061717999,0.8949792170029649,0.5395667308893035,-0.07890813744469738,-0.2123135088183738,-0.13491881776701267,0.3796949377127294,-0.5514164110330149,-0.6989334423148371,0.4129523736597547,-0.22169898911024516,-0.15575441598680959,-1.0410438773647324,-1.0061188853209442,0.06837174873991213,-0.6035819795170478,-0.22135506267140148,0.3080649787869353,0.08362243068974548,-0.7863332975871,0.5305971380675046,-0.26155194668063037,0.014757510002062142,-0.7823510578119914,0.0527336327662166,-0.7426060539237861,0.23979575644524753,-0.3434932583442045,0.30830425234298553,-0.66037538841981,-0.7668148935061458,0.31059622712871193,-0.10414777854972192,0.14642076174774638,-0.45228117632031944,0.01770531779754239,0.8616804163187285,-0.2682861045828437,-0.41294551693955045,-0.4343041838027705,-0.5692364425240733,-0.2548618751250918,-0.00019941374495114128,-0.1587825138355965,0.7376088846245087,0.3738735025678394,0.2524003178011223,0.32515021706479613,-0.051437125277621884,0.8304183329626187,-0.842577866737252,-0.6149956014921651,-0.9229149750383073,0.4582971735525496,-0.6224384898678836,-0.8884068860962144,-0.8499671731200029,0.19700608751687398,0.973388035897857,-0.3070285830081704,0.9831549416936445,-0.5850204243280945,0.7354123638223401,-0.19625246123595871,-0.31000464479750867,0.2132352173821107,-0.8675497726449275,0.11205843735346524,0.2590148916445766,-0.18007019196528856,0.49039134860523176,-0.07384523387957109,0.8411597569449659,0.7452294062174414,-0.7752188841322897,0.40785951146572,0.30237395570722253,0.7216660743280894,-0.6341746518563383,0.9240117470231565,-0.2065233085582932,0.8398326466650279,-0.7102460266877757,0.811240762279893,-0.5666516331243074,-0.3529368142868057,0.920124541576649,-0.29133252604960314,0.19684885260686236,0.7495454689000611,-0.26868079384385984,-0.08487352620599192,0.011153910436619627,-0.14136338336105328,0.6901380256395034,0.6365818198815147,-0.7113714422724526,-0.534376787041924,-0.7484637642134864,0.8972700351643812,-0.7326387397155512,0.6917405054600779,-0.17902107594223954,0.8240685944301314,-0.6412971027678352,0.9556897242173042,-0.45141422425291283,-0.23304736888522307,0.8322099705454029,-0.2805939084731443,-0.4508727529137052,-0.42528156275296713,-0.07338961651169318,0.3980303031301875,-0.7420504871815818,0.12126031585837585,0.983664473351838,-0.10730187534663785,0.012124193919651059,0.9863817763765753,0.9405164455585028,0.3312126523534032,0.9449744583645336,0.26334697637987436,0.5345456392315847,0.4617613520592797,-0.0033969563793600473,0.9454213673395865,-0.06192756666084866,-0.47476019384888996,-0.8387905923957492,-0.7540553075824992,-0.7446777267162871,-0.46871937531968516,-0.7068801561173671,-0.7018136575582112,0.4564230682563318,0.5718032116945376,0.15342570088467364,0.33335350886420034,-0.2503184138722132,-0.06652529027813503,-0.3323658069871567,-0.732598038585674,0.13311509876115413,0.3492270274576601,0.4462570108957805,-0.046212455591636434,0.4710007329072516,-0.5268008622214297,-0.3476401979487678,0.8014705946251333,0.3817268297804526,0.38247648376171106,0.3094639791349411,0.9159281164345106,0.440829510527064,0.9300087392695868,0.8629629489691968,-0.11554822150877339,0.11567994852464017,-0.21523600771215734,-0.3397312093875007,-0.4988165720949067,-0.6993830838994132,-0.503959474118346,0.9917880508850664,-0.6007347939365144,-0.5590331169526828,-0.8720476313694461,0.8118677115967219,-0.7708001216569667,-0.014615115636102755,0.3776212345984466,0.9356444001418543,0.21179197777212558,0.19380517997257116,0.18909141969360344,-0.07545873526098432,1.118777532907802,0.3859970329461011,0.8324127796514768,0.8925737132621001,-0.07135420273573559,-0.5619735532128902,-0.5142820291499582,1.0540641843797949,-0.7702878464521545,0.9863606691207178,-0.22432718822333195,0.7125988100251475,0.6818266465240603,0.8016609713068412,0.6198313321562745,0.6143373326309338,0.04560963700016174,0.06867806595215709,0.659935034833361,0.168154198197199,0.10275144546230469,-0.9354517215061956,-0.3779614260317794,-0.6030739475339053,-0.5294096380258316,-0.6732368166925153,0.8310557233360247,-0.5459205832231138,-0.06687924697325565,1.0504963923554023,-0.28489676409142906,-0.3307935152228689,0.29276477799633455,-0.7912923689402259,0.44957472715763797,0.8430727317200132,0.910094462075223,0.1971333748712214,0.6904395666145972,0.5690145639719161,-0.331455020372073,-0.9371370535016597,-0.7560784203470323,-0.6282786469953269,-0.2394629721146757,0.495715406195522,0.48797815426658997,-0.6722850523295381,0.9106649411847937,0.5074594723750824,-0.6579506936165674,-0.4580780538777171,-0.3412870467486278,-0.5652340052915478,-0.12091137400590259,0.8862359224232377,0.19161634725096466,0.1511402109894255,-0.5949868599198928,0.6367123352125386,0.006122798183635978,-0.7806975039872904,-0.7235041244940613,-0.5402460572356926,-0.33373317259143354,-0.15592886148085405,0.9892718828382738,-0.7838219037725379,0.276126303241573,0.03792256108459976,0.19692549672955573,-0.1992165951758874,-0.9007056151787505,0.37094189661110755,0.26258952588120255,-0.34549419407338755,0.045425456679712865,0.027462373892615327,0.2213926769074725,0.6255375174366549,0.33275446724635477,0.5248009121301377,-0.6611744120703763,0.9593366281477503,-0.10753387951850496,0.7857496764880799,0.6514384778262216,-0.6944778754902022,-0.014390167063069803,-0.34785353944873043,0.6600838822805138,-0.32723148911780947,-0.4338317427752781,0.6932533621924962,-0.5980102817764817,-0.4129854673909893,-0.5978265943529675,0.6452465165731458,0.8210777037587276,0.584866998151018,-0.008217877209018232,0.08783574940247774,0.3306744915142359,-0.2900446967228474,-0.2375877264895125,-0.4815297644469798,0.42969286335291457,-0.16342086202612374,-0.5589131960985003,-0.6330278388921604,-0.4059204102079852,-0.6079800871802159,-0.5628406537103926,-0.8811178957054635,-0.5492870551984216,-0.6192410157262027,-0.3429813300267016,0.2849466177611308,0.02564667659433708,0.6794778257680991,-0.33208190636373147,0.3304473578499451,-0.5536910376997594,0.5413298506909051,-0.9200253051599022,-0.5840674018135901,0.0561418053225595,0.5076642246388908,-0.9558250536289317,0.07870761306790142,0.6020476582559375,0.9808266114782791,-0.16092648058955808,0.42982934140795315,-0.5333861283483938,-0.9876653983503623,-0.37681946564118285,-0.9730083628923561,-0.17977004094616422,-0.021336602256364193,0.8599902484655348,0.10441370804343746,0.1952513966119536,0.9680720832425906,-0.8376435652161462,-0.7022261952578486,0.4951754928270892,-0.7566158282271336,0.2039025213692575,0.602519827654189,-1.025598184762635,-0.46323390298117634,-0.23353585027279736,-0.7445250748106671,-0.5474883736402548,0.09693169727810577,0.49492994420639236,-0.5193065195713851,0.06439381328843319,-0.9666133726950743,-0.9123425207616513,0.1760123422519065,0.4195965001228074,-0.580898730737984,-0.08422183824221001,0.6325193066113249,0.8560131356662197,0.0459236230958906,0.07610874908483656,-0.9942236272608215,-0.17162612243617248,0.2980700730009253,-0.4624354735715596,0.6433595867213062,-0.408030808486232,-0.8603044422490778,0.3200848891473451,-0.8172052745317515,-0.5947143929499279,0.40894946647018054,0.7601642600731833,0.8455391023016916,-0.7095284542745404,-0.46600697410112374,-0.24673094681122132,0.1594396563861391,0.11887632744462273,-0.711799437961478,-0.2961084296303231,0.9407450792190815,0.6119579171342836,-0.09986609268082015,0.5467405946059999,0.624648465399217,-0.07144499426202167,-0.5758920854165723,-0.7038494382750304,-0.24027024374816847,-0.9640875135946774,0.3862116321207996,-0.9155003285790527,0.49681188554752886,-0.5304479494925219,0.8109659681812242,-0.3367358564689063,0.8598587991832038,0.681201980198759,-0.8671073268720246,0.34538288487277524,-0.3285255310156421,0.7928635931109737,0.4559301588202443,0.39324634528654734,-0.8211416150006858,-0.3179977417533357,0.2272079234275559,0.1784656751655243,0.5879088059362084,-0.40491904596670675,0.6061850409081354,-0.6524205741699322,0.5463596594759234,-0.624932654305662,-0.8369219533655827,-0.11865540977282434,-0.552551391388266,0.12005473613535897,0.025251115391709104,0.0209642471279829,0.48551405951879695,0.6955809771707757,-0.5047550543606775,0.5079604770078963,-0.0760988164001419,-0.11270395687971821,-0.20504157821635088,0.557625908994217,0.8463138628387216,-0.8515999246510617,0.126192875163255,0.4556842339576894,0.8736557099180531,-0.8223188178546839,-0.4955483859592482,0.790637357852072,0.03083934809102199,-0.3452885258155814,0.03773803428413197,-0.3041871931617741,0.17771893103285835,0.7250859502956426,0.913175848678245,-0.21898492275028666,0.26193222387202475,0.5211562840712392,0.3576727563664182,-0.8669582893136414,-0.3244602188248071,-0.07442917024880175,-0.7210139252569046,0.9197608286148936,-0.7720257097639289,0.2744067808106753,0.8819701732498271,-0.4200244402496803,0.035337221402051935,-0.6598885034087122,0.7708645197914915,
0.1911587510975108,0.22530901522637237,0.39350797370890755,-0.09668981104788843,0.7889808461126393,0.18002196818491467,-0.6226129697281568,-0.7311886134578729,0.11963587862942537,-0.888057707466716,-0.8301217573180513,-0.6114862147104299,0.6327213332553392,0.5738134608694954,0.14384699951064944,-0.7186779804304952,-0.02044119881705834,-0.4585616243432314,-0.051014786041280596,-0.23405112554165056,0.8809056852519681,0.725890284508338,-0.5218094119156906,0.8023517642951163,-0.979817273414227,-0.7132016359184785,-0.4062369207405736,0.30716384788130124,-0.6198479783463102,-0.6156467119184001,-0.9705638643302872,-0.7286867515124273,0.3501481076107218,0.5873085372361129,-0.15872691367995406,0.06708426648285015,0.5183935442038436,0.4849864043995489,-0.3876685435633612,0.6720173817376718,0.9027911529711458,-0.7881491301455438,-0.8490877638100998,0.35384654243725555,0.7586449963601385,-0.5702823118811767,-0.09698646832121512,0.7445107089181509,0.3640436295668536,-0.8031252689347284,-0.5536122224134907,0.12279347677249254,-0.49897185939748945,-0.5941108551378738,-0.261575053525299,-0.5244036935469947,0.009443024476079032,-0.5408510833511393,0.13572340781872816,-0.07916382380392761,-0.21718401668367715,-0.3972619201672194,-0.16638850637885372,0.6992166552027239,-0.45894357963248966,0.26342689087704824,0.7762501546701607,-0.3041881975714028,0.00621494686558342,-0.9569232270822363,0.3239528132445424,0.2137686196917778,0.1665391326763863,0.18459792316600407,0.19793464290365806,-0.2685418930428703,0.9374822833325465,-0.1938059203158251,-0.13096869867362337,0.890510319066415,-0.2931241719182185,0.6502889753937706,0.9968939695317081,0.888738971937074,-0.3973615704981084,-0.5912516538907038,-0.14443848705970597,0.9729074757609546,0.4408819080636768,-0.662679790551074,0.3069111942465461,-0.2656558530359545,0.7651603643957037,0.6058643747873211,-0.6061942163033242,-0.5572632122906712,-0.2717691159821664,-1.0567705762067479,-0.1384065135905593,-0.41565260230564904,-0.47714384453229447,0.34985499315287355,0.011161561938388033,0.31074056437274983,-0.9843455216377534,0.9248440840568838,0.6263680083605271,-0.4026637515843361,-0.3464216027107142,-0.6673452055051561,0.4160887909027544,0.129228873598761,-0.9388121984753861,-0.35826017766796325,0.07799231610667978,0.7327349558638003,0.9472187353883592,0.4788519482053859,0.28720651944687536,0.7146207262816492,-0.03246731054475211,0.058338368116266415,-0.20476901018546062,-0.5932706239213427,0.3012961579438793,0.13700456809209263,-0.5953760748209229,-0.022066624433572213,-0.5250390520350093,-1.007327488221054,0.1529576663299878,-0.48834122732975527,-0.9909921064248943,-0.3327323380251718,0.8074893673951534,0.9069890287855202,-0.4164650580966731,0.4793143381028209,0.7029301434522117,-0.13374133630200813,0.0006986377378623843,0.03652973355706246,-0.6684046418649754,0.09087261285822468,0.8175258612564744,-0.37226162068886093,-0.4483499255146901,-0.2681956692878126,0.3339050948301001,-0.05785426533278561,-0.5688822745582534,0.7408931447942969,-0.431956601043345,-1.033150173399004,-0.49864215672357004,-0.911315063886876,0.3479532053143199,-0.39118136092426764,-0.48437819548281624,0.7793036623369728,0.3771442485144758,-0.6518151781680196,-0.5463719213426071,0.8070411242169382,-0.014362104581266194,0.9204178252928898,-0.7190347444470742,-0.088181687268156,0.3552137800754982,0.5282845076380249,-0.8601554726512979,-0.5125467792395988,-0.23725680875895105,-0.741547323212294,0.3006776925616974,0.887984347999232,-0.459033340360584,0.7937169776656104,-0.8730720665323728,0.3613148808156728,-0.542314838478226,-0.6937729699088193,0.7067397428485707,0.4005415840518377,-0.3811341245827353,0.033414355769840164,-0.5550243366962836,0.24058816329206623,0.743074848133665,-0.31544905653078953,0.11938017215944889,0.38643141068770676,0.2307399221742831,0.9022784910513348,-0.5271264357444931,0.09009692153351034,0.9560377908264495,0.42668109947773947,-0.6455369300844702,-0.277757869241992,0.7933767546785482,0.3794128725044288,-0.7659052297822136,0.05935410526868498,0.568150720311833,0.32657140710310917,-0.34034307445457973,-0.9670679038448236,0.5393817754245712,0.2649153009411714,-0.3899506783506673,-0.7237813618691203,-0.6585061349816222,-0.46308277257580843,0.4575130170272806,-0.2816795136661027,-0.41555911632148174,-0.6956722937518742,0.11413651834394827,0.07764566284497974,-0.9110840526069556,0.08598771166306796,0.5242892688181,0.5825753851379718,-0.009015081621753795,0.5005991782198216,-0.7085671100700961,0.8551451803126522,-0.9398221427253064,-0.057740755622548434,-0.053740697545648836,-0.7912286974048992,-0.10859220839582137,0.7978003506872147,0.38182245676247634,-0.7110955104182975,0.7348970436035748,-0.02094282834905137,-0.5360664280301798,0.6270293353173679,-0.8441121919881407,-0.1644299760434612,0.10005922633494078,-0.2387648020661847,0.17472647382809586,0.37195404850464486,-0.8581773905149797,0.19347392778748224,0.18375393000552234,-0.7169573153982564,0.4022721054804675,-0.8749489928907108,-0.06721585115548745,0.20400477162089325,-0.645525978552399,0.1026960232348535,0.8667961460149165,0.09776335907566036,-0.4640967932500118,-0.5448182123837959,0.5157542234268283,0.32614741502008704,0.11850270850398821,0.3239462524494709,0.47380360155553564,0.2734300617850011,-0.12449101358057812,0.28688463519893437,-0.33325388533712547,-0.2708082979925159,0.050153556141435955,-0.21546529797539668,0.052528055621978105,-0.4220096584210444,0.595538004465594,-0.9183057065400462,0.9072107969556932,0.12559287458524515,0.5830660570715953,0.9564131003783329,0.34059482708107414,0.022113706764287366,0.3976318309280047,0.293077089727904,0.2363698976332793,-0.32861460471159,-0.42308257097344043,-0.722958836291597,-0.4584592167262079,0.9441575039248549,0.8989302672598275,0.7024143487307435,0.5109257143777182,-0.03743002732389533,-0.015533761119530186,0.9078400810364715,0.385796544139438,0.4830441230526358,0.4676452218812852,0.10168123248276793,-0.20705039651589552,0.381104658038254,0.07841170892894946,0.33523413078292824,0.32430176874353517,-0.9187046324595005,0.7173663129577993,-0.8782801221620808,-0.7923232241623488,0.006458851065965998,0.1532526462976742,0.7137083468502383,0.9925543543733775,-0.19814793213994047,-0.1422259724288675,-0.8504803938374359,0.4574645166107247,0.5128139254160379,0.22480777193909005,0.7111052873380765,0.714966929440976,-0.48866159890484545,-0.15126409779098612,1.0529981794314025,-0.4371201875196666,0.023763589127971947,-0.8338686212200132,0.5124947649778591,-0.8601380586525714,0.3192952884050179,-0.620002696739543,-0.6707403018904851,0.4405043137436667,-0.16143703850071636,-0.32214340308634987,0.15303204253215935,-0.39490867710557676,-0.5926654140522449,0.8237841405701138,0.7991974074375356,0.07623521329823243,0.7677110776470928,0.402890837568358,0.9845848360550497,-0.37029415785390424,0.7677829814761261,-0.9010185055697971,0.7461961302800141,0.4111762538569774,-1.066514208780734,-0.08225059688985754,-0.11469082404546058,-0.613269807334963,0.27799775868117443,-0.25969025547738284,0.5809353371638118,-0.908226837022319,-0.09300726095341175,0.2744399835129463,-0.072368860991641,-0.8722444504510549,0.8151884190355562,-0.48430446884125106,0.6116186995877322,0.5404426593671203,0.7911675453435385,-0.4583149251080887,-0.20209198151827712,-0.0026022451889525537,-0.510681596743393,-0.18261740199579857,0.32784080480994077,-0.26884977334674204,-0.13282366787741107,0.21997825008602775,-0.8164963549803359,-0.5759740761812049,-0.09442900687797197,0.7091939145899713,0.5710497588530977,0.304289750913888,0.10577230343585182,-0.593134655557617,-1.0186953038429518,-0.2733818667527141,-0.12561963739490908,0.38940388097209266,-0.9140737245461209,-0.34696162615487525,-0.3278775749878809,0.14122403730775374,-0.5756237404053255,0.5164653269836692,-0.8916218947783348,0.3942681328811415,0.6477755434191859,1.00590876473698,-0.4655203910129948,0.8579944307106253,-0.5250677935933051,-0.8418879081771996,-0.5566042692662787,0.19161600121924557,-0.6946145338660707,-0.5251056209140706,-1.0471891199490895,-0.00918413138325051,0.581578150996663,0.7293191097387752,-0.7327058776796467,0.2334495247484665,-0.929655742199358,0.3927079094942625,0.49821051285187457,-0.7016839338868855,0.8053317188316478,0.2858927138442723,-0.5474978007866877,-0.6166791176433142,0.6613439627988869,-0.8069600350273718,-0.7674736331357352,-0.34583738747575343,-0.05724113728366875,-0.22438471381292052,0.11114563436010888,0.1723669366847161,-0.26999487298047625,0.37866675706183534,0.7076207353342708,0.5610575844543743,-0.6557984217738613,-1.1391853907927694,0.3563514562495596,-0.6175603751507156,-0.4997948888960746,0.4506740002789254,0.6218037280737521,0.5406319861784239,-0.2225553500206258,-1.0827821610823765,-0.6899821340442679,-0.6125854533731084,0.8879567420544074,0.7116154495249654,0.7519570451054928,-0.22120233378969734,0.5802230571101403,0.6587884637915267,0.30991304481990367,-0.22757301726346824,-0.6060092401227204,-0.7226037696037403,0.581509081409922,-0.8716143225430817,0.23461795686939912,-0.34831610878270186,-0.43352305430351395,0.5962727552457089,0.014793213488725834,-0.8482923846932302,-0.15762130432256236,-0.8717061713395146,0.1886802628704652,0.3344752154210525,-0.4476874911247547,0.5125065768756929,0.06213044776580414,0.09296453041477273,-0.009673738550735271,-0.9471855435769121,0.3490964081869932,0.6138665675048578,-0.48299737294378964,0.5859161213279772,-0.780628550419436,0.22618027820926456,0.5613692739165901,0.8199621801371937,0.8527976305647054,-0.5956111950836064,0.052392412266868325,-0.20317564678294323,0.5173065991286511,0.03553103341960239,-0.49237103471740734,0.00958174288632335,-1.076965339254637,0.49172457373420225,-0.9320398618500881,0.6914614395314919,-0.06762844667350733,-0.8827270492609127,0.8889063164178842,-0.711272397513669,0.3070348016699804,-0.31016140049734886,-1.0319669791021129,0.6271241269754795,-0.9818882786095873,0.7863322673885376,0.664120179711192,-0.8564884745108631,0.9706137677458468,0.2404411526500596,-0.288105337327903,0.5003174103683186,0.7518512732312481,0.3232562983538581,-0.16200616462549552,-0.4591270490476944,-0.7431047285669591,0.5797353492455364,0.1515850040167011,0.23398145524087843,-0.8686057168645296,-1.0149790658320323,0.20984214809436025,0.019720996620787443,-0.3301530864635165,-0.813915559191159,-0.6261508381195369,0.6909811406421427,0.8502696513472892,-0.10966716516904457,-0.44835546071157006,0.020582647594477976,0.02798122958105729,0.12555143260067997,0.6855191093138062,0.9034882263841962,0.38535535240906943,-0.8910674826303633,-0.9124497799391365,0.9700521655150456,0.11961299237910761,-0.5308814667555956,-0.5456731038328266,1.0560386441852934,0.023359993427448583,0.08926202730430571,0.20015164379474581,-0.48775743196085597,0.4743086020719259,-0.5849955484361623,0.21191297563141903,-0.5816288099363035,0.22848731709203862,0.7850052184183895,0.867050748356791,0.013707632724609536,-0.6695804024273465,-1.0776697973597078,-0.1411741301100994,-0.6512579550289086,0.7925487261424451,-0.8315166530802304,0.8205949740350419,-0.5908239800078837,0.30375944025040186,0.7382022478407984,0.47121921257789223,0.16314472793366908,0.33979455370902856,0.6117060889001047,0.9898205940728463,0.4204145409150953,-0.06359076487169708,0.4256543396950246,0.9578453196309169,0.049502924923755416,-0.24784339152935517,0.1260749972773084,-1.0287934551318108,0.537438015101131,0.2788199286805665,-0.6289045586569337,-0.2960284302535177,0.3890179508741757,-0.17978835845831248,-0.6145348728557933,-0.4998956557199301,0.02750659622670129,-0.6097337895936358,0.56240671973313,-0.028759756791693857,0.9012660088467204,0.15467084740478815,0.2203019645788198,-0.9232303823274899,0.12694220885583474,0.588219338734737,-0.843971253496195,-0.4918792391197418,-0.3743112805726393,-0.2998036521180091,0.4329443399361187,0.056839238313251814,0.909344887776134,-0.2781569950448848,-0.2727555883309931,0.7979453693376493,0.5090181751430348,-0.4336073081126534,-0.4449264109617307,-0.3972634695985745,-0.2411544122046447,-0.9488643952216302,-0.6363605447055113,-0.0795085723835279,0.1289977798804307,0.7390573522795361,0.6363997586856249,0.28034734456456406,0.47394624952071357,0.18828852539474794,0.01002918737661207,0.9592364400421962,-0.5616833765846472,-0.07433983237242225,0.19867978849431536,-0.5199091017588537,0.10203051426877148,0.8553518851328203,0.7918111940501957,0.6697074678237923,-0.11075220186678496,-0.8800783522495016,-0.738102257873863,0.39751436083742875,-0.12158561688309014,-0.5140258839727385,0.794513221996503,0.3937014397186576,0.0810039055540662,-0.13627452570471596,-0.47825809047930484,0.8998618830234699,0.6732328653683874,0.28198801893273057,0.11277096915925822,-0.8150794167696462,-0.6933371478058846,-0.09216687550962477,0.670161044820986,-0.6950141992371561,0.693638952007446,-0.6701714908107836,-0.43336111592553456,0.9286127891611357,-0.8140861215494055,-0.7636464950018004,-0.32888396310263823,-0.5308011961266277,0.5927917625564704,0.022890796130324142,-0.3494780754136787,0.7060447392546533,-0.33238071259813695,0.23580877761365365,-0.0012635222071498032,-0.11035852139490762,0.48950143067225776,0.8142782464732046,0.817829068092254,-0.3984091065874453,-0.9494809512166585,0.3468697247653454,0.8801983923244989,0.38457927207387255,0.057815889522180565,0.48372817334530194,0.6401393413013234,0.5199795121287518,-0.8969135317055632,-0.060143834880441505,-0.822663705438107,0.21618682515520568,-0.15845944511771246,1.0101136707871288,-0.26353509427697797,-0.9425568394828028,0.8224057241066128,-0.45250115891334686,-0.0739269757662575,-0.970458358582054,-0.8419747782033555,-0.5751348642556972,-0.8764428682035393,0.5500662493081447,0.5842977554617523,-0.9439919952855386,0.0060204846660354685,0.7983717326113147,-0.7563879135292629,-0.706740711020241,-0.7272073382272667,0.37982864432655916,0.655566628513265,-0.9066485684801571,0.15002760008611649,0.5629042339802228,0.23136345370964517,-0.47336870116765084,0.8120584939707667,-0.6032952788422348,-0.9894032351701101,-0.8619191763720934,1.021580250461342,-0.19854455530363768,-0.7611766274070398,-0.4057050125381363,0.2671412969097354,-0.27095351941833784,0.9283130281282305,0.5349640540218479,-0.6175075689775922,-0.6838700696177851,0.1816127168570854,0.16016590442262832,-0.7302360729322579,-0.15955349157550644,0.6454919627177523,-0.29800284891593104,-0.010849252175479449,0.5183235542299762,-0.11631835848683067,0.24932332324420908,-0.6178702339928228,-0.7958264846951248,-0.034345482941681604,-0.4766183214337374,0.05458655887405084,0.07585844683288316,0.7445889918289623,-0.9077599640381063,-0.6179721163139839,-0.29168476904323914,-0.5090290006959007,0.7761082315820722,0.4430527202144269,-0.42422453109662706,-0.898541628215407,0.46669390440387504,0.02321233627073344,0.6761429894927835,-0.20332140086279218,0.8022478932288347,-0.7738497698416458,0.476289835150422,0.8476109904638598,0.9173234696451184,0.9143232859245977,-0.8492999197564784,0.9817354448062905,-0.8035703112311363,-0.2842465142557089,-0.3133335836060811,0.8125601724207128,0.9509016726740027,0.6785475405371486,0.14028392722198108,-0.7973189513802759,0.45033060804019304,-0.891003834273958,0.5811840662301044,0.013897273801654928,0.578436541763928,0.20848652102380055,-0.44101116862933853,0.21508057389392393,0.36146520587556763,-0.08757041196690533,-0.7323420017427381,0.7836319920780426,0.4142618356055875,0.39847517952022377,0.21390392294260197,-0.8561775312978973,0.8178957182282953,0.5318838690507884,-0.41612365749181074,0.05128929012439787,-0.6655437617756397,
0.7565152824632055,-0.00542031429989942,0.41796753292108546,-0.2593357339046718,-0.09282107154210428,-0.36939926503418863,-0.23426153947171935,-0.6698388652965952,0.775387716309065,-0.028704886630094295,-0.36117621833473446,0.002835890688670961,0.7767407309669492,0.8368179394184816,0.1522984235283349,-0.9185167038769306,-0.8393371999503361,-0.1473840296339558,-0.567606539277685,-0.5183461055755844,-0.11231943230735736,0.5865798240150788,-0.21663698608341075,-0.8494908033382991,0.08346718619435589,0.0010622064328109637,0.7077541258005351,0.6963712610283597,0.5918733164015402,0.028446684250175824,0.014718961239096773,-0.5716460952228894,0.9291729143311163,0.3588675738742242,-0.8895783807348359,0.43804590717488057,0.6816961292036119,-0.32827236389123216,-0.7074255774966869,-0.5925992922811121,0.13955784960240142,0.3467846667029183,0.1849829205905788,-0.7109830079166858,-0.31001149723516097,0.35039668166907756,-0.13446963576596663,0.08016771775048566,-0.7782654577460733,0.6343948559153089,0.8876522961737581,0.7897366681813731,-0.8787683700200963,0.7021475156856336,-0.2954305002994575,-0.0836175571203841,0.28876556471118175,-0.2099622945015156,0.22948091102370438,0.12057761146169765,-0.9626265050894671,-0.5544609369401596,-0.6292035495297852,0.9675368375881741,0.5405084014149097,0.6847130074477135,0.8022202676722132,0.5241410447765841,0.08482453731764343,0.0877535460046512,-0.0435105119466154,0.6529822702589485,-0.4643575130236881,0.9374740287228553,0.37792420335803806,-0.8521852111400162,-0.7646330189761065,0.4168969669872503,-0.3943300368180613,-0.3301819895929395,-0.6707598153163272,0.2511212484179264,0.7345300871602671,-0.635382006471993,-0.5531442714423276,-0.9113118003603704,-0.26023924937058895,-0.3796840671282977,0.4180470053167198,0.1970218949275795,-0.43357009346197417,-0.16961748183703418,0.24709912418396485,-0.09124380516178708,0.748878602619792,-0.8083843628144314,0.12651295785205421,0.7478083330050408,0.41552051527611056,0.46987380104484455,-0.4720055239544575,0.23971644995273644,0.2883644431535105,0.7703676963296691,0.4835958431705461,0.8751371132519699,0.31408009772573514,-0.43824739636747856,-0.32910125388621725,0.67492009251568,-0.3321835310755987,0.8238996842707165,-0.6525594266834542,-0.4032950598075813,-0.8668960047455756,-0.6536922057771262,0.08273840899232798,-0.7390492248849692,-0.33861154434364127,-0.6304151498223882,-0.36420452592643093,0.3886559111846651,0.522673543726692,0.41855466592128304,0.8308837358758582,0.28798901314477143,-0.033973567439777225,-0.43431276681293585,-0.9096872584124895,-0.9709838601249371,-0.36485163184103786,-0.2252119864560248,-0.3646321372436879,-0.3165855570307584,0.9225342119092298,-0.9366960472537239,0.8811790515744524,0.2737684827992384,0.5222477917430921,0.2578408007602404,-0.8998617640154447,-0.0939101644871565,-0.6631340757240849,0.004397866460409849,-0.7469446989305584,0.807814332009098,0.659893673136819,0.34544442676608617,-0.9362793322516133,0.11802025375796785,0.3248102754912112,-0.48017945332519985,0.7471850232330799,-0.08124960046337527,-0.12371312086320002,0.11985581238096302,0.31606415610909916,-0.11860557146298727,-0.9796763908654171,0.7235623065861558,0.08970607677318732,-0.18347018514593633,0.3508191464169458,-0.20900902668610896,0.5128891776419009,0.2652407020379579,-0.9684767844604951,0.792128355436132,0.014679678384093453,0.9818871544375627,0.07456195532438947,0.4754083220523415,-0.3706619642457003,-0.5684948963995617,0.26574199784974767,-0.23864853703795913,-0.5430214887936966,-0.7706471946591475,0.270121338742011,-0.3990132210562986,-0.937574952877297,0.89653689118231,0.03564638813782047,-0.23433319026537539,-0.6024608474414296,0.5783826399455976,-0.9862878805837898,-0.9998786955186117,-0.6730989774554763,-0.9204264258566709,-0.35868108779221786,-0.4200199177281434,-0.9870101762229004,0.7709358920084237,0.5451046998813689,0.164670156643288,0.11604426336713747,-0.05881847384011696,0.41835680547810883,0.5824030660003781,-0.3145848028653544,0.5471001982691663,0.085200393452554,0.47305593262922535,-0.5522213991608085,-0.6329391706319859,0.7886510626220353,0.9755415420925246,-0.6021398767319789,-0.8861747190238379,-0.4666433222467474,0.30124952789483794,-0.3430559629427609,-0.3747898644881457,-0.3139577517225829,-0.22616061501778897,-0.41950314482805373,-0.5849138809326921,0.5208871071319782,-0.708132254993758,0.6027016194176114,-0.47237931578106074,-0.29120487237547743,-0.06497257404240919,-0.33530898866461656,-0.23845375302637684,0.5146119254885027,-0.4341747099860729,-0.44945488856987725,-0.741933671927165,-0.2446641284896397,-0.9464065008547216,-0.42139844214551914,-0.2932174804960802,0.9893932511447858,0.7087497785739366,0.6446777929426598,0.9812402385011664,-0.6933166893568389,-0.24081304413758806,0.808356319114479,0.6461082614664653,0.789362526537827,0.013171455090590032,-0.8817225503433518,0.801956080365979,-0.9001169730716548,-0.1479852287034977,-0.904692859481685,0.2777779854412503,-0.2864456724446469,0.6665055612833941,-0.3440226540964588,0.5309866790131907,-0.0879748078708047,-0.7922000126836433,0.07035676778610656,0.037325814006287095,-1.0121024883623038,0.5951545501298116,-0.7400430888642795,0.26993562233467144,-0.1462091048603509,0.8113904675816124,-0.12507862402872072,0.6577409290135009,0.026631890403754795,0.10029759298277202,-0.5727106908621511,-0.3466905070269039,0.06865793827725766,0.6496873472950773,-0.8198462724862899,0.1140434760487081,-0.6536922810813449,0.33142009352554846,-0.1163061177507566,-0.8274418458915185,-0.1579763584050713,0.7832866679409662,0.6337543269457051,-0.7776171142880621,-0.2757628291799288,0.8324975394760468,-0.4557109662982419,0.2972225386048062,0.44395439399239844,-0.22723811145068817,0.8283664420125131,-1.0480326207146666,-1.009181992906227,-0.7650917976136962,-1.0432976374872829,-0.2901609130592428,0.08797490943526405,0.5339583468961665,0.5309206452785197,-0.584786017667816,-0.24339269303565944,-0.3107790692154108,-0.14298205644581177,-0.808343186041298,-0.8052644050963254,0.3744541277047387,-0.7578247126430868,-0.11201149660894126,-0.9520440732488715,-0.2022012425129034,-0.5770704928050399,0.3260083782008023,-0.9453252700546793,0.9396406153487196,-0.007226759956248996,0.4725600580924074,0.21849090865612125,0.7271381959498283,0.0440413111743016,-0.8326361611681714,0.012070665375784427,-0.7625047036336261,-1.0287515941273198,-0.734312453218707,-0.34566585193218985,0.6882377083159869,-0.12022718255762266,-0.014321830697556825,0.9493496379064034,0.0687225539286741,0.6950469875193616,0.6714035589077691,-0.005186779937509339,0.6146157504701403,-0.36513666654011895,0.4887423330318672,-0.409992008714241,-0.2718457199691904,-0.24901836922307963,-0.8867036537328197,-0.3742460055258374,-0.9999265560079391,-0.9058664713484164,-0.6830387640242275,-0.05545298750130479,0.5623558236030648,-0.41108103354531944,-0.450491951161015,0.3773132787470666,-0.33703084209858125,-0.21188304154505816,-0.45863888714011963,-0.5826254898929167,-0.028446481619172858,-0.7353718533058897,-0.5500429120234945,-0.2706408872456233,0.5788091222633958,-0.4234063355818063,-0.819025667126379,0.8844099183525146,0.26955359497839204,-0.05304401679319392,-0.5463762847364327,-0.38746219727342623,0.7224776790511258,-0.9653667431687099,-0.3684029122175747,0.16024802072646605,0.12511986260320107,0.4199293831913815,0.46917672489319334,0.30517486709409053,1.1215670161553106,1.004823731516086,0.36479424740231875,-0.8047647138754618,-0.7985233297593851,-0.10652388466356669,-0.8719284104655407,-0.8205010922138106,0.46620341976650465,-0.03426728522246248,-0.462919266492743,0.4093803127524303,-0.13644632875833168,0.027243665223966203,-0.5608854108439876,-0.495059039481966,-0.34874563175146017,0.9597277554043747,-0.8111188758923493,0.15336687893449139,-0.6964124209780602,-0.30380803349014496,-0.22796971136449984,0.8650219218522699,0.8692415467061911,-0.4056671041936948,-0.7013714202266368,0.42072097152187576,-0.11095030416873088,0.8142018562786754,-0.940720643529848,0.10769164968426431,0.21158919386132685,-0.5825280777209261,0.8696155325306935,-0.14177489863615897,1.1027590648863863,-0.20791708254150373,-0.19551566573667192,0.6313385253385951,-0.47552519584623715,-0.44511807991583474,-0.027522421069766465,0.4035880802455497,0.021091554113917787,-0.6233519527242628,0.3478788793842882,0.039932831622443425,-0.2252956368379817,0.6477187641278304,0.9345133223212998,-0.6947597619148547,0.5686622207749101,0.4543872513134822,-0.3839611518662608,0.8022087797022592,-0.6718458709331665,-0.056331005274340956,-0.4900479157320847,-0.8410152586054606,-0.5709313172210346,-0.5288358461615912,-0.8192753481640367,-0.23140935408890984,-0.3270190984248377,-0.24663846803014491,-0.07101437459444834,0.16882349578706332,-0.34456425080412106,-0.2628514869327323,-0.4412650645992847,0.8924146787322592,0.5500217620505139,-0.7761484632905628,-0.5015883489377144,-0.3177440940808598,0.5566282009128356,-0.8898579704319605,-0.4436579986369573,-0.24706838411264065,0.2467035689013759,0.11244864909876294,0.4201017179005159,1.0461052379257625,-0.5985725854127394,0.4791542879987044,-0.21298890867165038,0.8384690806158148,-0.5351853491034092,0.2430453713753531,-0.05469652050820132,-0.40236696050984516,0.4606995641260746,0.9243883454089976,0.7477492763937054,-0.876687640844836,0.34105477532902145,-0.16532941454411793,0.11036856436558229,-0.5905585989257133,0.20266260551855225,-0.11778896627697918,-0.601947635549888,-0.013443394893574157,0.26422226853658404,-0.7963043219472794,0.37348487230783944,0.35789334382537086,0.11355538336709903,-0.38037012052001706,0.18183437580828227,0.17174677672602787,-0.7282800643100138,0.6226056750192857,0.3274743742260801,-0.7526412162518166,-0.5238113418007238,-0.17307368456067204,0.11245185199520967,0.9049600074732493,-0.38194682960919935,0.7142416416597483,-0.36161489877698544,-0.8648998996607808,-0.8228882347820031,-0.5737280628324221,0.36596217509670276,0.7893155027245078,0.5489386654690287,-0.5221877537362034,-0.6356263160806089,-0.41242957921174384,0.5907316024077842,-0.29977284626082024,0.8097217142870163,-0.004817634792571912,0.9330609330776507,0.319681748114638,0.06254083459456745,1.0422319817154972,-0.4966699766416851,0.8573264428856957,0.6327212028719922,-0.7635222071180787,-0.44124812556339527,0.7837974455215175,-0.163421783371786,-1.0419441679542438,-0.46840976097068343,-0.6264673449581948,0.4538505430493967,-0.7779280739051944,0.030510957620035105,-0.640381620790653,0.6095708904931495,0.22848285416708977,-0.637640463217225,0.5459441852893259,-0.20683553133679103,0.8403618659783213,-0.3263407776834606,-0.7614753990022332,-0.3759259664378731,-0.1642162727236709,-0.11457079151981797,-0.8357066104308494,-0.8501690641035411,0.8157891235621146,0.21002129438924888,0.20548668493813518,0.8607362191820408,0.26168381670273094,0.1166300793825457,-0.4736746363802277,-0.6795054890235369,0.5962893162060525,0.2292240617837614,-0.5105147556869781,0.6013677514652871,-0.6238753155710892,0.13044285414156256,-0.04433049322503782,0.5202652698269058,0.8793216330540795,0.21419226989718596,-0.4637003715695172,-0.25576293894253943,0.5093678430957285,-0.012506791206299191,-0.9535330812797707,0.9314971814936817,-0.041955003546988,0.5537828713141391,0.511059194364251,0.7049213782610639,-0.6734336917210805,-0.5690558422523614,0.5185249779612391,0.1671721947088304,-0.9952534764019746,0.8300137902870095,0.14181725967327452,0.5315883394265689,0.8794051669479389,0.21537927997924244,-0.8347034279613758,-1.0698061308612117,-0.38920365854032646,0.6172258757579331,-0.11862038095537078,-0.9580403859808279,-0.21775228509937383,0.008563820550187699,-0.20766867802874217,0.9198050333075067,-0.7792584236677367,-0.2519123842920235,-0.6879586291164328,0.11873728874251199,0.297623858668133,0.0023468171723151077,0.13898494085291696,-0.4083637877883943,0.9621947189782898,0.5445690758414885,-0.20812930317609443,0.33433580680512914,0.5217512520583529,-0.06597427647433732,0.7942950729740207,-0.615151163065164,0.8783464826002342,-0.10222526822846767,-0.07411748821950138,0.2871840772230429,0.8375447318987972,-0.9144420862531331,-0.24112056822916603,0.9105713511836442,0.6321598183984771,-0.9154537560208356,0.4531307375063137,0.38418674070294073,-0.06693327333294377,0.9423194282045877,-0.936693118076078,0.821709802467119,-0.11918095759624081,-0.9687490847646927,-0.1383194145546353,-0.5198939577749991,0.049946961523971274,-0.3116043554592384,-0.36553012052500267,-0.5655424962279103,0.2871028879183919,0.49135617964340395,0.39677493739297,-0.6022546340712017,0.7633573178009575,-0.39923753841815796,-0.6627131307246713,-0.886914407637002,-0.4009503752406673,0.7008802181833018,0.8576617685485229,-0.8157750750967834,-0.3827254245429273,0.15172576955056488,-0.6206134645835873,-0.5063795235437657,-0.9264670862528429,-0.6734993191823502,-0.40892332157475475,-0.3348171819024801,-0.7630340101436153,0.3729678313411813,-0.7272154895056893,-0.061890661016675085,0.08005276811997859,0.485700109350433,-0.8845066750188069,0.024291548079405097,0.231528437987169,0.497590134508444,0.4278094598642239,0.4113176821465819,0.4622527874149014,0.08663160797955306,-0.9925004685623348,-0.30592168479515486,0.2565906835796041,-0.5479156062685304,0.7977370623277952,-0.05854519836409425,-0.13323291737897108,-0.6728015295764458,0.18384687984796502,-0.9465614709614812,0.9871380671559589,-0.12551707013711552,0.14019697586368074,-0.7437127310265026,0.2350282469176812,-0.9423278232397878,-0.7896774517687538,-0.653985922242063,0.31852437807208006,0.7678653285893353,0.055391088000834955,-0.519190285145244,-0.5041472273755104,0.954904507324957,-0.5942137144037807,-0.9987013026888144,0.058986076509921416,-0.05714719245309314,0.556186454333937,-0.09849766265033752,-0.7738362312403962,0.7023082237359632,0.3948899094655851,-0.8675528452100938,0.07199579475247088,0.5905411002464748,0.10082957099139757,-0.045535280189369615,-0.8505911861178452,-0.4254896374753921,0.7993962416247471,0.7266145226266358,-0.9718410668699411,0.7474114668254022,-0.08841784212193875,-0.9288997444275973,0.655088169152626,0.914234442448857,-0.21966892737116647,-0.9531993760027523,0.37001299641780355,0.03172914293481078,-0.7828881331847262,-0.8114963975801027,-0.25648394454226286,-0.3393325847644711,0.052908791937060454,-0.13445099008569505,0.09041538656972856,0.5848466248064672,0.2254632009055772,0.9242397155062455,-0.6138036401208604,0.9795983739449039,-0.7846676245517454,0.5989363072856944,0.604717913833823,-0.30369560660714906,-0.4424213192537918,0.980626126698557,-0.6025353351789573,-0.3178477574532128,-0.3218203544568922,0.4392622438207855,0.6778175896916345,-0.25883426696566403,-0.49873959685296076,-0.7027507859586475,-0.710081018076336,0.479220781128987,-0.3755150702707864,0.9294064878834988,0.28069439767578586,0.7790522424503525,0.2621237252908056,0.008241579914564324,-0.9385081571298902,0.07240333936459166,-0.14232907322441676,-0.8197905257113616,0.3967034047226127,0.5168305323948337,-0.9377468601804299,0.8202795434863741,0.2643880076417905,0.3013406830144987,-0.34350715436394563,-0.30161146435621644,0.45420562863494407,0.23406307124216252,-0.7360683176134408,0.3521502323359268,0.5585232305967057,0.6368521424774558,-0.8843008607252947,0.7131888160038222,0.3919762687229299,0.6625618157137162,0.6731757988799134,-0.44710009789145394,-0.5939396375083249,0.6524207369184388,0.6843506780101224,-0.5498301433275185,0.7500459403132337,-0.6609886255686873,0.8604289080264371,-0.5231957649412737,0.8775349945421982,-0.9757345008022897,-0.251257979250924,0.31493786045820293,0.41157104223269914,0.05373017698713745,
-0.6766429211370453,-0.20791150974507344,0.5407050336997437,0.21834026421957975,-0.6878781128266911,0.4428282676885613,0.4655209124480044,-0.755987720596248,-0.6106712098762703,-0.7523342763112097,-0.650837594118024,0.7967799083731402,0.6708906164072932,-0.7025241297784655,-0.29374916538669127,-0.9166072497471929,-0.34581802629578284,-0.22156342612166213,-0.6881109539494039,-0.15778879403820345,-0.23584527954403534,-0.0710170725165915,-0.0246667697333125,0.9213313299949153,-0.7608824289768057,-0.18361131815450937,0.05714060216343908,0.6482127150171244,-0.42302706234289933,0.16597590492363334,-0.11752860240147367,-0.5250552180543302,0.3206459872855001,0.3927386871955667,-0.7352490268776399,-0.9464017797295987,-0.6597586805531199,-0.3086980420736203,0.9644789525307509,-0.9774670397486023,0.79781239636238,-0.6470600898598272,-0.8941226033756199,-0.8316344482566019,0.5146236869414804,-0.6815108140553352,-0.19987205225461163,-0.1296469419469647,-0.6871858880380427,0.6428319443699179,-0.8835462276843666,-0.41710798168702024,0.6291495834882117,0.4272178131383293,0.18461698741199295,0.8313772562886943,-0.807412291250839,0.23614334118092795,-0.0652782436580217,-0.8654652253361463,0.07558134243356496,0.8519522134637629,-0.28698804869603367,-0.20497641326819216,0.500421883714782,-0.9022178573413939,-0.5629245488060923,0.6049796431050439,-0.7638455719070195,-0.07919103650314435,-0.743641343534839,-0.44911085719269567,0.8317984088091049,0.9093711339566416,-0.9162082246821922,0.38606560029925113,-0.47156971971490047,-0.34117875457118285,-0.33923657413941133,-0.8667086421800043,-0.607179858773623,-0.16832341916515015,-0.6220607858055338,-0.21882536229427085,-0.8135643513062394,-0.9585785481609166,0.2817936773243159,-0.32445536456702495,0.9430609532877361,-0.5167816001722201,0.42746802134627737,-0.41085915708221354,0.8437072252057414,0.06022235605025152,0.7415820441148113,0.413560735039551,-0.5227461741309821,-0.21133744351978695,0.6514574815268749,-0.5076263016687275,-0.500456030410714,-0.8667622363192526,0.15799298139684106,0.04496739290399877,0.15357952067680733,0.18456377782620742,0.32919715003608513,-0.7871509792212249,-0.3011226455156799,0.5252227930137094,0.2941005736225646,0.44208850441486014,-0.9872504102768096,-0.7467111125095851,-0.09374427698044197,0.3151151023076195,-0.3694819726170251,-0.039644770873381585,-0.3694084015033827,0.7814383778936349,0.9185121765968295,0.014038561944225725,0.7256971879547877,-1.0298520062166252,0.2529548167275879,-1.0251170914099217,0.37699892066644497,0.21622871801006277,-0.23637403575695878,0.8612805163766267,0.29009236473685207,0.006416715188296239,0.4328698073689097,-0.7273264871199246,0.8193941714434715,-0.3103728399801776,-0.49525153757217455,0.5395949586118232,0.6782838178563073,0.23086807876929072,-0.06372480890320453,0.9055878569858724,-0.3194323090859754,-0.33977734714461416,0.33423976950073,-0.8908522801696503,0.14353296317702657,0.9331626063533397,-0.9116900730188013,-0.14625890554768708,-0.6036294013959319,-0.3140779005165438,0.40549763787440096,-0.6250724728265896,0.1477178086292474,0.11835068274223988,-0.007662358336578157,0.636769972279996,0.20292563718311252,0.5055517780722334,-0.7615856598274092,0.6857682668158286,-0.6521871863814978,-0.549797342605665,0.3966515561453423,0.4349948093701222,-0.9903993074113235,-0.6938683244357884,0.8117356999617236,0.45771116029547954,0.2695274006095709,0.8610138337950577,0.53326393996926,-0.7123455656181918,-0.7022120134859804,-0.5185571411653418,-0.42641360725088817,-0.8065267394185996,0.09994414495934734,-0.6402172099979933,-0.40336123116852973,-0.8653587370061808,0.7332408981583424,-0.15702807406139546,0.5199243873291426,-0.4710384645003291,0.47311357573486756,0.390627909935355,-0.8541837490051053,-0.009434354265560224,-0.1909635011673102,0.741763255767225,0.04177446754404824,0.26782859770473877,-0.1313158628892171,0.6780922186167138,0.5692009875960713,0.4213507473934561,-0.24169030657228863,-0.306649728695066,-0.6657573321207855,0.12721268224918458,0.2359534892908372,-0.7283871910191636,0.4653729629969804,-0.341334041491944,-0.4913937430815696,-0.40861258057494104,0.5032259176191745,0.9055298183680083,-0.06559068248707219,0.7841040265850098,0.49640879626487244,-0.37403849600777395,0.7138240558154374,0.41682250742842014,-0.19897605464736995,-0.20891036751200043,-0.7540464730909076,0.8951936256854263,-0.17067304046394388,0.6003614441698863,-0.2059437228336133,0.7774038813167439,0.712994451730107,-0.07804404195680115,-0.7073687120583498,-0.9877922911162547,-0.7235681407259458,0.9171741904277912,0.11788369398448588,0.442085877117508,-0.5387625405612018,-0.19676760208215338,0.223831310295813,0.8122809044714139,-0.5132710915283233,0.46566099963595803,0.7672514208276414,0.01478232540305594,0.3526090172356216,-0.273541564782575,-0.3654885579432592,-0.4915698481350691,0.36181325633992517,0.17973953574541984,-0.9439573099104472,-0.24711866852241837,0.5220949609864403,0.19301967184729316,-0.05963184963751805,0.12003700225979998,0.5628751894583273,0.7649983737266628,0.5510678227967092,0.7573434148994007,-0.7866534606558979,-0.7136573417810443,-0.384287017543739,0.23417626311809653,-0.07550881099698313,0.4748221202562991,0.7362271548525399,-0.5491593122856001,-0.507708303987417,-0.0014755096376303728,0.8237093626899052,0.8466924610800033,0.0608046825823958,-0.26198845200246323,-0.7391261444200462,-0.7903814065580944,-0.6394954801201284,-0.015097100658692904,-0.8603880937993743,-0.3628414230754454,-0.8087310817357304,0.612675052098161,0.8561592776773297,-0.28765139176452303,-0.7847282535367426,0.3076507901521812,0.5076784076462495,0.7358047843926632,0.9229349991789657,-0.66312194001715,0.1758924299042845,-0.5584460384074992,0.044155705542756114,-0.9442677159262007,-0.12340931790936337,0.41421384531074296,-0.947980393371816,0.47913731966696865,-0.714840684703801,-0.42584586216025677,0.5194381210732796,-0.18957679593725033,-0.25907918112377176,-0.6094595610402648,0.23571561145189787,-0.531713993562065,-0.04257938799599237,0.13783148564720607,-0.7859912470138611,-0.18545838197984252,0.7596134813585849,-0.3092780645456182,-0.3911269807774209,0.698137718976237,-0.732033561401328,0.8821528740506674,0.06226919067127512,0.945514794640991,-0.0014770834001228642,-0.850895401028497,-0.33551512908079917,0.918188173700302,-0.9087138624686403,0.4274322836746648,-0.17900357291046368,0.4597606025203904,-0.6306896312012293,0.5531704368372529,0.6570536003307732,0.2534698703662348,0.3587361842163052,-0.7102145458020309,-0.519390339331243,-0.35273024597046326,0.09152707869907976,-0.5544857192725098,-0.9846204893983387,-0.32871090052477037,-0.5902639602990005,-0.8628347515375738,-0.18224817060183995,0.20791947253856558,-0.8981742646473923,-0.7384978917835447,-0.34240747951525985,0.011730558703350083,-0.22064593408385655,0.6067370375440514,-0.8982554463050318,0.23033103355745058,0.7703121343270344,-0.1268843736924245,-0.7892914789256699,-0.28364146814646746,-0.30194235084715776,-0.5184968437201402,0.05366505730451756,-0.14286234618901336,1.0991548552798664,-0.6008626452912426,-0.6460161209684994,0.5098811946390933,-0.9171379087498129,-0.40615150673200057,0.2911783537358389,-0.07619060474664616,-0.40721536155173305,-0.615868381764491,-0.9891128585409492,-0.1247825844344368,-0.8283800950897551,-0.6978362818865378,0.12469346289318023,-0.08122206008257304,-0.19488009540531728,0.9302761804808798,0.9348119870134985,0.88817292258895,0.026952837342990275,0.20147654006785068,-0.6576537143729403,-0.7498999173558288,-0.5232329188418208,0.6267436636628752,-0.6869906208552272,0.3564713567644596,-0.35310749085106147,0.6324777031208122,0.6389228222596197,0.7453663245794858,-0.17522805750875348,0.9237903580839952,-0.5113576034516117,-0.5612851872037882,-0.9806101366608492,0.8136309477805144,-0.5202163767889598,-0.9719401560512948,0.6750966630472133,0.9319335620277525,-0.4150144725944779,-0.36365116117301427,0.2882125755815556,0.9036970061299009,0.08773961548144477,0.9030715818687284,-0.38650806234762075,0.47164738315481747,-0.47140899525566793,0.2618003440145474,0.8194262657122373,-0.12331590591537805,-0.7075918268851363,-0.3724528609668338,0.2725057423555797,-0.8857105970313485,-0.25913203347332125,0.12443714205885141,-0.29843881543125444,1.003123058442582,0.48895593026836026,-0.15457658825600074,-0.33268522744260454,-0.5852185019305746,0.5691937969034535,0.8225241743155836,-0.08997220893792623,0.037622189640375,0.16267021587614713,0.8595307180909745,0.41239932027416903,-0.6509118940765102,-0.6067691377173472,-0.2675066626474843,-0.8205653836944764,-0.9793433454932344,0.020856932050649462,-0.7551616622646055,-0.7992683843496747,-0.6311169186985505,0.49479276589658056,-0.6426434511802526,-0.5671706111230573,-0.13154304519656718,0.7234881210148617,-0.11309920660628706,0.3635953264996796,0.8349223997770834,0.7072771552096043,0.7007814980987614,0.18747685077348195,0.749261209172764,0.5082107345100819,0.2409927292874663,0.9219963097687902,0.659502725875958,-0.8100008048901595,0.1849169021027758,0.10445798321423581,-0.9205174730515315,-0.625045990267463,-0.9035538837746261,0.11399242229744905,-0.5180997571676357,-0.797548388822404,-0.9302826100357076,0.17713880778503208,-0.9947171025493785,-0.26090223014821445,0.5575807506306023,0.7486894673833311,0.3257142228137818,-0.3763845595887904,-0.6891100218688327,-0.307489417611964,-0.7782866018465072,0.016113616224428945,-0.7584867349457589,-0.6213790043677511,0.2508983264421358,-0.10245044195155706,-0.7639032709969809,0.9705401714370028,-0.08378988571614143,-0.9851885447472719,-0.7727001237537543,0.2143740724170671,-0.11621681853766255,0.44432936640540077,-0.5628989059592517,0.6466906590807812,0.8685788159566222,0.7858891935606089,0.7382029138484487,-0.15651828526074898,-0.7269900487995251,0.2516198706674561,-0.8385456598020253,-0.622599354915427,0.2356383355683063,-0.07802485051418656,-0.3306992214896611,0.22565260673503948,-0.13293141859752533,0.11041471440540362,-0.9421644134488747,-0.37276101024453373,0.7562744773676905,-0.032883605375275016,-0.32936096751225263,0.5122595102207961,-0.7880119728879773,-0.7142468300687196,0.8104110744819033,0.30045215059553027,0.4141709228397447,0.47060684230911837,0.6919656774012294,-0.9736259404007788,0.19133857945153337,0.29377455401511815,-0.6640965032097376,0.5534445787461684,-0.4856405387393254,-0.07194003909607755,0.8621539123307972,0.5367529384988114,0.8867287898687767,-0.4990297803389606,-0.5071289183051831,0.31039041387500155,0.10427715292520824,-0.40482682793388053,0.38361053177255156,-0.7106878552542344,-0.15704206856044417,-0.730251371250684,0.9944934248548785,-0.5012731064238076,0.3687886317849616,0.5882257392502591,-0.10149268573162175,-0.8754291667741917,-0.5116494115683111,-0.249717804229969,0.5033140741566129,0.9469546037490125,-0.6751222169660328,-0.6647390498106934,0.8681801875581453,-0.8887752702060586,0.44170988590132065,0.14313656699941768,-0.8955635673834088,0.4729906997009374,-0.5712693558977854,0.31943865617378087,0.769669521494772,0.7376319858307402,0.34991699221989503,0.7419007719840649,0.7563781816699494,-0.6063241731926354,-0.48705680676518415,-0.6752389883903858,-0.8524186601249499,0.9143258329904769,-0.6286180778825625,0.9143585227919676,-0.9051618789191528,0.0036868180942893824,0.9363857789052453,-0.5710125817570592,0.9489754271184007,-0.4305624680760184,-0.11764731289441732,0.8528457937075934,0.8051000426032806,0.9458220320406012,0.09673029954427577,-0.33991369564733165,-0.4105538858679374,-0.7080042800937081,0.542730832626279,-0.4905238714017153,0.45851423218697995,-0.6991141205224307,-0.4739773934271304,0.715467990122223,0.2548856203600565,-0.9422003942545221,0.7841212109130813,-0.7031669188483394,-0.4664953618908061,0.9014886686943504,0.6396371777415166,0.7333302840111898,-0.6961998722220837,-0.2680846198378794,0.8332647589213125,-0.24601104186906594,0.6283429660865021,-0.1378151465097044,0.06293369067419721,-0.3213379625461987,-0.059607358230850345,-0.054366169090702965,-0.20802606473201407,-0.0015833163149733167,-0.5670582901689929,0.14862263666659495,-0.3484481329601455,0.6492535703484728,-0.29735854070951184,-0.881878223158431,0.014609332546958821,0.13845150855206156,-0.770609422168389,0.6241082756409713,0.3660116045255271,-0.6101805875863757,-0.5552135903733595,-0.38613707751863124,0.9211092185732315,-0.38437796875686653,0.3524432017529272,0.06799019204249679,-0.7046282174808992,-0.6566372672185874,-0.23317031938510446,0.5756302715432233,-0.47209665256438,0.019799803249507867,-0.6184010640749099,0.6140171796715477,-0.8764330507586091,0.49102962373398557,-0.7425888324699477,-0.4701606642307665,-0.47203009776830857,0.6251136339725657,-0.24459245093499896,0.41675659580241886,-0.8941367532045652,0.054894099539548345,-0.26784926393350295,0.60350300847779,0.06928292319562111,-0.7209868904358425,0.6199775549237665,0.6050888814149045,0.780419573434725,0.3782101911473171,-0.05935131164389064,-0.6064755018476777,0.27692799124580464,-0.9795780768515043,-0.678767599312826,0.45195349063422735,0.23621292947750344,-0.608855983065884,-1.0278022528841806,-0.5552383835663708,0.5381418157206043,-0.3756807537766207,-0.2001894413875607,-0.6242132727844807,0.3163220310143653,-0.8560110727852355,-0.6481159127558069,-0.9054465068538443,-0.7494102170618661,0.1236877423552264,0.8638212365474933,0.8360966204799979,-0.6556350326216398,-0.07864822144554573,-0.03702673964463754,0.7369308036171089,-0.7164424230146049,0.3588046998867873,-0.8276927428359078,-0.7239163507211988,-0.39441353957816877,0.8001378008895533,0.5941724254059334,-0.15538013920145818,0.09136258261777276,0.8110755684066656,0.8818273054416589,-0.7315804410463005,-0.47151851788958493,0.8941253732143172,0.43905019199760226,-0.33637796850368556,-0.6881461340206085,0.9813274167676999,-0.9326167525986526,-0.46044682947941107,-0.7203311917404693,0.4599348347482253,0.8738927549493971,0.9561077490445107,0.618809079110755,0.962705963199282,-0.7539079840557226,0.44552960051822565,0.6135389547876944,-0.3304766611023848,-0.2483969635940777,0.9018566733078173,0.5429545923361662,-0.7016638310577619,-0.7449174078048313,-0.7413620612741502,-0.6666354979928835,-0.049916592274107295,-0.27316817522834735,-0.8335061121581455,0.7151258857909,-0.2424698505849887,-0.8996963432371415,0.25813381410901237,0.4579284112524096,-0.39405092210969495,-0.19858867928673593,-0.13506911694212878,-0.5739351578646622,0.35836947760648075,0.9668804693468556,-0.7081411448554066,-0.27833248029936647,0.7685961307192926,0.06238035968951583,0.3900473906670676,-0.3013337242812679,0.7413788749499453,-0.14081969682370032,-0.9367148387890316,0.3321779572709843,-0.7174175243190454,-0.889381172691307,0.10594875131895226,-0.387283032879148,-0.4944010710758806,0.36352667766941704,0.8555292357379107,-0.7449535477773523,-0.36917530813419114,0.3329239434310943,-0.7052141605910514,0.8335887301491839,0.5639463393109545,0.530877967955059,0.18792678602108223,-0.9603048420785737,0.7260120465074721,0.48215132425139096,-0.3876726901511811,0.45836205145862713,0.7851425681832578,-0.8377775039701776,0.39679162547218816,-0.5652392434678806,-0.015337715318902267,-0.6959888542143859,0.42004867160001735,0.018197047371217887,0.2968674454231668,0.386578731262516,-0.5862281338913238,-0.07619871754089905,0.12913959043093393,-0.8460196176447726,-0.34946502746071445,0.7049618587268085,0.7324682841854391,-0.2739304066092228,-0.6071627941290846,-0.3482186401232527,-0.1937794380635395,0.23534753472756392,-0.9790367722631612,0.2362103374112672,-0.4097655796287538,0.39001778780051716,-0.36615582110397216,0.9396288046144883,
-0.9214476215884968,-0.7406442926134305,0.7100114126055141,0.9728537072431094,-0.27059262009448926,-0.8589505154884509,-0.17077805040789729,-0.21143650926708224,-0.5541396054563037,-0.4528495925817917,-0.125919602933521,-0.024038548283845662,-0.013459442435757918,0.7164396691124775,0.3071615744284459,-0.2864759412677712,0.011113711338604922,0.9229161669083434,-0.32354590135494704,0.039710734302987494,-0.2383841331611837,-0.47661225853312295,0.21489882181492836,0.3458025782483978,-0.219914634580054,-0.47158004699885425,0.3746275278276152,-0.21161146033261002,-0.7070215021741084,0.19383997811393128,0.7016163597006926,0.7405027229301913,0.9835902486238657,-0.8266297710485007,0.22002255587983077,0.18023567922072337,-0.11858464482688236,0.9155457406448222,-0.5663786303676015,-0.7294035050798422,1.0110121804541128,-0.8695357501460114,-0.07509001381770672,0.8095578454159447,-0.09173521418973717,0.7124472593981024,-0.684193018376579,0.3476908920393863,-0.5314369381241648,-0.9856635775469605,0.35672526651285225,0.8707832677286564,0.124823670936546,-0.3587432510982369,-0.6666454008551861,0.6092769791737627,-0.9351558774986644,0.449168776949016,0.37683645622111506,-0.7318638961517332,-0.1945950843119586,0.8769227486931341,-0.6149032044678715,0.563728596650831,0.46192530976420687,0.15731301958442723,0.6085643110323413,0.001305396400390981,-0.969476323715247,-0.08400412727324344,0.15303647300008497,0.5901105235939224,0.4933299457678948,-0.4505268302418903,-0.46904171716556303,0.03955411308056535,0.6738071891203402,0.8948684114846915,0.7237491288484864,-0.3888986122734106,0.4632057786199176,-0.16435953248896507,0.394345748741628,-0.0575250988614211,0.08243407523710311,-0.11356369909162822,0.4651355989221586,-0.5362212933053068,0.31265067763833354,-0.507311121034163,-0.9035696957970107,0.14404151382138597,0.9211965111928938,0.7776686962701428,-0.2855069337183693,0.6431105987701431,0.7896996407878287,0.1511030650881991,0.5088531770810005,0.5507670111013591,-0.8819655104247635,-0.9935608569663029,0.8191103378147796,-1.0643665922808343,0.4115464670740903,0.002460587868217523,-0.8030145514723531,-0.38862847309196924,-0.7231188530684218,0.18735438600984136,-0.9809296805215801,-0.19415021255234777,-0.7194139285347807,0.3630356646791102,0.44528708909032244,-0.3410395756436031,-0.40027032766439685,-0.5898101868423375,-0.15500831317917907,0.4323736450632963,0.4340802894798206,-0.05177574158401948,-0.037181850845411854,-0.6326834576514522,-0.2167587543129157,-0.629512048503424,0.15885454595530588,-0.6306311876993643,0.9057495780644442,-0.6525309469199088,0.10527374772840288,0.8347952581865823,-0.6681435810561948,-0.0073304599081592415,0.2115271525464402,-0.6953190412933198,0.39741975511119815,0.002689417037295045,0.7502696755297116,-0.09975411114247001,-0.7260257278838413,0.5572822158291251,0.8019207135106152,0.2308948354554714,0.5547304469331966,0.6453998619962746,-0.3802949552311248,-0.11554529921137903,1.1149867356476777,-0.2547950781587543,0.94003199003714,0.39662101805673894,-0.4549398738162097,-0.46136109669122843,0.2048927026445732,-0.5178926912259983,-0.8772064520017785,-0.14467729926525003,0.46598705550613856,0.6925661508726796,0.5302443562833268,-0.5194458001458124,0.781003340737068,0.3698614422801892,0.04233131236912865,0.0020511569619115658,-0.7698871508392282,0.7273472465442357,0.5462890350156526,0.3839344730425389,-0.31811320863980486,-0.28902254972467056,0.18867999888959286,0.9905549395929658,-0.6421622427343741,0.317371788796828,0.9761384052740557,0.17489304616270276,0.9443642770914603,0.5043854244685992,0.9258177524301524,0.11355605543765257,0.42311063526872805,0.12663836660927624,-0.11349906224800517,0.5579624446955259,0.632802639069424,0.5269060065654789,0.5094988418903899,-0.8019444906790754,0.7669716744931879,0.3514549662937446,0.6084466116248084,-0.9838171477948688,-0.8225878421793373,0.4479893982632881,-0.8397880050891224,0.3417967568051734,-0.8791195936909062,0.1107253045010308,-0.7332799653740991,-0.6855183780080205,0.5471419757716852,0.7710576295622676,0.8512728697611471,0.6510818417579339,-0.0001715990840711574,-0.21469197655169314,0.8032265993320277,-0.5185420503964472,0.7961410455402976,0.5329326743423025,0.807743226504404,0.34303983386183967,0.20888157866208876,-0.2223685253172418,-0.40029420887685996,-0.27043317417496343,-0.3783713789940803,-0.5578687315703754,-0.8599185513001235,0.0318513514796572,-0.45760630126670676,-0.37986914661998195,-0.6493780085163989,0.5885860122537212,0.6776156086879799,-0.8328788605715378,0.014406931692463099,0.3133830809595184,-0.4022738440181813,-0.8693415412345364,-0.7590790257324412,-0.5028110899212811,-0.3287790108526753,-0.42083078159704834,-0.19212507059055076,-0.49255462051620424,0.4875276831387554,-0.9233747201258242,-0.2122888089444711,-0.7131095435370248,0.3818493311157534,0.6417071695162015,-0.16164475189284808,0.48359630344767,0.5582109240243434,-0.46084282085008194,-0.5731599826523682,-0.5661344304961586,0.37860932259128893,-0.7909717108380816,-0.14068283760603406,0.5812152459943651,-0.3320597349713774,-0.4553236671559149,-0.46028947458406777,0.22025595766873307,0.09593946783662381,-1.0213352315842967,-1.0599386368231811,0.4502457580576623,0.1600379613205328,-0.5548923356215039,-0.19566762756460063,0.7305487302264805,-0.09506263446909134,-1.0832741460967517,-0.9456228172017981,-0.7061637269116434,0.5033805063454863,0.09328101479266471,-0.659830073189129,0.32146951734595636,0.2887219116192226,-0.5182560805046547,-0.4207939954126943,-0.8091896487105338,-0.5475133119808988,-0.7870007866399998,0.5336768445232616,0.533340020875642,0.08200057780214642,-0.4445202087373652,0.8325505950356828,-0.32772138937775164,-0.022003848216981106,0.25766587570190913,0.5956602770332277,-0.7294573066421076,-0.3224884390823223,-0.6486330509778188,0.4746755328826421,-0.03167766437429037,-0.23460037562113167,0.35263070392388,0.11743722811954754,-0.11895767548809862,-0.08973815168023613,-0.6859296028450291,-0.24105572916304518,-0.04704887375754522,0.6285333078109606,0.7070439513650867,0.1727168385896517,0.7926194027638875,-0.3972768886566466,0.6918542325391046,-0.552873246144951,0.4418915423735952,0.7724637538603278,-0.9233694818475005,0.011183809577446802,0.7077228459611412,0.5069401068329449,-0.16970632271170918,-0.2825349359312865,-0.6229916670666473,1.0263267952108346,0.27465103504386806,-0.4217059979972227,-0.588246933617683,0.25555076173360314,0.3114979779895989,-0.40419102202900137,-0.5937151007217764,0.34789561354681287,-0.4305882789703956,0.58891023961684,-0.10113590199117721,0.4665392654783877,-0.05358598916529693,-0.6895412400978408,0.29104639262538035,0.965646530366332,-0.5077161058942076,0.4294035787555892,0.8612161076057101,0.4892308951271649,-0.8356833045204195,-0.10634714875754182,0.03483129238173194,-1.074593575794236,0.7251472521724553,-1.0662567470108553,-0.8047901568836129,0.8163218059247608,0.47181958319365136,-0.6130020056460822,-0.7118280713837527,0.5803783201159898,-0.18851423506360843,0.4290515833677521,-0.5373587334620484,-0.0018233125074772444,-0.5454659564532991,-0.6703328744246464,0.5607314684004255,-0.18716964335989233,-0.012079106094996454,-0.6818198142756531,0.11876573878282973,0.3978101883762507,-0.8417775529344124,0.13631699195196023,-0.2715855407956993,-0.29759567645485885,0.566280386003684,0.7930813483891199,0.9036050015331072,-0.7546436672436684,0.3935629349917126,-0.34666540166196347,-0.7989912922487488,-0.1187204962035484,0.5228094718390291,0.5577507864792959,0.019303984280257442,-0.3532997160640243,0.5238498278537368,-0.047430484590248144,0.1763192945770027,-0.6560403210736561,-0.9552995573145919,0.48472014210238973,-0.4189024858444185,0.17480128620019567,-0.7696815518182121,0.2309265054808574,0.5106151166552031,0.813462317699743,-0.9364665967767701,0.31608367032051343,0.6851373584699803,-0.6000049976537434,-0.6796144954498824,0.010851727604516376,-0.7637742896298532,0.6706595538713344,0.6280606032206051,0.8228734667480977,-0.32487814973125045,0.7222142022293687,0.44828656707682635,-0.0900635994647572,-0.10319141851386619,0.7957148591406166,-0.30493388749267003,-0.7369848374661664,-0.6935296190668085,-0.36540229860660767,0.13062759187876444,0.6465175014091313,0.2443332723487623,0.648953494921998,-0.12734002357136187,-0.07963666661417246,-0.8764101229870727,-0.47588348663909624,-0.862602576124858,-0.5727794605404923,0.18766099508719503,-0.357469339447279,0.5233072170110082,-0.94533279013315,0.7661555999134361,-0.8944505268485542,0.2593390225655109,0.6601633862000804,1.1866331008056548,-0.5276066930195485,0.09122695566332654,-0.82539316063436,-0.965846527243452,-0.053718497081861445,-0.30165712319044496,0.2398461173315947,-0.9920873532800107,-0.8267323139174759,-0.9484250044742076,-1.0400111543748516,-0.7206688178217746,-0.03788766409674501,-0.4021423088030723,-0.6828297551695162,0.6822453847189957,0.21925523063438945,-0.21583587087676936,0.810426623823215,0.5851104125960718,0.03379460279477864,0.3957054998979981,0.06977789562771573,0.17690600048470848,0.7759035702368573,-0.6201458328894097,0.6082892167975132,0.4138993911731256,-0.28185798693832154,-0.6968378497005295,0.9263987021715606,-0.4754533477925495,-0.030330119006041184,-0.9080042676694984,-0.11061044434576342,-0.9920206014626158,-0.32683782289448043,-1.0196565312106642,-0.38893814778316704,-0.7235685372343041,-0.01568339176664187,-0.21258788805612946,-0.8233974143818057,-0.5303579416894525,-0.5246336877642577,-0.878502383089833,-0.30405730550108756,0.5994447394336213,0.036816734616603064,-0.5613175711587826,0.8106949875056141,0.4503129024442308,0.056585163898832384,0.31292933255412475,-0.23735655910798342,-0.22618555925508557,0.8270133006657585,-0.3881774923963836,-1.0231927037595552,-0.0985259095651385,0.6757792504240836,0.49280460202634585,-0.4466783188434166,0.08920384593909467,-0.8877965164489695,-0.5584997366432167,-0.31834300218093087,0.10770618477390957,0.04012912490156264,-0.3035742134365303,-0.21830426448683538,-0.6125508445826229,0.7726824012764898,0.6670954045574727,-0.8846381644329402,-0.637665522671574,-0.44670036422170756,0.8025835860862114,0.7750412577739471,0.17142658045145248,0.5214222594151213,0.6299555510720709,0.10311040047480216,0.562587537633887,0.9994103854146217,-0.027580354613334176,-0.4354736288694472,-0.4628221586231257,-0.7268592633195237,0.7255034010002231,0.45709778703563597,0.31158984878156354,-0.9132006984036847,0.20600836489449179,-0.6804779132984639,-0.5904207432595382,-0.8038466225630461,-0.7047537819796981,0.3989502743146744,0.5462472152398765,0.7339778120160543,0.8306486307527043,0.610786579818063,0.7883442522264457,0.9198079390450622,-0.7810043886796203,-0.5292910272845497,-0.07735242480938914,-0.039745659193029845,0.056717656684778704,0.3874954570798018,0.2389874252627739,0.662037359840264,-0.3304537324421325,-0.4643245409212089,-0.26924539970459227,0.3754744128205974,0.6818152527102662,-0.4264127448903078,-0.5220403230746554,-0.8162567221852749,0.9323328826446039,0.30875862290918715,0.4794340020186304,0.8462586814432249,-0.7720155212379662,-0.3337385140703909,0.42166991943912596,-0.2156566295417475,0.3658664022033125,0.30401958022476605,-0.3664698375836206,-0.4623620312451313,-0.4052775698455784,-0.6743582015220283,-0.7928740174249298,-0.387099590045545,-0.024323161852422406,-0.7933281646753587,-0.4179451205408385,0.8964811545276002,0.40320426764536293,-0.9334376634879383,0.7810314194895681,-0.006082883318220951,0.3105200846764662,0.016786845025786482,-0.2789000345650134,-0.4717660136081332,-0.45645104440886736,0.3511928450134398,0.8163445134284751,0.1909228997247317,-0.6031464662193782,-0.9003379845374545,-0.5561832307232234,0.44384554873899407,-0.28006351580906935,-0.6120277301492592,-0.8950718392077002,0.7328113938488232,-0.21088552679989747,0.9838238136777612,0.7638849512694916,0.6333450668539057,0.4595385593336751,-0.569722225838085,-0.26008556104496444,0.4751019560514726,0.45949879476451533,-0.6127149502787651,0.7233414182630925,0.19882252480960785,-0.31366917397402877,-0.020920501622007738,-0.6514432916248636,0.18453769800547837,-0.03166249544594466,0.08879671335242613,0.8810754677523074,-0.5667566512321787,-0.7575221772344471,0.23175299862090581,0.4195461334826412,0.5874674017526299,-0.1858328571023513,-0.3310445534314794,0.6157594648263509,0.9430505621225196,-0.245350936935268,-0.41175584251102626,-0.545376077839168,1.0020559515133736,-0.024558631309928036,0.7090461460050195,0.029591038552969125,0.3033128781059164,0.10713939250363914,0.5439594269858679,-0.8171999074728236,-0.11188539982818803,0.00961043102635888,0.8359642108380506,-0.8938645145505804,-0.2972799271830918,-0.6364681745989701,0.46668238207955176,0.12841022132856758,-0.32188711866925446,0.3812938692393122,-0.3073526141592354,-0.783073226093631,0.10676563661565558,0.35283770037746787,-0.7384444862039994,-0.3659543107395684,-0.9740310720220238,-0.42760109186576734,0.8183266062522636,0.4719948788414901,0.45408776074195384,0.18307147290890088,-0.7130735070725694,0.20141720636921404,0.5425682776401107,-0.2934170276564036,0.46337330685276196,0.7578326602197072,-0.5607240260907177,-0.44008342459712646,-0.8206155418868823,-0.4144524805510718,0.8900257145356233,0.01873244024421921,0.9475624329019653,-0.2774185686690371,0.48327585455629474,-0.1417908540634498,0.19151087642700168,0.4386472639623235,-0.45078604042233855,-0.12471362217708624,-0.6784337107685416,-0.42911625690154076,0.17581576253581144,0.16501936228732794,-0.6274422234661726,0.26778528505370336,-0.5707386688313798,0.6696513824990282,-0.053252537205325946,0.4345960260612232,0.5547081392967226,0.33281585396326024,-0.08928780411646542,-0.5091527776138431,0.7291094846170783,-0.10498969373189734,-0.2535552209111051,-0.11421413624697085,-0.4194626521815098,-0.5545495125374963,-0.21900733876965736,0.8338982897025649,0.9014801074422774,-0.043872688838885544,-0.43171246182546597,0.935742457972457,-0.2314088107500813,0.5086358030007072,-0.6032665333256932,0.023157541913077173,-0.14586911397829905,0.33402499240566397,0.9916144465137264,-0.7232648752996584,-0.08409246656359032,-0.012427800252483658,-0.7134139555177178,-0.9507083231244098,-0.21802788570708886,-0.8974635363633746,-0.06540837979412041,0.8561854550952979,0.6503518503249882,0.14628205366404412,-0.2216329296396937,-0.19804125741762174,-0.536228673977321,0.0020414889919728105,-0.3702007847079039,-0.7974188027518048,-0.7232533716710967,-0.873594658608243,0.09703194944554466,0.5864942189059094,0.40353708661011195,-0.5712118744819967,-0.5529298982278879,0.48302169571983256,-0.855348679375846,0.7235992748111764,-0.946486333214378,0.48731023762296644,0.20172408002578465,-0.992768710323508,0.15320530918737366,0.3518092144711798,-0.9916862161810321,0.49151408795750146,-0.5223350651653405,-0.9682752294929625,-0.348181358809836,-0.7837240677512131,0.5909261835009358,-0.588073352234239,0.5329531748661493,-0.6980125150990182,0.2883997533467519,-0.9852556665064777,0.2601685494978793,0.19695325220912163,-0.4605082261753155,0.5793697468206871,-0.08426382113522672,-0.24318766910250111,-0.6651916881847766,-0.4301002063608883,-0.8319518991042822,0.9831668460776499,-0.10899498289940057,-0.30289473969696834,0.17053871681739793,0.031339732073837896,-0.8316147928088304,0.1725397957800355,0.04320069575120073,-0.8763886850772739,-0.7832165673677027,0.8048337194499345,0.45099776781490397,0.14261423817600039,-0.2818577587860456,0.6590804292136151,0.21155964491579385,-0.26051328734895407,0.6439325460293439,0.8258657586673165,0.978250584724145,0.1708145042355738,-0.9690250090530661,0.045339654971847,0.6373983732738533,-0.23189480465253243,
