0.8030311106063485
-0.43453947347284777
-0.6167489435697491
-0.17465223756876674
0.5848333797089803
0.1405968753333144
0.6137319146980281
-0.47807249913178024
-0.9706927361395283
-0.7660879222557923
-0.4233455266240887
-0.6542399380646791
0.30889918449608156
1.0319979970471505
-0.6029518805203373
0.4354578732831959
-0.02765943808966638
-0.746443442630388
0.08908544938794306
0.19047844814492576
-0.902953292291613
-0.37664313817695083
0.6899797495138397
-0.015600688925059
-0.4765012254459128
-0.862918317803275
0.3717099742817286
0.6834525611536246
-0.39018929344439157
-0.2846528435571362
-0.8842634565080454
-0.8165829824246053
-1.0876332293964897
-0.9478855271617866
-1.1731534041135865
-0.06465794126536012
-0.3225458290174807
-0.44555310150363087
-0.9626363882956943
0.25342647674587565
-0.049849070709840335
-0.429406315125049
-0.46737975016718536
0.08253450446541588
0.5179281148773143
-0.022602509493271594
-0.8154426908209119
0.5197326537671507
0.2909313386386255
-0.5072358625819845
0.18900214850719585
0.011778364720679392
-0.2699941272937829
1.0846231878619488
-0.4681579888156109
-0.725819580624178
-0.4864182442033758
0.026459096871603718
-0.33085955079088597
0.41339405272791857
0.6884312113216087
-0.652825380762909
0.6143548605685433
-0.294797224301879
0.20348585232138486
0.7980312092905201
-0.5480806951750736
0.5917461369986386
0.28783816162053066
-0.544839556655452
0.2537545692743465
-0.6039727713446962
-0.4801571432477852
0.7735092527614651
0.3387446720066557
-0.9837812592013376
0.31117467050026504
-0.10367589103460177
0.05904672733917547
-0.9616210428801051
-1.0472199670431968
-1.0153701754774263
0.7191938487027947
-0.5744121957134404
-0.7990968026272103
0.34507738758939227
0.16880337688164893
0.6176650958343762
-1.0849813625943803
-0.8999983592779982
-0.36995930014043765
-0.5433549614928368
0.18378948130641176
-0.960110683000387
-0.489144929468231
-0.8809620848831596
0.7062613685937135
-0.18335684397439636
1.2054853838638364
0.871521376093744
-0.24969775120645094
0.13537842198256028
-0.9761809894661143
-0.9149152693408367
-0.8233605893858116
-0.7323643562570249
0.25735922755089125
0.9302555793654582
-0.6844741660013894
-0.4755514097077355
0.2329134814217025
0.10167122829504573
0.5237715702105117
-0.49872760833707835
-1.0154855204327575
0.675539989939668
-0.24885171359749275
0.746800318133054
1.0774363697541574
-1.0940414748239504
0.5207013827105501
0.5687386233402966
0.05798088708978455
-0.25984087783428916
0.8189285334182864
0.6894816513003217
0.1491160511427906
-0.3774925387308034
