0.09582619149243676,-0.06945853840626359,0.2930341029958674,0.30898705994878073,0.9579933953252793,-0.18855179545500067,-0.11900595358066135,0.0032426673144512197,-0.5181703255465624,0.7610487407180395,0.3408158147868947,0.07286518579888623,0.42574530386487663,0.5847738285313786,-0.390489094145541,0.2925287480159561,-1.0045362323449176,-0.8813128175404236,0.6732080984872084,-0.8454994228713689,0.4987947917613594,0.7370132765382765,-0.5372541709506932,-0.015984363411945646,0.3132328537529814,0.3846807174000144,-0.2840177192162059,0.5103097092899131,-0.33798984134141463,-0.9001825867060118,0.8271405785381505,0.3886881542964442,0.31428890999298154,-0.07515557738961798,0.4399450618500793,-0.5653038363009595,0.35488208978693914,0.3842491085261013,0.531150788961255,0.08241481201272394,0.2662911667091147,0.44734483013472487,0.648670355990946,-0.8117990851067834,0.6762603550048374,-0.18008136262077606,0.09988965781031865,0.6831335466048295,0.2654535084130363,-0.7476381687022399,-0.24701183852117597,0.8335701870043314,0.20762956729748572,0.04770481274462135,-0.9482902971137162,0.8076691701698138,0.6968237418809871,0.11654364932770411,0.12120199688877231,-0.6505022518797849,-0.5932292136446791,-0.9895197842857737,-0.5018661908856492,0.4728393503373296,-0.4551189935727713,0.016984859659761042,0.8301704241199794,-0.8553357702539386,0.9772871871210684,0.47358907295569236,0.5070456970074654,-0.9150143634627163,-0.6641552081019179,0.35113050255848494,0.9181800776376782,-0.02799011530527497,0.7786117456502288,0.38878664492404946,0.15809817491349953,-0.12243378871277098,-0.810484125327075,0.04695305903635383,-0.714501983314344,-0.9764528351705,0.5696641656280756,0.06057042163565973,-0.7142028677346821,-0.6317437211216881,0.8718370608902888,0.4528209989661838,0.8013204687973736,0.18258124551081445,-0.21940173678268393,0.43302235100525177,0.8684864807166904,-0.047037248408287345,-0.715680730996684,-0.6325143461510467,-0.307867309923983,-0.6307437329742662,0.18851507661958142,0.3118710163545441,-0.4879046301919449,0.9193042418006735,0.019338575113465307,0.031403940913927064,0.11293538739908629,-0.34412896374409835,0.5916450786957913,0.17347580476544922,0.2835450573124416,-0.08701158153236266,-0.6584577509987153,0.12294274287102613,0.4177376431725861,0.5101761281381052,0.9878690689769598,-0.6329787423214619,-0.3080073775975858,0.33496138774278084,0.8425655056067174,-0.45861768260375096,0.4491504692613214,1.0766255340838307,1.014584675613531,0.8713266346136372,-0.06338593406307916,0.6147956822560795,0.10418138133744213,0.5161992999835738,-0.5015787978921331,-0.8918439071790604,0.32059746128913036,-0.031031227404434238,-0.1428069167328662,0.9116761246842475,0.5456221605114473,-0.07871257291312746,0.5870927187657557,0.8874341038141327,0.5269425724679662,-0.7842917887440775,-0.9117383958500334,-0.02016594440888686,0.5035866489906984,0.665559765265433,0.8209522464170294,-0.5735964730726166,0.5454144107669933,0.1308668492447062,-0.2503949100022079,-0.27979077578908507,-0.15203913983033654,-1.109542798911613,0.5067384985130781,-0.7955582183468378,-0.5333472430631379,0.6518292615590909,0.06636068511870101,-0.8458759956733444,0.41778363155166603,-0.8113523205075033,-0.43561467328387776,-0.34796762700396877,0.5336986806065418,0.4127130872079323,-0.7839605920302466,0.9617662699614107,0.0648400112170886,0.2649866138133048,-0.7375396954636215,-0.23212196330203416,-0.5331735850940504,0.487611821407002,-0.3715217372807364,-0.3153843362583918,-1.0282427886720436,-0.7471872094301776,-1.0043871953737893,0.8068344832973765,0.5005419519381447,0.4312100743617804,-0.46764411571317666,-0.9931691801006451,-0.7586321194868506,0.6975612005446123,0.18918963088281862,0.17291152037739135,-0.07874993094218892,0.061019074412424414,0.839725589536782,0.45382743223989686,-1.0114847979993968,-0.29151451140058143,-0.29904106657125573,0.23922806531510066,0.7923124481784618,-0.8156229053888473,0.48921405413082364,0.26145798215127125,0.645421755276393,0.7255365937155731,-0.6964321998781954,0.3905768384310927,0.4851217341327212,0.6841201430345865,-0.34411847868343076,-0.7595267661546696,0.726537980003327,0.02398266712003685,1.0395755761695258,-0.08111637064890734,0.9336810820007243,0.9806139993228834,1.0509140414782876,-0.17313052118134545,0.5036295367257946,0.4057064556978606,0.6617344092341313,0.23285868265062099,-0.8801128822515102,-0.45674644055546293,-0.5378239297054406,-0.3155842541421082,0.046543593618737944,-0.8827686019243519,-0.2688091312946861,-0.7247724705749437,-0.3436047311738273,-0.9184379135632967,0.8848495992585221,0.6846088036268047,-0.9069067150284195,-0.38058661329041593,0.2823354203386677,-1.0002437966134121,-0.9019739923735053,-0.8652085027635839,0.1480277331547027,0.37855159661726945,0.37167932723199026,0.19800892996333241,-0.10704560217067789,0.2708911280008544,0.5185827645066848,-0.21119871598306197,-0.7474000787810681,0.6138191066814256,-0.8698513709528882,0.14780934339606652,-0.5523797274036426,-0.2652298637696099,-0.8661939745461877,-0.9410843682021754,0.8423415078778513,-0.0855796312437962,-0.46472153054255094,0.3538353059993773,-0.354528539084102,-0.17797342071647126,-1.0016681710486117,-0.7427224658130978,0.41210929012285985,-0.9395304880880919,-0.08283331410905652,0.04190147556455543,0.1711438885965956,-0.5110704539881473,0.16137128517621913,-1.1724048267625595,-0.8429590004135622,-0.7315072429521982,-0.32062917138125685,-0.9019253241747887,-1.2424845393491146,-0.8169254807309284,0.08330911363859575,-0.03989581225265813,-0.2149462391459806,0.44192812831796047,-0.41803949392990636,0.8650675480700716,0.6917484855713745,-0.7911393857414211,0.9564256787816985,0.4338187410845723,0.9451973479355298,-0.37647546237953305,0.8237194779326129,-0.9550370434561375,-0.8535048197599862,-0.47036064078591855,0.44655423250867515,-0.7650648747651945,0.26130315362096346,0.5294663028088518,-0.8856576527254455,-0.1411278875485936,0.47670690634069285,-0.5191323611543661,-0.049880827337163466,0.49814955029481794,-0.7633887846801601,-0.25119202305792293,-1.0898558484550234,0.4830690842799969,0.5645020932484148,-0.08521673089563314,0.3823821139226682,0.27911145276475846,-0.6261171258991207,0.7776678284696676,0.8312990991854041,0.14736278682941073,0.3119942141374828,0.3948607918796887,-0.6011695280121909,-0.021179847789367014,0.6919639171461417,-0.14661497518660957,0.8380456654558665,0.874588163595005,-0.19927933521964203,0.4678076029399865,0.2760851524140282,0.6623508229798551,0.30382148042802976,-0.9260793399606123,0.39121593843750835,0.12960509867848366,-0.935464462732774,-0.7542508015701203,0.4275351995293288,0.14864421635676694,-0.9161705110911316,-0.8434102239748842,-0.776964657577518,-0.9152241244799595,0.18175963933971273,-0.4802639660001571,-0.5994531900075848,0.2634634765231093,-0.5755969202892938,-0.6709595204513916,-0.20079242461291114,0.8881687455877014,-0.8666229593311117,-0.17563927040804328,0.14326502764329724,-0.3740877732333191,-0.5312541980042116,0.7088872066091619,-0.4440618823641142,-0.16451135045317553,0.5670675114753142,0.08413150970258697,1.043395008650912,0.14387187699342202,-0.7726181764207096,0.32313696145457976,0.6801031135164086,0.5517730610500403,0.7690966769037324,-0.07631061569249757,0.9379162075659291,0.23192092348697257,0.22865416630157887,0.16514295183455197,0.5033727116457416,-0.8814447638969051,-0.9873874367182178,-0.9094601033551695,-0.8923584481740141,0.7367133502581888,-0.9604274241565738,-0.29735894052059325,0.8187758756755393,-0.4539036284680322,-0.04194819246863869,1.018313880344028,0.07968948009182025,-0.7207219068152053,0.22192513596944605,0.879996907308625,-0.18098508571862598,-0.36388784656857287,0.25103859934715544,-0.2715457305205164,-0.8797480308036391,-0.6044521596910942,-0.24947890278256746,-0.9241713545407235,-0.6237323939923982,-0.1879874628633762,0.17857792141645557,-0.9100429019977503,0.8735133059359634,-0.07726919153324112,-0.5779140415831038,0.6277171823361669,-0.6742991237863004,-0.27829552887175774,0.6038129212116997,-0.8620704465722681,0.19329070533094544,0.6508841705989122,-0.17170334699262746,-0.5607035154704197,-1.0089403927538587,-0.024653609305020363,-0.9707863978721728,-0.8678303107463147,0.3337066720019565,0.5823458581343923,1.0924581408636231,-0.10127319851014081,0.8059627096292286,0.8552641612641331,-0.8614779344586333,0.6078930492484844,0.7606293343893435,-0.9799720444527757,0.05749140334220959,-0.7985693638027762,-0.995730670873729,-0.304947369403337,0.30341967388522395,0.5162290122773932,-0.13439566541289377,0.1980045964328625,-0.38175245638459687,-0.5502910853226993,0.6248918943893341,0.8929763112761993,-0.9117672815943996,-0.9601495549913275,-0.3773663565105,-0.2519225014275493,-0.7046477923950265,-0.8635886537920318,0.7432219722019717,-0.7829563740993731,-0.5648482452714062,0.8511444379319723,-0.7694279267494503,0.8150337407767764,-0.9167482212752402,0.647239983926274,-0.37805682810563357,0.021192985266150766,0.12300381870402455,0.356986447589541,0.24512817493521535,0.7796305870455191,0.05998625933507644,-0.23334870687324663,0.16996505025214884,-0.08781956130695236,-0.5004723514866339,0.8293000783977458,-0.5211769022348811,0.6361129319015547,0.4427834340413956,0.616235499300711,0.35468746463533896,-0.9297897697246733,0.4132824241240703,0.44418828875643346,-0.04916955719539515,-0.6903049768409991,-0.002568030779574175,0.6111736052829386,0.5826471672355265,0.4259259642420256,0.9756158435474928,0.8057795318642743,-0.08453863802225947,-0.42631393123850136,0.757696155329123,-0.4946308082120747,0.6873321653500696,-0.1880079727485799,0.08189752786312321,-0.7164250747586077,-0.008609501006422453,0.4257210483755332,-0.551572033257486,-0.9564538094050747,0.12081533433333612,-0.09358681353299397,-0.6839925820120426,0.26984819941156796,0.3850205590943757,-0.054447509507677065,-0.013858170727284538,-0.5774900543034129,0.1483798693665504,-0.47224795782969997,-0.6922151595534451,-0.16232680093029905,0.7200305028439842,0.8768555000729604,-0.3670235094101917,-0.6355058171468362,0.6541333154393321,-0.6998272255540563,0.4866149924536789,0.31107919849638566,-0.6101507585323178,-0.3493966547346818,-0.300369126438925,-0.18279008369577682,-0.15272303580157384,0.689386443285559,0.005249261234884656,0.562494485671956,-0.650925451379372,0.6861014252584533,-0.42841879251454257,0.20578185604067475,0.6191884239228714,0.7214649149947544,-0.23017656815854048,0.6686485525061567,-0.5296639093087416,0.04354860495636715,-0.15770470798502864,-0.7781254292365226,0.3621229975337313,0.4479676762423456,0.6499523125654674,0.7419539171985672,-0.605853545398986,-0.7628167850802294,-0.09400025279536894,0.8508164062583412,-0.1363236643156819,-0.04221251601880206,-0.6677752727095361,-0.4687890365202356,-0.6117245784693288,-0.9490283850672662,0.9077330274903423,-0.13247548500435438,-0.45944485176403266,-0.6847664004158138,0.7176363135181398,-0.20181640245756338,0.36922375134740837,0.18481759757232633,0.027166535777595525,-0.8536099863674235,-0.24709203031360077,0.18451996744278362,0.20853319777676077,-0.40524980678280575,-0.6100019700008684,-0.762246446766666,-0.7494802129749777,0.7108371676836729,-0.5392509446216183,0.556538997415593,0.37542731708807886,-0.9647395502774909,-0.3187880898802778,-1.0184796783477563,0.8664915801110507,-0.8893898793532935,0.407664939209823,0.3438559006986585,0.45681294784509446,0.6921452599959006,0.8483974061038311,-0.1416762410664624,-0.29442095349437664,-0.5313945536476647,0.708901868701489,0.19243952498421468,0.5091107935574399,0.661283870511177,-1.0284274736532557,-0.2640137242618482,0.13241578405110455,0.6799478755445358,-0.025129262486257287,-1.075459574439169,0.5564535038625181,-0.4441034647063555,-0.8792371088225477,0.9352386080578499,-0.5417754263071357,0.2534020412811482,-0.6912039337287549,-0.2901928178282854,0.7252928219364994,-0.863840387557104,-0.5963618887462773,0.6722871329361595,-0.2618265597337519,-0.7459785132038197,-0.570254126916007,-0.3092314319654579,-0.7693587878785936,0.7835086392533298,-0.8116294596078639,-0.3883494366563698,-0.7620833613851344,-0.48711080569535264,-0.9264260227265216,-0.8141066075081947,-1.0218296677916026,0.4509094195223647,0.4627641521672875,0.6847176183014902,-0.5140031576857277,-0.15385230486937113,0.967314334974199,0.7160823479946483,-0.8009013276562471,0.3965323132667722,0.6931799216387309,0.7618924955829421,-0.42244471786928844,0.393764517242197,-0.6571734654842009,0.3365771424991298,-0.5037752158475941,-0.7801669720660066,0.035333058345274324,0.1655786698114076,-0.5668508400868851,-0.5737325126256472,-0.7773724100911964,0.2906619789424605,-0.5737346281045274,-0.2980797603116849,0.824446941785347,0.44287753039058886,-0.9073638719765454,0.39143621258978417,-0.5066700090802354,0.5162465925667763,-0.4561890079263734,-0.1935040583538082,-0.849561926691607,-0.9248307704573653,0.43226719455535334,-0.3404111375158183,-0.4181206188511464,0.23297188003187524,-0.423424832562432,0.2300376734769823,0.08259323034342231,0.03402400564541451,0.4613062789308654,0.4991314206643937,0.5405677482478776,-0.03501208950959403,-0.5296049481109867,-0.7738068032281461,-0.7442852268873327,0.9059217090001609,0.380286732256799,0.5667041634705708,0.20078925696847283,-0.9924545843981023,0.37632651996952005,-0.6742557891368809,0.43746800837897437,0.34495531048692285,0.46581351575861796,-0.1943787158181385,0.2855829028877508,-0.6143224545249693,0.7570402749216283,-0.42587471947070044,-0.8778591490620749,0.9499401974751981,-0.37310687839647355,0.14086192968281117,0.9152962257387465,-0.3651131336545505,0.9377511902279104,-0.34944538709026157,0.10198343501965389,0.3894752652226422,0.8532193506905343,-0.7572747272904018,-0.11446908520242818,0.061574403024396235,0.12491348962708845,-0.26262090620263895,0.7669191902445446,-0.7952489746158053,0.6030648162687413,-0.8973117138711502,-0.9401889758031451,-1.0111632183902897,-0.7454613541278172,-0.5056497318256398,-0.6853297147455502,0.4213197730309819,-0.21699735829453282,0.3210392826485251,-0.06502140749117204,-0.9655806780927365,0.8252372295726356,0.947879802497824,0.09138585722117651,0.2874615211080951,-0.261549291527109,-0.3839880292818721,-0.46121714755012716,1.068659365232361,-0.8251474521242003,0.7122876137514839,0.5328411059437013,0.3998232491277835,0.7176626534287446,0.45764270678097946,-0.34080183829113986,0.5568355239115897,-0.540734150378466,0.008206481839695695,-0.3106199148646601,-0.8304005390907954,-0.12460156248160233,0.6394347586823457,0.46251444419940935,-0.872946952943396,0.393122365312389,0.8263473735929456,0.6729144256568966,0.8372304218226998,-0.17449342545349125,-0.8171412451548489,0.3653821613609853,0.5216526349426782,0.4840590860603008,0.5858011263988013,0.10066486395131531,0.3310824271117749,-0.08427321227800001,0.6712843412357425,-0.3992958510079128,0.5251266013964255,0.18728129926951462,0.9119868494472589,0.07173282182596173,0.7332425462124146,-0.8911809062488866,0.15965368204553235,-0.32521321411085313,-0.5674819804189651,-0.3431930094617242,0.9272726091055435,-0.4251069825173168,0.4394570737924852,0.42697181362380454,0.5203846865787727,0.8380839435226448,0.6391713031292269,-0.8788993166819901,-0.7175636548012274,0.26502330923649986,-0.682853282408902,0.8032142261428771,0.270096380071466,0.36221930837351274,-0.5339022182328993,-0.12647925828581516,0.14685726201230237,-0.4767510924883976,0.9315722521336076,-0.10319541018311441,-0.9238432233667093,0.0761236151218116,-0.8995779645214746,0.29534867846699,-0.46279236670343554,0.19898611158426932,-0.030816333564103564,0.9050379952446095,0.29158229772616395,
0.2487096783220646,0.4764693928223316,0.4412132458669962,-0.4189866666397817,-0.9219147774209391,0.11831989848674129,0.20229004958583507,0.018026239178020154,-0.769713454556398,-0.44073713030697914,0.640651725353649,-0.9334521952029806,-0.9978207741692453,0.5880161461625608,-0.26506467745015727,-0.716407952515954,-0.1252642013798752,-0.7446059581565246,0.3883222867446784,-0.08262694565517714,0.4037258838405896,0.6005599887052867,0.9866198882649954,-0.09231159027153168,0.6997947589523614,0.4542723663448469,-0.03271683808691139,0.05536996681082629,-0.7076878660577957,-0.6108605682336212,0.2894001393312189,-0.613528893419717,0.5476952371862818,0.6406700463913189,-0.0810877639026486,-0.6064723546202466,-0.5214547282805486,-0.26356389948175774,0.2500747330633775,0.1611189175061612,-0.8740568564192476,0.9269753073256624,-0.9152192824337047,-0.88792318936539,0.03388381571561241,-0.14841131882713415,0.8308204483638941,-0.09041112639362074,-0.501914205070427,0.8425917324409239,-0.6260897071084514,-0.8446079827930771,-0.02990050751313903,-0.15931219209355474,-0.243922973119022,-0.21083636844634546,0.024898595065536933,-0.18076114414441613,-0.894584241493126,-0.3438470198822958,0.8165164495647272,0.9182735154534554,0.8714163389003828,-0.05620506353670662,-0.8503581750330238,-0.46459390270656914,0.08662041303500606,0.22122141991010497,0.43261537497656494,-0.6321778831176176,-0.5618200775951698,0.21014287393118172,0.7680378010373453,0.9413342922221366,-0.3482015720865773,-0.26619913085777736,0.27018098548647174,0.6291983419824041,-0.07415197041134591,-0.23523717563308874,-0.8469387804337816,0.5851197498773972,-0.05487335489520473,-0.8761861127160351,-0.5031238988428108,0.7024444425166376,-0.7944133411350573,-0.15462970411506705,0.9008388803766567,0.6122803921954045,0.0011704684402129573,0.9797535959480945,-0.1908062129715422,-0.833507366317237,-0.9641502362129297,0.28503960657604277,-0.8309665567321007,0.10792881178521291,-0.14490252865351624,-0.4933975898064976,0.4013375326066503,-0.4389220506434755,0.21744045041827642,-0.6802762459213002,-0.08087087965311622,0.18382610406017377,0.4567222099092704,0.37311821282473107,0.27311480439604147,-0.8273084657193807,0.12284162607143845,-0.5512493534199197,-0.47966432558064676,-0.44727156960523495,-0.46492756080960085,0.1191838967297767,-0.4243397852614741,-0.40898237645155766,-0.5182973198256735,0.17482168270901838,0.4771086634772494,0.9285965611191399,-0.3925689283510304,-0.0971827648644137,-0.8414830067071339,0.6593171371017765,-0.06390137318774897,-0.5167561370440045,0.8784551364577338,0.9838641717263767,0.089699094125225,0.04913040868140723,0.006645978550197122,0.3446953055883104,0.25917880098790796,0.8712836794168186,0.22917763431554147,0.05787611495014685,0.942293352643921,0.34935663547239804,-0.2068020119809193,-0.005824640689418015,0.1269455895590299,0.6721115877775337,0.17377648081692754,-0.21334375323543986,-0.4047367237967245,-0.08625814129610916,0.7974865351414788,-0.8540889316524668,0.483873755375394,-0.09399003978450067,0.7042322229583499,0.6302188842013934,0.10906922309094162,0.11238335065019907,0.8482502094518639,0.8905487529539053,1.1574103089982215,-0.4230915180496971,-0.6776209174298924,-0.07441347373407765,0.9063856606870913,0.8167505343786214,-0.279621023457176,0.7574250187510276,-0.0435384728442334,0.08743854827032882,0.22542515497071935,0.8179457941271449,0.18388074006015986,-0.9272302885963977,-0.002735617482100716,0.8596466085977343,0.08254530662730264,0.6447714208583375,-0.1500635294690577,0.4105988717454408,0.949051242154317,0.6431050258816102,-0.09550872090386549,0.617099128379877,-0.1508508191950651,-0.19749343245590142,-0.8300160024752221,0.15571572966783212,-0.6253249869110606,-0.022784583130339073,-0.20088984258392548,-0.2815692259903426,-0.4777374797367727,0.30643863959723266,-0.4951116953701795,0.9723453232037221,0.31255631236161924,0.3822591013541887,0.010294258331443373,-0.8751436351036961,-0.6784619896308701,-0.4434349432749112,0.11273567299542941,0.36773320554574696,-0.32313670237232606,0.26310750042777103,0.33146278716829614,0.4938437879674796,0.7824148510345932,0.3900063798689585,-0.26605643670149565,-0.09410915148990455,0.11959268051937712,-0.41437417141253574,0.2567654850285948,0.21219587318715194,0.748070000070605,1.110957737871804,0.8090372948337806,0.5995489228796479,-0.15586326843835735,0.876191850155715,0.35517844084681693,0.6154096266538358,-0.4155663180004545,-0.6422187784495235,0.5308319415780995,-0.4023791723348269,0.20609395280980514,0.3755999946522446,-0.9946304675806346,-0.4812929427189425,0.47108616773053413,-0.8868694151743892,-0.40476812027211917,0.14798073763492384,-0.5993526861898102,0.852201025878072,-0.5027146473666911,0.822522185263567,0.9600272364662944,0.8139025500387487,0.2929617515373618,0.5217758319698105,0.8404580702329608,0.2744139121899244,0.2140503798493703,-0.0808919960870615,0.6392449676565659,-0.609748659549048,0.6330844245855686,0.6573959019191543,-0.9473547979863561,-0.44806634757007713,0.2282790912245125,0.20175955399589007,0.14076357768936854,-0.9953766444603878,0.19023879627514328,-0.411618484030545,0.942136658369747,0.21185805247655895,-0.074618854604629,0.9306216501432311,0.8066039861814857,1.095068076909519,0.42511661089784347,-0.2588788032182298,-0.06926603148274763,0.7015374139387203,0.43593861948251744,0.01575788142476068,0.5681055407938636,0.9795617410808924,-0.5313089353708944,0.061300093917527096,1.002816699024946,0.8180889598558666,-0.3186315912332727,-0.005142729247592579,-0.7751023380845804,-0.933411285970865,-0.8203835353663584,0.9447440958797204,0.07954957697908305,-0.3458248491708571,0.06709371811275266,0.4407392195849194,-0.7629366592289466,0.7424558942502424,-0.6778489249751259,-0.6218206342711404,0.5169014191219878,0.36944737168845543,0.12738091764834097,-0.5256964535107181,0.36006850891600956,-0.42201930051049497,-0.5433081880392957,-0.872772616369455,0.7638843075633241,-0.14273850570805913,-0.7607432962241557,0.4163504423693315,-0.47423259982000265,-0.8216188511007988,0.6906878470512456,-0.7091728280646145,0.5496299144607645,0.96092605517065,0.670954591813363,0.2628691446753475,-0.5835796244441398,0.1634586644470717,-0.6350757762787977,-0.28606906630757317,0.49319183325729,-0.21572451762635114,-0.28549308111864147,-0.1564448091308118,0.7381868631264058,0.0844888501721663,0.43054978619855766,0.04543708977384514,-0.5586506072023569,-0.7547686527424079,0.0964817222647868,-0.7672727706919866,0.45028961156924086,0.11157706350880682,-0.026605373966681636,-0.7801893205488125,0.15696026280150913,-0.26166973019379103,0.6309053051918075,0.666238468261088,0.10547251179244087,-0.18810080672380713,0.8550646373820081,0.8915583449614135,0.7946981608377699,-0.5926746120420616,-0.6448349761657529,-0.9342280511337745,0.8061337724228799,0.4351213990782632,-0.9052338129437667,-0.6357676837746108,0.43755218565068993,-0.03553800838101466,-0.8490454567497632,-0.1275302659688425,-1.0205455213885368,0.015977614674173243,-0.014968282256314067,0.04175256635762187,-0.9156560382555309,-0.26036909841565276,0.5465003334613142,0.7733324439982007,-0.7597819460941231,0.5604895105771902,-0.0645434175057112,0.5737254889553202,-0.27339413386468125,0.834920969349971,0.8466960017520273,-0.8242183000995447,0.5805368777129623,-0.026851725305129914,-0.2319773583518072,0.5054244507734976,0.38739547550034953,0.48898918965088173,0.40684659988249156,-0.9568465956126386,-0.03255222646538385,-0.9037761339560098,-0.12661524652554368,-0.39051844422547977,0.10236145683018992,-0.8431913573069365,0.26238003203504173,-0.9101226365155138,0.24455845394981096,0.38697554127752665,0.6863162269455606,0.4697976128708055,0.8546986118641783,0.21285417226387296,0.09268105794516743,0.6377801929599739,0.7365062295286876,0.3848391332178126,0.16218506342111927,0.6384201940839744,-0.17422887157827605,0.5249398055665915,-0.3192125099223008,-0.5230017190253808,-0.7352878561481414,-1.0828524456415427,0.15297168192089292,-0.6717802670579519,0.5870568014892885,0.03829058546543259,-0.12572458419364735,-0.6577352802061445,-0.6375506135991065,-0.5045519472562038,-0.27450749321628415,-0.4813330273176793,-1.067026062212761,0.49710730811947457,-0.862583880312467,0.22086103548963204,0.5584149505900704,-0.5396174774640494,1.0580739366549565,-0.46424877547620313,0.5278762830181003,-0.10389966345448998,-0.9128206548988349,0.9837265653074809,0.081712685535543,-0.7044701215823612,-0.4892632526627756,-0.338309637078835,0.2088972841151516,-0.8192403125800268,-0.7734160882538224,0.29912345395309925,-0.37319638930777027,0.049706417455590485,-0.5928208547767381,0.2892893033498438,-0.7057781188803735,-0.9556872233127625,-0.8289516355755115,-1.016862876019604,0.5360158134520407,0.20689189139162897,-0.8736776492616994,-0.44824417937622146,0.5431380410635485,-0.39129906831282596,0.026064674477830233,-0.6658824987678933,0.024413183446887032,-0.5860285887837376,-0.9825778497189623,-0.4645553701826033,-0.13916837020460204,0.05792684299378581,0.5755394345390838,-0.329967142683409,0.547832466468735,-0.35866596401570155,-0.30658113817282834,0.4467263177151948,0.5774431649970666,-0.46342413903403074,0.6681377847565689,0.12044689717610434,0.3803491110298951,-0.1416087455470256,-0.7670630752844053,0.59238410296158,0.3200597387441811,-0.6778990734815541,0.09968999781481201,-0.03850951060010076,0.26910804469602323,0.8493131311436402,0.4877898829620943,-0.6576057404172756,-0.9399426631790764,-0.42678025184472695,-0.9565166730016401,0.9520984684677101,-0.37568927932830953,0.9491624704113668,0.9183381140241803,-0.34572023662351176,-0.7866395829692582,-0.3298721909365705,-1.0361156058219179,0.18174535826078092,0.337684125076863,-0.4448073380433584,0.13849818393850374,-0.09753080264035385,-0.5383697889486797,0.3563121668771307,0.6774577464433865,0.6323747679775573,-0.8487507813152307,0.2819119820523434,-0.590173082367549,0.1410351645543428,0.6991133780310613,0.03484049770428034,0.8114574630753294,0.8464899989716144,0.07067367525035761,-0.9180643254344704,0.9641698674339012,0.965660878237742,-0.0869684443731753,0.6526117309302726,0.7716891822354393,0.8009719787446278,-0.8147689820228932,-1.1253321535662424,0.7605990806660957,0.26381416532237223,0.19895193670516367,-0.13553146399960797,0.06690998816269324,-0.9553656473851639,0.5536851434032526,-0.7503694137798365,0.13375439055824942,-0.13321167186002836,-0.37248885692108313,-1.044280870013002,-0.28416515463169706,0.16707091729790557,0.44580829897102286,-0.8480197853416097,-0.19279508815498714,-0.48325306078947505,0.8366288100594016,-0.45490880597429223,-0.2921974616497236,0.956376038777168,0.05398274041000728,-0.8317516985298072,-0.4192736885013133,0.016129180039459602,0.7736053023547131,0.21387592146923412,0.3261468704726168,-0.44454766087309455,-0.8474697554752767,0.6116951047331373,-0.016683712180106395,0.524665816148732,0.7198746216925418,-0.5413205719175049,0.1544437806356902,-0.3880518139664813,0.8340756255611641,0.3482092421541635,0.3558991701013851,-0.06306279872537716,0.20992787150334205,-0.33551048983668397,-0.9101662049446245,0.0676621565129344,-0.05498513319771813,-0.9807288120018197,0.2601922285501106,0.28858978533256185,-0.20957590082227195,0.5031878207981875,-0.0942692092984537,-0.4104495472504731,0.11362037605722126,-0.6859193820589431,-1.0463408321770953,-0.4244518949032705,-0.8370537127371296,-0.5052291878529994,-0.9971066110098391,-0.02591111304030885,0.5574950927297823,0.3156328152572082,-0.5568103570680595,0.672779621488682,-0.7825740735634928,-0.7361965791997865,0.754185080702233,0.10558032507247428,-0.2645989988866596,0.5245731116558598,-0.2760527658000079,-0.9419486884423829,-0.001098769882065761,-0.11352382610886018,0.4093859558256461,-0.0901738471865321,0.47039228335581607,-0.6787718844366635,0.8277643400305856,0.1251587433677295,0.7163766715336531,0.7242754469161364,-0.9698226399942175,-0.22060896454842682,0.22252164580246842,-0.8698877154776398,-0.26538658058133135,0.6114128614448174,-0.9855086910804651,-0.6898138489322042,-0.12172713665665937,0.8488554199435302,0.6242795754611786,0.5141139322536405,-0.2584032768908547,-0.6321516074352403,-0.3340481888250609,-1.0818055881136637,-0.9137348903600924,-0.22788793728194393,-0.6456622753825393,-0.5994207265542257,0.13503431602904148,-0.9297699128227492,0.17110601515190083,-0.27699889030097813,-0.7262133865381621,-0.7554602188536265,-0.9329266855244467,0.5643374477734545,-0.7867122599294544,-0.14724990160808232,-1.0386720084654035,-0.6228807425737899,0.35315005289679446,0.4632211046433883,-0.5106788579529089,0.757499389497254,0.08972913133780376,-0.2718488798769545,0.24001396927154997,-0.7275651258092221,0.14751368350035493,-0.6507293303851405,0.6346369589755996,0.2780552592079845,-0.6658894427455436,-0.8373587897276902,-0.2520343646540571,-0.018053829681909463,-0.19040735690538102,-0.6627998850431704,-0.7394627361420281,0.9502833831320363,0.7975478770162243,0.2837583542068414,0.8679217449646748,-0.22750392865044575,0.28138247188148585,0.7956626542133989,-0.3106438615301923,0.8753737574214425,-0.7507263278141214,0.465886904886824,0.37183411070581224,-0.1709158244793487,0.5551688707083636,0.5538019922825156,0.1271999157107564,0.5728007194021925,0.15431746435727492,-0.10730864059100655,0.7610749411319833,-0.5386010531416989,-0.46558578739782813,0.7366497093673139,0.43060639224978126,-0.12956868927435244,0.3559673719514498,-0.6572674485746957,0.39408480526602463,0.7747086927862044,0.1578680776278116,-0.6069858177432783,0.816327735157388,0.42706453434094127,0.7296105616408868,-0.4110893352630908,0.8593871223927512,-0.22627101095107746,0.3189171277939463,0.8872975470297608,-0.5480420818801083,-0.11452638212861767,-0.5960332907867122,0.4567702472304946,-0.07385214938290428,-0.06522957541940774,-1.040433186247674,-0.7897862008173608,-0.503636216536434,-0.2012482912847489,-0.4365411347871384,-0.9613285436301038,0.8106768783551809,-0.6226386762420695,-0.9621354866596006,0.611300578346379,0.26526568957094865,0.1694976530926131,0.8799773281452309,0.8482993003291806,-0.032015771460090686,0.9454929673223991,0.7421657931292759,-0.8345130047432235,0.15145395699633069,-0.8438538524845193,0.23730603615359558,-0.5488296655716502,-0.18960121608697064,0.9437943366428203,0.6357633479434032,0.11152812331637078,-0.8139403668222082,-0.9390543832598891,0.6142887275137782,0.4273294410424419,0.7711281646051262,-0.43681692574359665,0.35273969508900765,0.3702156460516896,-0.7560003907942348,0.12943186464426046,0.5044409176804967,-0.18087742564573617,-0.3848170117061158,-0.971477928164588,0.7993155815874282,0.7326186241398237,0.3223648418538662,0.1461098682073767,-0.775281038631175,-0.7540052627199748,0.2705448712186336,-0.7382363939607884,0.450613092791874,-0.6784318839774056,-0.06919328242793442,-0.831081084405733,-0.7032879118765459,0.715167910952035,0.8913671907210844,0.15884221583352973,-0.4486041870735505,0.21615963228332447,0.7940776769023886,-1.0020026219250797,-0.12944515426368802,0.23971654258424788,0.5871979041320918,0.4312110004870315,0.8334256756252436,0.792996920097482,-0.5725332264238461,0.6459855383272173,-0.7482650053584048,0.15000870898507324,-0.8673951649961648,0.1039297788589968,-0.8312736284423277,0.6480423288388123,-0.6158474693543793,-0.32830135449484893,0.01685125353574765,0.07628491278633721,-0.8636022720471107,-0.36669680811285243,-0.04241717872662459,0.692955804920851,-0.6575184864681515,-0.0467065399085149,0.8004435660900769,-0.3863021867069368,-0.6110512323839588,-0.04668384894155998,-0.6534667086683345,0.3606339235534359,0.056996799197995496,-0.2130376493664785,
-0.9662738852829065,-0.6466214795837961,0.6350522544365842,0.6931424592127151,-0.31268000556972275,-0.6272015993193938,-0.03633673690894024,-0.8857917216512345,-0.7228082099457831,0.8732563179614674,0.7549555720476786,0.34595010237344326,0.7409957240379552,0.6480989299274331,-0.42636354584473213,0.2577487724795792,-0.22110082854668925,0.9286417294089268,0.3121577892716392,1.0026435062705674,0.9185846023804253,0.7277030318084796,-0.7932306236474896,-0.46009678775302065,0.004423217161070969,0.46151707323952396,-0.1825146566845599,-0.8683885575902359,0.37374775636643554,-0.7163741398173231,-0.2929528338255549,-0.16045049248502363,0.28279041210190403,0.8430892378092623,-0.7890932400587434,-0.48705559451982117,-0.8226833592099487,-0.0855842354365397,-0.3991398061581166,0.38501090190841597,-0.1321503166697002,-0.27649355525842795,0.42627395299463855,-0.051415795201319385,-0.9123259119360899,0.7612636840886757,0.12095533804248508,0.9196478075110273,-0.8173469846588369,-0.47362710072902936,0.8016238985284789,0.5185062991304774,-0.6352259301800554,-0.38759408822688757,0.9639323219983986,-0.7571917635406415,-0.08757378108909153,-0.3234639526548233,0.42860779703392393,-0.8783219607006971,0.7873937460928722,-0.003189307705328659,0.8267350553007784,0.8361025266838784,-0.7699989301873664,-0.5219703254765364,-0.8091684492737796,0.9326722405148637,-0.38160983348924393,-0.23725604915858517,0.2823030444335844,0.5225648941803113,0.9543746244939707,0.45657318641150835,0.1518497552317248,-0.6194751119900822,-0.6034543202445292,0.8012360165753816,0.6871819039648464,-0.6185745315887629,-0.36725916448965756,-0.5883924709373018,-0.8892293405322604,-0.4589318094557404,0.7076202980344233,0.504750953070433,-0.9840649668847552,0.7265995057424712,-0.3342946912344822,0.862761231579039,0.4116046348249709,-0.7062270581293684,0.5800928715638214,0.02482387911181866,0.5322988261801593,-0.8243908878040842,-0.0017607472224282566,0.7725052087825899,0.32325937350207207,0.15862278182604933,0.7057903490321309,0.5306950489062008,-0.2262175858180632,-0.41328340453010254,-0.4973132835462184,0.26200272306897665,-0.7097996630856837,0.1085309738157957,0.14073677879320193,-0.7632159062409676,-0.47609049741466025,0.004408488824318768,-0.6835425640768833,-0.6622456009177118,0.4288175078544576,0.16402424198522314,-0.41565053483473746,-0.016947084847548366,0.4707266539604982,0.5754298295151633,-0.8665698574641135,-0.6978255554431276,0.6934333860769811,-0.6877479012314716,-1.0325191625108228,-0.947250977686812,-0.7523381377438192,0.511606100219853,-0.12395562559734179,-0.35404144947245997,0.08397133987889122,-0.10740301953221128,0.6334083350313253,-0.1490040428160829,0.1066832969673231,0.7733516253976582,0.2566987430884551,-0.5260537316380227,-0.14501397850359266,0.8743235485269811,-0.47816968336706545,-0.16514788638744426,-0.05816662425419361,-0.3240301900220397,0.6002230183337389,0.8117519636037982,0.6538752580836904,0.2555033629117511,-0.6844281979386879,0.2617089470092717,-0.7905220478577747,-0.7860412317557978,-0.12326117483914724,-0.08842569488459441,0.19101566781433424,-0.07147342641780781,0.0020687279024028966,-0.6311421414524051,0.3055693161880336,-1.0097209838304677,0.3779495508272431,-0.027486899554781927,0.537511728053128,-0.7174913287808076,-0.8746439970533448,-0.4459258562412658,-0.9176394727365902,0.6317409732780606,-0.17380539179075738,0.9790998120819598,0.35446350609845134,-0.09372925898912854,-0.16520192792183508,0.5852483533139599,0.6802929987710138,-0.6288734424653285,0.7532964400538421,0.3928253263372659,0.4927259237790249,-0.07487582370964056,-1.1453336534493141,0.6951142382483544,0.21935175116316508,0.07386715360951522,-0.5503527976683409,0.7021881743472986,0.530929250245107,-0.8765188213386312,-0.041211758734289665,0.6879207242685395,0.2095992871408495,-0.11659920914823042,0.5860183431644789,-0.8216481273527467,-0.1737121212145467,0.09581580566601766,-0.8774364287193523,0.9839744433166198,0.03632384967822744,-0.16971967648717445,0.6474276892091335,-0.9659152486081626,0.23820382651185756,-0.0048605855412493055,-0.5844927205947551,-0.6376398697072463,-0.8149491195989699,-0.9782587513851175,0.03127700368695806,-0.14462003032282883,-0.27065962786450143,-0.5405691187054661,-0.16576074858631365,-0.482896199505758,-0.026816285608684796,-0.7999438801198684,-0.9333477679055209,-0.030446986606756887,-0.9816294452201474,-0.3687170696242985,-0.7609617726252483,0.9334292987298997,0.3903014659698225,0.13073592103945586,-0.6410187472612294,0.9918476930994773,-0.06695750391478028,-0.6297612780678479,-0.24299385554651698,-0.8923596134671166,0.28979881867762897,0.45875324302979464,0.1474128949869189,-0.016611519518607436,0.1746223300143927,-1.0790871999627694,-1.337574499115266,-0.8846981177735345,-0.399183946744724,0.33887441111974664,0.27623630832359436,0.7408824821105924,-1.000247707217891,0.16292139663420838,-0.9852865270298907,0.3460030829710578,-0.19980760775611003,-0.9022654087794462,-0.21087834086458254,0.48946118846055314,0.13533574431475728,0.7368453761457072,-0.6369339994353158,0.8190501023937495,-0.06828814219647894,-0.21012209896328082,-0.4165733300020964,-0.4636289123542796,-0.03203189691250424,-0.11851171852553061,-0.240695575185409,-0.3266805415101539,-0.41192023927459476,0.3194814757059268,-0.9789998377767545,-0.6619057698388245,0.042446668824133144,-0.7518983164572741,-0.42456301236669763,-0.22952410535156564,-0.605950283937873,-1.111480068783747,-0.5702970908938347,0.2700669972520266,0.21053622760952265,-0.4570661453203399,-0.13592838759777537,-0.8471932215927188,0.8003767034467499,0.3748620818947948,-0.5961400179706886,0.4975407973945578,-0.3923569292465614,0.4347989904422096,-0.9204399108015984,0.6064432594160112,-0.013987623275073377,0.6420172881850623,-0.216991664237292,0.34593483318016255,0.34831153088756645,-1.3456728319010414,-1.1394188614935294,-0.3669998947764433,-0.016953812873316668,-0.6792469342324878,0.2106295615383045,-0.9553128938059896,-0.8235025530988545,0.6111634084521752,-0.42256720116162433,0.1485258409321526,-0.9262902472748104,0.6089719748148137,-0.7878645116328815,0.11809288506987362,0.3815537426434106,-0.6074003119862131,-0.9707907341462367,0.06064200823319976,-0.6860042876526062,0.29166574938150225,0.7661930075589036,-0.9756097358107931,0.26948929541116007,0.29214821969491905,-1.0159554105488733,-0.3897492548110389,0.006830574475682716,-0.02262781404876164,0.5260263339569307,-0.83255118500861,-0.6714591672919509,-0.7449668848604796,0.33453816276651405,-0.28676091092960143,0.4107780569188623,0.0645644461959294,-1.0231108966665887,0.19141592941979432,0.5689704593849999,-0.38068099179460624,0.5406014621313526,-0.5789089969160421,-0.6784397412493245,0.7911044971984446,0.4437976444779077,0.18619993766939613,0.9928340273201353,0.8984897130341425,0.3028882129544217,0.2514493049414246,-0.27375448541793224,-0.21062033317777426,-0.3096016742805691,-0.5121568203777045,-0.3490849157540037,-0.06522066722222238,0.4891919569380949,0.973094420295301,-0.489226684510231,-0.8289089537362405,0.26051621715454454,0.0641890253889192,-0.7120396839845489,0.7058622348312431,0.23427736447397746,-0.10933126819310364,0.40551884260439686,0.5550523295774732,0.024867147619797757,0.4662000005220684,-0.210265201481092,-0.5517632870153063,-0.5605834153239952,-0.6778061474396775,0.9271307351520464,0.2330325186958977,-0.212606103722691,-0.05188096828045673,0.6390277952178723,0.46375539392397414,0.611110027373056,0.30745375385715695,0.545172907591551,-0.07547760755119183,-0.3523674104061251,0.5544144092569028,0.5116784701612321,0.3655193061268771,0.8682441817693202,-0.24594830237438745,1.053446103366921,-0.12806951781905218,0.22017263522552755,0.8111201050503187,-0.5358991257902908,0.38660241026299114,-0.31972445937617705,-0.7538949419241117,0.5118875577969729,-0.07650041957554922,0.22571573653842214,-0.4571530707135989,0.4484437624370843,0.01253104583451492,-0.601714487902497,0.16428424819812093,-0.22075967923590367,0.46303288042193885,0.035740888316986796,0.521655436271245,0.9125577142794106,0.48474825239938624,1.0549782423178593,-0.12463143536787628,-0.29924503281562354,0.20313574818701588,0.11889610335181247,0.25605480793863017,0.771974019327989,0.1997131632734055,-0.7243359085928291,0.8866796110827724,0.4811092196335781,0.0941973901421271,-0.6122710500280117,0.3550895345087178,0.07675533888176311,0.4009514888955794,-0.7510148655573188,0.6143423775074197,-0.3008689104555444,-0.5469969643107668,0.932456970360198,0.21035010650326638,0.04707813754221345,0.21031381656075437,0.8606129972984584,1.0418758272147477,0.9990399452509533,0.8662868066280538,0.6290890810535748,0.6491581490593391,0.42371369639553386,0.3905373747052918,0.19486957041559338,-0.2872674939710245,1.0503745049606732,0.2192020800414052,0.3983384761688232,0.32879045027715725,-0.048057222585281015,-0.04346727649481509,0.5939067818876239,0.5187445972032346,0.4809730623891514,-0.9678416782198537,0.4609662554710139,0.2761637097432512,0.8440758939874988,-0.9990932151426635,0.11988898050228942,-0.964513241487352,0.29168841980066773,0.26742397495906006,-0.03263506989551551,0.7618009568599307,1.1661676191784964,-0.1698366573671688,0.6065817373196984,0.845030889996014,0.3857177703511628,-0.41452917625714164,0.6679114078489741,0.8241169862929503,0.4870378076428665,0.31336652648276314,0.2456427500910283,-0.09972211097653522,0.37135168768480037,-0.01280694582659907,-0.7828693627823904,0.2385806662407803,-0.6771387565325827,-0.7649222929728253,0.3173692213480097,-0.9895264430391904,-0.5123965988204162,-0.5956239623425832,-0.690860288113255,0.2432971303988764,-0.7117483587595412,-0.13582286381308697,0.23854167350110625,-0.2208189091494595,-0.14631386848065886,-0.3091029674110278,0.4185383501003213,-0.3772156149047341,0.8856940657295539,1.2922588572141578,0.2075590313092497,0.4420360754243821,0.9057790861507918,0.697406539637805,0.5695754936402951,-0.5537791442862463,0.8825693521924102,0.8494749571474436,0.614541077224207,0.22994942458755255,0.3773215550608225,0.2980718359073571,-0.7063939933673609,0.0620976461464362,0.9890946140165455,0.17507832805441592,0.8418344130825501,0.7168790752329011,0.7067555810415618,0.29002523079010945,0.3967392996021348,0.401312372065017,-0.24421931314034562,-0.2604989183897423,0.7328119931095917,0.41022236618200053,0.8810736588915401,0.15358151132990724,0.9555231020509799,0.11669882550416238,-0.37405662723585453,0.6600888583940944,0.7432258950186286,-0.5122042820705082,0.11099881389641769,-0.5979162811308593,0.4640059175003526,-0.0514128937508336,-0.22059466168058917,0.6533333298424594,-0.8001759403161237,0.8840181709425292,0.9587547240402958,0.07145912695539525,-0.2755321412417475,-0.8390681098490078,-0.8729182419088716,-0.558475156239028,0.5387047795377702,0.2864999368500833,-0.6061199628535112,-0.19261064856637602,0.17233211975276086,-0.2351293934392997,0.019572209477007434,-0.3491909366148502,-0.6348891654397224,0.7363649793134056,0.06856268345983747,0.2748512286168332,-0.3898422113862988,0.7597144618737238,-0.09187905424130197,-0.8726453381098561,0.43504734570314274,0.5461461570503447,0.4947223291916827,-0.29139231482730726,-0.9071764307252237,-0.3417298745307775,-0.02622737502681871,0.6644157498900027,0.26093700553236127,-0.677248901227744,0.7531795798700166,-0.22198454682369653,-0.6979727974169336,0.08001435586653845,-0.16100618093019473,-0.3952500717126508,-0.3865027727893139,0.2610670948993499,-0.47726066420257757,0.04401088758655745,0.6681910805567941,-0.47820894097989813,1.0114523289569968,0.7853247488312167,-0.1362906054580411,0.21643481553988672,-0.7806355807950767,0.5118228636950607,-0.14517941114577926,0.7049780116827156,-0.7282432226001021,0.5387036079393207,-0.6549663125457625,0.38415942691298866,0.5297822815056379,-0.14081860952494596,0.12969725128322318,-0.420491074296457,0.1351215291216662,0.7230953843674484,-0.4592299817974314,-0.977571038309387,-0.1870261625506023,-0.6546904693827507,-0.9353305798374222,-0.5628512768435668,0.33712412944611997,-0.2911313350080843,0.16853608246834703,-0.38124861466922977,0.1480318362488851,-0.8762766879417294,-0.7489148396076667,0.04640183968015763,1.0194420302366614,-0.7856918359995846,0.9249234904819591,-0.0466057940734718,-0.8454834805075719,0.342957198475519,0.40239317893127113,0.9822629653796691,0.5439632086491017,0.3159186736084565,-0.2486266454253123,-0.9257364190080583,0.41972035467871344,0.8035673718478995,-0.8635898056515781,0.4684807693412597,-0.28113002417829813,-0.06750269085685097,0.33899933387646497,0.14128045234152753,-0.39075237886564634,-0.2927657656112335,0.10402599076118768,0.008279484926235417,0.16741101035256767,0.30857464411851665,-0.653928431247761,-0.12759319328788363,0.5618660459689465,-0.5532002735757321,-0.339930070526527,0.0631305033345716,0.31718619055659686,-0.9153304502120722,-0.14552990385451503,0.027966383168319453,-0.7790670088602876,-0.5827177740231315,-0.44406116239192,0.6396275932554509,0.17440849459588822,0.7719830515273526,-0.13503352810859787,-0.5822866340535316,-0.5401880895910529,-0.02206015059315741,-0.33081454209202993,-0.3249193707318685,0.05688452756905219,-0.6004424283524901,-1.0001741906029606,-0.7781345313402395,-0.8544034507437843,-0.5019508004525476,-0.7132190927684728,0.3654080435208791,-0.06233325514808497,-0.2932131276093746,0.08652221963652125,0.5301965454609596,-0.4642710660497675,-0.2250160183423225,-0.5902449792830269,-0.3688798245693503,-0.4527095903786411,0.4693334042830384,-0.17161612969367393,0.5305300339920453,-0.1389177727627383,0.27100515590886104,0.2530204873358365,-0.6202064640314923,-1.0823175937314964,-0.41963911531950476,-1.0160954477315336,-0.877489335416043,-0.8141689509485757,0.08453608655581651,-0.8642196115812448,-0.06769323889934288,-0.39238345356429527,-0.07385077141723663,0.6159489273674087,0.25342562493349274,0.47498256800429534,-0.29606994292586053,0.7392289847717711,-0.8504262197152228,0.9602985964182434,0.7915415760578186,0.5330055306634947,-0.8403240193468184,0.6807835257270187,-0.9462345504667629,-0.31951310029861363,0.37498748058684966,0.7641309431045903,0.03898381733277557,0.5119203702584985,-0.7049845672025866,0.49308689399329786,-0.20125850303519968,-0.9488455743191012,0.5712727407414809,-0.863553684691306,-0.5779414423068391,0.48230261086986626,0.1253971044688439,-0.9766836236466155,-0.04750789610760009,-0.6788495779815562,-0.46454187817297815,-0.6211680246574794,-0.03023825072270901,-0.6391864412435176,0.22413292305976484,0.2586183898175982,-0.6064599199175389,0.48877858586326073,-0.7709427283365711,0.9863349360931506,-0.087308499648445,-0.33279751315580547,0.5483367412945863,0.3330268905511616,0.05801829460802296,-0.30411592846184493,-0.011512397197494546,-0.5795284307643767,-0.2531788273502283,0.4886547690480056,0.72155630727962,-0.03525007279688716,-0.011813082673855732,-0.5551154856097379,-0.04507664091317261,-0.9897691589204171,-0.8870269607771566,-0.5604396786732693,-1.029658456471286,-0.9481906892442544,0.6569014088389811,0.8069723946515666,-0.8926673659959649,-0.4437920806603543,-0.01041289885691393,-0.48366812016784966,-0.31248291148245144,-0.5249435787121439,-0.982589694362477,0.4418130453528335,0.09169137328218041,0.4472141496045642,0.9499672440506128,0.9326955836969828,-0.9880756780014643,-0.25823885350995995,0.31198940503774913,-0.5572875922258215,0.38549091546053493,0.7126854145178828,-0.056636333204987024,0.022638907099103246,0.34161085710168365,0.550426850325507,0.5030852256061811,-0.942494623388199,0.5126275617691024,-0.6420233378254483,-0.7571017055711913,0.8830263765456285,0.6513858905300722,-0.44394069391178226,0.6239198421286629,
0.16520936771711914,0.995373178654561,-0.8363576997476689,-0.2550549474516246,-0.8535569090562019,-0.004201179308446212,0.9691291102861581,-0.9720604370678141,0.1115143984664424,-0.22723261127958438,0.6026753122929769,-0.8811097444269667,-0.3952181742983263,-0.057914748040002184,0.7102787284269492,0.29297198820534276,0.3107023176345686,0.097419616480764,0.7929897205225226,0.7810291771843713,-0.7011713511054692,0.6939642092371604,-0.11632197635410146,-0.12878796741977916,-0.8544191057487736,-0.8837604725496864,-0.5754459179429015,-0.3115264834223306,0.670031475811774,-0.7154206039961515,-0.14239601768017152,0.9940301952294339,0.7626880787527315,0.8183497801095465,0.459862499278608,0.6514147454640842,-0.8933702632252063,-0.44547366432107305,-0.42287224666099554,-0.49330476337572665,0.061483919987055116,0.19286908468315309,-0.3206292644797132,-0.31043439531370165,-0.8288651138216621,-0.18015337407983636,0.8811616225114204,-0.8355337380744178,-0.7529065693657602,-0.11727864381787226,0.8946255619264101,-0.06400514593421079,0.6892762265782858,-0.8948159758960923,0.16021592690758246,0.8098194190739774,0.9911191804007651,-0.8677906727412643,-0.2586852216867588,-0.7012576878999646,-0.8845533714416662,-0.667311487570909,-0.6596254292964274,-0.4303323291270791,-0.3140827450842203,-0.8619834346816402,0.3430901651522691,0.9526026883594165,0.41718923093592114,-0.014055100896845887,0.41946142613896725,0.7742794994130281,-0.23839176937114956,-0.30354133664922023,-0.30938730172467455,-0.34531654360538316,-0.5332368054078725,0.058350124428022246,-0.8266713345398635,-0.10732866789436789,0.6164114830932882,0.8620019811801615,0.6317638824054903,0.7060485356910535,0.884928916249293,-0.9629929462899065,-0.7113403406243541,0.20824710416828252,-0.8691559770656097,-0.38000104068280693,-0.17071081870470728,-0.7292915541208271,0.1751157217734321,0.9610711816010666,0.28744003536382867,0.5022248544405719,-0.7265877767385432,0.3718006103804515,-0.37150005001726444,0.386534449984532,-1.115748401427467,0.3245885459518204,-0.6402881577999089,-0.37967548885358315,1.007460378190979,0.5009297129545521,0.5513874642119341,-0.9842067237791996,-0.729506136311882,0.98466986648334,-0.5102532142569847,0.18550482196235762,-0.8881239717637979,-0.7498334611665898,-0.4743394029987904,0.18931173763775178,-0.6155675404836272,-0.8656389662920398,-0.9829906247649847,0.5094729588561275,0.6627806218524704,-0.5771939441575179,0.5034810092696841,0.08839877144681689,0.2204051351497123,-0.31533649028502925,0.32095965432178364,0.3936691083659586,0.028266066119027728,-0.4775747327176349,0.5171182132816209,0.07652076474341152,0.6995778111599713,-0.3833698056603192,-0.05435109540241378,0.7609243241204199,0.13301509217846486,0.32056651823052895,0.7464672084106871,0.6626186090410762,-0.08690547802995385,-0.48190816966898264,-0.952917519941568,0.5445035394809368,-0.0775667466338108,0.3054715182253327,0.3243537754452275,0.5038660679993955,0.10228822743476132,0.17826265897212076,-0.12623285556499672,0.801744077944457,-0.04662268020585709,0.22306377111816927,-0.5921976993635573,-1.135302623163779,-0.5156750667618301,0.31464454231325906,-0.13174099657764302,-0.5804232702490555,-0.25274702693799905,0.017362423350363382,-0.8099269086425918,0.8698449641472542,-0.5683710819582909,0.38130756073032956,0.7237024423937921,-0.3139918726616242,0.7561574315724167,0.5290078840425427,0.47027227839813945,-0.5493277380258303,0.04315148570329197,0.5382700220577523,0.003964933638460821,-0.010195380386980245,0.4681577083281337,-0.0011746983396575803,-0.1886912180226922,0.4572802005736325,0.7759895700412128,-0.838664584005856,0.4878113183510342,0.2786933267600049,0.7668863159726048,-0.668960400611478,-0.14515464293822325,0.017575572123336877,-0.8432102396760704,-1.0321175259454638,0.015667708277876436,-0.5846098311347441,-0.45382326889745245,-0.6753893636092461,-0.5711765761479939,-0.06406578144080455,0.22492467129731541,0.5773565049711535,0.6297771743512695,-0.21379994386529733,-0.08846135659509557,0.2519680169982794,0.12855799037286705,0.07279219925550671,1.104815243609769,0.601494272850466,0.061773905407919244,-0.16144423107714595,0.012377098806359257,0.46646051092341584,0.10691994405499756,0.2055296435273779,0.4769047467885954,0.3461552646958196,-0.38480205155759667,-1.0573488199860568,0.5516947541710414,-0.5386187660888989,-0.2623482729807779,0.594692079681683,0.4059193884867687,-0.09001915282299648,0.07078772827952493,0.05958090500922375,0.8102205077491387,0.39883073429308746,-0.8874088472971122,0.41997635045776405,-0.024260406927349987,0.3709487901287212,0.32943488917567126,0.007107086004613792,0.3423575716296475,0.7917517397602981,1.2235524682312642,-0.3754334494608159,-0.3618869607074476,-0.8384335482478675,-0.6088149480711679,-0.08528349325758608,-0.421753863349961,-0.060122408898325125,-0.1128393662563586,0.4650455019796566,-0.3103397976526322,-0.3977540784362209,0.7172730567271605,0.7681394909940857,0.234076098837637,0.21263977433096837,0.12028221598266742,-0.8935039631722643,0.0577123007434126,-0.159233816312488,0.5320795208404254,0.8343293661845919,-0.024748343966947584,-0.4557487086599179,0.35921174367758874,0.38715902673493313,-0.7433771908949098,-0.08432591347832191,0.8066687210160298,0.23294802935728953,-0.023574600886364885,-0.6053127381321517,-0.2877778825660895,0.7396082741909942,0.3416261960342558,-0.6846738582903117,0.3826476289170217,-1.0196829042736564,0.17632401759776908,0.34916206369425373,-0.7473526097312028,0.6775570008772369,-0.8821627462501729,0.8347305200897713,-0.049621761806646465,-0.5717320884760861,-0.9174990693803144,-0.47360016382088577,-0.7015302958071841,0.5244791508039333,0.1626730576471589,-0.6168510189894117,-0.9522425976560444,0.43228446731116205,0.8447012034107231,0.4594381283395203,0.8269980704176035,0.9477582919904584,0.5220488738575276,-0.9063235534571256,0.7150717343392585,-0.14494801107876548,-0.38475586907573095,-0.14111310470332283,0.5815038463153414,0.5710577490915643,-0.5397714381345329,0.43180908442147625,0.30824346833104105,-0.334424632372905,-0.071496759211401,0.24789030824608224,-0.2386647814566998,0.9207938187391933,-0.6662219825560853,0.4749650536460157,-0.06705789493035108,-0.9834704201908087,0.051919177823959606,-0.8085723443141387,0.8056474538811899,-0.9885562668128876,-0.1093649195337301,0.32108868296002235,-0.12026193256779198,0.823933338761583,0.39493650533029634,-0.16622512683581867,0.00787235462912145,-0.8535640870096349,0.5258917384173388,0.4160307387537509,-0.5623336554420442,-0.3723087361940328,0.616885050652356,-0.9975552347918673,-0.6681518080369395,0.6305901453338778,0.408436139829755,-0.5015106448881216,0.5359076836936574,-0.11549810654528624,0.825304917594164,-0.10014595158290884,-0.11905064742331439,0.3785052779843725,0.6432125305446725,0.31980942642602184,-0.79074570920064,0.04815020166053359,0.7658080153912624,0.3334628058358609,-0.33214990677965955,1.0383519792328282,0.6642601214922454,0.3513018832597921,-0.07791397015212491,-0.8328429374935663,0.6173102495680569,-0.06662205452404682,-0.708370188238371,-0.690706188051978,0.5572135387290905,0.3385402879072481,-0.41891854510156107,0.19951905103854073,0.44812694405714415,0.9226755960746611,0.8249109905686185,-0.6192573206298764,0.23091165630424926,0.4629854177616173,-0.9780472505919471,0.5324675108532122,0.23208927746260935,-0.8056086845174241,-0.07702179797921681,-0.6185824484952014,-1.0684957080641218,-0.3231206045026333,-0.20560143172249995,0.2257650163605087,-0.12828217799648514,1.14543556205372,0.7646536298083051,-0.474838720087229,-0.8132554076997301,-0.04071228949815575,0.2602065330399449,-0.6250661575238903,0.14443151518692196,-0.07927661155713082,-0.7473342137849566,0.8242234369348226,0.788674932477702,-0.4279848897961324,0.6188715786930846,0.0019500796737995237,-0.32179270369598023,0.43249437191003626,0.5206084065052454,0.6446029079794777,-0.4247824872618111,-0.8752284515868383,0.6605197976482904,-0.6648643260171796,0.22587072164734906,-0.12044964114370744,-0.6776943779313491,-0.7682771862107727,0.2921894081273169,-0.28411957798735843,0.31435085227139475,-0.29584646404340365,-0.7165737905990655,0.18215002978782904,0.6817288087228112,0.4453400519014528,0.4544848440453587,-0.315306097006765,0.597717547204004,-0.39769448670878016,0.08894010019598261,-0.506477737436437,-0.7356498946626963,0.7411436725558095,0.9584360582791771,-0.12697267507860532,0.14210884785484867,0.4134587577443767,0.8906995126771626,-0.5471052130925468,0.23619866228729947,-0.8477391474753235,-0.6470227127758498,-0.4315681889965347,-0.19658833980422366,-0.9269429419444009,0.6133125421382166,0.8564094150937285,-0.5909479219344972,0.8612038211004691,0.7620164669184195,0.9858095278223629,-0.12776539447852428,0.38686635974350636,-0.24344139728444694,-0.35519749128608236,0.11006384629198472,-0.307768124122691,-0.5802234916740178,0.026721490785355292,0.32688993560790897,0.46643001239358356,-0.783117600144263,-0.5572750061692548,-0.2986018518686415,0.18985099995611399,0.16654753938358774,-0.525382804940254,0.0004996901589045078,0.9176825154927772,-0.2107193886065196,-0.5542930671252607,-1.346653860329966,0.17592920405739856,-0.35061400153027317,-0.6228666966541585,0.9434984741771851,0.16284267793037893,1.1567990723758967,0.9930455065913478,-0.002092206641853182,-0.7859921614377535,-0.623125347458759,0.7630264053652634,-0.404898201050776,0.8467898327051747,-0.6413132731937231,0.3462422498850937,-0.7517768549323204,0.6401692555815208,-0.9628038777795029,-0.8613112787075279,0.321634153472675,0.07907547511384738,-0.2653595572069819,0.4837800591477591,0.5906214550474159,-0.2947973019268161,0.4346858665339873,0.14249815164122331,0.6197990563127924,-0.9207501233697448,0.3095534362678989,-0.9253842629965383,0.4513702790236545,-0.6778979263155809,0.18785728493581805,0.6025225504437268,-0.5660664196485014,-0.26114613207535,-0.7515755211541528,-0.11077861182582674,-0.6654538750578253,-0.32807929415698395,-0.06330847202422654,0.5133863433363406,0.04793021242505184,0.8615395831460141,-0.06378951619867768,0.2752225502560437,0.9838367145845537,-0.20269578685548395,0.44530830396785137,0.3621156650946912,-0.4160820803877222,-0.40444403056336564,0.3225320908574282,0.6660540730716619,0.5302861122425431,0.4175572202407535,0.5750933379449463,-0.8887789948498968,0.5862570476756599,0.014142216322042742,-0.5621282500545348,0.7244331097286678,0.9674664322588379,0.1840460775140937,0.4481484252734976,0.023845179803950425,-0.9652292031730053,0.08218994937805749,-0.07328379411212715,0.8221980915616173,0.0980357085538745,0.7905209268120595,-0.3295980815547288,0.0021200314893372596,-0.5967582377240406,0.5257332849210934,0.1825839603701598,-0.3803491571622625,0.41977017882212514,0.3560910657864519,-0.39433433793820133,-0.6097944960838662,-0.16615370259120438,0.3171463143449452,-0.1564220637734356,0.7487637253103568,-0.4081280734968284,-0.4324688885246631,-0.24382482388647148,-0.4026892955929107,-0.009254629466095617,-0.4474223031006477,0.7119657708774978,-1.1269225048965599,0.6152607839341864,-0.308957912035735,0.46366415601919125,0.6090500046308195,-0.9502596969647222,-0.2898475455975516,0.8403929572446478,0.30521783860677587,0.7873281252475697,0.7179812154777723,-0.5484667050365163,0.04586565461678559,0.10211853379519346,0.7019261925267705,-0.8668505371829415,0.7598973180054037,0.12273310495014844,-0.029611792763471093,0.05724587738027802,-0.49362803403582084,-0.32171973321460345,-0.027069253361858503,0.15563121017941842,-0.2140716668431529,-0.14550917063344818,0.3882117969302616,-0.9276800903550441,-0.39312641658397607,0.5307954898131513,0.5638662216283582,-0.22645571222588373,0.9789765067703827,0.8262276174309703,0.3594613559265938,0.558335434949526,0.8618651623164217,0.9595249637285945,-0.6943679542611316,-0.23142788297790112,0.6370768655310485,0.4230396895698141,-0.04172374999204473,0.7927143924673741,0.5076666099560156,0.7608504231704109,0.3139190888860647,-0.955397547569127,-0.048619085031644534,-0.46536863116129856,-0.6040536569168772,0.5657034301114839,0.8310887790651553,-0.6067595160866037,0.18242352330126038,0.6454336145549283,0.6487261507980693,-0.615482463149136,0.34567455523073126,0.11379198681317775,0.10101408791026804,0.9232411506803373,-0.11557362762588669,0.9239372073933694,0.9427414012109101,-0.8032103586914765,-0.43570968018478884,0.23991663556570175,-0.7245701746348735,-1.0555730648069959,0.6234248218526599,0.23797830312771945,0.5708349814492522,-0.917294740829168,0.024822083167185198,0.6238103455316393,-0.16527216409296527,0.7617600859719798,-0.6442209584419032,-0.1762951339542055,-0.7816504870725973,-0.6028673777925593,0.682501434800987,-0.4275956067241226,0.9301455239828402,0.0751994236077382,0.4600605128917586,-0.2822454841765626,0.6249246270305786,-0.3372904493453476,0.6709951645112875,-0.9138731215550633,0.6433567762194285,0.468105014705821,-0.5990303056332797,0.2336143242114783,0.17286707862380304,-0.2082362458476239,-0.5176108698533565,0.6820138963635529,0.3195424146057268,-0.27174235263630964,0.07471385495181285,-0.11773204918469354,-0.05369254824672178,-0.5238867719649029,0.8988379376675301,-0.30779636938379323,0.7517508047019237,0.2726765546747528,-0.4432300680242317,-0.622791975984951,0.0007817036443464528,-0.34399122387693726,0.27307553112785127,0.8464418378988591,0.9116682222651906,-0.9325833057539812,-0.2262094026755984,0.13948749686038453,-0.03401060165406555,-0.3250006298637056,-0.9552066048257652,-0.3981052546408802,0.5172590230821493,-0.13355798112659417,-0.5043759029093337,0.07383001118037864,0.8513838166035398,-0.4137245473643136,-0.4752854822407244,0.1996458129104564,-0.2511201925326518,-0.1092932944701866,-0.6753267342095887,1.0638036282110688,-0.823038048516419,0.6557901470352735,0.9399542729370742,-0.2736080836624428,0.5416108089672739,0.3397096165609838,-0.28047324890572994,0.8931673811019615,0.343615166872412,-0.36365931394755474,-0.4412067969864235,-0.22877082708725882,0.6259010058787657,0.15096646162288385,0.7203485636446338,-0.3138059001255734,0.8727816418692227,-0.07416318797476724,0.47044521338534734,0.7787087205483523,-0.8753283158795093,0.8075376529967606,0.10601443241159725,0.35173138007497323,-0.41901555081392544,0.3158779317004092,-0.5491616936382485,0.8316354102942833,0.8461553234805863,0.14853686872467586,0.09088919793999713,-0.21883147397636016,0.2228848456730015,0.3079959789975342,0.9282012701665332,-0.6759786899279593,-0.7346423892921935,0.8455585743927728,-0.48341394956022793,-0.9285046054627435,-0.42298585750472917,-0.3834244187668383,0.5306715860653031,0.4778758372462284,-0.18235815718997372,0.44082781223715095,0.767246876602773,1.0904081286536051,-0.011567128298036147,-0.6055709972870245,0.027770779328412643,0.11642923741662677,0.941849295292119,0.14008895260822407,-0.028025852269298494,-0.318374760126561,0.6685519038350106,0.9399855256367193,-0.4127989537809925,0.16242052840089552,0.7642291125854631,0.1246072142201085,0.18893764333261237,0.40657718279514654,0.7273468291235226,-0.30116694704313124,0.2568359565550816,0.534308087671568,-0.08184503510780305,0.134002189210356,0.7068272981479875,-0.20706086860020045,0.5061760141443126,0.662313448235756,0.16005091688491868,0.2962182954508022,0.611838528849437,-0.1257562115402396,0.24030038273396664,0.5064681690449975,-0.023120762806345053,0.6183554956195985,-0.7429351895356089,-0.8553040957405795,-0.7357987358402492,0.15420931255693923,-0.20442276777179838,0.6101552375629934,-0.20023856570710918,0.32837488890102406,0.5321212030071214,-0.36071609058856435,0.052392541146222646,0.17092006241169908,0.6511995373489884,
-0.7651505347641581,0.9228862695636493,0.24349511375517796,0.42524284908588306,-0.18267802778234477,0.7053934642801691,0.8300922491494718,0.13072475782219573,-0.4728358558929129,0.011828380418806406,-0.33387527700234987,0.2449569252829109,0.7650794035060098,0.7576483160154124,-0.8570197926440831,0.8513769303419115,-0.37286523910789143,-0.4355698174322032,-0.5005626700092491,-0.5010852259857563,-0.39034289823974905,-0.3534649647907962,0.6460219752766265,-0.9264908622789683,-0.23823156434847426,0.4625470233098108,0.15274174199711266,-0.7362575536700231,-0.2950619611745944,-0.9102086920029169,-0.9639359103311393,-0.6442687172026422,0.851812752134631,0.009274325898423363,-0.8313626729952532,0.9395787214692233,-0.3994903806108625,-0.9304690536197884,-0.06447282074455202,0.17551363006197968,0.9712897364213695,0.5609976290307863,0.8950766133154744,0.9453656335572218,1.0700661528505695,0.33297983311871604,0.37854822621265427,-0.282838459375896,-0.25058726563886835,-0.6220091809738194,0.7165114934018958,0.6975654388643626,0.5397417932884454,0.20497680245780403,-0.9974736992947619,-0.8640053943206871,0.38680818970405406,-0.2662776931355919,-0.7120800209782683,0.48214021359048975,0.4589108820078176,0.3281112049098276,-0.29634371384504576,0.33712136154019334,0.5852776355704037,0.039483513918521625,0.4146744165956337,-0.19262868838825523,0.024814798495828114,-0.19194507007601386,0.8313114762476261,0.15599039504971032,-0.2243405113741258,0.16128333548208681,-0.31914190894101524,-0.1723558615307285,0.01556373113799729,-0.7234869329624412,0.2618503123392298,-0.357367650495158,0.9577233353966654,0.8438029362955362,-0.5307289700728512,0.4122540688466849,-0.44246549494983944,-0.20439481086913913,-0.07415838452484325,-0.09120581267405914,-0.5795764807988826,-0.31147573665374195,0.6052934711715259,-0.9776814075964675,0.3375469815387614,-0.6956294513440594,0.9945041208383869,0.9726863605031809,0.7517365945691434,0.1172974755100874,0.026704016481912504,0.5479637902017633,0.941075049592694,-0.6375383586621692,0.14098595597210345,0.42904417378452725,-0.7397666478295043,0.12774203076169163,0.3183009257365487,-0.7247479742778159,0.3539370444374241,-0.0794371758224142,0.20489079836948676,0.08218642337865045,0.6934375630929279,-0.40893635110136106,-0.4816228798103914,-0.8725678533975372,0.4057694127051825,-0.17511368465406818,-0.8824298661278616,0.6788875232096862,-0.49673200077316215,0.6111446176472639,-0.308963213745843,-0.030674829205908038,0.6851326924904314,0.8780607967556416,0.5524285648594132,-0.540362623940983,0.03011432854990721,0.33111918341260743,0.527160527391094,-0.7588099909519388,0.04466212554288306,0.1652820447862047,0.8052975008746284,0.5773235086797657,-0.036519726656569024,-0.21152513620570973,0.4656301571626944,0.3618529419264138,-0.7898968121168315,-0.10701341094251915,-0.19206707211159135,-0.16953761702902703,-0.9551103811216062,0.17633613888225974,-0.6112431818780135,-0.4172262745529059,0.4973099065221013,0.7928388975550128,1.0224628247155427,0.7766118515868624,-0.5784175062890747,0.4116221179584053,0.3888757951372671,-0.12208582242814185,0.6677562024395515,-0.30702019578447287,-0.40089329060702966,0.79465882694613,-0.39151699542675883,0.8725022722242721,0.32821648051921964,0.06172099810788162,0.8731428484399927,-0.14426127287266274,0.6183750947528361,-0.38256134120563434,-0.9210468049909319,-0.5993570847970888,-0.6643766889805027,-0.33037208021890074,-0.1938138953962194,-0.6795615290771992,-0.8099265591023178,-0.582776086530931,0.07358128661461147,1.1769683964272228,0.7578733493079709,0.27959614346767186,0.2916794929425988,0.6196864303022264,-0.3088028872695898,0.7478101417834805,0.2579641311259765,0.4485193549443827,-0.3933163449906081,0.9269547263335144,0.8104545578843317,-0.9320706729483599,-0.09964582301628921,0.9275866761018198,-0.661284395955285,0.7005024469439551,0.5256459572590403,-0.5099634391482528,-0.9950087791992483,-0.7470046293086732,-0.06512458919490771,0.0194594138060471,-0.5948499142101937,0.21011468339593042,0.35751672802404777,0.4755550329517712,0.5161352304577608,0.09282186678366615,-0.46861341711085575,0.2717362785443123,-0.0585768675985023,-0.13496427459603894,0.4063150996720685,-0.27162194776986986,-0.05929669546685167,0.16541710654180125,0.6048770470649916,-0.42510325646733615,0.19893779780287008,-0.7073544262668001,-0.844452659546843,-0.6988007309489881,-0.8603084410979831,-1.0034826226214435,0.08040391250911606,-0.33437207896442767,0.4998417284978083,0.17746231762787312,0.09460014079595869,-0.28700530701057203,0.8602791914710997,0.9055679603830613,0.7374362179874663,-0.5854797144924743,0.148624617400613,-0.1748960305213212,-0.25522174821875443,1.0336748612604165,0.16449678233153453,0.09231462297587274,-0.08853521476085337,-0.5526171491864782,-0.4881090178308965,0.21104528154127072,-0.3441453099111231,0.3315760390617335,0.5381752405391464,-0.20659127826186882,-0.4215289674525358,-0.5733169722415397,0.06116523704126708,0.4324841237846278,-0.4719294021802424,-0.8395801505340781,0.744795031582892,-0.7511705846221037,0.14781830167384458,0.7608129376553714,0.25858935594902266,0.4080835669906364,-0.5342771727856997,0.9226009198986102,-0.2268379582121055,0.8309968814560632,0.7749726872943851,0.05816391741635,-0.5016365281173063,0.4926390415127036,-0.32260286671113053,0.46421391424137776,0.525968037016497,0.24564752926535025,0.8090946825226886,-0.22289205715975074,0.5534026244578837,0.9785879191336648,0.6291808264670364,0.5030431021701932,-0.561681660273121,0.22225792881235165,0.29351613392255077,0.01618242239217792,-0.8880054904084129,0.7528750233924277,0.6121108906887216,0.5701394263876263,-0.47218926219427604,0.8744129587725247,-0.842503275728252,-0.23889516151778867,0.3716357823230022,0.38064813775155437,-0.3911015994677307,0.8885525934713165,0.5326406663788603,-0.13243778878143606,0.5068932596495742,0.2767697303959823,-0.7614395792583107,0.6823982195311133,0.5452293324225727,-0.07497482397588866,-0.7421291329966947,-0.5034891775838253,0.9256713281717017,0.2994804464856653,0.24677438431881227,0.39453698346322175,0.8668552376950348,-0.36206537974480846,-0.48670467306410226,-0.524149892153974,-0.9707272097445707,0.7950077943368206,-0.19409457490156368,-0.7640931840234624,-0.4845864393482982,0.3748600941880553,0.4111564048637626,-0.31676777467655826,-1.018545418686874,0.326793775149274,-0.2437545878444193,0.5069530740841511,-0.3791074027025584,-0.13455817142089854,-0.5376877300938628,-0.7785392624000905,-0.554317487771218,-0.18951345614549328,-0.5732535751119878,-0.5542554768521802,-0.5629722274515994,-0.49199128161182343,0.000346963458181757,0.004970044424513895,-0.05417666059743354,-0.2731079707011926,-0.5344128660768128,-0.5469715825503767,-0.5289530461918066,-0.15997716696926934,-0.26721980866004486,-0.901841571904517,-0.6346272711374309,-0.7068959567723184,-0.5950925111736496,0.6699577735055836,-0.8971017197466605,-0.5639632117395145,0.5706043652568142,0.23344157257864043,0.5363189832944727,0.5831707275158552,0.33857320889725434,0.031332985502908875,-0.1955106497211824,-0.39409326369237047,-0.5303975970537919,0.8374612193750717,-0.04282206905432407,-0.037123356770332835,0.34790421025526524,-0.118489632956391,-0.6025166550711587,0.2075875268959347,0.3690032218927868,0.1419958974443547,0.46392118265299365,0.21767341196120538,-0.1444469496776142,0.24292544981042286,-0.16988150224154488,0.2700208758312,0.8516852984840526,-0.437572817376884,1.000031031554508,0.20130667532644783,0.22427052534702427,-0.3559911059036821,-0.2579750666276026,0.576212467316514,0.5485583327925896,-0.5358483709556353,0.24491007784922886,-0.25260511059891055,0.7177272516814075,-0.2305090065643716,0.5870798902600977,-0.7418931326853129,-0.12197352549645953,-0.06048698241458319,-0.24025488097179307,-0.45340861700227786,-0.09068076118968804,-0.5408892055916217,0.372858016890917,0.04329339557451184,-0.359953522513141,0.36760375554852,-0.9905228341370753,0.6490612084782279,0.5503412695829416,-0.14640734222796412,-0.5538882075632097,0.3332045435613094,-0.6823080814516022,0.3256447469208957,-0.8402417251432979,-0.13412850395945317,0.003365214211403102,0.7980966862637262,0.061742399419981116,0.5095338717467076,0.4791305547854987,0.08721921939564702,1.1017676691915133,-0.16125270123824273,-0.6660483049546593,-0.2935939373200985,-0.07317507405711109,-0.09618577884824224,-0.45009129224545186,0.20669972420995042,0.5108455331748185,0.9555473097033913,-0.04143753283400512,-0.5689210811661324,0.050521711311009264,-0.004929295892889131,0.29630402591516086,0.11003654463739192,-0.5268099216462456,-0.1299950488512076,-0.020585659369836286,-0.5635428384379974,0.5951350430097962,-0.7478580482712259,-0.253869706714322,0.1832767222799373,0.6934272869471183,0.4830743914453866,-0.24668113318409304,0.3137526126487118,0.4708214453527216,-0.4236490471361551,-0.45927772683896084,-0.8663661513522676,0.9816693553847269,-0.12960654983335324,0.27887253335295314,0.35634786641102445,-0.9099585527760707,-0.07683590917766181,0.39775097663923387,-0.211220996366568,0.793314032379224,-0.22402201613473377,-0.06242421443065663,-0.16753555559431538,0.5624883201776867,-0.3331017682222362,0.41371037043419123,-0.12608199140449994,-0.8799559601989771,-0.7241049765683972,-0.62765557329113,-0.26447427503501403,-0.7318629883291224,-0.1662583257987489,-0.6461739391009087,-0.34105458912011216,0.26633331393707,0.5607647139322546,-0.5123518248769418,0.9783129537948599,0.7650792598760517,0.5366811181337494,-0.5442871818492201,-0.8918093826416058,-0.8627722136017049,-0.9791629530645833,0.25671474699858904,-0.8807772742694436,0.43546595223583473,0.15739849717344212,-0.2455646778046639,-0.4607510355487501,0.4742175946093152,0.024287514059272677,0.6255011800537662,0.3694954972262607,0.6067293095435645,0.27590943881399466,0.46093019743832414,-0.5395861303809344,0.42055423797936603,0.0802170347560272,0.785131726627341,0.263397778838648,0.20051149646340488,0.4413477532949438,0.9022129800222339,0.34793604637680486,-0.6266157517649953,-0.9469569544964683,-0.23534442635258968,0.08825529120224229,-0.17022178650050201,0.99558870145811,-0.5444967621370412,-0.7567334063546596,0.2828876789716097,-0.2932792436539945,-0.347086551098775,0.3930732714054328,-0.41108725864207135,0.6818147933341245,-0.714666075896657,-0.09683079340195498,0.07253087801233254,0.1856738885158404,0.07246716509654873,0.21479275138358267,-0.5829721269673166,0.5831894708726636,0.7735418733700481,0.7003787490077218,0.6032512121218869,1.0102213947356375,-0.29633563359406273,-0.43622374962369725,0.015178648083326238,0.8936640270578043,-0.18737777217233398,0.799334925412825,-0.6075987099479494,-0.5617171696768195,0.1798295061832101,-0.982483971770888,-0.3991308147471957,0.17753978377079074,-0.9703750832458048,0.7630744125695771,1.028513523743604,-0.2824290861003292,-0.16102817309814693,0.140505220787767,-0.32323966043097696,0.2799242027166771,0.672648379595208,-0.16069997815885542,0.8519085159774306,-0.11124590527245001,-0.8607739897777981,-0.4650308751132291,0.3581804170481427,-0.4557933125354552,-0.589960316035362,0.6525785815731123,-0.7360486872682956,0.6348986701568987,-0.875270234802437,0.723950176209905,0.1203668121631285,0.6649792428896102,-0.35658993565767294,-0.17459074300944752,0.2995294690422632,-0.8442836559199979,-0.9038088243257357,-0.4042206891608722,0.22659184647109923,0.5717217243990143,0.27877882118848896,-0.23612356615848476,0.4409612712046533,-0.03967074363627695,0.8812978982111641,0.4144162478003641,1.2393904790935621,-0.053975670475149486,0.7315132585307189,-0.17727782454281676,-0.5605634720237779,0.6852500777776711,-0.1635738933102793,-0.041064911181637555,0.42333912842890575,-0.8480951230116609,-0.5743362292650458,0.169902212571029,-0.6497942706551265,-0.9864044283629569,0.672178488047956,-0.19840451104723722,-0.1329662107664085,0.49675615422935276,-0.1896262913409266,-0.677654740132999,-0.8733923135329449,0.7971504584605641,-0.796672876208116,-0.09997672251586566,0.22133546598641018,0.567359791662721,-0.19027035459865363,0.4922099657395603,0.5367842328217144,-0.967966640566591,0.023549710598693725,0.2730032484637384,0.7175022391217466,0.7304364979533666,-0.3263972929509399,-0.5836929777682779,-0.5941735871303948,-0.24391002940869705,-0.8584773644319279,-0.4299073852711537,-0.9993836416007795,-0.848382135992479,-0.5514875316458786,0.8139522267159888,0.5991019375512482,0.6129233528514267,0.8736924388518236,-0.356125762984117,-0.7153530932697653,-0.6187431133026571,-0.005790125723857638,-0.2723009713323281,0.8963275987237508,0.6902408002463418,-0.6429060005890881,0.21529805917453582,-0.6283823033519313,0.970732033574446,-0.8267007886762883,-0.8340109799762493,0.1890763752174219,-0.1805674426661591,0.6375349211869655,0.1760958608820216,-0.9151910221169899,0.7509640091222016,-0.8825519685252317,0.3544123904658212,0.7939907765669796,-0.8972546810169788,-0.21911054290631654,0.016304597138168953,-0.06364185864981314,-0.42757329549248174,1.0110719775799746,0.23212081653961786,0.2934571822462267,-0.8502366631924543,-0.8005468561633206,0.1420063815527942,0.8185618695502399,-0.11610405629455263,-0.7218674404998523,-0.8371757595920383,-0.7760270366993735,0.8217350653791988,0.357033050968659,-0.1939694767861232,-0.07744297132221828,0.8999203230262388,-0.15883460667530483,-0.23152511273473322,0.16058897218573043,-0.5738302215486775,-0.51630114730122,0.7027649869619379,0.09912976226551873,0.16094577171643376,-0.3738993976121454,-0.22679257692744928,0.10149726565937119,0.9532780084807243,-0.11443844152141489,-0.34814085548160567,0.29776524123920395,0.14167986112334974,-0.6367320015738622,0.6189969049328682,-0.2682836198253721,0.14983300374158715,0.07013154394775666,-0.08373638574299251,0.272589697727895,0.5821384705955444,-0.8074509358276453,0.9209422343469628,0.5984915186018626,0.8071085960403832,1.0653215602780322,-0.7176178134081447,0.938348926380549,-0.23998729421497275,-0.960448221515146,-0.36972803839384905,-0.7048591109513462,-0.8833384408545415,0.5087654104729848,0.7551495532915893,0.09689080988328487,0.5574297990218008,-0.07667298823944797,-0.5540929239681937,0.5239489641749207,0.11288892505817041,0.17954987057903138,-0.8770433921069067,0.6082316799675285,0.5115607657296101,0.6120286953900868,-0.8442111493684975,-0.06912354977196584,-0.2232360667051419,0.1020752229309356,-0.4364854361427525,1.0279695212176623,-0.4460609601719442,-0.542432417559537,0.6220442103301507,-0.17512695001363798,0.10753632747386084,0.43599916475934286,0.016831340920908433,0.6429497450159971,0.1745419905191905,0.36451699490117184,0.5313674557222766,0.952805983445242,0.9763115610703446,0.9455889184377614,-0.561811770404237,0.4511053675574209,-0.5557707958249217,-0.4029913675876409,0.04047647388438673,-0.9190467603839867,0.2730882007036123,-0.2550174116439139,0.8103919201976401,-0.02661775634425387,0.6205605257095868,-0.6011741896525157,-0.3005925564174708,-0.2645306405918805,-0.2690688227277526,0.3754016647529965,-0.35620573110938575,0.9856735518522328,0.17028316287272538,-0.4375684980095129,-0.9100257734440826,0.3899532905090488,-0.8365776290546645,-0.47826591102077076,0.28173252852082026,0.06977893934651726,-0.9100920341522835,-0.22068440408119133,-0.9076982627048227,0.3122356885664067,-0.10447419347166734,0.43978642087890185,0.9119924809400884,-0.13193157968964458,-0.7452312702102873,0.9846372325890502,0.9539728716737814,-0.7903381408554727,-0.0966228566668932,0.4229520516776095,-0.5219066056398322,0.8021082237765504,0.3356424481257304,-0.5815440550360601,0.989811132506566,0.14802392501335737,-0.14077183306113766,
0.8763077784704065,-0.5553905166731679,0.6096454453423119,0.6534467605387881,0.6337066835223346,-0.6864573571542352,0.9145539488978829,-0.7817239681336954,0.05593769350240829,-0.5455702700899168,-0.6365641393775072,-0.17619785156100898,0.9425812711158639,-0.8313088944314295,0.20697585994412437,0.18782681602332008,0.8290104783376273,0.037201259675413434,-0.9469449721161329,0.718643830704497,0.07404085376969986,-0.44913595236800313,0.8439450477682514,-0.5200552700901222,0.8277393381411653,0.7099925671355054,0.6378439355078587,-0.9268807008719451,0.3033442830113908,0.33703530682350835,0.06537132359647813,-0.19384670919486013,0.978068844583567,0.025525563143038887,-0.3668896100226242,0.5938917248585134,-0.4265145705221405,0.8962788150805046,-0.608924445628611,0.24198719283458334,0.2977654739882707,0.9819645889963202,0.42886639306821683,0.3620525989267403,-0.3299743582266062,-0.3326595561665847,-0.1786260955208054,0.45621637386957564,0.9412139252915412,0.8432526726510345,0.4940918978783167,-0.9336837545219036,0.7037843530429461,-0.2842190164349434,-0.39348451897533776,-0.4806927992004406,-0.38610601139241996,0.6672278027993499,-0.25466140787020564,0.9340018873576925,0.013323102391863628,-0.515759144575274,0.2339975010343378,0.3161470194818574,0.5957098454154686,0.22244120734374395,0.36342001894372017,-0.5361727711092198,-0.2750040680159756,-0.045747265089610335,-0.7617840689872872,0.6450505452594806,0.22985481241126207,-0.5860359327107387,0.6680744797065055,-0.8985753923562059,-0.03353112195501493,-0.12590332219252479,-0.3994639834386812,0.9837643530759862,-0.5811024811606769,-0.885471288365286,0.8022189540213416,0.5144403983989361,0.6969656171348448,-0.2849439779114207,-0.5083556032833998,-0.799592972623796,-0.3049197543234019,0.8526947075358469,-0.11648167776280305,0.5059891771527019,-0.8325395158850452,0.6132574771810585,-0.729061478763701,-0.033446147140274995,0.48933850949217855,0.7833266127024789,-0.9511911479629905,0.20941993176110385,-0.6581876312140251,0.7394091727471702,0.3746437488044122,-0.19795447654549264,0.642670888850145,0.3557510696476309,-0.6013744193190728,-0.8023323578405029,-0.5656322585949104,-0.6241888230388891,0.33955355771395723,-0.41777003843543925,0.428262599627794,0.31245022101336684,-0.25996165132564975,-0.930730101660044,0.8243665746893734,0.45024971309757866,-0.41406469967680315,0.44466049849304917,0.5446554884523022,0.13623928614240954,0.2155769697503579,-0.8260079495745882,0.7121967934047762,0.5257500453212841,0.21423920355030004,0.07543913749427468,0.11058931376268517,-0.8372125360910425,-0.9910143436714739,-0.549630500517435,-0.04920444416087795,-0.808645985252871,-0.07020327947527731,0.751425941463282,0.6627730656412976,-0.4738592082063511,-0.4049103558840339,-0.20387246702622996,-0.6989181092310666,-0.48025242618756336,0.709921927215444,0.28774547578928744,0.326652894058316,0.912698770806049,-0.23159687207919655,-0.642578328357691,0.8341890691877372,-0.17350151980178044,0.01943011954339698,-0.01632494724353051,-0.38229657188455635,0.2832329715567368,-0.8193782387251295,-0.17178126200907007,-0.9537567667234038,-0.035902755141819974,-0.04439639514073609,-0.10223089000337733,-0.8099457034571985,-0.6670227975614915,0.6935044111823555,0.5569146196577961,0.3133157022153232,0.392969474036266,-0.30694284500126345,-0.7331735454785213,-0.38301915568593303,0.9097969816708866,0.6759605001975488,-0.6101752103167242,-0.2413977096143629,-0.7557106950056034,-0.9451710260138543,-0.0034103924341736124,-0.32463240706180724,0.9233442904324359,-0.45736170436916745,-0.13690978151975014,-0.6270373484089489,0.6179458874618365,0.21425945222884074,0.02487795984325379,0.7110781826999311,0.3555212889788209,-0.006043402005299937,-0.8062547523045792,-0.11165810292245702,0.1281091656302633,0.413120594846097,-0.43801504869936414,-0.7897111142275344,-0.35923560892984674,-0.36404976306932113,0.7124262081418005,0.21875911965501493,-0.17797231583920037,0.8354569571596504,0.32115820880575074,0.6492816811711022,0.8609924881723674,0.49030821188714196,-0.8961716970646939,-0.16764985662910278,0.6493419159913992,0.9077523541999697,-0.6037490254877772,0.5980882438236862,-0.8689522816061767,-0.26276317364478347,0.40009873941874724,-0.8335130488809721,-0.517479238902633,0.41937945033466684,-0.3168369618219112,-0.550643411570969,-0.5765309737979503,-0.665651490471306,0.7448794945568763,-0.5596341392629082,-0.8040639099818347,-0.6234837181073769,0.0256212959309301,-0.8956125232937893,0.3320636344061809,-0.6456596366813281,-0.8383730712773318,0.4013151794004606,-0.14629608215274637,-0.15347720920265764,-0.11255093393701361,-0.4093130288908189,0.3892511472249352,0.62502897508787,0.6942659215978324,0.38455715837010557,-0.9452765276044643,-0.8889907367205533,-0.4979509554569068,-0.7758470369039429,0.9943569872353026,-0.5397977754084871,-0.06046084581758684,0.271603109515225,-0.959820359631481,0.8976975955892476,-0.12746552422192578,0.6757540822497116,-0.13046612063623894,-0.26485206751899304,0.344941540044275,0.6427074011912091,0.034573854765834744,-0.9817669329378926,0.52593637917747,0.828840313325468,0.5950342915169053,-0.1399187530638713,0.19054478795535656,-0.5465960880319787,0.18583250485475647,-0.49619368038377254,0.7876605919452133,0.3253333061195053,-0.1482065853418444,-0.2781437540314556,-0.9831696509254376,-0.9373841020432825,-0.7237334533557448,0.4720262715445446,0.7569028678575346,0.5708538547083828,0.6479205869498481,0.08608059911005254,0.3458357301062553,-0.9337626696677934,0.5134680175456048,0.7886182771785255,-0.8699307402107577,-0.9877965487333769,0.9259758586292393,-0.2932367925357042,-0.6004605560528553,0.33642413791553505,-0.09054066659733526,0.5053996107298351,0.43979955888688593,-0.42509372159884024,1.0194721691224986,-0.3490203357164797,0.6989090594757846,-0.8801038989620313,0.35835689544422794,-0.8516799171365081,-0.3952588038924558,0.16678610403206054,-0.831980757152002,0.3450043739263274,0.7347945833753835,0.5195207405280504,-0.5671304534803183,-1.0214836037421318,0.4036199684523667,0.759945649251775,0.957813003105951,-0.1423672219608974,0.7070513986180031,0.7537347287681377,0.49644166953331026,-0.1952205428343583,-0.07064687419251925,0.6684933167994309,0.4392083282573434,-0.5136073090776986,-0.7345939371874799,0.6829814932844683,-0.5891378705655939,0.5951124355199873,0.7352223040027743,0.10597884872969772,0.19965609656206018,0.14616002390002433,-1.1894329884025987,0.25596900360836355,-0.6767841095060052,0.47669127794809374,0.6288945360114937,0.44273255221627933,0.7619999079736225,-0.309683768861533,-0.9388593095030952,0.49547514296654166,0.243940401216715,-0.6826062303290666,0.046688719964512536,0.622444667451715,-0.23469422923291972,0.2183845033935774,-0.10724970353626873,0.7644426504583649,0.8685384701708481,0.890244484582111,-0.06038781986870319,0.7841358542916836,0.2567745825786544,-0.050788921329611374,0.6102599636101405,-0.5974080016088735,-0.7080016014116112,0.2479739848545012,0.42643960186383795,-0.5485535897857045,-0.8548026061746605,-0.6583634479734143,-1.0595275900374836,0.737305854049371,0.05808405886718823,0.9060463161380181,0.8927923719359377,0.7207239769167292,0.19250258537602316,-0.22961473991188258,0.2740912020443978,0.7038350431065705,0.0887221306731365,-0.925096515333889,-0.456696764933225,0.5008628398322952,-0.4693256074645255,-0.3253483085178455,0.8339224501186423,0.9791256062367251,-0.49063175109600043,-0.059697906721185426,-0.5337936467220448,-0.280414887181533,-0.520326204713982,-0.2590775775689445,-0.21426229532729768,-0.9407006498700633,0.122763206742747,-0.19491430932349882,-0.4590935891201975,-1.0140143453529569,0.6719290247404364,0.051027578814426565,0.6365870203391556,-0.1953998607365663,-0.4168084982350682,0.18910580677447786,0.6433282667419676,0.9267895979638143,-0.7734299452861535,0.22931168481750808,-0.7313733892548113,-0.8732413302303046,-0.5350117314896422,-0.44599545920731937,-0.6555220438124286,0.02133339235822143,0.07038457009146173,0.9361247283620768,-0.6598183348941239,0.7146043551264499,-0.13516011743128575,0.23467838350358847,0.5796391154540611,-0.26821947209714586,-0.5282699221632563,0.83759890896914,-0.41243161361377995,0.1442724331907914,0.4830953571228322,-0.7040811542448904,-0.7774262438189478,-0.487956515479849,0.2893931553733639,-0.6173559381259015,0.36827679116227774,-0.6777596089916975,-0.14120584535431857,-0.7588001612503106,0.35412262907093317,0.29198496720069345,0.4170844326439465,0.49977641863305977,-0.7581959073031354,0.81423812943054,-0.4290131717636708,-0.08058254368139335,-0.6775775248479924,-0.47298578570438876,0.2189179986468089,0.5981411590909053,-0.17401712808943956,1.0687664319289865,0.429910074094114,0.8784720213964199,-1.1317722500395426,-0.2078912419603246,0.3694952842323196,0.8818897711853062,0.3026349675841894,0.8388970790064421,-0.4375626153415245,0.16987501454999346,-0.4231623820425993,0.008924857420587573,-0.1973209921319754,0.37572507804899913,0.3527395478333324,0.8552498065738767,0.6043833834627393,-0.7623614199933937,-0.2782699019696471,-0.11853895616459274,-0.9553034778035022,-0.299568842538279,0.06491228222578767,-1.1802748055791685,0.42753011631257837,-0.5265868675617686,-0.675319227179101,-0.4802995341102145,-0.20998417005350054,0.7517953825171817,0.6945571987152781,0.05726155324344877,-0.9292143820758885,0.023795431621844092,-0.9285291132285559,0.01913484678864813,0.4624630923951434,-0.7555527148774736,-0.2503262469457879,-0.9386288426376139,-0.5729193375751176,0.8291044676660688,-0.9084803358849836,-0.32774421502245243,-0.6577974729248159,-0.418392443387408,0.14060755685809834,-0.2568457301511726,-0.6800849008768407,0.4818582469822004,-0.6774496087005374,-0.7212453771933158,-0.5987471243167803,-0.2805113940334117,-0.4270642498678803,-0.17601042239449657,-1.0424173831529229,-0.29176567170599477,-0.35733929465445147,-0.2598825657999426,-0.221541858506886,0.4058455084296305,-0.7467911938274799,0.3252524825919724,0.7447685718602962,-0.2647904868880428,-0.724831526111508,0.5568587366994864,0.4671553862412583,-0.23767520576910584,-0.9190615046997013,0.4046295458163477,0.9778290936819712,0.7927357682111763,0.4886729655633273,-0.27087132895167076,0.6838533024877986,-0.9782110423656425,-0.14100946612904672,-0.7189542106807286,-0.762130535910666,-0.9863007508720585,0.11513745974921206,0.8393608028962205,-0.4334900193879044,-0.11287001627779095,-1.0920176041936762,-0.23230601634316128,-0.01839596245461291,-0.06739496874567466,0.7036373356472309,0.7391586629515866,0.10669570189392767,0.08587796154340327,0.03729481972752508,-0.4020527559342362,-0.20348293204402923,-0.45089850638429896,0.3430815549752906,0.07701622778651479,0.7450842107976624,-0.7182668946182017,-0.2760969119037203,-0.28136876675734024,-0.38999060555673604,-0.19601433185818506,0.0333320046142936,-0.06701975415525188,-0.3797815788727495,0.44000285703717046,-0.7268745812864462,-0.5488336303438273,0.5972725896434948,0.25254948033504443,0.30235777384188844,-0.8714839494693981,-0.6614974514857245,0.6014628334776285,0.3780453996550048,-0.7615611019960945,0.6653719039289772,0.6351320510528257,0.1883184524134392,0.55272707903403,0.23069935678020648,0.39974947360366286,0.026196504524745867,-0.3295465311138558,0.025333587045514767,-0.17774033942600378,-0.8437093269838624,-0.33154882501408944,-0.0013964055766449372,-0.539517324486136,0.6894887496030878,0.822899502867134,-0.14451098336073037,0.8784334180872624,-0.3053831003851509,0.9529974126163996,-0.05875357101192807,0.23531644121193537,0.5127954596675653,-0.5138948312838431,0.8264068613965905,-0.47142049588496515,0.13868635503107632,-0.7884320326162351,-0.8091950425650426,-0.9752835993967865,-0.6819706994366114,0.7085866363617854,0.14066796997002284,-0.4479484185054816,-0.8297506829559267,-0.47166956152541867,-0.6725830275838987,0.8633414454403342,0.6259988258006802,0.8723618727490466,0.4669820135116394,-0.39723798587712517,-0.46298636431804147,-0.29986307471799356,0.49706619131644764,-0.6191518990359534,0.7864890791110242,-0.27898614493788254,0.9427184236983449,-0.4876330256399001,0.10348377039005148,-1.1431725449015584,0.4654755756436666,-0.9352482051940746,-0.05019437863095226,0.46946992323205333,0.30965885216784284,-0.9035115870841499,-0.10034890295754077,-0.20258363287381664,0.09872759598138647,0.3696373722388506,0.8827574706372912,0.13718468735908101,-0.9814605705517297,-0.4010731011427801,0.033512164639529225,-0.7582217076303577,0.6592004637531834,0.2735156793399518,-0.09386375369626812,0.05784855668463127,-0.13937247405405032,0.8193792135960242,-0.1494560487715697,0.2765550326915249,-0.5234875003348037,-0.9399315100930028,0.07264320705374469,0.39213150260753765,0.8385118741940824,0.1890165823507758,0.9379696197882554,-0.054796896228646336,0.6134832703465574,-0.18834253578998308,-0.9707585248670874,-0.6426202640901517,0.18114401993079476,-0.4241002945220804,0.4621359328403918,-0.2553266995842765,-0.7928265215711683,-1.0224188073003688,0.7990968504419137,-0.35738941300603744,0.9185010517469894,0.9317299743163153,-0.8089804874442363,-0.6642744247639223,0.20765569939420606,0.5520371018134962,0.4084355860216511,-0.7049347282139191,-0.03599833893075333,-0.20441387031403205,0.12895538857623348,0.6690661182155936,-0.3410164285616036,-0.7900327798373342,-0.8325906962122984,0.37698056945021124,0.9793574581732623,0.6319650153559457,-0.2491929576951346,-0.1565834181823591,0.5054804634675756,0.39655643599121104,-0.5355185698944118,0.7486171010763454,0.14454015385829197,0.7479067425520399,-0.8600614335043498,-0.10522881371525675,0.3067701345269259,-0.818341821604142,0.2750479635940107,-0.32670966296889253,0.5278191449669567,-1.0066624465463712,-0.1849086067236497,-0.026113875919198875,0.12837287325119348,-0.33796132999687184,0.6097869949164726,0.5695424606335924,0.5740353016919467,-0.08851098713673276,0.36950794839968465,-0.08550774819327865,-0.3203790021919544,-0.027997626357259765,0.5522239730392987,-0.47653326707904364,0.509231751826932,-0.9741600736825491,0.12911354515779205,-0.5567013160390446,0.7087071637288751,0.18978611946868323,0.38189011232689823,0.3449474160408005,0.6190347930029946,0.8653559491192744,0.843563231043959,-0.36222451124826055,0.7748461397188885,0.8877858800528995,0.30418828391029357,0.5526545447247942,-0.5699760790063985,0.6587693933024625,-0.6825244203059039,0.5756699294128411,-0.9413318357743308,-0.9397684436085015,-0.6490987007576513,-0.9596009883215929,0.9787839414825799,0.266793986357492,-0.988290731621826,0.4030447779424031,0.20243327686796264,-0.09236027723135298,-0.3527877935976529,0.6460923322113367,-0.6107795911194546,0.5527357847222492,-0.6318470252741611,0.9132166212740752,0.5537018576766705,0.8226305714743802,0.6494170136841793,0.4976492422132986,-0.6398955127600557,0.5932515600943992,0.26950784618283874,0.6289016250186842,-0.1890190203652683,0.8189144339273985,0.5111659042514006,-0.39625875348402023,0.21787222431457984,0.5753611335312986,0.632037964196513,-0.028977887443216922,-0.8074864101537219,0.20720858405903675,-0.48592246987369997,-0.7515337473025181,-0.10775590384972822,0.3365956546257942,-0.0418687282677912,-0.2159796431084564,0.575979245833828,0.921875462593252,-0.8202736223383308,0.22544105336463102,-0.05194916003430061,-0.2110253694684092,0.3711236586036765,0.7107640076806033,-0.7245016215924828,0.3547717313179887,-0.12278321535465865,0.8744065637576749,-0.18746477522745286,-0.23585678366609766,0.17874049842634562,0.21142721787427432,0.7489804953516938,0.17112638302092786,-0.45829397346893713,-0.3458891070272563,-0.07409358363189698,-0.28911293335198635,-0.5633473255759205,
