-0.126283803759903,-0.3616758735109269,0.2926303194480231,-0.6537992902791212,-0.5284507610415758,-0.8428430914572793,0.35557527264501765,-0.3070863057185076,-0.6376542023395586,0.17484005615020748,0.24005066914622825,0.03309115688438742,0.4827550082427612,0.16416247410285045,-0.6842376967440957,0.7576248628821374,0.8540182091988473,-0.27231910462581976,-0.8665896590437068,-0.6198925535781485,-0.6292906487000232,0.0667111868059671,0.3755288683224147,-0.22731162909288782,-0.49678411069826667,-0.9768795373038459,-0.20518050912245855,-0.9117099393004375,0.10884122091049875,-0.6873691584493666,0.5276819298407374,-0.07418483451345304,-0.6201098495678121,0.9540690707771387,0.6922526039984338,-0.4189359849298767,-0.7722611457055324,0.9767237858863885,-0.749423572245999,0.6929292934648222,0.9645883749777077,-0.4802332901901592,-0.19671391751111797,-0.15326303340445707,-0.2692222976623297,-0.3938996191107808,-0.01720850116214301,-0.7875649143314479,0.7382164891709013,-0.3011780868158007,0.44726732259027413,0.6908868856888402,0.22528760701608164,-0.5348944960292055,0.562164992181714,0.43610593494421024,-0.31857926628466315,-0.9836522630731395,0.4154301261071305,0.4122508958274762,0.5589273427579735,0.7754097389832371,-0.44375806600295636,-0.5952717693702364,-0.10019127473566852,-0.4600682685367675,-0.27762277714760053,0.6695710704821031,0.8607218402756156,0.03419432782988586,-0.9357271819888062,0.4652618688677044,-0.6697257581913323,0.5920351606498181,-0.39605405010846395,-0.24326071823336196,0.14728507361632104,0.9396699105067413,0.8275931570854296,0.8839075088150379,-0.05907472888300336,-0.3319189705178569,0.12079909826863755,0.7256588108045428,0.28811522794150934,0.5593632283544614,0.5957169491171654,-0.7132824446445085,-0.9802329745788259,0.5036310610841618,-0.8781524361489733,1.00870324309783,0.21314500519349522,-0.9139479195684882,0.5787048532170324,0.37058657521799787,0.11159446745465132,0.011571747131765706,0.30804550668067965,-0.1357988796489343,-0.9523273452356427,0.7196098931219284,0.258098662370189,0.3857680412550178,-0.9411764956228403,-0.7601191345210427,-0.901162759845658,0.884450620830999,-0.11126703178867103,0.24693958170622787,-0.3869349644788278,-0.6116812175062294,0.00620516116360359,0.5745385622090486,-0.692092370332605,-0.8409814643242339,0.8874992454242041,-0.8521662435768856,0.6833462564707086,0.8673453074718575,-0.8992813684724879,0.19467857026840749,0.7846412181775877,0.8726379918677019,0.9105480040229889,-0.6840801099280759,0.6382495475184142,-0.8221639167583706,-0.8361997624620302,-0.773350221855563,-0.805677576470146,-0.9972878847816977,-0.3540640997442336,0.22305454735755162,0.21133369503135332,-0.5901144974051735,0.12729503453714153,0.629888479338536,0.9641892527017057,0.8467253593750625,-0.9686253212186753,-0.2993464280037337,-0.3922361851322154,-0.9359746978701916,0.644890166118722,-0.22666786198789757,-0.7812968769269844,-0.9672661361223333,-0.17225785993044626,-0.8524765972963554,-1.0102180823505686,-0.36022126691395223,-0.29844280857747096,-0.0894289135092968,-0.6439673411007781,0.8132242016958201,-0.44069579100797857,-0.2613641917490328,-0.04339510783609698,-0.23594492073412968,0.5692964875594665,-0.6256262051369708,0.31238474864459226,0.9420253531119186,-0.2027299446786126,-0.6940699891639901,-0.38398819355828095,-0.8339571837899202,-0.11072843859772769,0.9709725651610299,0.351998847484789,0.32946047297494857,-0.4413659858901128,0.03573788419300733,-0.8721209025172622,-0.08788182372507504,-0.6628332365130482,0.4952265082362685,0.8065923037456596,-0.050991539575521036,0.6689007666135686,0.18741549108050515,-0.5524186344439408,0.9926748905821244,0.2452684419295229,0.9934106176754599,0.8967525017269503,-0.4331015063990985,-0.6450267409025778,0.41842924148783656,0.9227839794572631,0.649705051714983,-0.8242166907687357,-0.771261589194144,0.6680409578734281,0.2001217424235504,0.9388263344782444,-0.5727344161464456,-0.5163213552001976,0.1945814232825308,0.5612825927726055,0.2596152579227568,0.5823000481468644,0.9712169056223072,0.30227011221366556,-0.06861333313955567,0.6275165951094074,0.5792390670484148,0.7986113548854279,0.11526889486105618,-0.0806267179879227,0.6755155844729658,-0.17990261421027268,-0.0781463851782742,-0.8100606433975774,-0.38082891629324506,-0.407732654359168,-0.7986161986799539,-0.1679655446658587,-0.9314672858793619,-0.107450600749577,-0.26605645722144317,0.5729405993633263,-0.49193518489124344,0.657223311888748,0.297624760362698,-0.7110274643731052,-0.8438150363241054,-0.5628204705501937,-0.08935985857996408,-0.8900231169853289,0.36767185967648597,-0.2068825697727384,-0.2446142406394399,-0.6007434110435699,-0.480647661100513,-0.7086714365030015,-0.20958442852766596,-0.693104368127709,0.17094235501021193,1.0340009195886417,-0.8249473142237078,-0.8898371181164698,-0.22697586267707773,-0.6200761109411297,-0.7158516255775487,-0.9314729231109801,0.8298229372855187,-0.5977724460944487,0.3482160517474159,0.2974642801374361,0.3443506829715146,-0.0025294378723604172,-0.6767809209553071,0.12134256941943918,-0.9520372742787944,0.3320939955085823,-0.32035841566950696,-0.30012087055411824,0.655393773186327,0.399033452465793,0.36417147989901405,0.43675329685001524,0.7216047767836797,-0.6698277595398365,-0.47351546608714307,-0.6656036416149788,-0.6864844858863917,-0.21942802111957596,0.2222677002270834,0.5735044296928147,-0.8284913449895689,-0.9882013082463268,0.4681613443228136,0.2903134217067437,0.004094318006220885,-0.6076503499793373,-0.2050104711976802,0.8762559861275243,-0.46292082633873854,-0.5028458631182062,0.142328411176381,-0.8915436302651631,-0.06371736999671898,0.5416057567132087,0.8963838535639496,-0.1663427600916428,0.571220239340866,-0.48770852512337026,-0.830902787665642,-0.27882115705116606,0.16140444754425295,-0.34915210525149665,0.5123084244513227,0.07453643287303789,0.17582053395973396,0.8685748513124157,-0.08932390260767936,-0.580434057178568,0.3310093914022627,-0.6113214729289705,-0.5828059404949331,0.008678140077224459,-0.805870151837942,-0.02424323510023565,0.4613710998341848,0.8911004003623437,0.2907636912593565,0.12259887607839957,-0.2389050518802091,-0.6958969121515345,-0.9031458864595783,-0.0483943049189928,0.8216947200689152,-0.3054709997304825,0.24755429614083918,-0.9289459882346468,-0.5903834371333107,0.8092325499262882,-0.4354829546458396,-1.0259211962051205,-1.0279761852644473,-0.6784045090898605,0.10625498687583425,-0.49167747139503015,0.27629275090415345,0.06097856054989422,0.6901340564813827,-0.2355572975941347,-0.42187922438220754,-0.7504720488374342,0.8323184323328104,0.4915021413118536,0.34277478249674703,0.5072800289758017,0.9785296871415459,0.938994628938872,0.1851929753574337,0.5463912043564465,-0.3418473711887068,-0.10287316064274461,0.506153634143749,-0.05360261015815992,-0.7898142370404997,0.568147940546144,0.16733661048668672,0.04759857534084602,-0.6978306009711964,-0.6794859277861053,-0.6610435512322123,-0.525459784977533,0.2846731215147821,-0.5541259976676425,0.881018099570951,0.45347142762168424,0.8541772590213667,-1.0355839027950555,-0.7667043032267555,0.361518229155379,0.03303511488502828,-0.9147372448565046,-0.7981028142688175,-0.27413502190872624,-0.004914571948097676,0.01305961428672365,0.1042900282605376,-0.6091074838601133,0.8758198088755342,0.7212804982998335,0.9224009730862629,0.34411269303231473,0.2795703243823627,0.42558185519679403,0.25111953040906637,-0.8275445467417436,0.12437104868124305,0.7399900873229479,0.08312919230557736,0.6507701843236624,-0.7192999188411315,0.02896318390244929,-0.18250215418549168,-0.3736785032648448,0.4556214598839045,-0.5026147052862805,0.47388923579764575,0.27094311788361547,0.30891449211626243,0.8627017489317068,0.6294891177325076,-0.2710451452886741,0.06697065002925166,-0.8074411325186437,0.8502329142082627,-0.8413394884308115,-0.14544423368475645,0.8821085221008501,0.18456618663617363,0.7339880765772953,-0.9340575309348504,0.31741877683719677,-0.27275344562873893,-0.13660734625721793,0.41557235426191114,-0.9124913571040055,0.7658583704761944,0.8923626395151566,0.5250631840225556,-0.5833974427505714,0.19157826888755997,0.4138511594832057,-0.9235065228904896,-0.62505574641026,0.17164568616921028,0.11240843574908002,0.8162596069356032,-0.8543580727195467,0.48447001028986286,-0.800258338130873,0.32296163701871655,0.6056240130975561,0.429486876386529,-0.4595742184640258,0.4326593502954896,-0.9123088648791291,-0.8241323003818853,-0.163360964306444,0.013512000578586975,0.7999070707531231,0.3450689163827193,-0.04639594854697312,0.45502994660127843,-0.1459598067362352,0.4655106701355623,0.06748965161219365,0.06667890640681033,-0.676900075250947,-0.7508382072855514,-0.8598064127243479,-0.723052353387298,-0.4603755344546025,0.5323618896624438,-0.854536992286442,0.5470239075566339,0.15169258865006677,0.9194578274115455,0.6079996366700493,0.1943480830957666,0.043469598939921195,0.31046773369518266,-0.02006574746387657,0.49741471715431035,-0.45593620048730504,-0.06356158066696935,0.07162273030397688,-0.06699733425688838,0.26280094052112607,-0.24521035874278177,0.7903728363058371,0.7899037822108742,0.04747254599244328,0.8018949351189664,-0.2645395304849153,-0.3099194538458959,-0.19807745878397098,-0.26691782941954983,-0.5356437694636963,-0.8967702401523319,0.1669833662333055,0.517638563536428,0.611428885990876,0.6292904206770772,-0.8478179645303929,-0.6508330321252596,0.10514148479353672,-0.27586250034131155,-0.6816181613962526,-0.20817557137831114,0.4956230322568566,0.6295739791024862,0.6128040913265217,-0.5062252771183195,0.7102744658204564,-0.6368004575326247,-0.7058279255975662,0.08161152912977351,0.19122948484281307,-0.4878053718390734,0.12260470477414702,0.2011225425307562,-0.15480888333441428,-0.7826678555901673,-0.7847186873907902,0.0312606252026955,-0.44088693419949787,-0.9343726455883544,0.6737014669614301,0.8107374102422823,0.48685349734958017,-0.24400528945077563,-0.14774485348327748,0.7889133697052731,-0.7258822628356043,0.3953701528866498,0.5601454927448278,-0.5176017879394876,-0.6696979924898496,0.3723293492029169,-0.7193425260896631,-0.8877950036587885,-0.22697257247863514,0.18757717186667824,0.358016307963519,0.4259719874873398,-0.38359894649214904,0.9057607562291856,0.28781299396735205,-0.8198100876942197,-0.589624867025932,-0.9349196774444277,-0.07575937188617088,-0.6270164126298454,-0.3770077658277703,0.21299164157978914,0.32531457078043574,-0.3815087577677154,-0.17121214512417757,-0.609604920175272,-0.5811280273705721,0.19519242170740103,-0.42643945473437106,0.32372360296186464,-0.9175123317070878,-0.20155514935093144,0.7892588544574648,-0.3409797254294774,0.999873425250004,-0.05897908315441186,-0.3797079786048709,0.007877051117155937,-0.08308496887064469,-0.10770615202370472,0.05965417775268103,-0.2732404220806974,0.09391975188441244,0.6308467057924292,-0.8883565994718169,0.9000755153902348,0.8851867759842821,0.8165185050552696,0.5818034462221096,0.4989395754677344,0.05452379746351949,0.6284812906087888,0.9661473278327151,0.1339479537314161,0.728324463365983,0.3192031115113434,0.10814237639483948,-0.438573671015714,-0.16124196046926964,0.5037302637525111,0.3839968519319285,-0.6075862753456834,-0.3124156600260505,-0.025597489569883253,0.8439502862985373,-0.20195492609166277,0.7143488106839072,-0.219222198519085,-0.8302173387028233,0.827541328105861,-1.001159144648611,-1.0568161558727296,-0.0008980956292284456,0.7462267602227189,-0.7753150555466942,0.2198424466996729,-0.8539680626768127,0.19400559708280551,-0.09514648513972236,-0.7822509162593685,-0.6606622814916163,0.5303951865365589,-0.3844741670073373,-0.08937319892155074,-0.756161887593028,-0.2950380912987005,-0.51429881367749,-0.1140076115333938,0.8727473677284765,-0.7270946516933728,-0.017692151562504206,0.5241236186783339,-0.0981139115975973,0.4988189744968422,-0.7839092178630457,1.0367213324259574,-0.5110595664208468,-0.5865596218650402,-0.11500032145286494,-1.1038499634738623,0.6688842846131101,0.3250410571473046,0.21803407848040032,0.9140583527120174,0.18183859009936676,0.6378389396612202,-0.32336541104021305,0.5126552727448486,0.668077207279205,0.10945648728389402,-0.453946839411057,-0.6898013849201741,0.2521265850343297,-0.4678855151729646,-0.9250124645071283,-0.2773245872889101,-0.35477227972427383,-0.5401465383734628,0.5461051890945803,-0.2226286597117491,0.881621405111696,-0.8940013667218613,-0.7750540510143403,-0.8823344112772783,-0.28149711924367227,-0.10251070480244116,-0.7940952035354593,-1.1142735966707153,-0.26251280040307456,0.20845120115543211,-0.4451039063429012,0.39826173617251576,-0.6060010030013848,-0.35120217985669283,0.7395893037420017,0.22750966972199502,-0.7281981002324142,-0.6094159101252349,-0.8470783565153865,-0.5633836555257059,-0.8514435208343614,0.46822695636030165,0.23051200973797004,0.07559180311969982,-0.7982769047058211,-0.8092427012123502,0.3407748400020924,0.05200918925293306,-0.6015177547183151,-0.932151599369342,-0.29300063225073575,0.84835840393671,0.275233913885003,-0.4730094686754829,0.6803411488013248,-0.11522209848645398,0.6729427854488473,-0.5570652652851623,0.7257320031345801,0.7653323099350154,-0.08453710899126955,0.6313325655266256,-0.13377074567268954,0.6827291609643605,0.9542836428708446,0.9770946052524168,-0.35418865514584347,-0.7159978247471575,0.6252877318223071,0.13773096709018406,0.5992236668095365,-0.6650831889362507,-0.47869115074394397,0.18771950241669044,0.3036326493455546,-0.8795601275659942,0.41401689645172274,-0.6471446093443904,-0.1666767887134596,0.46215697215713797,0.018783127415729548,-0.7435417169470583,-0.4103400789144478,0.45729043218458465,-0.4264022610863835,-0.9513473290945552,0.601465199515202,0.572261724951419,0.3617517609157427,0.13007768622438876,-0.564607247621977,0.6599978705686258,-0.954892007222466,0.7741468239068314,0.28491634599991117,-0.28669375760824617,0.6540754826341963,-0.42057286913518355,0.0418222649031561,-0.07491445906515137,0.43735723932791193,0.07322766253918433,0.02328961333520274,0.9131284097456875,-0.9446145728284042,0.012467941732752457,-0.06763528246982627,0.15288234307371873,-0.4910594652119671,-1.0003323411448073,-0.6036540151148344,0.25260497741638155,0.172752750307681,-0.21304019423082807,-0.8301224626674069,-0.7141875737163149,0.14355268724182063,0.8066013793522759,-0.14832988297386068,-0.3053692947454465,0.049978844029646696,0.43666287589911623,0.0228600262458849,0.1448295264270949,-0.803253453497,0.9500153591381761,-0.4941030071928494,0.5364314821906437,0.7853027480616306,0.06203438506715231,0.11959714478421457,-0.29983915989076615,-0.8152154404513836,-0.9129096064865512,0.03685665190169294,0.8910539109954296,0.8553389039279262,-0.35578297538234194,-0.30279006943581366,-0.5676609647642356,-0.8087191532400635,0.7691548376156875,-0.535828107401448,-0.0789278761619811,-0.612816066047557,-0.5696622019796785,0.9619769459801686,-0.839963252030627,-0.42072021631962353,-0.7754246200968917,-0.23892680527764187,0.4665038014347602,0.26281243003097043,0.013745501980227948,-0.5793831914291161,-0.8507664797207686,-0.1778084409056946,0.5066899949378625,-0.9780818699618616,-0.575226175307243,0.3066373040302477,-0.824975805689405,-0.4525018294102896,0.050434986454041326,-0.24516272114185553,-0.23022658053546027,-0.5155289054651757,0.1474481626213742,0.508742124753793,-0.3927607222290442,-0.16625630212496142,0.42114234796733174,0.10554048326689136,0.2494603467021706,0.6702005150312764,0.2083243052877315,0.6084387780778,0.3758152723179158,0.2566626319759575,-0.686429325848777,-0.7845627810666644,0.11614968417595173,
-0.6870617759057835,0.9190936955758005,-0.19640097428677605,0.6522212093480615,0.06183195643959016,-0.01441198893003226,-0.5904810309714403,0.6079081568968012,0.13817811982165354,-0.8106926894504519,-0.42628112547864944,-0.8962192806485605,-0.3002422737793738,-0.20673163863767613,-0.4719148352332928,-0.9965964180144189,0.9872633732598415,-0.4740636229281785,0.7771721931058913,-0.00033633171803848505,-0.4118033420723548,0.06397427892583618,0.7678440551768768,0.4321772453586845,0.5639221217758388,0.5871856900049255,0.5712441679772158,-0.8348026575777376,-0.7905398120516467,0.8899357623224133,-0.5987203080322778,0.4919471641568367,-0.2721766675263455,0.09017965258750774,0.5779952206210591,-0.050443352652206674,0.47324517726058923,0.9790883532158933,-0.9198118723747235,-0.4862033918366243,-0.08850279017144938,-0.2800931998180999,-0.7811326540717096,0.5995875478161444,0.09524189531406362,-0.6931490794862794,0.400138098396201,-0.4286013536868183,-0.6107035967901389,-0.28118122919401123,0.26791739110602,-0.03506165918623627,-0.705936280979909,0.24228397591393036,0.07415315446104742,-0.6090762496041524,0.16942837412606848,0.7101042545937595,0.3167559426078619,0.016311581799760777,-0.36560546145308703,-0.5194909189875885,0.06299349442436031,-0.9282306804681162,0.3941980344959933,0.3409211115082693,0.28472885350112787,0.5554311492531919,0.5724605754520201,-0.4802929833467879,-0.5005671568047545,-0.4559256140396957,0.6794799406608778,0.11046908399768171,0.5936364093210639,0.5181557194717268,-0.2690675105640671,-0.23773856238513297,0.9525202218034164,0.33151312721127946,-0.9603879615296673,-0.5917745357512405,-0.018673091921234564,0.26516448601483966,0.18717607889704846,0.7499622761809641,-0.3522208775421849,-0.1379926545831849,0.727470428849166,0.41691793004366273,-0.6049273928304986,0.5634018590431924,-0.9047687097602763,-0.496845358838841,0.6013541407052619,0.7797602022282504,0.950116071103136,0.6305885872770525,0.33818790085079586,-0.0733831067606345,0.140670154398293,-0.7216079997615888,0.7523553730266072,-0.6038023780392467,0.6519651193365635,-0.41156519093000266,-0.7043564703366599,-0.19159431327232107,-0.8013807721915673,0.24947795316885224,-0.9246274993912873,0.6718059478520173,0.19643662398776995,0.29876953408232887,0.6558677347181994,0.504252067280632,0.2272593698330381,0.3950278377303637,0.6859655864535976,0.8133822035645587,0.32123197292723865,-0.47872846437852723,0.16851154931156917,-0.13402161175662544,-0.20855685417790548,0.21620195154431698,0.08793239179602623,-0.383628579777427,0.640464076069177,0.9166612806327221,-0.17498749448363143,0.008151089687849427,-0.06836259696386594,0.6990246095471668,0.4355769942848383,-0.8255228600378881,-0.0881516164481364,0.1377481321169194,-0.0048078258704469246,-0.5415468993565933,-0.9635942820633143,0.20458117783476149,-0.25406396648449103,-0.8788341346270464,0.3582466808333113,0.09484559845142916,0.40359883302654803,-0.28467656479656817,0.38191282240315805,-0.19340431505722125,0.3753342487287774,0.8392808680172942,0.6590845662237652,0.29382729299528776,0.4420871894999667,-0.22072664755246593,-0.7376619279757439,-0.8547536579506511,-0.7367380347766335,-0.15599141769669184,0.2714812780735896,-0.4281624995021274,0.7728534685888865,-0.5612382986903313,-0.6600073634601703,0.861157404035152,0.1977290074213216,-0.17877893096416875,0.20027996857008556,-0.9189348360457548,0.39706038637168245,0.1908029876962526,0.8043452449893543,-0.03071726629327153,0.5598285339611637,0.45943301057378927,-0.46400426869841893,0.2640083410862533,-0.02442582285489663,-0.5083807496082184,0.17072705667366253,-0.003509980208198192,0.6375763033318926,0.5327473695687276,0.7483913016019927,-0.86940119897259,-0.9656554779472599,-0.9589372966139039,0.47058422381396886,-0.8801760491851657,0.8806806731828274,0.21940111455500494,-0.2388785001296539,0.7024039094162302,-0.14160395909906098,0.6516229403235878,-0.7055289475063622,0.06065271748123152,0.4897120443637485,1.0339682888085628,0.8528499483692216,-0.8674108087013461,-0.08258475649974495,-0.8419591814413537,-0.7526704206642314,-0.7370967217321135,0.3245677813937223,0.8239786522477173,0.5475103140681615,-0.7912728004961804,-0.16329259434709534,-0.5192542240287039,-0.09330832154185817,0.9264191256711112,0.8055119372477686,-0.6545429284450001,-0.05069591539186706,0.7811690487491759,0.21867777098639174,0.7262648623565215,-0.15339534003344404,-0.4521628818324928,0.2475550974451961,-0.3887524119140846,0.6410342119122119,-0.01726850925915396,-0.17928742018526353,-0.6959327796560327,0.35414081510582707,-0.8285252376560837,0.22946701108531461,-0.05124264446452501,0.26534074006294683,0.2851820949123311,-0.766849451022915,-1.091435759835334,-0.35095003570679034,-0.9342799940705875,-0.42250235805146863,-0.6254982889381016,-0.22049287008597185,0.4798104629702144,-0.06513533151718709,0.023530698475481567,0.0415083298147729,-0.00021097197996492237,-0.3982313551598546,0.23825508333225826,0.36062043918235187,0.2039218948741956,0.025834170652328847,0.3833687189170625,-0.5546673519014806,-0.09453949725840036,-0.4036378187020854,-0.7795179739840301,0.006298495525257396,-0.04623581648917487,-0.6981291341461799,0.5910979426914709,-0.48092146457351453,-0.1776725414667678,0.4082467616643631,-0.4914120288984842,0.43687567921452697,-0.729006637780465,-0.15710759886686265,-1.0022026490422666,0.6667637302276079,0.6594640309926063,-0.8206287677856062,0.4289752001654123,0.7257024501689655,-0.6809559884996585,0.280849040898079,1.041059191155266,-0.12454423862653219,0.4182577486186214,-0.9988773506329051,0.1313356091169504,0.579107136067927,-0.11225780795893828,0.9314757405125799,-0.26686739389814174,-0.8398545548581555,0.7745286569549488,0.826513805290496,-0.8142634535127793,-0.960006867343005,-0.9598839758321706,-1.0890024026274465,-0.21150155185939087,-0.24879695637944635,-0.4585457126038296,-0.19406282696591476,-0.36780353049825293,-0.9410191659709659,0.005210887420860397,0.8655653111887434,-0.5554137221869309,0.13581373771139352,-0.5800294297812776,0.0861878050319459,0.6817820213905058,0.5440459539165443,-0.76612156682078,0.6639132887244406,-0.06960632775123643,-0.8369467459219003,-0.24860002748440885,0.8050865656117636,0.9137922461650102,0.8520549861073259,0.10385394881743323,-0.6802646724442588,-0.39112938008345166,0.357192730380635,-0.5005820677281577,-1.0186425671977213,-0.6524259883202493,-0.9387531300381167,-0.9703838177410113,-0.19899200890386234,-0.36348079910056236,0.622118296683079,0.3034831873357618,0.2985072822150444,-0.5904829363890846,0.10326900091054525,-0.7382847196529394,0.9586888365116832,-0.38558561077689507,0.4910395385147721,0.40740807491005837,0.4298256401919343,0.8122348981746408,-0.972465456433519,-0.37398665797198966,-0.7879755671552575,-0.23457281710404101,0.31722826796888837,-0.11307439768932658,-0.8479101379530591,0.618823410782539,0.20341868705973998,0.599614950447064,-0.32669448068106793,-0.7814274893803934,0.180967689420564,-0.6592601268179814,0.10511133182309873,-1.038318470110921,0.490688688303073,-0.8246624550197476,-0.583961495607801,0.7255833437742523,-0.6342642552364645,-0.11641494981475027,0.7975841224592887,-0.01833874334007758,-0.6482694476273588,-0.5940026137142955,0.9462894216172701,0.7457307732694896,0.4274169177265751,0.521072763742237,-0.6809398273078991,-0.46083450038934043,0.4635615559719308,0.5307026225267899,0.009877421087050486,-0.5979624766637147,0.07052840429215305,0.0069977156229263145,-0.809757589750862,0.7607439294878358,0.5745265511310732,0.049529285188449367,-0.6331728392177981,0.195762875236739,-0.45620043279810185,0.5154341660752811,-0.6823440893705959,0.0315050926971962,-0.4924931882415494,-0.9219018465160761,0.5474594338706166,0.1405265323087507,0.11587029742191274,-0.34056603702343374,0.22846737703363915,-0.15805018668586282,-0.40455848539769007,0.8361744255568144,0.314890175307417,-0.38766997317887236,-0.034223210969040546,-0.8340724161581158,-0.10609409791316353,0.2440176587287836,-0.6070335599838655,0.8653407643594959,-0.34823066240305606,-0.22634038505380508,-0.3963778897052958,0.6433278737747907,0.7367041619457501,-0.052074321098227495,-1.0346114747581,-0.6335357265889889,-0.7550832738820767,0.3340949998820623,-0.42043572061510937,-0.35613722198857184,0.7775603328223942,0.9842723653889934,-0.34502959362019525,0.4295502761363266,0.8630817217475665,0.8218823322085208,-0.23285685678992002,0.4503759048470406,-0.41352195410715825,-0.5821079896480527,-0.30832629458747507,0.048002541950428995,-0.8561043250764109,-0.539246480049939,0.6704562452111827,0.9666807623810824,0.8919990660579961,-0.47317157396751547,-0.567362253373499,0.39678523855543124,-0.7578004917811189,-0.045885256830243415,-0.9544852389537458,-0.3093136219568591,0.25580438222217783,-0.22085486048053576,0.5077575364326209,0.3840162054243197,-0.1763943157854475,-0.30145895823290964,-0.8143032961316625,0.5126120817606592,0.44124975289688034,-0.13990739590268844,0.27410152893130285,0.9339469046109771,0.08084080050266765,0.3534324355594359,0.6198567121253482,0.4062953927150858,-0.4540997243957243,-0.16713800862037126,0.6654189840297753,0.4696298984582388,0.15024650624647054,0.3614359205949119,0.7938462333769654,0.6088505090226595,-0.29361174958389,-0.40537441490810866,-0.3904795114545656,-0.6571271525823341,-0.4242729056710822,0.9457117357055436,0.021727161294679307,-0.42065673220000177,0.4550445851747746,-0.7777148758712207,-0.3970415639735629,-0.8064814276526753,0.10009484343040984,-0.2560609542335577,0.4933233163795398,-0.2195442391843131,-0.059093510777835354,-0.8189306767711028,0.865569458992362,-0.9451947023609227,-0.2056155309106487,-0.5371425169511436,0.2293888980562536,0.8252892600938679,1.2332847102535127,1.0034333027699858,0.5232341705342499,0.36880961204164864,0.04383524362044192,0.7219125608965674,-0.09431104754363473,-0.4990675643274815,-0.6590698020042699,-0.2965527869441568,0.9203460631817417,0.5786634865879302,-0.5701461402584969,0.9594134342512461,-0.8750696783201327,0.2564866474404655,-0.7058341401958966,0.7615722632150284,-0.058726252693015235,0.15885787315750227,0.7183506229682367,0.8521604066720638,-0.5145951791467291,-0.9568694074137472,0.5966289843716825,0.5088242972726924,0.09687713934339817,0.872417107965259,-0.1341536126306058,0.5982583805069922,0.6460842661663347,0.8324548672710862,-0.9443134363006572,0.6016694841756113,0.721387965453709,-0.4124492926532321,0.9344439270321162,0.17751495473799728,-0.09154319361897917,-0.7362289302570506,0.24924980990190115,-0.4233444713832948,0.8084261275134003,-0.06432411275952606,-0.812405715598893,0.8183416220534974,-0.04966831738557964,-0.7902711281926805,0.02235231471148344,-0.7542970679062333,-0.620524318109013,0.305508859687802,-0.06990796879165712,-0.1820385200490341,-0.23963598396343824,0.2467711581471679,-0.7288722147273202,0.0035864217360453807,-0.34624408231447773,-0.960009333264767,0.9145492302692413,-0.4785556918212877,0.6458232184470615,0.40662604154918697,0.14381425694150227,0.4950938639604751,-0.7662583590455581,0.4064044626791516,-0.06531944645919013,-0.31429896765063164,0.5662825287974683,-0.451118717202185,-0.04213665762459051,-0.5389203768635911,-0.49772979899425174,0.14082735712636307,-0.4849232803186184,-0.6457046145633233,0.5079450594596439,0.9831428717933772,-0.7624146647072232,0.7057750412287426,-0.8582768418421514,-0.6018494015682395,-0.1885967619694402,-0.6895168122557731,-0.3933568183885877,-0.3367289044724116,-0.9392686528657398,-0.1297059138649945,0.18158833617548348,0.7623861645294085,0.5718750118517982,0.11254954928012417,0.7990451278515099,0.3332469117380096,-0.8583359111377952,0.4828426607462732,0.08841811170695449,0.19108197962465892,0.9237629059965982,0.4420605883145745,-0.1443571322647006,-0.23680166826507731,0.10149021581455214,-0.7127522587928964,-0.8889431294908622,0.5130578208746299,0.27629577314115705,-0.7710151225975596,-0.9520826151433548,0.24262387011815503,-0.7459063445240528,0.22677821467074297,0.776202134354256,0.4654050345944557,-0.22956964780955472,-0.6913807237845763,-0.9593510448960564,-1.0869766552172115,-0.997610731489017,-0.8009642723589349,-0.052208809911880025,-0.3643877813536994,0.9151296347642692,-0.5513279613306455,1.0255641066632368,0.16012368019043008,0.964225073839255,0.6274067677229362,0.16669669225137396,-0.16132799634264017,0.7661786580490939,0.8989116230587637,-0.0842654084395223,-0.14754798593819154,0.9587887264263093,0.5353119750635409,0.7736735078675073,-0.2877734428110777,-0.8376005717779099,0.8396769296874417,-0.4330419465215436,0.49901865952375335,-0.6941900837427499,0.22146043574777796,0.8298731499858328,0.077488704632395,0.7282525709913972,0.4679477560189168,-0.05531981277016241,-0.21269426303672237,-0.422809262053893,0.9794977623265252,-0.24009282451112535,0.6852738823247562,-0.939521281052945,-0.3864482890928089,-0.4889910461999307,-0.18277571325131192,0.6040055582980406,-0.46166394124375293,0.9174756693671003,-1.0115900160534543,0.20057469638571948,-0.3998654124824047,-0.8660358606855206,-0.9063207708833694,0.7615129621372874,-0.5966948389272596,-0.4041897887475995,0.7957784927462103,-0.9978962074019007,-0.4138326917259385,-0.42662445503505436,0.09102537720058307,-0.423400470480799,0.9734747210241196,-0.005058351024851054,0.8505940387756032,0.6147419850132722,-0.409575259951315,0.09703057036068129,0.6568059947469769,-0.5764669286648303,-0.40759008227772986,-0.9116587015609074,-0.720467911896894,-0.5560191696837373,0.6873768888277507,-0.01789085235591294,0.29491772780148245,0.7556293878885147,0.39208788117355964,-0.7222858650763405,-0.46676400259437983,0.3620651562688652,0.3580014940876893,-0.2535455856326424,-0.6411317326150198,-0.46650725333659565,0.12963816567232225,0.7676930220104854,-0.07555823664426205,-0.5140665895054439,-0.29198120161518176,-0.4252677624447623,-0.06818572613665394,-0.25538698290332457,-0.7491858466377579,-0.9766749513357115,-0.0876524171243296,-0.915676370624078,-0.060312223026201206,0.21653537062992134,-0.27692315139854506,0.39834641878068355,-0.9129229475585496,0.1371212197180487,0.472283071146971,-0.43411103464102485,0.030993489646497657,-0.9324539005783099,-0.14201292934333828,-0.7308988315045785,0.6822058487370867,-0.45133686689302965,-0.19458281345195005,-0.26847809950942586,0.7795930003238933,-0.8785392475893318,-0.15590975126166312,-0.5009958260637443,-0.9283031564566062,-0.20400368494868032,0.9727829821189163,0.3371348178118958,0.021696511354509118,0.8771588405528543,-0.27883289816105594,0.5087210078103857,0.5013884407669982,0.5140926531720442,-0.6029658222206657,-0.6139446815343346,0.4947840504508465,0.5983188815039635,-0.5530536428579553,-0.3239746512085482,0.3502822113621984,0.2930925648251835,-0.9687949418616474,0.44041608697621687,-0.32066082477529684,-0.10793360585829373,0.3899732797544424,0.8714426498527397,0.5710415584953159,-0.8297275053721681,0.16018421707084,0.18044538762470258,0.7658410749165764,-0.9362563722289253,-0.7114633032766029,0.2092472956754261,0.45460668284493244,0.016608929742140788,0.08385018762889129,0.34847778475216207,-0.7258268756002741,-0.5512402114564123,0.4769623168049115,-0.7060399786966747,-0.6190745696914659,0.8288619863423692,0.49341063668909824,0.09120844547686513,0.8140690783812852,0.6238944538037935,0.8122359332722535,0.7162955365381325,0.17101504185643002,-0.48258808076473997,-0.39948622864854827,0.4628008485530631,-0.8530755423434765,0.2827924612348628,0.5022769280640692,-0.8583415682312739,-0.4993692525569877,0.6024266486086165,0.6851621876542477,-0.4062459672650043,0.2015144119016563,-0.004012444323267195,-0.1677484263921083,-0.06653763594382966,0.28450259956145096,
-0.21000334970977863,-0.0197572364618257,0.9292735666198078,-0.3635699640536565,-0.008925452453727667,0.01819189669908816,0.44694888323391035,0.5136478810320309,-0.2763238036238618,0.787214075276714,0.9649160178744156,-0.3058923399893807,0.6294595978927745,-0.7190032511901612,-0.8121388985969991,0.8010160475798165,0.9342484174406978,-0.7874797121719395,0.47431850000086606,-0.257057309514392,0.04243540360416098,-0.47779931786441576,0.8065446070222586,0.68031635813916,-0.40064574985593104,-0.7469849020796435,0.5263275371600733,-0.4184702185690896,0.8988346625522425,0.42221486466332925,0.7059197366754533,-0.2130900727238747,0.11659375941862771,0.7341565449582836,0.747070691922262,-0.5799507525932732,-0.08002430202003319,0.44421457888287214,-0.14511131421858534,-0.6729788221105603,0.6382649695466908,-0.9212341670422947,0.3394163119257135,-0.20724035923356535,-0.25429530715398846,0.6515313395871791,-0.8302151078814535,0.9546126810306287,-0.35680571081622925,0.5105985533536976,-0.9670199318301707,-0.29224308467353977,0.8472464134637829,0.33812082664959475,0.9053213615091753,-0.11789329460464582,-0.6822126689948234,0.5303623573622775,-0.9675668197680494,0.44694519456638426,0.6677228228869165,-0.18816078644625114,0.36086402837764714,0.7145846494841407,0.7241935143725041,0.23900162205467917,-1.025215862870009,-0.812482706942292,-0.7581925403046162,-0.32068288009688883,0.49408832036091727,0.4941872598282078,-0.6515364066788099,-0.6886615831702685,0.1945779959452396,-0.20367362974675857,-0.09068735496515064,-0.34158421729586164,-0.7673737285377555,-0.5561150464415308,0.36838901990263073,-0.9074987491651831,-0.4969278023785739,-0.6056768802328534,0.5925129317243532,0.9990575692658437,0.312674163979185,-0.430851947428539,0.6208365086247573,-0.09325296844750015,0.16586757893076398,0.7253220245625818,-0.07353881072114372,-0.8521940871369551,-0.4323042247058656,-0.4345785598113107,-0.4148328063141654,0.4595970002779615,0.05281932401201187,-0.6061793483451668,-0.37053084609847936,0.9400902259943394,0.961698954630632,-0.05384147355776175,0.9226270261370413,-0.6974908075110988,0.5174136653801826,0.8104408294358413,-0.3675069761017229,-0.5539879599786866,-0.7362590684215884,-0.7666438629600831,0.199529103195359,-0.6422453849398044,0.39558292927628114,-0.43904405929341,0.030609184055085045,0.6475779990651422,0.41266918093305516,0.603267860853405,-0.2981342171149017,0.12359930522130819,-0.24723775713349896,0.16958989444204886,-0.8117520540594142,0.06779121667892411,-0.4021813964564505,-0.06851729773549019,0.5383736987342302,0.07786718107805078,0.3064323188331185,0.12561707953247941,-0.333380226250645,0.13108551951886102,-0.2782574522222995,0.934347072104365,0.20270748271904226,-0.6085460246469819,-0.48932197343574857,-0.9354111284477333,0.40101037941384043,0.47166914647400304,0.8831375609057549,0.8515241299347528,0.10756948501142612,0.8352754306112928,-0.5757753304455085,-0.5375413978312196,-0.5725374586912756,0.09924751997724203,0.19854344366237586,-0.8987781178533242,-0.6309039562324948,-0.07655014272900346,0.8019985338985703,-0.4199639400525943,0.007512875931968734,-0.4359770548252877,-0.3643383544226177,0.37332529068627074,0.6564669171440072,-0.04495357795408203,0.8055942188826658,0.08901902924244051,-0.9423460498993742,0.7130940345757696,-0.18592985151837846,-0.124538187904639,0.3490073106581322,-0.3230175594378746,-0.9628719470581644,0.7050746884086957,-0.2795884085953366,0.5121696420160962,0.8213687687246622,-0.1071011116306323,-0.8152962800316543,0.462070134414898,-0.8616369463211215,-0.5583065424174425,0.5921221621832538,-0.1944418619814878,-0.7286802525249539,0.6576590006587362,0.13089476732039343,-0.6423046213765538,-0.4012762551418866,-0.9319475516325879,0.3829855208202531,-1.0046895063109187,-0.3863458424572548,0.5763073372325128,-0.8910010776272077,0.4425488680290033,-0.8103525659705568,0.801709164632441,0.5984904493725122,-0.31301758144915404,0.28071311522142073,0.8774665458373835,0.9592975030467779,-0.6624996744918067,0.8763238502420004,-0.06734077448836687,-0.9999790825307041,-0.616528196798562,0.1627766240497307,0.30050307242322793,-1.1010255285945838,0.07606557405389784,-0.20095941823999416,-0.06983628778059944,0.3975790362103129,-0.527213587803993,-0.6684864486017986,0.4691337098242005,-0.10066114032968868,0.4394169541731487,-0.5297293307207074,-0.8385122824620769,-1.0063504703653563,-0.7651398930925761,-0.8879838383379408,-0.9293584297137079,0.15973580162565454,0.20077157684201508,-0.7791668605222781,0.00944496982846823,-0.9467647875030605,-0.0019634720585847074,-0.9302855060114052,0.8761670765473671,0.7828393336182957,0.7831454426519356,-0.47849833651432183,0.5193025407215284,-0.6332323106080044,0.3542459109974073,-0.030407732675709617,0.7072601622155592,-0.6323821103096027,-0.9346391822544533,-0.31046399833125304,-0.1222700974648706,0.3101073214643235,0.43069518194626805,0.43816404127703457,-0.9319319377857477,0.4634095585113396,-0.37730246506169673,-0.1625622313707461,0.5653580750454199,0.6541351410929829,-0.5033293894971606,-0.23099550131539098,0.8348952345427731,0.08230435073142586,0.17459762233790857,-0.4225578902104671,-0.6006651247670777,-0.4755707006887894,1.035035481281551,0.6208242712086817,0.5752140960435898,-0.10465083232749102,-0.7063556669314693,0.5275378051874082,-0.9682922845031449,0.7333170216169158,-0.45614098408494275,0.2747467242904495,-0.8105846417014552,0.4441666099967954,-0.6750786466291834,-0.9994871141993167,0.7201758393179687,0.9264684218038168,-0.8534245878418741,-0.8984465481153858,0.5581078153301384,-0.1538042257545058,-0.19330827142759244,0.5472434136878164,0.9619047492164075,-0.16127837558081193,-0.9740479481299784,-0.39933560361799264,0.21840654045252397,-0.7763246983332014,-0.04170341040060303,-0.3409374663154651,-0.5704771624283317,0.9018307914748381,-0.6546589843384591,0.4551499450755627,0.3433431123090813,0.3822477651570209,0.31795357641382843,-0.5103510041143399,0.4683871287526551,-0.15040247832268688,-0.1748871129204568,0.689490677448014,0.3907471331019342,-0.982066643354268,0.7063616066354975,-0.7173217122944772,-0.13429885646401574,-0.8410745746357997,0.13580540149172418,-0.7421534156995635,-0.05840264295756972,0.37238503577327264,-0.44995228345156435,-1.0748888146043765,0.2635735701552255,-0.741954883461209,-0.7571526407421727,0.679324523490098,0.19715311420585419,0.42647540476891255,-0.44792833443655566,-0.4059033253816106,0.3902043871822269,0.5903622194356876,-0.5646723393074364,-0.4269036768872284,0.5157494897635855,-0.6398620608405774,0.8825084398156372,-0.5049258953994377,-0.34359401451032806,-0.605808387789739,0.6023763291341617,0.39520029188694383,-0.5572791547307476,-0.13183558095889358,-0.6984788228575092,0.9474405242725146,0.6282363576490991,-0.33670503243473954,0.5675974728137267,0.21699336748768266,0.07403104538072652,-0.7939303369995347,0.13264870531687262,0.6408535328605632,0.5700522170621726,0.21040100090377464,-0.8065109103536044,1.0177634733026215,-0.6434205594793976,-0.5083685935233131,0.06647905680861341,-0.1439406285744452,0.5625488365686707,-0.3700269732772028,-0.5363102135465042,-0.11854508097002028,-0.11106443883687893,-0.23878881479347353,-0.6564233493747589,-0.611306971090758,-0.06598094246931119,0.5563855621107385,-0.3568292683800911,0.6922819232951506,-0.02910508989907267,-0.9508170909179868,0.5439528258955941,-0.5540318183623099,0.9027712063156855,0.7152148515091397,0.4793371922007218,-0.07900450591425126,-0.9434775106355128,-0.21986034620827946,-0.09719584777379575,0.481567278453579,-0.17450275563683845,-0.8018648947733038,-0.032917804942019076,-0.4157148461731327,0.8708499594952116,-0.7139900858284017,-0.7051915892214206,-0.9268112512129625,-0.5938492352806551,-0.7609015631038486,0.643372518925844,-0.9922047893659209,0.8135187908817016,-0.241053832967826,-0.0531714108922654,-0.8610995058278413,0.3233237551745651,-0.5744628507961679,-0.9951722785801883,0.7084229753582229,-0.4693334260982046,-0.4703358851847556,0.91659455910625,0.3406890492488475,0.30347105391685103,0.2341304592835538,-0.630926222251411,0.6790472209719582,-0.13031144335830133,0.48011508415347415,-0.4660422212966214,-0.48440845389543363,0.9299223373069586,0.6193607654328853,0.8909298462561428,0.06403316368227653,0.22651982932738376,0.45046459693620905,-0.12108001162238317,0.9532108271469518,-0.2831079266394836,-0.08932342605842902,-0.27169871528849376,0.016151585566127055,0.2521280422230262,0.18113128436413678,0.561568523471621,0.8353441557960019,-0.1886248640853702,-0.7724318314458462,-0.7646267100679229,0.11848694639385525,0.24636066363706424,-0.914773135358863,0.598490239652291,-0.9778706415307621,-0.7683049866895301,-0.8769128838891987,0.1667769877739421,-0.002604622479828577,-0.8225988654967555,-0.18585041935753582,0.9435645114383158,0.6884719973217781,-1.0040510086252277,0.09560600008540394,0.20667353174101014,-0.5532897657071004,-0.35365345026688955,-0.7342260433650674,-0.7506546161158425,0.10803382432659832,0.6067173908988087,-0.7933976206047645,0.3146426321792939,-0.7000278421369667,0.7417093855832484,-0.9021131929998403,1.1641943287326868,-0.6180984778060564,0.366759414177716,0.10613779085790634,-0.378158539471607,0.38173035833017926,-0.15915590347140576,-0.44794754788418545,0.6481893400540313,-0.8512317142049245,0.6632743909112159,0.3155177424689555,1.1108435935310692,0.32989739078434227,0.6061311220095925,-0.8589677222545022,0.3610771270723631,-0.7034995233273224,-0.398170993399515,-0.022207469749065067,-0.9251474219238967,-0.27209678123867476,-0.6038845663390323,-0.8313576244130086,0.05001564811144853,-0.2557967304324681,-0.6852624194823269,0.8082162537571249,1.0002927923966454,0.11111683819998576,0.47793756956767736,0.420748859664028,-0.44730781662101365,-0.4732578855937874,0.8307969390477805,-0.4225212893234697,0.3734455913829258,0.565772107848143,-0.06299218663954284,0.5499904211773382,-0.7610891491766781,0.7087320807334686,-0.2779089339297964,0.9721461926975346,-0.8828036677393263,0.5199160806360326,-0.41321831272311993,0.04086685674853574,0.10138220214768179,-0.9757402736444307,-0.3208262663553005,0.30081882723048986,0.7057478416874883,0.6261250852841418,0.511575161773577,0.6877975596828759,-0.6094283405711319,0.8268579620593439,0.8685613450561115,0.3848927014661101,-0.3940708457224108,-0.11761466834806868,0.3333678650683434,0.31473049013805154,-0.3622989859583967,0.5375858152510207,0.6194791387184212,0.30014015837345526,0.9524002090841258,0.36439739415586936,-0.05528782671943769,0.8390038685972984,0.4586517245756098,0.9320458118570083,0.9378684298094289,-0.015096363796581747,-0.981990276276822,-0.3044273846711252,0.22063688819537872,-0.9491317570526797,-0.5316648061096916,0.47907043990649556,0.3388111397732064,-0.16577749665359534,0.83776362548709,-0.34799154032756124,0.8901055095827577,-0.34331672099069344,0.725276635910056,0.6332426649847566,-0.13588257878457655,-1.03332744543519,0.6868715840743872,0.12358489381413351,0.01629089584221668,-0.4512590184534987,0.2574222438475473,0.5631279277301714,0.22975646928078458,-0.1765811166837249,-0.15946877079369484,0.40452780564240065,0.339174767367977,-0.17960895243847874,-0.35236368233213766,-0.9941179787301724,0.017230230268735557,-0.9136181923093923,-0.7721499954033196,-0.3358417636361146,-0.6156225271740225,-0.15082775745032445,-0.15465212662071606,0.5409616048325967,-0.5329948244056478,0.5750429119473149,0.38374148360437893,0.6966081951533228,0.5048306017505454,0.4562785298870116,0.29577580603211295,-0.4925083842399058,-0.26943055873794663,-0.4624482888746771,0.3645542925998086,-0.115954177000335,0.9013456115116492,0.24191212683109564,0.3329239487347397,-0.8099692504199474,-0.7955928167070248,-0.08672571445158872,0.06692169249500735,-0.1991664916747986,-0.604865564462457,0.846333479983573,0.17704196418426976,0.37452119257604266,0.8228905154075368,-0.5521618959213233,0.11047202848133127,-0.5515247846519856,-0.5692806510025226,0.37328385760589866,-0.5272229147704202,-0.6035008204562816,0.6945782416267375,-0.4524566681358164,0.910745854422272,1.0825934720708337,0.5847859264699562,-0.24177482749279047,0.93101625219627,-0.5332163656101849,-0.19130641919663954,-0.06954720906454238,0.20693260770451882,0.686780087133269,-0.13522168967908654,-0.8157720606861225,-0.39862007074032646,-0.46260209798729135,0.2374527758508454,-0.7002890616593211,-0.2651135513955297,-0.10654313906073098,-0.8685514441128199,-0.695926279773038,0.27489110223071334,-0.9507340659669149,0.39784259916263337,0.6227723402321419,0.6765593162906854,-0.621595020554131,0.17701740150584064,-0.3864228912864115,0.08106468004781203,0.5730944114903824,0.30251600092517683,0.129771796677122,-0.7025082021628819,0.1964013091238998,-0.12281538977913588,0.7313644292398008,-0.6550132180659114,0.6113336936040468,0.6522974843001814,0.03515261285570337,-0.4885599915144401,0.4079922537741658,0.5959413008122685,0.9200655014227206,-0.11659896867468265,-0.6470005123100092,-0.01237345352090705,-0.6737785771328267,-0.6116108351374192,-0.4916213617074325,-0.1994038630726777,0.3164864193438212,0.3829261340698062,-0.9449786564249526,-0.47230005347745324,-0.3376877127379439,1.0222696873197727,-0.732088001993912,-0.22236443016447213,-0.5656248225745332,-0.8924640604450055,-0.9122749392203123,-0.7251965808125728,0.8762418393279627,-0.06888873124125006,0.6584605533573551,-0.8256571164015525,0.613131621564539,0.9181701360319934,-0.5016603765050842,0.9257656050536403,-0.33194177488533994,0.9129349141436389,0.6167675995354527,-0.7186081886872004,0.14853007571707905,0.2866685038874025,0.29844765591046507,0.9536796575704338,0.016787585193962024,-0.35742938840707345,-0.11488923739952646,0.7810554990717163,-0.5391768100553008,-0.13641705476607588,-0.7967094511268313,-0.759243820502936,0.4847876290492638,0.1510843207005606,-0.8179125449522643,-0.9987688773073291,-0.030915002238540934,-0.9869894416629004,-0.2358954182988593,-0.8732357507920707,0.06815989900575348,-0.9076761947742513,-0.09342259293624,0.2630362001908757,0.36397550701258186,0.4933229771873364,0.44343810361087277,0.6704036229836343,-0.7149154356260261,0.8978556778688791,0.6123951471662715,0.46534794660604833,0.7899433029244164,0.272693044815272,0.046163912377207746,-0.8650447952945948,0.4032258270778381,-0.30956118218166634,0.5469606979868742,-0.019611783074144736,0.5858304176127677,0.5237711620870877,0.04205382115786138,-0.9984784518800642,0.9771615022402533,0.15537022504319653,-0.2597473758254527,-0.02266551986565335,-0.360147793500887,0.41348753518767145,-0.8722986653232578,-0.21801939579434237,0.8323892426029678,0.9390128682346257,0.18822193296939127,-0.9989426940391654,-0.8182322881979477,-0.1732710086230995,-0.5188317669708772,0.03910987851547991,0.6481940201423033,0.03507305161549428,0.5722253795661186,-0.8397706595081903,-0.33518001712980905,0.2527968963932925,-0.8723742691991835,-0.7461359532413777,0.49008175041835067,0.3903067608111561,-0.3629693375874714,0.3309680433295361,0.9891554732214449,-0.5396299005559808,-0.06348978279765438,0.042703489209724,-0.8329761675338141,0.33875933416583637,0.3268122731339904,-0.7558654674885878,0.9697863835358991,-0.37021084132627813,0.481284334832899,0.3120513066426862,-0.5629179114085427,-0.16089135920642383,-0.0836956763718979,-0.6180849286920974,-0.39749716037340366,-0.9578438450525194,-0.05293333314850704,-0.03616227324426397,-0.38418577404614207,-0.20432008194860907,0.29768113320667533,0.036746192482002726,-0.5465308046340225,-0.8662635630309483,0.09925366522674084,0.4434440210986721,-0.011537695479710175,-0.12335414367451869,0.9985174562873722,0.15598278485783235,
-0.7634711045569826,0.29279432811702155,-0.7547704947759886,-0.4656789518105733,0.9234264779433161,-0.2827140325833568,0.39399917945406915,-0.2851878583790875,0.6099618555643225,0.4984758148134399,-0.6241486168709035,0.020541185653769417,-0.4294321625346311,-0.5025385995802177,-0.06759265064037231,-0.8622055920727227,0.5216303295396489,-0.11760355780745226,0.5547822649539232,-0.14901547698060336,-0.22695115425366263,-0.21536379894405133,-0.02016413017508012,0.2747728425331888,-0.8422265235213151,0.8180632880763761,0.10600796965193604,-0.5248264411495245,0.6399138798833417,0.540010551944123,0.05613875936669399,0.1415454806663472,-0.8821958969999967,-0.513849041652623,-0.34275083156347547,0.03659224841484287,0.9896303371145013,0.5551606884068371,0.40358499678219883,0.42490265292859136,0.6656345955057754,0.8337525229649126,-0.6804065908548033,-0.4755094234359258,0.35836571888928104,0.3370526948895254,0.1149661691584919,-0.14970398013418482,0.44589031727491,0.3918790249766474,0.2698108742850971,-0.04509064956675202,0.8431863957522272,0.1160387539176293,0.7211929985460286,0.7975778497971682,-0.752285693061086,-0.43274686985483024,-0.10292716505738442,-0.18175561696098463,-0.04923989339090351,-0.16307166799197464,0.9709010416830037,-0.44514415303610083,0.3305506302075099,-0.3445812031814774,-0.19876825244176696,0.20082747595374242,-0.31602862198093823,0.823574394848311,-1.0237613647074115,0.41385715960505937,-0.03354993064063043,0.6278521548772356,0.6512438425168157,0.7833352459845212,0.13645634836558707,0.6251245893028202,-0.8068003431907447,0.16714564563586465,0.39177760563197106,0.8878348496447466,0.45493273889963337,0.5545378318227494,-0.9610264587801185,-0.7198090961579182,0.9055467875453536,-0.7416218366297114,0.7521781879840829,0.39470798768793397,0.368826812874873,-0.33948915588782724,-0.013438704984176826,0.5920014635654608,-0.7065828764983035,-0.3427922275869586,-0.8133187549686657,-0.2873647648946932,-0.6500199014238826,0.7637892521097465,-0.5494564276718493,0.5098234585695799,0.805612030577417,0.11714998518148054,-0.5249965480893105,-0.1428501465784902,0.5171771787528661,0.7582866771779693,-0.031567573151164874,-0.9507699130271288,0.14103335190435984,-0.5446890909594571,0.9092120440388012,0.7669569447235172,0.2967878148175034,-0.22766157618956645,-0.2739780757766937,0.667619921598652,0.3383333034217534,0.5007202109884651,0.14459052424480145,0.688493085873413,0.3942136797504687,-0.6898244470885854,-0.5764188167366493,0.783015627137058,-0.564749460210309,0.07539252897343482,-0.10091091308552082,-0.5531146888405284,0.8021952872950728,0.3108218360606801,-0.9623005370921586,0.8641184937760144,0.6473397234860512,0.8950370624394717,-0.9733713076956048,0.9367177578090717,0.5402079355955998,0.14619313488972807,0.8794916725580455,0.15157301025860154,-0.20736318073267943,0.5172837729123466,-0.328355736570091,-0.6980206602930165,-0.04680788212642327,-0.5598982122446884,-0.23143409935053955,-0.7312610899816238,0.0684006337029842,-0.3754333402741966,-0.8720248814755408,-0.12963331905995654,-0.21301461078104514,-0.8328525302083438,0.32019423030090666,-0.1375198844996642,-0.45915003833330925,0.04879611632196397,-0.6143135846114774,0.41814481237091417,0.6001548388491097,-0.07442662216930204,0.3182006614695897,0.42120379734786006,0.5360280219101066,-0.3099291351065344,0.398344009545291,0.1937183674257266,-0.6839307921969382,-0.9232186428701965,-0.8052693978491207,-0.03397756756402601,-0.015416869294733394,-0.912416736569153,-0.23738786264283857,-0.592115178597881,-0.991654961026415,0.8353061380408371,-0.02245515000708556,-0.91411896976004,0.37942060309362674,-1.0184330419298437,0.44981962580160695,-0.8879022886005183,-0.01772378467997613,-0.3004094963806957,-0.7146713641149691,0.8325239046342394,-0.7555425146024223,0.02766661204522095,-0.9586802979046202,-0.7501726710663421,0.7383589542331954,-0.21172513664481118,-0.08232756638201372,-0.6856631152544153,-0.9727808045180666,-0.1377015840491405,0.32986862194697214,0.24514416697810307,1.000159160203538,0.6743702206359501,0.18260049877363607,-0.6211374699953778,-0.45864748662958404,0.061475016190132716,-0.2439936906323476,0.06302836618457588,0.19688613070778538,0.7181737469408301,0.1986093954519813,0.3523320403035946,0.2885884467547845,0.08491960692294066,0.36081991376950384,-0.45272385095152945,0.21620110350677832,-0.813277277851698,-0.32695306418366493,-0.34368893097032593,0.883688923145461,0.5100989677042613,0.8831466434733085,0.024739420273446777,-0.0294770684198816,-0.36195144077602753,0.227556112028122,0.3056790707027699,-0.230435889106429,0.5472415442658509,0.06762641939606391,0.7679743722103334,-0.18253308643337848,-0.11379619205335831,0.6403799354456639,0.07070542264265338,-0.18179366257101928,0.09826753093569181,0.12323250113993232,-0.637487075938547,0.52882897762831,-0.4191924705378319,0.7367089535566512,0.07321345017422401,0.8040308328445044,-0.7497789383500045,-0.8617204323754144,-0.5030952791405193,-0.8453740293633099,-0.3750001047521312,0.20919688645105453,0.41946050902824467,0.28704531897249347,0.07446671305760945,0.3717662958858843,0.5876275713568474,-0.6644982082920451,-0.37993419182026483,-1.0926184759290134,0.2219749685360094,-1.0257706097499701,-0.16447050458655194,0.004316499035313717,0.05705874121407768,0.567789611974053,-0.0963277580413493,-0.24128024061365463,-0.08039220113119833,-0.09781634941457326,0.33238108006950284,-0.5895556790852856,-0.22587759246842246,0.11683152812972301,0.09899975576585039,0.955557738897241,-0.42919789818021636,-0.22287274527851705,0.7397746705172321,0.05407272839843261,-0.4537135345744173,0.887434548954186,0.9011216868542006,-0.4652720651431876,-0.2454985008652023,0.7940405358869305,0.627169889339175,-0.8261160759993239,0.6219745850682012,-0.7744003328358906,-0.9484519036713008,0.02333516144767472,0.14021655304747685,-0.7954147260898589,-0.3694704699727969,0.08861596723080528,-0.18726494581349976,-0.001576455301236823,-0.4977806819516406,0.504465684639021,-0.26670082618371255,0.8754899945679357,-0.08722512097244792,0.3999138955894564,0.8297517571096932,-0.4001905391043961,-0.23737294303253953,0.7767210682935354,0.6224332127831125,-0.9528895233257977,-0.15913974232407332,0.9002596527200826,-0.7895401120804624,0.15786619961259873,-0.17223017290252293,-0.4197633108703576,0.32839164549822575,0.33692046588501323,0.29363667513789676,-0.3690606245572811,0.22798274128703788,0.6799468272292271,-0.07216961950576481,-0.9358040243964879,-0.11114062501268276,0.510288306112533,-0.8737393012054447,-0.3234478455606141,0.22473773466013064,0.0843031629780237,0.24212137556183227,0.749766203828529,-0.7796044105347536,-0.25593143017851694,-0.45285807222301755,0.0045944262172294345,-0.5407275937409133,0.00469405967335064,0.5823580194858329,-0.5545992585431454,-0.37449136163739005,0.8663252042052056,0.4274190969073698,-0.7215843022396153,-0.4195120202991464,-0.47442051200409313,-0.12356996967559154,0.6313265350113798,0.3003417782299952,0.21357501197295842,0.1939111576489998,0.854678858983232,0.2799642478484545,0.240975144469087,0.5626949294611757,0.6829948651134232,0.7952414276069214,-0.8090301130414592,-0.7785258070517351,0.8806211936818382,0.9651859357640039,-0.7738107288198935,-0.4603807494049071,-0.400112779378574,0.7409586603740792,-0.5108194420560792,-0.4375357779647752,0.8129878916315529,0.3558730823747683,0.6172656154787564,0.39468671965160196,0.05838168897828627,-0.46557563518927386,1.056144680275536,0.872708959213447,-0.1829123047052308,-0.6530883745584558,-0.5238082776646744,0.19486577054916163,-0.16522516706761092,0.696929217699516,-0.8760466600404572,-0.9383702505832014,-0.4715518598089161,0.9174423373891659,0.07293221215891824,0.7905499260901209,-0.817248335161569,0.28128769819253585,-0.7247620798170102,0.3345354209049993,-0.40244007563900946,-0.9346359236097483,-0.6805452739821719,-0.3289997755386637,-0.7895628856705632,0.7621905872181076,0.9006807911713032,0.009554824209340933,-0.09428348676439688,-1.0489007372031947,-0.2944234479598197,-0.531344879854634,-0.7795817375219153,-0.14341165776808712,-0.7728061105886582,0.3949983660444612,-0.08815421939852623,0.5318514172171666,1.0082492634116027,-0.7763582581036501,-0.13693896818090717,0.7200427819163006,-0.7080953253942811,0.10245774043915998,-0.2026426047925784,-0.10153810827181915,0.07770898441673535,0.1004162354748741,-0.8690489389987173,0.5056341377154981,-0.8034316464792326,0.2648906935106188,0.5310735388592631,-0.892694466412673,-0.01610309851532396,0.019287558342209223,0.7965708669760285,-0.7477529986296774,0.5100218694079885,-0.32443370698167057,0.06494609543999876,0.5118171141563967,-0.6714578215358042,0.684010672490294,-0.9765518856621805,0.30825287175377136,-0.9435755617520154,0.20897476769711837,-0.6586036225263165,0.3172086053117616,0.5846459095823303,-0.1489905905078892,0.25138257121350654,-0.42026746009367566,0.9355331423942557,-0.3102451470623824,0.7518575182992449,-0.2599984815930692,0.9826178009596811,0.9440654792781936,-0.7227678687870093,-0.5914034185888946,-0.9574850992249841,-0.8090419630093255,-0.9721947244006799,-0.45502208963702395,0.330500429514269,0.3465076091534768,-0.24021294929426873,0.5942344613089258,-0.2154252227235698,0.6024686477273751,0.3500095764188803,-0.08634466571584216,0.6626678205587446,-0.5285218408045379,-0.7192553888523078,0.6988970491309722,0.8364700807186243,-0.30806145894363235,0.28281590912111737,-0.11282274069898603,0.010984376276523156,0.2582140783970255,0.3600791233683307,0.6586203254032889,-0.9827786485986458,-0.2812751004673668,-0.9008563423158623,0.007761102280613553,0.5245614312540562,0.19256001582147333,-0.9349876624626651,-0.20109597819115121,0.7413150661142379,-0.2991456214679473,-0.9017175347745361,-0.5842280084369024,0.7624364834468254,0.40489764916252113,0.10780168929891129,-0.35494560540210585,-0.8345326379478741,0.9429014113591581,-0.16845807467779297,0.9200853402566308,-0.8597035291289982,0.6425261470626266,-0.774611836961262,-0.46774648828105153,-0.6741891645779028,-0.17074577079009767,0.9295364645179339,0.863405244539529,0.4308312662949309,0.20078918464955012,0.8136511441736148,0.808829570930901,0.4596217811923805,-0.7540268621310892,-0.486147003852555,-0.9030337667542119,0.6140949374111817,-0.9779916953875709,0.5881945187297106,-0.39317706745808023,0.2178353596849953,-0.9690397734724723,-0.16378059374519782,0.15006161230913012,0.7166962154029632,-0.9353382371337323,-0.5319298852629591,0.6922924105404061,0.2207214829160836,0.0510643389459561,-0.7182670707340773,0.9556606776539671,0.13985919134437894,0.6118091552091955,-0.36541325114230316,-0.6950122771661105,0.9468946741392674,-0.3798237919939156,-0.15655830571192556,-0.37204996968800347,0.8372551159317697,-0.7463279258070529,0.5621933763160178,0.9600793884594994,0.7880401089565015,-0.2823856288248489,0.6076730673236886,-0.46926704396502544,0.1295997687962188,0.17507613341558476,-0.3049393384925154,0.49552921813216283,-0.5575645292228565,0.07292440886560414,0.4080258827154899,-0.5497388934167883,0.018971573589439232,-0.5337100188652226,0.7952989930901845,-0.1815837788225554,-0.03026427249577268,-0.023628483237849274,-0.3869323635447133,0.34683607513590464,0.8946295119046521,-0.440944023930719,-0.07714175047586214,-0.35596396812089987,-0.4852837984652173,-0.21517705364618786,-0.8784794083435404,-0.6118063475778266,-0.8081059326799835,0.8084537188181842,-0.6919016860890497,0.2919270320981019,0.39321575418335886,-0.32777115671975227,-0.20775879857899576,-0.5838309816638328,-0.48075005926318914,-0.3414792748732163,-1.0332972149366157,0.12438104158835385,-0.008865257142251452,-1.0078053490937275,0.2114570156654966,0.150099655497662,-0.17676823561809507,-0.606338186431792,0.33889444663341495,-0.5365147758870065,0.7259291085536671,-0.4385554948249141,0.2739615143207925,-0.4165202022211733,-0.14626468287994163,0.5875864360113842,-0.15860966950298822,0.7095524365280691,0.1967442854982342,0.004070729275048012,-0.47972939240835766,0.7689690102438929,0.31447627857583693,0.5948195532121107,-0.7605345480541919,-0.7482898601824037,-0.9447621812867725,-0.8857991202874225,0.32494041766038734,-0.6588705799874135,-0.2789176525396897,-0.17715105286840666,-0.6057122657558942,0.06465409879062467,0.13916402490138302,0.9007870578115689,-0.953954454958829,-0.5345966318586799,-0.008710791621659478,0.47940619265653744,0.38388653603435474,-0.5908853959506865,0.7102636016863194,0.5027237318630127,-0.9817635057657172,0.9183383457986822,-0.7624820709810042,-0.9154750294935404,0.5237879377282691,0.40397088705266243,0.4130625343156041,-0.4765790790276014,0.18773516448065247,0.7881857138245,0.130009102269115,-0.7970479508765188,0.6857966695392397,0.1610984848112834,-0.8992450086710742,0.1419013075572963,0.344738877023414,-0.9146287762145318,-0.5054011721650509,-0.6049944599825499,0.7709934857004883,0.7508704664278458,0.9553608835224568,-0.6120858150663481,0.1311087070067411,0.1841158733980509,-0.877973171616955,-0.36423977985366873,1.0334007425067167,0.9192405241184498,-0.956179889688508,-0.2625705502454853,-0.030333936069187044,-0.288864162075666,0.28289920066010754,-0.7655333977998255,-0.5573629670776776,-0.8910366796262443,-0.011436705576901265,0.5833072871412762,-0.15669899225572229,-1.036301924764707,0.7529842250936299,0.6413363281467039,0.12497898431868362,0.029162262565753494,0.7520686697812444,0.8971213111374006,0.16384857448710655,-0.035599898757215476,0.572841381308445,0.9858874776844229,-0.9490603721124709,-0.028412213287267434,0.1487635364976175,-0.17942667715130517,-0.1796222242433632,0.06439270181284443,0.2889434243533739,-0.7143255563753991,-0.11417784042824101,1.047713948957073,-0.21896911824363802,0.7968766335548624,0.6150492288623903,0.7925778354688768,-0.4181023122223487,-0.4755855971787309,0.18910755806381754,0.9377722071054815,-0.9797160651005731,0.7625694439122733,-0.2700240984405277,0.752867085749675,-0.1342474065835031,-0.5742553445002723,0.8086234285541531,-0.014108730309291273,-0.32203466164705885,0.9325247685250326,-0.9801317057692036,-0.05345845365687696,0.2780252982458479,0.6536965893205641,0.1748705405526594,0.011119055970009022,-0.5352281871039876,-0.06911681124265133,0.8966610238601168,0.11430058895076559,-0.3256807255603332,-0.4685244089961786,-0.8794864085615846,0.6633202450478731,0.4837720484716546,0.06442542686432812,0.5645506662677843,0.9069717273835128,-0.6853259131399543,0.5625729133306532,-0.6000652148186356,0.2162334093557814,0.5205471712373977,-0.41685159786207815,0.9456461431219272,-0.5826158933041572,0.01488510619473038,0.421598677081348,-0.2767579401495921,0.35082334596712994,0.41049306112581263,-0.07936868228243177,0.804258445836956,-0.09053455710101461,-0.2635890182972701,0.3320155658964894,-0.5796661606441902,0.10369437842951502,0.11060184865308202,-0.6838647333686451,0.3918609640232994,-0.20879598244961697,0.7020803043633764,0.6026854503745801,-0.21075243009095534,-0.572801952189018,0.48446280899359184,0.44804270242751376,-0.43338240860533217,0.8473589551850329,-0.34397619584323746,0.35249485190786034,-0.5853534625491008,0.11987787065127953,0.26385807028208874,0.5286451008409898,0.2551557305544512,-0.7973291743896302,-0.9430359646712929,-0.6129639351105645,0.6369211240500323,0.850224108628075,0.33780936371307657,-0.6499335930644408,0.017801678429244558,0.5289810403896442,-0.4622614097200881,0.3121680592209869,-0.7142916504607518,-0.8403945867677732,-0.8972567215525142,0.4409935635731377,-0.05322062771648173,-0.7283498177688346,0.11782279928661721,-0.3415157198937968,-0.005019988423184962,0.9076660671217283,0.5261217608393227,0.872595447623431,
-0.15512281389501092,-0.4785808405240657,-0.6413965357788114,-0.919516684258183,0.6744116402228075,-0.9754114448025908,0.3625283784728941,0.30261844287387185,0.8559309876016525,-0.28182568614452275,-0.13665148754181358,0.6751471680113439,0.7915872624905627,0.05301097951490512,0.4873366437351591,-0.5061578012947617,-0.2272387370676736,0.611599231304902,0.6987558408287667,-0.5052099059267172,-0.9722644492419421,0.711604475198093,0.6709777782538842,-0.6564132904487192,-0.6596332261612237,0.7224701563938676,0.7441971524477802,-0.958512411490162,0.15196858144887204,0.773882013293846,-0.3052069923187084,0.0526260759203534,0.8413167833240187,-0.9167597357665624,0.613421508173855,0.4081616407431913,0.5748829597353626,-0.7433950935311087,0.0804181651507029,-0.8383811399450454,0.3520276823314516,-0.1823481313329037,0.33818465184820495,-0.29949098551168746,-0.540124538881265,0.22690261023554456,0.06508064518337596,-0.9107416019653757,-0.08662402824735256,0.25975171802961294,0.9964125745436094,0.22418653659769472,-0.1599111875286814,-0.2335460394502229,-0.380199991753118,0.2704090346403527,0.760907858622401,-0.21465868949463895,-0.5257780214311276,-0.705665231275219,0.3967539318654876,-0.1124347842076964,-0.39216599893709353,0.9784201181763026,0.319416549638249,0.9495370897214994,-0.3591247307027956,0.28857023889848865,-0.8121469703866805,0.6413656748520092,-0.6376677961320133,-0.3726309789859303,-0.6725275166961496,0.1621163003772151,0.9589180540651392,0.8325221723692507,0.3338377392807006,-0.5749141179995158,-0.8296238486233003,-0.6534202025529505,0.1442279554817658,0.5234095319095837,0.991201470172909,-0.09485736451769311,-0.6261762360528924,0.35589175208449153,-0.0826976389619698,-0.22229506711571467,0.6775167186237793,0.1849409225332542,-0.7033293636334601,0.9537079300929295,0.10572451558064788,-0.9454248814798096,0.47044720007436064,-0.5904177281130715,-0.20787140071333587,0.41361480379532345,-0.2810358254579562,-0.4558721059682025,0.30829767231998534,-0.5891272486948672,-0.13698964889486245,-0.41163115634626435,0.6456368190494304,0.0508231408187362,-0.2773760949080737,-0.7137307158360673,-0.18367004910225893,-0.422711095725794,0.2563727581490549,-0.9133803894049815,-0.6437123688930328,-0.3999728579970028,-0.823751503763642,-0.5394903795349033,-0.23666448403748014,-0.9320800303992923,-0.8304745038710786,-0.5118249666268715,-0.2858231453900875,0.7639093078090705,0.2715294285070239,-0.8405316782776294,0.043726943910838034,-0.4810754068544878,0.4640272498957415,0.11921986156941639,0.46069996210429,-0.1178284384607745,0.28025806837206446,-0.6725892354010256,0.44287313652087246,0.4273200473720553,-0.8813305154719321,-0.7846435614728645,-0.37038292516668747,0.6015684542504072,0.7550565737928048,-0.4784041716784253,-0.8517904038050048,0.44087337925282244,0.1482136765470703,0.027134518271586944,0.2401073429164164,0.9458743091841116,0.5733509761960912,-0.13533365396427013,-0.20842798944427918,0.7210212841068521,-0.29704885216579935,-0.6932888201684829,-0.24164220919321575,-0.7920322325408454,-0.6079853451675284,-0.22957800438308024,-0.6634018437447818,0.20922874950396786,-0.8932257704417516,0.4908307764949226,0.5892164424026531,0.2143237370284871,0.46121141026068735,0.3011372774902697,-0.21374798469119183,-0.7434684264315896,0.4205371231280277,0.4609966035297284,-0.9282911225164832,-0.9523100754866829,0.8788020375384367,-0.10446931651475813,0.7703007638722703,-0.5483486393783361,-0.5963925830587472,0.4151851674119355,0.7717152315671084,-0.7054616774024052,0.7288056250354041,-0.17420222789254822,0.0008433241935565789,-0.8953521998203438,0.005937234274312136,0.08432078692153545,-0.9055381201243811,0.4783919807586594,0.05831613518346365,-0.793762584150711,-0.7272608298620894,0.31750883500787985,0.10951700782969773,-0.7571751846030755,-0.4978071204129541,-0.19623612900341558,-0.08118528738715591,0.4807435676738032,-0.20816934737983517,-0.9384025545883303,-0.46776687820768453,0.6948429973644888,-0.11580222366649379,0.7741943451914626,-0.539265401730638,0.8727324950987927,-0.42557652075603625,-0.11053545574102094,-0.4187847962167755,0.6818691176770143,0.3339668533669041,0.04724821406475896,-0.7511698403259575,-0.42679662027429743,-0.07664659169069982,-0.6578972993841504,-0.7595159136176387,0.5923556331813955,0.25170226206988733,-0.08906789761290541,-0.16314107654696564,0.00616698015122144,-0.9474958786295881,0.5029652568109042,-0.3180387978824133,-0.15027020014252934,0.5741540570006685,0.05653826375071214,0.3132934282681252,-0.11350927546844611,-0.7537398363783151,0.048544035544242935,0.20455741877553343,0.11581361152074349,-1.0037714421007293,-0.5131951826760367,-0.23793888322730972,-0.8445281147724626,-0.13991557982792885,-0.8979964964959868,0.3049501554503552,-0.007062611356567262,-0.07827739315267979,-0.21420088554792704,0.09921701975783365,-0.9348878149654704,-0.9396664382175125,0.08021579569335097,-0.4915636093640023,-0.12117166608587339,0.0606707286920996,0.7185063404335135,0.8951338151485657,-0.29593979467402454,0.8088582381007836,0.8724128323525072,-0.32973873835075407,-0.5565185994181645,-0.7711609244797821,0.3239488397599123,-0.7554666533273501,0.8549268183436893,-1.0481366138894563,0.25798464065841353,-0.8073784044391785,-0.00939659427067684,-0.07940171825800245,0.30055770199432347,0.44428440171750655,0.9006076992113958,-0.8076794784832805,0.6251385772379667,0.917273631880328,0.8449409583552153,0.4574354963124389,-0.36862750499665403,0.43046619480762444,-0.2377120149461244,0.6057351571844043,0.39711575844782376,0.12128704901651136,-0.056395921510064534,0.6394200652319497,-0.4552564452023589,0.6667351648780672,0.2729374495793584,-0.9016918419824854,-0.34246579737593946,0.16076969456683302,0.09968205058606325,0.670839912921775,-0.06347454829967038,-0.48917415024987465,0.2496980094932275,-0.2730493386373662,1.1389179854765377,-0.8223269963267116,-0.609818686161145,-0.3641850121758763,0.8899525436600146,-0.9053312660653475,-0.4188828013617952,-0.7853614910821988,0.7619049244374219,-0.2728655956431637,-0.3720727217125063,-0.849074579996676,-0.9695149386485633,0.5207565067873194,-0.964635079978466,-0.4282082305189132,-0.4852531257082584,-0.5433916342603734,-0.5239418815367916,-0.2091957934943281,0.06283601960220583,0.7145321342652218,0.09804448934379556,-0.7730147343964543,-1.0100635203241797,-0.4045929365551933,-0.670803466013768,1.0020738583720092,0.6770780071017058,0.5541993994098389,0.15131487184645856,-0.6230052889375656,-0.6953137794823959,-0.18786929203108615,-0.15554078673393912,-0.8319295821730527,-0.0030587814187068574,-0.6179644536342312,0.5626218520196345,-0.604333839639167,0.5746138156822389,0.32193697043920527,-0.06764942042686206,-0.8103578496116803,-0.40871046971367375,0.8855027267230172,0.30371718251769997,-0.5161077426563296,-0.6858922489354913,0.018946476491023972,0.47219159305262,-0.38173607184337854,0.15116136653010528,0.14126258147996842,0.5136545254286032,0.16784197002094972,-0.31671017759099845,-0.03514575530617221,-0.46818693469620654,0.6132260822789589,-0.8717865063374457,-0.4480938953911736,-0.5459874546482895,-0.9336346008945617,-0.7055207002729736,0.10851991212189052,-0.6160738105892313,-0.31740387775544854,-0.3621301224356945,1.0019008351536234,0.22776905544814663,0.8209989511735107,0.335092456044899,0.6090419765931718,-0.7805425274991477,0.32170030692866014,-0.6987711740638503,-1.0488515965838812,0.4922124973869038,-0.23520509079601318,-0.013335899106164794,-0.08596481217926544,0.6447037561075665,-0.27240521976041093,-0.3789898637957929,0.06317994985167026,-0.4285063539522261,0.8158288077901541,0.31168316243915495,0.8198913492004913,-0.2951282430236867,0.6674644783260674,-0.862306423406256,0.1397362063884753,-0.3575172204845253,0.4190976136469196,0.10101686477365115,-0.8020526421297425,-0.9985813169487106,-0.4214153880279421,-0.43131411826872273,-0.6972954203474561,-0.8961647169199526,-0.6689787376918128,-0.22788423457995508,0.3706270025448106,-0.7796790225812347,0.7483605825318944,-0.36334883840155185,0.09864127671472413,0.46594537438255623,-0.9205206822574471,-0.40571400617506037,-0.8019465359908617,-0.5363097032329163,0.14965933585808083,-0.9522658239493662,-0.7659256963146828,0.42666528018642225,0.5364415140793714,0.3975264302640123,0.1988362950997089,-0.5486764502239503,0.6699725398133872,-0.9389368928295401,-0.08006631743623013,0.32416408156494203,-0.5323814161748375,-0.2619367446967246,-0.39711105232856364,-0.7193669959999305,-0.5876016542429424,0.021603881705589353,-0.815554791093442,0.9883539373339721,0.2589069746131657,0.32848199636055864,0.6649406558514565,0.4249867754167304,-0.8259736459555256,-0.09221532565847594,-0.7835475243927644,-0.6111396198990346,-0.5771560208811252,0.25633333393146623,0.062035399969946295,0.1651316911888539,0.025190065396160807,0.5003544912093064,0.8221104831478141,0.3696526461793744,-0.24462081050669066,0.585970748672549,0.20618123301886593,0.837101570384287,-0.3240088377968704,-0.4513460549133365,0.5773404376020336,-0.38544907588983457,-0.7233772592628414,0.17491577747196446,0.20213339440243366,0.12828596908812243,-0.41674859708296286,0.1333960679922891,0.2618648724344535,0.3835574790516592,-0.863674447146657,-0.9199286844810726,0.8884401041787714,-0.8877078095024099,-0.8735893849557625,0.46148552578888896,0.7651463898162638,0.6764269114812532,-0.5371796306209322,-0.6734966661719797,-0.7448213351834675,0.30185099323770526,-0.18455367489345595,-0.33625690551883863,0.4530755583386737,-0.31593657940769715,0.7840599114557631,0.7920630303274978,0.7362234557292935,0.7159970955662857,0.11064731561147004,0.35445863330862787,0.45132942303336476,0.9690349829265216,0.9198891127887063,-0.5234881354910482,0.04357835029476426,-0.28092565082219856,-0.5685377083509483,0.7040404538933265,-0.3119147572451595,-0.7309129123474042,0.8854474973554701,-0.46551905922208164,0.29542573475072953,0.10514533593813803,0.014156398201285251,-0.19404415758050617,0.9607725008519545,-0.3579524384186571,0.4611358300106317,-0.8670388536962408,-0.4124628901222731,-0.33513193052234236,-0.2889536041318346,0.15609596845082097,0.21810787774022983,0.05905252606815984,0.11072908583134904,0.9605666544048226,-0.06456931407035942,-0.1354160069184221,0.60846455587375,0.7162101669486401,0.3223498911206053,-0.00836789938236971,0.014539237287849237,-0.9240936125793009,0.784784401268061,0.8824977116698096,-0.6176793765936962,-0.26972656513218773,-0.2492137167624949,0.773717616030361,0.3048875970096332,-0.2448910471809654,0.8038794185258694,0.3756734499603699,-0.09090196431086014,-0.03553123327472396,-0.7996019027014414,-0.7657881751565647,-0.2772752431020773,-0.3048984315152439,-0.9409838191687132,0.9522538940804078,-0.7728526734477484,0.03534474426070354,0.8960581341142926,0.3443764226123101,0.0342873584794931,0.8885848724347326,0.343483103175795,-0.9461813566528544,0.3019158686728499,-0.2023099850595732,0.8005604461420709,-0.6144071354143928,0.7258715977969886,-0.58429265703977,-0.05808066388964434,-0.5899311573980549,-0.8030887550882161,0.04866965461732977,0.973857568618297,-0.08114388364828093,-0.14129725201177235,0.036941261294093364,-0.3404359915614774,0.30575633974354943,0.07607830928957804,0.5211969902261568,-0.8635637980650064,0.55801555139426,-0.5106421690768987,-0.2603482973784859,-0.26072258615484845,0.6940933817997443,-0.14746558905083873,0.12576336433942953,-0.04543133557479011,-0.4030361549562671,-0.4462243076032873,0.36014305302781535,0.22325105479974267,-0.2956137486280198,0.5369575241293654,0.09650402572682208,0.449944039350209,0.16603772102570763,-0.3113823272960679,0.3774066679887614,0.08399334426686811,-0.11866473219110216,0.15655134261514717,0.6453419177222216,0.6964301223858609,0.0007852214764407783,0.9632076040479034,0.07309517053282373,0.2811056605565655,0.409813143829957,0.8413177328542442,-0.948551973131281,-0.6526493524449959,-0.10081199221165443,0.2586754541137283,0.6144909576123561,-0.5876340297386682,-0.29333344161921304,-0.34310106072084684,-0.3378576465130882,0.46487672107686534,-0.41789003462616586,-0.7570448588981432,0.2772720273645032,-0.5377757937395377,0.4109067730974299,-0.23692600134608724,-0.6808802617824363,0.6015272039473623,0.7960202401652462,0.2176108765099184,0.595927027968693,0.036587250911239044,-0.7471499891170317,0.6318034708345626,-0.1355167244629063,0.32062930231179093,-0.5837007471033362,0.2543714615752803,0.715598560141913,-0.9647770471646832,-0.08203999309126717,0.1620644060720177,0.24141380137040924,0.5480061219701713,-0.798785142686486,0.1053155998696997,-0.5638663914288842,-0.5829845167593181,-0.21161514458984196,0.7079377230255559,-0.5957395040716332,-0.13400407487271151,-0.7106500308655949,-0.886160278945421,0.4570657557111797,0.32228931117340986,0.739440959984471,-0.7939743377764821,0.09042409782703387,0.706175420621862,0.33069883673717015,0.7703231330092952,0.49136534969610945,-0.7100870925160778,0.9994610009709481,-0.4227735201004674,-0.4717352330720445,0.3876984835312802,0.621559948628024,-0.5058168446106922,0.12379456763612574,0.6246475177737996,-0.8937791598094944,-0.3369257382101872,-0.6012490556646932,0.8419365484537656,-0.5868915900266084,-0.011405092760665243,0.4385247003830471,0.546782872916756,-0.535409093213602,0.3919530928044942,0.11398845102353516,-0.00513398488622514,0.3380549966139925,-0.30125292727355646,0.3932750480106946,0.5725335280655361,0.3286841257347204,-0.25904702374487987,0.5871662693633044,0.23669119613574474,0.8616116694380347,0.8366744088127054,0.3900272360371126,-0.7968346026945011,0.08670500872804669,0.046017354583632916,-0.9491745443783184,-0.2306541685390642,-0.8198128969789185,-0.5378173973201693,-0.664964213221534,0.06399550384288467,-0.5550815780961691,0.10613835574722329,-0.6918781959728713,-0.6196725881432437,-0.5866930020305086,-0.402855290831877,0.9577125336587374,-0.243071723840044,-0.2765712773458151,-0.21505249785201408,0.269522452921797,0.2569721729876113,0.8002549764478257,-0.039607727447719565,-0.6019644122848942,0.6503121522863264,0.5427788366462576,0.09489491216966517,0.7352726034606973,0.8248787740427812,0.6028598239943251,0.3212445689843137,-0.6475332739826656,0.7333252451120296,-0.8959408852782641,0.9208828178592766,-0.6581177221629895,-0.2243084350232785,0.8743172525036816,0.6442462101670897,0.612554314181189,-0.8853975326044679,-0.6279564602118153,0.5046378892112261,-0.516861278522167,-0.6195177343294296,-0.28511186051755844,-0.3467050549750086,0.491974043482331,0.25029062756177267,-0.744740590699829,0.2405464668483177,-0.04610070626738927,0.08472769996937535,-0.6750180761061988,-0.09863322859346524,-0.9234168829713763,-0.06226780697080092,-0.733881084821322,-0.4088822624403827,-0.5511316220454755,0.06277351768224874,0.6176061785114547,-0.26302315579623503,-0.7506687965792362,-0.8296321728448667,-0.764939316266908,0.17101950514161118,0.3369256880874323,-0.6177532928954325,0.44324437593539806,0.792830892706068,0.8654413353350321,0.9036832484656374,-0.5432128463907206,0.5362552446101201,-0.28606597643364395,-0.9299826301484451,-0.0637498755483783,-0.9051932807735479,0.3575768963602499,0.5215746208368921,0.09877974956516411,0.971502501752955,0.7987178296348041,0.9756414998985286,0.042900678797419545,0.3845005324335391,0.6960991173936668,0.0186869704890964,-0.7008357641002221,-0.6108286228995327,-0.08230022061409954,0.7609386294993881,0.48456291826639275,0.4689041670099169,0.018356736288069535,0.7677323452122292,-0.6310472557445717,-0.7005248893360347,-0.15833919696992438,-0.12294316408050787,0.043586732623904334,-0.16573302289827074,-0.4893506996782191,0.6819841508459974,0.39805443404372887,
0.680194565551401,0.12681215969199555,0.0526513040854546,-0.38904415691780825,0.2798827534214663,-0.3161860139961652,0.29642269252186004,-0.2802728442101759,0.7637566086289348,0.3269516984490344,0.27964845912724123,0.0036150062931591233,0.4466193076664595,0.18602569342735195,0.8866236990979176,-0.2884774706822902,0.49335962738164385,0.7675744484963745,-0.604089846176959,-0.16533598792438764,-0.8121512727320308,-0.8316187847059837,0.7878058710518141,0.8806036694492927,-0.6460078545594121,0.4082427614667037,-0.6662047478371611,-0.1224278903975371,-0.7768672510576071,0.0899445467955251,-0.800560445132964,0.009415270290003441,-0.5701300315271285,-0.9230164618481317,0.37219185931366494,-0.21134255075050287,0.23863813725159458,-0.5099991093527623,0.02161068174366216,-0.7941451729759973,0.25134083530901496,-0.8772247337156819,0.15150979431775327,0.05711881161421488,0.24968218344274404,-0.8363652759566672,-0.41829441197248407,-0.5551242754230866,-0.04568234958484212,-0.40920971350515156,0.14884768955151184,0.4944625233419748,0.5838996359435211,0.48306271870683903,0.6103087498617639,0.8180454399174519,0.15026744149325766,-0.08668555536885258,-0.11240422500533453,-0.8194218348015672,-0.1523298957694842,-0.8151049044287197,0.5904379126110793,0.2265362052163225,-0.1491069312012706,-0.5620073430730692,0.7736179986301873,-0.3625832295174497,-0.7454534310146634,-0.8839167074661033,0.18423783551335032,0.7604338448231931,-0.31897954188767635,0.27140570440718825,-0.11449539216475944,0.2896710946208462,0.7272044732941653,0.79901519779694,-0.014890361207250116,-0.8481814828212098,0.27334257895387193,0.7278156595877385,0.23133005626795522,0.30299460893160224,-0.7251190271019541,-0.7918125959022004,0.37251153994117026,-0.8129846837874026,-0.0186928626387994,0.7705429090519618,-0.20597864530869137,-0.2068485078459906,0.5198565804792208,0.06442211659253745,-0.7168482405454653,-0.8167659078546622,-0.2805032115523694,-0.23512195345735845,-0.7414521040044818,0.48268155215870706,0.824468738569245,-0.4838256385921687,-0.41909218500318307,0.5143240642180049,-0.694604467902601,-0.9267229980782075,-0.1337760375712653,0.4338512084081405,-0.2856647480033421,-0.11511278718490425,-0.6843652243626461,0.18705087097673379,-0.17013056034820329,-0.3351642074234322,-0.5312554676565393,0.25203422824381844,-0.8559802461678537,0.9543979091752307,0.14698303504452523,-0.2825753082066535,-0.5681876691882085,0.5181228795392624,-0.27269817804668706,0.06036536557437187,0.30865849086773006,0.5211060458993934,0.2746048535045109,-0.09412316617966322,-0.5249836182655317,-0.4955937909964064,0.41651568103002534,-0.9094884677474758,0.8184261665447825,0.5794196044580973,0.21465042154511393,0.7577863788614497,-0.2281595157170943,0.6121763639911836,-0.6176241716522042,-0.46434148962341304,0.07082846354401906,0.1359469039083565,-0.014768880145737375,0.5043624516513491,0.9336173675743754,-0.1286076360771493,-0.5675969633110081,0.371964986370256,-1.0676695961303249,0.27017706838018485,-0.023483135936805056,0.26207942026244924,-0.31360565875730007,0.5179216479271516,0.5147076761260649,-0.9441599657120269,-0.963768714031708,-0.4407428067774079,0.04454333761708428,-0.4167065906177555,0.8300156773806598,0.9621107980350531,0.8512138577253359,-0.8775743603937172,0.9363455773852509,0.8749420396244322,-0.9746353049446537,0.8648159853946527,0.26633899220533563,0.22819053728043537,0.8610361999118552,0.8969931658173109,-0.29275905359503807,-0.25698597300618037,0.6944756501663907,-0.6919598545505383,0.5719856437495754,0.35110925733297405,-0.09208140780939926,-0.5914070680325272,-0.19540773079052554,-0.6647375603456771,0.7167791573186862,-0.8912864634187708,0.04272173020896161,-0.8970053311596867,0.9200434123843302,-0.73818634161218,-0.3498472143172194,-0.7660673786390967,0.24106727870958888,-0.3943777977167194,0.5547229019240687,0.9138364249143717,-0.01413662715932329,-0.20856381885949374,0.13034271552428311,0.06831825097426258,-0.56442633667261,-0.7429178869862865,0.47904355681450117,0.37949028466030793,-0.04217635806004939,-0.3216429826889577,-0.35024052586879273,-1.0263706647646231,-0.6808290846422325,-0.774163241611331,0.8714959021499441,0.5103350935250192,-0.3315993251150732,0.6019205188129493,-0.8387605887919919,0.26620352964451177,-0.7306244874485981,0.16187772492571315,0.23184499239803533,-0.7051498240560526,0.5878728373423356,-0.015850250446310957,-0.1275710239611756,0.7685777820269141,-0.3272744546959392,-0.7561581477830766,0.14853691123273705,-0.8627106986418337,-0.8752078996420192,0.3518808899348698,0.04051719973446002,0.6708651444835189,-0.6249901926152641,-0.9811077878466616,0.180992093335927,-0.5459355715937284,-0.8754257988467183,-0.6922977581990658,-0.23908342380783765,0.7235660559182244,-0.4254109750443942,-1.0561112433552275,-0.9461959876004064,0.42143042361243654,-0.7986825103046661,-0.08514400370754047,0.8798831404425493,0.7477106217108221,0.4360762158812961,0.44773632202489666,-0.04273631013435807,0.4693822370441028,-0.17565417735732303,0.07097858366461336,0.856940010447965,-0.6699073679541945,-0.4945319694750489,-0.1361654723268082,0.24816886670823407,0.5662953166736834,-0.7604946850042391,-0.9983226392836415,-1.0586240506671303,0.5020315346487274,-0.19719877420234297,0.02664128698024202,-0.045810959069113984,-0.4495254719924825,0.20181413654374109,-0.17484073436935182,0.0764415761043232,-0.46539359623319,0.1979204896667143,-0.24573483556280667,-0.49853013616407726,-0.3827499449734264,0.25081677644324873,-0.7750390283676084,-0.4947703644730068,0.7913498525589838,-0.9623188373614303,0.06989257162086612,0.20634089971107206,0.4349144551462957,0.11108165104324677,0.6960662834398791,-0.1889240426079873,-0.37838347687177937,-0.6848827605548246,0.14695704820909833,0.28898974559994844,-0.7897500578704388,0.3794812985635123,0.9510820846997446,0.16034573875608005,-0.34881408045211626,0.7754498019878543,0.12196688551101452,0.6044406457647182,-0.7920219650738972,-0.18267782657371934,0.7496839913358782,0.1370508849446572,0.5599702858378041,0.01760184335232577,-0.8200092957591611,0.5334858212158518,0.5731296151177744,0.5283814850233602,0.8840233903077672,-0.6519202185794262,-0.5712209614432592,0.770951578763922,0.3211353855235585,-0.07001617912812395,-0.6543315927537608,-0.06591661007720442,0.6699691127466731,-0.003950366019464727,0.2582230862518785,0.18415338664613015,0.6018231898566113,0.460592059946285,-0.2004863373446571,0.04436499257947477,0.13106997487512184,0.1496016994817025,0.6141159116467373,0.9693007572408868,0.39495156333232995,-0.5300232348054557,0.5603054773228369,-0.39064453195188803,0.8399666734317882,0.5084796631579438,-0.9909375353998323,0.8354206634171024,0.521181831529932,-0.9127255656311593,0.6839933530246423,0.15721333251639263,-0.42193032566681543,0.10664961617692546,0.7250500257762509,-0.9748382781123922,0.30706162349913513,0.38303448693501724,-0.4211423736753819,-0.16007639759335465,0.4321574385718353,-0.12556419033928679,-0.0022909006831321682,-0.5314365480782948,0.7060745146660143,0.14792160745819535,0.012849632311268273,-0.7763090367020945,0.4544748661583849,-0.21325939840229413,0.9465226166344914,-0.8032485979991303,0.8998059193133006,0.32322410314666306,0.7539137179276497,-0.09930056079618814,0.4026470385194611,0.7319272237363466,-0.5929594383674215,0.9158521180502164,-0.049646231342880605,0.8392212349142405,-0.4132768530770655,0.7560456169192025,-0.7398801301374566,0.6259132857437001,-0.4297472187194421,-0.9514711952513569,0.5338251974912686,-0.6496838954013286,0.10541840209454818,-0.010709638851488328,0.6609200849799657,-0.13958112647526502,-1.0233954760594182,0.39021079352026256,0.5259743754760479,0.48377756593874527,-0.6396226040568828,-0.09534700858178195,0.5605881489202887,0.6770943615725695,0.3833713047529016,0.5081216742805628,0.9781632965190589,-0.39343399118033684,-0.5041858746098272,-0.733796589768426,0.29214694915102324,-0.13595463833239782,0.2164724419911238,-0.28439623384322005,-0.6533816692030433,0.29753308274437207,-0.27183996116327513,-0.5035387867061378,-0.6999523888956366,0.8443719366253661,0.47126470316601027,0.15652432330790225,-0.2873077239310525,0.10709287708984616,-0.2863570516682938,0.5572694464372652,-0.6375211297549614,0.798331078022176,-0.5695304873748485,0.10873181178560337,-0.8477266234747939,-0.7235986162701621,-0.36616525725945787,-0.9331770439461197,-0.6236232504585865,0.17142931062287747,0.5823185630674474,0.3407396642828672,0.040037357411191805,0.9333153697083229,0.4309264790536816,0.6478472576299638,0.041504564263110826,0.8997380328326813,0.45385666505419486,0.15601787548910362,-0.05117062355346973,0.2524552690259352,0.0075686511536875245,0.2932752685019769,0.4935810610972799,0.026227580655092907,0.7078343828267762,0.3508134743980913,0.4478933162387515,-0.4035834175434908,0.26514144328259404,-0.7991379482105442,-0.7535019397818312,-0.6909721463620491,0.6257496875207229,0.5329132832574073,0.16783618669586298,0.03447793789587128,-0.9650433663088765,0.5369092549801148,-0.755218170648223,-1.0140762963647856,-0.9145197305560209,-0.1283010735850992,0.08903611746859512,-0.8747743662847183,-0.9567656807262469,-0.5062049723823793,-0.8314366996683372,0.2990141310347241,-0.6226111816940305,0.41487580174635647,0.548039088792975,-0.25986873768087215,0.7306847027665969,0.1759849174433624,-0.7110793954918596,0.24951895407508456,-0.6590085383538541,0.8777833896921019,-0.1673090484491661,0.19301291809368487,0.6646836570898854,-0.2533348557043851,0.3046193749884294,-0.4091567837299026,0.884928964218476,-0.8098463422205004,0.8693344413673711,0.9447030592651894,-0.03874157924509907,-0.8917849659810718,0.08537936664300672,-0.6481018258297421,0.7840354664064572,-0.5099632511065755,-0.4577566887304504,-0.7456170727132911,-1.052819117694853,-0.6916712726385328,-0.9306536771314913,-0.19334624518769578,0.33826035148670625,0.06544548395761257,-0.8981772928232451,0.6001570310264056,-0.4047411802841241,0.4143643742325632,0.14327731379576655,-0.37707673502635913,0.971345852088726,0.9630106807580808,-0.3407233478040239,0.8175265491823338,-0.053155460515364725,-0.5768885527077405,0.039189067158813214,-0.5822597229106373,-0.6015608681252053,-0.23480820832116947,-0.7244195524459878,-0.96164200496828,0.6780493581429531,0.5463132620580917,0.21441651210518126,-0.1893044599342449,0.2546077449581389,0.6234406642500174,-0.69542144934663,0.8163448035763655,0.691907049172698,-0.40124364443709226,-0.44328079907669116,-0.4311589743125987,0.25283815046457536,-0.9607469148211345,0.10052998152944809,0.9339284641388438,-0.14560871254520252,-0.8335348694112996,-0.1397391981970133,-0.3840366395289432,-0.9175279965641304,0.7416820054599713,0.09622053662161441,0.7713387631664123,-0.5879138547290221,-0.24468600011992625,0.4686830506173289,0.5906476464612199,0.35003640340060155,-0.11630561665535598,0.8296114832962452,-0.22516153095395047,0.8937220969132686,-0.16012748114138317,0.7191016821217637,0.637183385268244,-0.8059934538114288,-0.7959216727781566,-0.8356847737955356,-0.49158372434211706,0.8479482844193246,-0.6574961296616737,0.5905453171178157,0.1390607198389909,-0.8117386952214424,-0.14356721192761923,-0.8987899098267933,0.4825556893673373,0.5144265802623947,0.456654740385824,0.9538929048715292,-0.9811999489407235,-0.9217437339586894,0.7169412475654046,-0.2007458985228271,0.270706642506989,0.9972487855802156,0.6261514677151092,0.382764412385147,-0.3346011804907188,-0.9565117523025529,-0.6216963147687797,0.42835541416067996,-0.3785167998318151,1.0075573029966305,0.31151671154087607,-0.5574541592520377,-0.6986203067380871,0.7212286731658901,1.0098399367098911,-0.942172987723943,0.6065146719763694,0.43318442883330244,0.08448269869075734,0.9963013125339701,-0.9972485665661275,-0.03593106957208157,0.42090029410785945,0.5609412630476834,0.8215134952654143,-0.9485010540732735,0.0925031880323549,-0.22926654232252916,-0.2035554043970332,-0.31089717537507705,-0.5149224729501014,-0.4233303027991252,0.6889855691837689,0.7739332976644527,0.18074697307849916,-0.47001391195348263,-0.8279390799998877,-0.4199217598222984,0.5144474840772542,0.9500812568770154,-0.17938008469268346,-0.31249952434437456,0.9503133435416644,1.0051268233377777,0.007840442374476292,0.8813850241192249,-0.04825610813574845,-0.12513361460536454,-0.014003434621580935,0.5161738175398773,0.2474377939686896,-0.3225816101036684,-0.5649391332265637,-0.9487328359042718,-0.8085266706343046,-0.9796369524662083,-0.9509701263959437,0.5356339168805448,-0.7052221455456099,-0.4691395896017719,0.7049850905745922,-0.10875865428329837,-0.7251461089211009,0.13248858682935136,-0.08622118746921276,-0.17020666066588466,0.39090807568590874,0.6052267642318105,0.6312576296983573,-0.8938379771506632,0.37634819056132357,0.16674082289487405,-0.14999433286054875,0.6054035021672195,-0.6569041514040147,-0.8675336258684322,0.5295076842812052,-0.7254682719543597,0.025793444198778367,-0.23397111433409215,0.7184823373911142,0.6249707868874799,0.5736111240195066,-0.47334966415889085,0.2386754500929153,-1.0022514090780374,-0.7438964750407568,-0.5046198749734091,-0.7598337582636688,-0.11526354774173314,-0.5884091605534996,0.21856440926660767,0.29537482742398147,0.6948584836011278,-0.10464783630958566,0.6440881900612643,-0.12433430346723252,-0.8966143269663648,-0.09448685833764933,0.012140828526472153,0.4290050254245421,-0.2592079505733158,-0.01668889861355849,-0.5274169943732034,0.7761805111085585,0.257648419284092,0.9535786300259639,0.20096918248722617,-0.4058567217580438,0.8334170985927017,0.8236270740840754,-0.5966181815768069,-0.6742980959923282,-0.3073600810404676,-0.9978706198720197,0.30791062353104304,0.13118806437521197,-0.3305773890176251,0.64805782300161,-0.9674458502662926,-0.8293875689306082,0.3715680586202151,-0.8153866034278698,0.6826094894501518,0.8436750636303832,-0.1911104629393874,-0.7508821478426031,0.6048771632867642,-0.9811027364993121,-0.11824563301789226,-0.9572069396649898,0.3808848802580578,0.4894924382330845,-0.6836697027834824,-0.8915163830927133,-0.45083640754158516,0.6727157335739868,-0.14794896413490277,0.2743181217436872,0.5974505745982824,0.22834973438645415,-0.43857335045620227,-0.19759965170995986,-0.759632692692575,0.670998868274703,0.692907912985173,-0.8698208921521929,0.5787422214234077,0.10738086606322529,0.007396395315978884,-0.7824888707344888,-0.8624288221305639,0.3205606871596521,0.5276333887902234,-0.1802073308348311,0.23726805572701326,0.3761797162287055,-0.39291014905946464,-0.2684295004958346,0.8519091924861399,0.8151314064306849,0.30684058401718883,-0.8517718489998043,0.5045709377062193,0.299755915491265,-0.04128643494823758,-0.9467810353034696,-0.39568164124583527,0.4913493397932839,0.3475637758346129,0.8419928382424232,-0.14479071610927247,-0.3859551279896438,-0.3444866956416205,0.02428244375650984,0.5113755502428176,-0.6681112535816218,0.6805070439478276,0.23703163328480786,0.5750157929040149,-0.6623706118207815,0.11506210596241262,0.2492357035858006,-0.21734633990358776,0.9304917803867172,0.47768965952645104,-0.6713443860868369,0.531741853320558,-0.24121206611375046,0.21079293509580532,-0.2423283885664964,0.5363702018944632,-0.3936107225878367,0.13810990993462946,0.17126950853695977,0.08450355506742357,-0.7360176604828643,-0.30682585696039744,0.2452198782446477,-0.8271781127617616,0.6841182254197075,0.6584880290952575,-0.2789237352113783,0.8722891533093355,0.4558266738630707,0.33548956939874447,0.017527077045833884,-0.8446946984129906,0.9023586592910287,0.32317096092388486,-0.6102269733252599,0.7273040713236003,0.20103820410179885,-0.17382384534270856,-0.6794521047509743,-0.10611532776188803,
