0.21225358700374097,-0.3937024637335025,0.6425381696407222,-0.33906417782300924,-0.8027229608259074,-0.9079039542155836,0.6525275417235474,-0.9442350505840837,0.6068440057224238,-0.40800101656578436,-0.5563576300706272,-0.4839336739102653,-0.38500259442845053,-0.5273406120362258,0.48377835798213,0.7498823905299827,0.7010951909309113,0.9748903441644197,0.8022294212912615,-0.16135979604533435,0.42677130592648593,0.2469937389958332,-0.035134136401631766,0.24515174400240736,-0.6127546699404307,0.49245569528727207,0.6688217861776817,0.3362607380544902,-0.8883789469815666,-0.6784308932756726,-0.7256247761545178,0.7546819928644739,-0.9969969820397435,0.966185180624993,-0.8623278207207132,0.3043267437912256,0.7965533321365541,-0.23472110592407547,-0.5770957287431906,0.6566113606351784,0.627293298356344,-0.04569721677266614,-0.5679684961716205,-0.14554652675099855,-0.1880765728084366,0.8672754058352026,0.6886729845226198,-0.20990110029570297,0.10767845936574649,0.992433904233397,0.7091372834172771,-0.01476973214161692,0.3819443149824824,-0.722244309638481,0.8651995882699157,0.3954344948415023,0.35106707696394657,-0.1128966657576993,0.9901282882827509,0.2731725844674686,-0.6226683141140565,0.1201893093635098,0.20191088616763508,-0.6258202863082893,-0.09010461326097041,0.9675805097831018,0.28343778599456515,-0.6538377004009579,0.8386622651732987,0.4349088095262015,-0.8370781194635832,0.41773625711540396,0.674572330893557,-0.4541826943545406,0.8565823218231712,0.0974534584657547,0.7148722106328012,0.019844182589256798,0.021642183237849943,0.5597566480227583,0.8709550651085141,-0.3127017313114613,0.8992406231752472,-0.8415500487669589,-0.6318985755431792,0.3323635765060706,0.672278175172428,0.28464627821135613,0.27355330871087413,-0.4407776872566467,-0.3109127680359298,0.2654227785785217,-0.04495069298659082,0.2428564777982105,-0.20553707496874574,-0.9561252999464318,0.21167118669722074,-0.35115981977746635,0.08903589485356855,-0.6729964499170424,0.4626625220300855,-0.5483991422141292,0.14976243582891713,0.07591422886979071,0.4463776486304345,-0.10477012854509615,0.17377723065220962,0.1417288397662524,0.18272386966659493,-0.2111844130127951,-0.046868819336700174,0.7013479497295365,-0.12446872298882483,-0.6715322355880038,0.5556814698614017,-0.9236158394986811,-0.29800793187752106,-0.7858979128703771,-0.0032517191211902494,0.3355334853763151,-0.6185518442594424,0.38896682224109386,-0.543607955937336,-0.783992134633105,0.7107239265578028,0.7340333326385186,-0.3259247779623776,0.630702142010839,-0.91497591714554,-0.794841963879081,-0.18663452223909224,0.5198963263464654,-0.8964115074285354,-0.5117466627390418,-0.16413124311769853,-0.4791837261568632,-0.9034916774524548,-0.7895026654197248,0.6151273382408928,-0.7141939139071132,-0.7151732282089307,0.384716719992118,-0.519674040044886,0.6565142021585851,-0.7516249048606045,-0.012317780754019871,-0.2861001522469159,-0.8928814802615198,0.7160257571854064,0.3649254183199189,0.8028051936004807,-0.6675611146513243,0.6985492843942338,0.45033447449775726,0.530270623937279,-0.673664002525477,-0.49981082552202033,0.4699255966536013,0.3057346457411756,0.43509191573781875,0.8705069981893184,-0.8076885106223144,0.0005144487745127404,0.8732741467980946,-0.8899709689844852,0.3584801959363271,0.1451932598413872,0.176897076417303,-0.1577953096296396,-0.49150680091345067,0.35246410311650617,-0.485095585225744,-0.563874542092502,0.32319167287865513,-0.729512645332768,-0.0804355816360638,-0.08667628438529337,0.3655267725826746,0.33655095010082275,-0.6425792698374722,-0.4486911049611016,-0.6065142651343759,0.8213649759150916,-0.5687873724265795,-0.5271602918324401,0.9249325101989057,0.9348658383009723,0.6946898800451303,-0.5820995474395818,0.12979670553802292,-0.0010738474119329554,-0.339431519895509,-0.7225330235573175,0.2836934238388156,0.8675031046942712,0.3043015908227169,-0.0403444818260712,0.21285638817734087,-0.4677820580125193,-0.08586893975450144,0.5131956293294708,0.572787690800455,0.39278405924789306,-0.48675571657402755,-0.37901641170263617,0.15238877591789052,-0.16419715794703674,0.43717014354893,0.7278057366221281,0.018378834913117616,0.4609271471000677,-0.7761549178747604,-0.37458947122251474,-0.9214381390552788,-0.024214632584390192,0.6125431072776895,0.16731196417102318,0.5785296866146213,0.8603477886214997,0.3108781647887404,0.023618568973475754,0.8026030440656742,-0.9679651492570265,0.08641080331844231,0.3102763323287179,-0.33526504941064794,-0.47606096635655365,-0.7117344745274515,-0.7886485665400158,-0.7819562820599165,-0.831781016919282,-0.35365195236449115,-0.5025649402156489,0.046815431398411156,-0.47593288245324417,0.4718113209075885,0.5887148712282667,-0.3527546325668907,-0.6094589283272235,0.5345868122217098,0.8912724475566416,0.4582258541609666,-0.23225163841724092,-1.0312780341592933,-0.02963710986830669,-0.38760240331842555,-0.974420484629185,-0.22448013113419146,-0.09987225505227856,0.7384328177961945,-0.44616216558228694,0.763122518002308,0.6124305625689432,0.4460313406926819,0.22814790009204686,0.9161712741435268,0.6936457073210882,-0.19861055480224352,-0.09329810547763155,-0.6441418039466777,-0.5380036317366518,-0.017244032434307218,0.8279668457554714,-0.36537869671512846,-0.40250113837815543,0.0031800818136515246,0.5186009621665087,0.3690884664688334,0.39236522643059557,-0.49186460480214056,0.5750888595942741,0.9196531078529534,-0.9826555021710561,-0.4826414946142859,0.5067241175145571,-0.7518597479432171,0.2988847099967878,-0.8857281639889591,0.5790329077045082,-0.6767876854562431,-0.6226995159191684,0.0587834267060114,0.6911189927589305,-0.5341759008759601,0.16218699549290075,-0.32799532341016696,0.07662270379774781,-0.7997077792422274,0.8998773132252521,0.621837071571728,0.5516081762596946,-0.7105506379734242,-0.9602309706609914,-0.6861734236085787,0.7411989549007005,0.9198033650387213,0.7255730197987595,-0.062654212753216,0.2673457809627209,0.11762804973378403,0.006078740785539341,-0.9437586320624678,0.43018483236598004,-0.8199791626258551,-0.5733082988523732,-0.3031859749877109,-0.4022526694761792,-0.1345190333136419,-0.041588709584165606,0.6677947009560928,0.4014930863078356,0.7666291197160763,-0.2526798463042026,0.18187647187084816,0.880736514062365,-0.48157851358856896,-0.7381899344768637,-0.9576073951202506,0.7274140753054482,0.017061552581758364,0.5013278290907075,-0.11147393324733446,0.5602144924532885,0.35756062907607594,0.9015246470883732,-0.12290968338465397,0.038040740502289436,-0.5139420303985729,0.7451595099008284,0.12128173164108477,-0.6630941764630102,-0.2091740850812741,0.755122589216874,0.6100782242290057,-0.8552556140612826,-0.695191229513372,-0.4069270165373009,0.7728703989938684,0.23080365235151934,0.4739726972957237,-0.127944075268595,-0.4771939741755881,-0.12221619041537678,-0.14720198547119948,0.19622706747277932,0.8255668098873772,0.7957532571160789,0.7209110813099925,-0.5113916789137732,-0.6780958645090689,0.10574267961340234,-0.19813303639544588,-0.10005076784450817,0.07433575062153991,-0.46611802799385055,-0.6098580612493525,0.32741721746982627,0.23564035839616607,-0.9269411540554203,0.28404113162206207,-0.9095928895372876,-0.853694715846463,-0.745039786148623,-0.28387526621317627,0.8649271390736393,-0.779761835534205,0.022241953375025093,0.542850958160766,-0.30843467120731,0.29767864949054484,-0.9355734722177553,0.644399366209897,-0.2511456979943444,-0.4540023085101444,-0.3668430399292407,0.20419343346245752,-0.04879518433320204,-0.4678683942583466,-0.7418883812823261,-0.5408508214971189,-0.8465915428875943,-0.21363031334568552,0.07284106419031536,0.3135112654104595,0.18627796630120533,-0.4660227779720869,0.5077645270660838,0.7124257043631934,-0.39655705207658837,0.2645423896744268,0.14513851752322904,-0.9415037011656373,0.22208137885436918,-0.614930754507491,0.7980365944423579,-0.5585869191588353,0.30672184963294646,-0.9591994857439303,0.04390977878146542,-0.1352685717772427,0.7390551366771341,0.21944370342182568,-0.7332499641598718,0.7656195875412929,-0.5599162210545771,0.1688240412305887,0.36228891159294163,0.6703977205659389,-0.6754345484411439,0.8268236844003184,-0.6984852723988547,0.8701252688637482,0.8070797635653506,-0.8646931191471924,0.8703743955110896,0.48020162666519023,-0.06162535536615758,-0.4701737576308252,0.5057673259639979,-0.32919623182197344,-0.9296870210995123,0.8017223112492972,0.0010366607929045387,-0.9857302537704408,-0.2593586805655018,-0.8317871804465669,-0.5780994803442147,0.8696380437240256,-0.410079645248893,-0.21608604426324637,0.8612145263770553,0.8380707515979864,-0.22461096228734118,0.7535906890768524,0.07512505362086958,-0.3289758079335412,-0.3844095893356464,-0.8677010855773037,-0.928934731992979,0.3021752902368774,0.30448059090774054,-0.8502923612527247,0.1839334842032098,0.39746650501921815,-0.7834575750273305,0.9047587213839708,0.7841448612125956,0.26938235473771366,0.11325862104553108,-0.8734750315159309,-0.8154694799268087,-0.4228943319794434,0.9857091784969321,0.4254743289268887,-0.5085740017165791,-0.8357267880252355,0.04576016212108575,-0.17349270610491213,-0.3746840952158541,-0.33810814280642015,-0.7342184847407256,-0.5759826027077812,-0.8174470095217236,-0.11980005465004476,-0.46084390748317716,-0.5846906084573242,-0.29297533156889605,-0.7204478976615813,-0.5105292210779295,0.6605650619393832,0.15366572754421368,-0.25430445395688245,-0.5619909972675974,0.976867794561966,0.4147465133254012,0.3759396522274838,-0.7460456185061703,0.5664553732174807,-0.9851067856109399,-0.7844010724142372,0.5425974408333936,-0.0031613310847164837,-0.5806292600730952,0.7693843661398965,0.06260067822594996,-0.4607359174551567,0.7415307971084307,0.2835736372955446,0.4026969044326744,0.7797767335469316,-0.9317583263523873,0.5267185431880245,0.206162009372519,0.628264106879739,-0.6832654222443089,-0.9203608843765648,0.05840160611746538,-0.6813896423281623,-0.706324100445545,0.07805049192851538,0.5646082892502454,-0.6791433670613869,0.1991869563286731,0.09684738621783495,-0.14106779967857896,-0.9358412491685246,0.27500504201523734,0.4605324472360812,0.38881553529568214,-0.8627990524566823,0.19002401854397621,0.350766971749733,-0.3662482584227818,-0.49064971859369677,0.11348450694491448,0.41800385718122396,-0.18987283228510113,0.9315963319807649,-0.8571710576612263,0.7474346655926007,0.0748438762262818,0.21682025334075905,-0.3200641926939213,0.7653055899794273,-1.004039832960663,-0.921432204741043,-0.6471009882858114,0.08155816198608458,-0.42163522159911965,-0.948965549075725,-0.2771538190301821,0.788921842545768,0.6732283368229455,-0.683011596859141,0.34260863726519075,-0.5668597740905013,0.22463777451664052,0.4840617330338276,-0.007566513884307412,-0.8459394705621411,-0.4859094420671085,-0.5153224880904861,-0.19117939747049015,0.4202494811248635,0.2204154131840855,0.9324956391837944,-0.992658344452183,-0.8680367414669472,-0.566934826504909,0.7723655083755239,0.7529041257803119,-0.6731440138785527,-0.27426043163082775,-0.5722834557959535,-0.9886524557216134,-0.48224852069202806,0.2696009168385702,-0.22779383687567478,0.7722873890829048,-0.5998627416416349,-0.9813816446617851,0.7395001976769511,0.4774115378004473,-0.36840935331508134,0.31942641898700297,0.1228670662263652,-0.7708756187905286,0.5037541390011029,0.609224488366655,0.7007265554865918,-0.7864372162630026,0.3779299164297144,-0.4499507530152616,0.2529691930667823,-0.4131478196245052,-0.4381794379852831,-0.6915736145295498,-0.13344168975075263,0.7866111451231642,0.5836870390391086,0.04921395401308768,0.30374287037748393,-0.3237985143631883,-0.1945566336485627,-0.38335095507658895,0.2733370425935498,0.972426443476045,0.0803401146970315,-0.9878715606450474,0.8418725275618466,-0.8664933155201091,0.9151448300441078,-0.7929743576793002,-0.8481773739032337,-0.3108248356765825,-0.26707559273234827,0.6455559778961344,-0.40577956574718427,0.5287093826654247,-0.23097213049793125,-0.377595855818392,0.7612767550117437,0.5454105927326526,-0.05984857562006911,-0.35891158550413976,0.8972184682831639,0.30429764841342394,0.8540586034481806,0.18413923178049862,0.925269814872019,-0.29547696245360805,0.5637369687564361,0.5985273829824197,-0.6333240970469751,0.627022105528843,-0.5427819709450443,0.15049894155423282,0.0035750337470723537,0.21647976633424104,-0.3073790240568995,0.07003735191284324,0.8021124779719935,-0.9467987356852308,0.4088274804806501,0.6313487426053386,-0.2222005119174574,-0.6636717713920025,-0.07390390854563757,-0.06481043020256785,0.029015133863584862,-0.7735693224386682,0.5246188666972387,0.3194827756759268,-0.03555877354061891,-0.9788672133930809,0.128033446533219,0.1937206658617312,0.10638560373615022,-0.45122326532316787,0.8438501109310061,-0.09107719499595941,-0.7494424772125936,0.6577127844161077,-0.395770662896509,-0.5847095866935959,0.41287384576972763,-0.03891896013894036,0.9773301973395803,-0.055524610145393144,0.48579498850626596,-0.10499733762212896,-0.6126475052136958,0.1809632904906018,-0.4402622107522784,-0.38882036328217484,0.18755943442546102,-0.2479681356562134,-0.8362361106835651,-0.9773142424778284,-0.45181253420571915,-0.5598843869580525,0.5423211882025181,-1.0034833526174443,-0.4491300753490924,0.8691304696550299,0.3231972081110176,-0.8443924899228009,0.8404249354281786,-0.6116205092673059,-0.815526054862183,0.819987203027472,-0.3244838610526237,0.7424755604358031,-0.8727281181872497,0.09044873310440504,0.9642692652099474,0.2970213846240122,-0.22020278309060792,0.011611121062636842,0.1728214170742972,-0.6155700100747936,-0.7845145881380295,0.6313257945608979,-0.6808259283483407,-0.42450041854399956,-0.5033704837989719,0.9029871797329374,-0.04042236432657442,-0.29031289416532524,-0.293471585176029,-0.7849435930846456,-0.15080623247004676,-0.1951117296314664,0.3048720435894363,0.14491468415299225,0.33567175721346865,0.5271755727871219,0.5454911174932626,-0.3646911527445136,-0.6865196430212015,-0.31378995969741585,0.2943940949162993,-0.9788520259311733,-0.2840706913698181,0.7769181404838887,-0.5353983053958429,-0.8149486717675494,0.42151218688553316,0.057012737891313,0.842079140437112,0.19708169913097118,0.420459096469745,0.29175797734333386,-0.45685450729681,-0.35711851362432445,-0.8923817057964307,-0.8753013569411288,0.20655970141536262,0.8169866619586799,0.7751871600157534,0.3386786012151668,-0.885154505435287,-0.08545889554878339,-0.6399807009072487,-0.774104431580958,0.8649196839411535,-0.7013251423698292,0.7051106029651026,-0.016152319451195662,0.8741270444768354,-0.4493251858615741,-0.8779986673497195,0.05545869151684557,0.3191697617977589,-0.11954777165307906,-0.5346794030812201,-0.48026501266972055,-0.8064354335404709,0.6836462862941526,0.22678096061866615,-0.04153169138427404,-0.44999330482809374,-0.30375571136995916,0.22754092106792556,-0.6045277301437757,0.16395649649044142,-0.8257160382208095,-0.06507346945341408,-0.6751069541811794,-0.5747734350318239,-0.8928989410532666,0.3790769965238685,-0.10480895725683248,0.319652157790437,0.5452718280626867,0.5656641058444787,-0.8725244088168078,-0.5043539440187577,0.9165107354479902,0.33580077026853083,-0.3670287481660206,0.9139259950458443,-0.6436570492782239,0.3933915006969855,0.07554336131083206,-0.3451411766738246,-0.2655958718945577,-0.9962092233181876,-0.04343898010067826,-0.08616775686897582,-0.12882584152755405,0.1986502818449123,-0.5566930776134269,0.05045187992544142,0.6063844014249722,0.2871035665601911,0.27461371943630675,0.16132480338944166,-0.5271689325942579,-0.264074161973584,-0.031730897218783305,-0.5502358157553777,-0.4041481795347621,-0.9436579736316857,
-0.6362689215891231,0.6322985610149612,-0.21847219227887416,-0.3748111310248945,-0.048193479449541776,-0.13864403855330298,-0.3643001624998299,0.002268118201549818,-0.5183462621422765,-0.8269730287573034,0.4765696361916425,-0.6378583225694494,0.7608977739806566,0.08089589667742292,0.17709610573969647,-0.8828558164571654,0.5864867344055371,-0.37676245414009757,0.29754140733919177,-0.8927530357621567,-0.8473516599048543,-0.2522838801111891,0.6373002887802379,0.46412818204572925,-0.3908683035327103,-0.8661036730786595,0.25703372050779016,-0.663256086506913,-0.47811105909019447,0.8391187100452366,0.9993560932001606,-0.3750138752905643,-0.059931388977418676,0.373977097234087,0.009320242904342635,0.4542539623374089,0.563614496832872,-0.8289035623639003,-0.5330737437871964,-0.8261415957703688,0.4383233507391884,0.7912177817950978,0.9579555866132146,0.11008231273327285,-0.18884844634615217,0.3973640457325216,0.880705616105321,-0.6063713951776517,0.6943651287899666,-0.5578357852532874,-0.8393519496922857,-0.890629260897595,-0.4207387460496088,-0.5544135255623204,-0.3135687323368783,-0.6579872547049856,-0.3856047716282429,0.4170754817201834,0.29590704032507675,0.5500197603563821,0.2362741908040027,-0.5518640270421089,-0.2516064298493268,0.7745202925067385,0.7305220309909792,0.3719209791991569,0.6778023167374381,0.9155590897231773,0.1634405779196526,0.046123801941410525,0.676999853443949,0.2760120962938899,-0.7197272324075867,-0.7918917069704632,-0.977183049297284,0.3759310596720862,0.11559578522595504,-0.388888772759167,-0.96870603724776,-0.9410167245359022,-0.06012644519543331,-0.7194620762757287,0.0004059873543940107,-0.3198151830972553,0.5962036422534636,-0.6872221586167131,0.8756781588202096,-0.1501381874428751,-0.131533913217609,0.978586190608355,0.7995880484200817,-0.7807731121031256,-0.9153152002281144,-0.9374205449749196,0.6106709465927391,-0.3762904374190308,-0.8987927416809145,0.6310733497777838,-0.9134794966758708,-0.06493263267421034,0.3202750564342267,-0.6111395870381167,-0.006288536184418048,0.2957833366595739,-0.3184742885172456,-0.7320368585040886,-0.26284649614971833,0.6823138756257041,0.7459753501563247,0.6379571066004301,-0.7070517815096984,-0.33146341017755,0.5520369789325101,0.17898203565494342,0.3583238659800243,-0.9566524792805515,-0.47471863014481885,-0.9193915504050842,0.7123909230518796,-0.7410726327635005,-0.9101082575658933,-0.38960682454168616,0.5999811662769922,-0.8950842902808956,0.6625356184273665,0.37843083538271327,0.33117483860199887,-0.6114693019326481,0.1815099419521049,-0.3816221557587385,0.4474853211776306,0.06476508268706678,0.5514030374231992,-0.059467925068004364,0.19280948344850998,-0.5109688966194691,0.1539460075020611,0.7707817914785555,-0.9649004715720644,-0.7278316258620101,-0.30376103377069175,-0.13929756257597536,-0.5576813974521506,-0.6183566864716121,0.21344606621729198,0.17017220841901673,0.4305554723590482,-0.07714504148334253,-0.4439450180690365,0.05825345600927136,0.09058418828166001,-0.2649168100654027,0.16293433133893845,-0.9668931107623916,-0.11662333734830019,-0.1899276798990902,-0.7573170231158791,0.4953043523968231,0.26332175564167537,0.6338017297100761,-0.42246390174793436,0.4139725006149351,-0.9081236575279502,0.772545168971938,-0.03302780731112834,-0.9555760298724072,0.6003741834550382,-0.3309783104987132,0.2569583781197191,-0.6730186915078598,0.38088946568277143,-0.459578685103446,0.8691253797418752,-0.2618654693278559,0.2803499417428468,0.2109151824337425,0.20742447327283167,0.5721728543266146,-0.9567618117979056,0.62577628639968,0.4127608664663338,-0.940499865815471,0.03041318186568266,-0.9764786076302876,0.8123686127384734,-0.7374051654753468,-1.0076231616587084,0.2235679340080803,-0.41781840804995585,-0.6118397180923228,-0.5779743308209723,-0.8232951285509691,0.2612185031148507,-0.055421410257030956,-0.7862410436982807,-0.7013319630366879,-0.9135103119218781,-0.040108312910819954,-0.13960789389926273,-0.7797758272377081,0.4876446856019753,0.869632138833241,0.582341808455634,-0.11674964221956467,0.15376806423194173,0.861141433304411,-0.5535607004481106,0.41136203695647455,-0.2125427766557749,0.9985800830069498,-0.7285171575799554,0.7305165277627059,0.41671266801199747,0.3084082989097879,0.053564061815389086,-0.6193592312273853,0.3839872389941614,-0.4050273893788828,0.537162738850108,0.06979923704461893,0.5643826739694598,0.1028641459590134,-0.0071890644231040746,0.39278353579764436,-0.1114837402902411,-0.5095930160972284,0.994534632781891,-0.6817184118401344,-0.2225280837896868,0.3526219857494835,-0.011111795283726014,1.0588498264723625,-0.3434120023599454,-0.17212679268997996,-0.7013236521622545,0.38862379970827315,0.8130827505257244,-0.059691769123475395,-0.951928343844168,-0.21710440469349543,0.7937348051015589,-0.06831673722138179,-0.4617749294506883,0.8169194534300958,-0.4728693432362322,0.21281033872884,0.7791036171691198,0.7818725059053449,0.26882454454817706,-0.5599643008120327,-0.7236156613633247,0.21447122850500833,0.9661097128472111,-0.7024561780767054,-0.23805877922682098,0.6543729821991795,0.5949844730262931,-0.4107749558773633,-0.119603936003652,0.474200932641344,0.13614870042995666,-0.24702118830086078,-0.37693707688375344,0.819744847947661,-0.38240322077342254,0.6693739174042639,0.08078138555607174,-0.46501321229152687,-0.7648740065624231,-0.6051996459751056,-0.15796116716165554,-0.7375791055676185,0.7911083895019394,0.6734927427816656,-0.6133986019870952,0.20069240907385627,-0.289480269158852,-0.168531995646242,0.9740076944750442,0.28775791065886214,-0.2664613697754694,-0.04040385144661008,0.0017163516205432737,-0.7441579005947403,-0.8636895717248064,-0.20887924587268783,0.13441988985063155,0.6206970888976899,0.7822687661708857,-0.7917242527445418,1.0135334667749623,-0.603841974519676,-0.708163329778765,-0.6931532655798346,-0.9875945113842624,0.5633443089373972,-0.09332380915464232,0.23364763229824018,0.06644831042217195,-0.09171239326167784,-0.12287171439443352,0.8004345398086732,-0.7444731575140675,0.5532408963146834,-0.7541620052825967,-0.18074702048285282,0.1580682271034642,0.475634477487066,0.4150738498680302,0.6704779927825284,0.8042631456778714,0.795098866875369,0.8645724801537031,0.9320251402088181,-0.16392928128082038,0.41010429028087053,-0.8033445586784684,-0.07887921527699393,-0.7095753170973923,-0.28671590439732547,-0.7756944228631679,0.667636299937289,0.9303548744630019,-0.5807728287720416,-0.40931651888151643,-0.4537684976735283,-0.5615690791980444,0.5278122481380813,-0.7728518648716326,-0.06954034316404742,-0.5084129312686773,-0.9329089747616941,-0.6321892866042296,0.36671217148429075,-0.599588316885306,0.23648541382855637,0.5037502376269949,-0.8198171490249417,-0.5607318954039644,0.5832495337714849,0.47641334741716646,-0.7182101403788234,0.18027238255424305,0.7440880916818124,-0.04737129826350209,-0.6468188097202029,-0.413469453142083,-0.36265632679124965,0.21182012276071288,0.06537526490914868,-0.36207010008109336,0.0012231357016788075,-0.7658070787508986,0.3661283332033391,0.1530953374857207,0.2127934144742438,-0.5380943200180562,-0.41419564174096474,0.33196798064577193,0.0006314007533094633,0.20448396596683982,0.4741794998680822,0.7642300977944667,-0.7968716011447379,-0.5987830045893219,-0.9266093891522763,-0.9284313052067452,-0.041386347447497175,0.1632765222433611,-0.11426195807722932,-0.8360597157985804,0.9358999709237555,0.9305970201163012,-0.0617175327913223,0.2009520152701501,0.14409344148725364,-0.8543881426513247,-0.3558696216098477,-0.5732249985116097,0.04549913980038957,0.45121212986270615,0.7660848016187669,0.7905858121461393,-0.17107155057572812,0.9799385154941463,-0.7597754348695195,-0.2320209663748272,-0.44297657551958064,-0.39635788600485206,-0.24174862691409932,-0.7734685611198244,-0.46920628990029756,-0.5955375091525061,-0.11439926795494791,0.9789430417005727,0.3237597594382761,-0.7272456338830036,0.929056457196184,0.7726987960534187,-0.8694691400822672,-0.7953512870163534,-0.8210170264811957,0.6599488698071396,-0.37665694038432357,0.29072752773039917,-0.5328156539524674,0.1303353555971198,-0.8662949133760529,-0.621559940476538,-0.7973998778945863,-0.42374876418033325,0.20382776198787822,-0.9292696405000251,-0.5489411353234265,0.19293285720014672,0.9726412714046045,0.38407350684131963,0.4276335744128762,0.4020456359109058,0.545622240412486,0.9515908073724968,0.748611269703141,-0.4612488063792391,-0.5819257415574421,-0.2716374579130812,-0.881016703800023,0.03739310421852968,-0.2719364768932991,-0.5287421314004457,-0.9058615114935548,-0.8777427441960275,0.021101235370699786,0.09177203496569164,0.6769858078320196,0.7597502197935573,-0.19500140704460178,0.4925240523104182,0.36874095973298526,-0.17433552919620582,-0.3063822212173483,-0.65030155203978,-0.29833349516631646,-0.04649767406252747,-0.389324879058535,0.44524823277819064,0.4109645642445047,0.08279781551329188,0.20460464017402757,0.028910828552110024,0.34344831566775214,0.4009348960245679,-0.4649801505917083,0.104523384324796,0.094752338510283,-0.34595087215217185,-0.12775254895143287,0.5915876583136247,0.5899943158847474,-0.46690501831849185,0.38055189895999475,0.7113346964241213,0.8659254382662693,-0.29654412113210527,1.008930890275247,0.8436985750506336,0.5848638410883747,-0.37042874647915364,-0.41863665337302886,0.8489508623865035,-0.8784920408742535,0.6047959172352261,0.9368682585183112,0.2519937457507442,-0.1200479933983802,0.1466760664286464,-0.38164799273511507,-0.9997800317858458,-0.0053124316501684905,-0.17174015595777353,0.4845409422777631,-0.023860252297713245,-0.42185532566090617,-0.8116087620594657,-0.9500552551868306,-0.28371833188375145,-0.1524557760473401,-0.1665989617456119,0.41203610313773736,-0.2777485353149203,0.8261870676536804,-0.8533868811575147,0.7448010509425718,0.7280901940331244,0.08149308781758403,0.49055921738921004,0.7235646125985297,-0.07810796416074758,-0.16794676431578756,-0.3813144055026105,0.44876760886682016,0.4804896503040288,-0.492263550283922,-0.5536395316660164,-0.18140880535255577,-0.753013823423436,0.33093808312705514,-0.6358632713479689,-0.2790047838341925,-0.08776158586812284,-0.4905542659105022,0.9199286682136576,-0.24864596976945302,0.07962841858750422,-0.7528715521938031,0.23527900827507447,0.4445677737898766,0.4063698451400878,0.3032067765387964,-0.4423365231849522,-0.8047838488953309,0.23536453644918698,0.25783915553477565,-0.21158537880701403,0.18724126368181734,-0.9261199457991529,0.9193061933482636,0.14595442371496417,-0.8070906816994837,0.7639673433988362,-0.02941516539413261,0.8119658721363375,-0.3468866630988714,-0.534721265022903,-0.5069752985595428,0.2022155489782318,-0.12527022906319582,-0.4086917954592147,0.8951386567333167,-0.5721571716342447,0.7590788579038278,-0.7249463540636829,-0.2282137178841094,0.19433023097831728,0.5885607292885577,-0.9676127039953583,0.13788465347563786,-0.5333274527902955,-0.8232964863482023,-0.2713757714182974,0.6921860496623022,-0.3347182183426801,0.2593564865050877,-0.40223681289175867,-0.41011940373264866,-0.8816646685973836,-0.11554733147153785,0.7400879296530861,-0.5171838908125115,0.8646169936914291,-0.9863690064798234,-0.23766454257596337,0.8414248917960012,-0.9649949920893315,-0.29719667590618626,0.7994439363495963,-0.14279800637048742,0.9659785700067549,0.9130721061966826,-0.8023035939542721,0.2106184475510549,0.7355441821953307,0.10014279770462335,-0.09815078314309807,0.7844900577944055,-0.5056904955827964,0.7002896069633653,-0.5349628147378689,-0.30701066235024804,0.9605448103607738,0.2534949874838427,-0.14163369388218947,0.5733085532845713,-0.020939108688620665,0.7970023422780663,0.4229048531071141,0.4072767213468473,-0.44209321726704,0.2978833927275859,-0.38233852718326555,-0.6140960109257589,-0.7569301024148196,-0.6492019704497278,0.388076339594857,-0.3010651098673756,0.2808626401812199,-0.1511793717823891,0.20211504100868416,-0.6136184397909785,0.2703968808420801,-0.5062277253025563,-0.289556003919312,-0.04055397135146679,0.9427950860361822,0.8454161170934031,0.6441886376387188,0.3633293067645968,-0.1310518415486695,-0.8782892338128779,-0.3657141611060459,-0.6054178202814884,0.06574023686617986,0.4337920827979838,0.9623924705830612,-0.09953750349504696,0.5393656447919675,0.4399015571190079,-0.1963458193075569,0.41852425664011284,-0.8964992401929794,0.9321855062336044,0.042354120812600815,-0.460035258616746,-0.9043167608315715,0.2092503473276351,-0.8216751010636777,-0.11255485884362608,0.20142584751474726,-0.7475057509252165,-0.4510383402793678,0.8052742844579418,-0.048195606486794634,-0.5516052453379122,0.6635262628147109,0.8990897545514014,-0.6876604748738406,0.5344519298570732,0.6023189304074635,-0.9828701439482036,-0.5737110402540218,0.8296710201684797,-0.37099702131932866,0.5124390994319004,0.1561710840268007,0.3406223583094543,0.11042545868928677,0.8442908076369635,-0.6595467629345231,-0.8539370457694149,0.6488441196137803,-0.5199924157413798,0.4345250519594027,0.022160700150011235,-0.05192333665686085,-0.21370927240153847,0.02535622374799875,0.4118170755938983,-0.3076133390532425,-0.9550111322499127,-0.8465071967395147,-0.8648663465485069,-0.1783109270774873,-0.21097506482412162,-0.5581074837789961,0.10023161091470398,-0.10337010707805826,0.08556998024307597,-0.670371994439931,0.04401596667583063,0.47305057969826947,0.5596322650362047,-0.9640437718503825,0.17267536195983024,-0.9695142454554022,0.4197851280230276,0.7254578151855882,-0.7396351658925318,0.8193844849088121,-0.5423497747430119,-0.07326533923152567,-0.596747328528233,-0.6406887351404544,-0.863366796734701,-0.9268765627968734,0.7873370114831946,-0.05326618799385363,-0.6305938578520616,0.9297370814400399,0.8019130586923611,0.5543391310113135,-0.06127944783008865,0.6882459958226741,-0.8291735471049952,0.16200218171841474,0.5223354612258397,-0.5963751003580371,-0.761674411500604,0.04369649295001987,-0.4246737125970601,0.3547181641041819,-0.8835439613338092,0.2527141713005354,0.8364190612730895,-0.9077974320982998,-0.11270692150745565,0.2582871512195226,0.5754309880940296,0.686951630036829,0.46291325507317027,-0.6912405722455646,0.2222732559996361,0.15584057512344818,0.2355118414071231,-0.9732251256138653,0.3457041757641681,-0.9098374369776905,0.532542196617702,0.8972979669024594,-0.6278856757831452,-0.4029976409998548,-0.27175720096611755,-0.2255128373938331,-0.8052602827352393,-0.4152817272309477,0.8977684652511704,0.722984511092652,-0.22556281385896249,0.7156726632568831,-0.33115067866984194,0.9975539998173863,-0.9664841371298378,0.4276422766469452,-0.9250946745778141,-0.5356028024421433,-0.2575228877447244,-0.818457385326524,0.839011442747243,-0.8195702688791986,0.9680564035999566,-0.3451715936170998,0.655891456373465,-0.011488386912572812,-0.8389876553529032,0.964980482750466,0.8237298076294661,0.8005843945798219,-0.018208590642925904,-0.27221619090223603,0.02470477426762474,-0.08804399232814952,0.7401671083479864,-0.5206626766351663,0.9218439513257177,0.25669795538331375,-0.2764902591062208,-0.20117366829805317,0.06882541113312124,-0.26350744540045223,0.3980709425833888,0.453088951800124,0.0484410282385519,0.9090082898185221,-0.49260126319201314,0.824296381437996,-0.5543808267952111,0.19429998006193094,0.5807636425800164,0.05276095434877992,0.7812807936345807,0.16742657252042803,0.1425414254873667,-0.2986908548651628,-0.20018376471416044,-0.08987189281512786,-0.432883407009963,-0.9531506126763503,0.7611025958140252,-0.7642684594494908,-0.10140637237297279,-0.9249814891151757,0.2827672577710889,-0.7261949948918209,-0.13002427490641288,0.30276797157924995,0.7808907793439726,
0.7215094336119932,-0.42916510204848035,-0.631284468627838,0.38212283455704443,-0.04189149992169017,0.06307057078946632,-0.8862441890561779,-0.08058413532766284,0.9916021570488536,0.7475147715027393,0.30355612009510313,-0.9873658688193707,-0.20978500165174574,0.2579283111616477,-0.006835484259655411,-0.8101073375089514,-0.2935887197138842,-0.11870639158885243,0.2161688988936401,-0.7196444592847167,-0.16379782389148567,0.7988778369295806,0.46368865935933545,-0.37862079703457985,0.32661357024001947,-0.4850033783954124,0.3188134811846839,-0.95949659936301,-0.5585385536883629,0.4479496872226656,-0.24954604792750135,-0.4648469897347127,0.535204662987824,0.2646086965905463,-0.9378606518650519,0.5915680627513533,0.22473747741968353,-0.14882463530935341,-0.0357919157480977,-0.7251845822238148,0.9625417251692145,0.7197481852587406,0.6347925942957104,0.3668901825569213,0.819675465643597,-0.9387486181741238,0.7902186735355567,-0.8801504486081659,0.5164418350592643,0.8923577964178813,0.4482727213790818,0.9926520442633693,-0.016292352617509165,0.3917804077405991,-0.7774516962416231,-0.8062423200129585,0.9812739816782237,-0.078237805078329,0.10198762597997124,-0.14246985794701028,0.9110250961007347,-0.7496485183725212,0.6094925498835961,0.4104820077126181,-0.4698942257426688,-0.36366303359663665,-0.23239585768938764,-0.11361110861956192,0.23906470293040716,0.7598911513665529,0.904657149234259,0.22658728208699097,-0.6217993726988618,-0.8238124039878572,-0.15933314770289608,0.9486199970063631,0.19200843441837212,0.525039635505838,0.1694670945328185,-0.3278644411163476,0.9869386361664152,-0.23587427357160018,0.9928190863614443,0.0703677384377761,-0.8800219511072382,-0.20646852506165403,0.33096531616561364,-0.889366411031864,-0.08986367148935792,0.5675096896567817,0.18585691293473516,0.9971782000177827,0.8794274755937559,-0.7103259385873129,0.4102002338339723,-0.9828799137444009,0.7668132150831282,-0.6790641457111681,0.9524033987867939,0.3607947933116562,-0.9225677363202647,-0.6826436440041028,0.050977358625734714,0.9186746904086958,0.47671060859739134,0.45579844330425145,0.5700031017376939,0.7385376165701585,-0.5726004110429626,-0.36457067765822115,0.8803075914571845,0.21860119379462506,0.8861364678800652,-0.2779960174132641,-0.763990686554521,-0.8936846653512516,-0.7126936555679805,0.6859514758127507,-0.24241856343924087,-0.45577761893372976,0.0927868980604606,-0.8022127461941361,-0.2440517316451003,-0.5196295285808255,0.08208411198832477,0.039320910822358536,0.6062994534171005,-0.3279085876050777,0.6890073333611356,0.34292535208942176,-0.19673314394340435,0.25835811896314614,-1.002686838015338,0.2525981925924861,0.6470923790182287,0.6254362938727256,-0.6161570878916351,0.8888850493309588,0.3109239764271896,-0.6264478755871292,0.22531138383344707,-0.7694451138300136,-0.5236325429592614,-0.10274221051162825,0.3074955478170971,-0.5686580401242511,0.061236889150378546,0.8889723049824921,0.5296662462445599,0.7581512227628237,-0.9060550086417709,-0.05799071186663023,0.5055621331919498,0.2678443568510937,0.046943834743957066,0.35792670473854227,-0.8520101875474106,-0.2524563409836531,-0.3177813751194489,-0.4555746778228683,0.6841627129088382,0.3386114553810342,-0.3373526133936259,0.4352697163913032,-0.7710613241672517,-0.5761550948561611,-0.9384469226475394,-0.4708911019059947,-0.219010491650254,0.22268703099944487,0.007144666513170191,-0.6008293149268074,-0.47898436417953183,0.7015655385826232,0.016171422783776243,0.40421024936160227,-0.8819173683553979,-0.3443019370588113,0.294598037616052,0.38802990494310585,0.8454986779005607,0.3218986139455543,0.42514236086150525,-0.10770220543195483,0.832682270479636,0.8808962316827718,0.5694655272504996,-0.2984712870608713,-0.598772512758582,-0.8167294909110082,-0.7003879926772132,0.6945205078855379,-0.05866058893937141,-0.7764252903191937,-0.17386767501163702,-0.19595053584282618,-0.9480797345069607,0.7615632644011354,0.6851585951193456,0.676381378045176,-0.4037141295968223,-0.43362935080589954,-0.523670666801094,-0.6464474857714698,-0.0857289126735249,0.8584863639456238,0.466389841654099,0.6463399912706529,0.48435510129449416,0.1904248270769107,-0.3599224152416404,-0.4366880629390902,0.49386066752987934,-0.1057527224606981,0.8222203066739998,0.18963714460300043,0.18814984953129402,0.30014609193575686,0.1694702177861131,0.3652535574955695,0.8534523753177593,-0.7843029083212661,0.1314039305186545,0.4076035415416923,-0.08908341715971146,-0.02309587858424389,0.11158955163020225,0.04491287197576874,0.2906151261703039,0.6173595605001387,0.8811805717334981,-0.6757623089344345,0.47559491588783526,-0.9109696732785354,0.7716176417476274,1.07281725300509,-0.23385764390577274,0.9580015304623626,0.4630971707156415,0.5030792824710182,-0.2952266485771406,-0.18831897494138192,-0.3455222158599682,0.28726737501918326,0.14839512401788124,-0.475351228891854,0.4738627070785583,-0.0459547836985492,-0.2710811706511436,-0.9072326407890968,-0.6288115392341205,0.7571935411389328,-0.6149320238813629,-0.5704961935047888,0.6304886835482804,0.3122127321071702,0.8480102308650344,0.5569123757749648,0.1906381110880144,-0.6452997194288833,0.5710695456049253,0.16878245139245268,0.6585573172830372,-0.04366405651287705,-0.572078359152407,-0.1493707863136354,0.3086849563661591,0.3342238193387916,0.50207408176337,-0.24568465514548316,0.05329426552424367,-0.7065941001089064,0.47043154726291697,0.045673995832387924,0.4688950852955706,-0.7856713802517977,-0.8655229826340154,-0.7847868172540936,0.927804318505338,0.12577825238831308,0.22856521231087057,0.6391853469776301,-0.39292621389246896,-0.6776355379270947,-0.9389279851170372,0.48575896233781934,0.9292251908808891,0.8380439929505391,0.5081783231767608,0.19392054912861004,-0.49134277544157257,0.3587270758070389,0.6976924285103324,-0.8262187629458017,0.791449113806249,-0.6257619445995375,0.44188657136522047,0.13340331428176233,0.34533592772196625,-0.0744355622720354,0.8112466963416658,-0.6789176265619068,-0.5541339724803626,-0.3356485038219611,-0.6111205884287756,-0.8934215335842448,0.9697735618314154,0.6582298869757082,-0.07105744098284439,-0.2767338874980328,-0.023418203914422727,-0.2582153297639112,0.006508464121784821,0.5823139492577154,1.0098577984420556,0.7665113029035584,-0.847977281430394,-0.9412709679569251,1.014425726948205,0.5066001032343336,0.01821593749455436,0.9842639997452839,0.7568322854360312,-0.6708894123229647,0.19615876753003542,0.9710371451167917,-0.38694270927676944,-0.8779062877360468,0.005711976996483526,-0.01221103969644411,-0.29883929923481173,-0.47537485671626134,0.7592093521519112,-0.5837498632869167,0.5259675995522586,-0.2971048107138916,-0.8362610775719371,0.6219327192131361,0.1764945344204303,-0.02246313169333367,0.6668268316878405,0.22156324810159406,-0.27665520102598695,0.740578723225293,0.3490555136863331,-0.7515226004531049,-0.5353763474153808,0.9188895970655585,-0.05853294873465158,1.0374871997380244,-0.4833715646269042,0.4517923358210844,-0.24297062857452878,0.3134568404782246,0.3644784968348573,0.5720256159373945,-0.6488368147451966,0.8284023393280663,0.14299433078899945,0.5647603429030627,-0.6126112541214489,-0.9390289479627022,-0.7364970981664606,0.6801916637098642,-0.35713266736226484,0.845244219961112,0.5399857828754594,0.9161030462032771,-0.012822411881927107,0.5903920106263809,0.282695788419614,-0.24262465991029558,-0.5551234075709838,-0.0865068629573205,-0.36957261898902616,-0.8313923789098251,-0.3838227412218105,1.0510108877205033,0.5917139801726118,0.3135960115059043,-0.11527246821997907,0.7180282509648518,0.44878949155507464,-0.4541471939978598,0.3969207065762691,-0.8358484182152339,0.7068765728975249,-0.8061659385975027,-0.4308466965144251,-0.7199280761539321,-0.7742850939788865,-0.9253068819063961,-0.34651868286328363,-0.8827027052424375,-0.176758894821137,0.6301118037172931,0.6542917504302102,-0.4114181336700709,-0.6342368102542462,-0.39285121220904656,0.7424260898666923,-0.6336610196678741,-0.0738168047672865,-0.9389446696690769,-0.751761802930434,0.27931288070186083,0.7406651431663323,-0.25613205240297465,-0.3453270820032056,-0.31441814691738235,0.5964864295749539,0.15965433193957265,-0.994121533195305,-0.7891708426556898,0.4069671289468719,-0.03182279237619921,0.7478556004725622,-0.42314820714086177,-0.11653988048303525,-0.38490923648944575,-0.9235203174753227,-0.48785637506907104,-0.7903164396396262,0.567936120748705,-0.3921271282297853,0.7474161525097325,-0.42410357327107945,0.5099194155233367,-0.229351287238268,0.8950642700117578,-0.9297669614938124,0.9459480562565938,0.06034976437973062,0.14295010354756213,0.3716742005430671,-0.12782007311751348,-0.5684105372964215,0.9581329492596703,0.4042865557418413,0.730578169673369,0.15640230878098052,0.19204783455621433,-0.7211636889264165,0.9666683442705337,0.5419311683002648,-0.30256118991247594,0.6430560134720598,-0.41712487945360266,0.3116316709052016,-0.5711961323288326,0.5933150878393599,0.8833068248817854,0.6941284716548146,-0.5998699822073039,0.4405425804446847,0.38842465220678807,-0.2932632842873771,0.22117497352137808,-0.4619660865901534,-0.05144185298775895,0.5982761727515686,-0.21041595849418565,-0.006504817834286073,-0.5536302953533792,-0.39876803146266365,0.7659168120835569,-0.7334064671037173,-0.9025832694249778,0.15594962545199514,-0.6733654859857935,-0.9332619982072651,-0.08540450435265379,-0.21644356297487918,-0.19611650164042108,0.12932799568564696,-0.8086915083864603,0.13233597288837595,-0.5896065892938206,-0.2803577613519908,0.40192757306091975,0.17672255532554648,0.01066044692309062,-0.04307548933946764,0.2780048396248804,0.9101356586050988,-0.2934021563083888,-0.8463087397032615,0.9942188510512319,-0.11199247986160439,-0.5480468368541713,-0.4445143446109907,0.06671926421744706,0.17907403013026177,-0.6617635288466683,0.825860485110854,0.5217168553653275,-0.45802799484243933,-1.037925438798047,0.6797184729169162,0.5677409459685627,-0.26210917078997614,0.015301149019471508,0.5716982333413982,-0.4853147280617611,-0.2088080039420448,-0.3435799590872038,0.24904755552046545,0.8916171597007992,-0.7656716825325529,-0.3788186245182216,0.4776313740908951,-0.724061814249896,-0.19368511711270578,0.12170373180098004,0.687827281229638,-0.6901819939664262,-0.4048015226861957,0.6812970877639105,0.9974692930657514,0.2917966525661572,-0.925778809954993,-0.24474684939056235,0.9501848986337117,-0.3797460652190045,0.7192635322941767,0.0059770611602692906,-0.004040283969030109,0.4389997939767027,0.8096679608949827,-0.4123682776102962,-0.5471223883353258,0.15419518423564726,0.7758717444545034,-0.873326090136793,-0.337976484914119,0.7293452555177167,-0.06322885309456121,-0.49536662492565164,-0.8374113523791746,0.5604508835126862,0.5910207457948962,-0.36682740329742863,0.06671242290553077,0.5446644075899411,-0.8452177937213238,-0.8432166133166227,0.3503433864638659,-0.507140154080793,-0.9773460876027709,-0.5269961767979284,-0.5292678951333185,-0.24230430789841725,0.43810794011533144,-0.9838718378164386,-0.4478641428287755,-0.39996308601971736,0.6500039322495533,0.3500651748818349,0.5400664523003587,-0.8255307160719736,-0.8601987585976474,-0.5968861506549921,-0.8108185182297022,-0.812346266900638,0.6139023162130786,0.5607712443520042,0.9360068179610223,0.7476106290370922,0.7970578306441849,-0.49687550537003655,0.9369256000736699,0.676489285100806,0.19675750335222905,-0.052173154864592015,-0.7585934975376017,-0.5037503252386615,-0.16702854495243313,0.12695254650467386,0.9770925377457783,-0.09029094004750739,-0.23611285320966924,-0.5211704897798995,0.5993338306118667,-0.5319311188004803,-0.5171110743787367,-0.7414186256017713,-0.352444497585771,0.2230114013333493,-0.8806855502601663,-0.46747245164336926,-0.0776920769126472,-0.8998003812363056,-0.335114281078795,0.9051623455417986,-0.3740090170659782,-0.38269378506163165,0.9491834325848864,0.8527548692550518,-0.3182251670813151,0.3887250256078584,-0.4643170059889959,-0.2693795328883841,0.6460304174885376,-0.07049100537372745,0.2234723776958708,0.6727098883401543,-0.148404606740862,-0.4171308454478937,0.2812224916435682,-0.052582014350920935,0.20876690870323336,-0.12716328821409506,-0.08998160446682898,0.13681177532289557,-0.31504393220051985,0.5580450886071417,-0.7535335350762811,-0.8290150536536476,0.708547773454127,0.6761381597972744,0.8156395355317881,0.6269672233709559,-0.5013547100471223,-0.052891753008959895,0.7493661151281992,0.8185648348096128,0.6349865473833166,0.1360206630477158,0.519816893315925,0.8859307810481258,-0.35009453116933226,-0.4610629080445933,-0.7195389528620786,0.392525292681961,-0.8830454424120414,0.2427776526753643,0.09501779582461799,-0.17652496005903212,0.4285627789835163,-0.7060716108175111,0.5902411746860036,0.8541216540562826,0.5589402632122393,0.9391780930711293,0.007912549514283329,0.689705566712117,0.2680344954765541,0.6217980196141066,0.7269278593376267,0.44698364767476184,0.49334271703022237,-0.8176402354732161,-0.05448312141958278,0.2902454248192267,-0.18484992355252627,0.18525862203680027,-0.6747125690581749,0.061289142066881845,0.16038222237621752,-0.37098114366980667,0.9618477761388652,0.1559073024261575,0.2372891581807786,-0.6235987050083811,0.7527781405987584,0.8303049125100199,0.5813608381828494,-0.7738252103705204,1.0081765639059341,0.5618002136640544,-0.9680758113366104,-0.6038269189228831,0.9375190785182101,-0.6817619732052853,0.0073718383127179266,0.09803947712002836,-0.44459849060524714,-0.34699289306139525,-0.7933293609585561,-0.11684201474369016,0.1839738819266581,0.256027434907806,0.9083760183089493,-0.8081131115028013,-0.9477204783508966,0.5550440704193036,-0.041234473007281336,-0.7437086907827037,0.6570832424366919,-0.5622426928342261,-0.7452548311559708,0.07054377183898675,-0.038704915779445015,0.03579572751480864,-0.6677584555572427,0.5255625881249573,0.40908508612445416,-0.3803979343299233,0.28909520638490926,0.9123160662739687,-0.4631766087488143,-0.5221125973600953,-0.01760224440215219,0.89584765438564,-0.11728714959528053,0.13860973333547233,0.07779256292439918,0.29813613316846577,0.28861611343572124,0.8236203484080782,-0.5588493902228127,-0.19614688232517463,0.28075401556686774,-0.9826451604868665,0.3486563877015725,0.3929744088243625,0.9166445670024084,-0.6793094366841776,-0.7282884990821148,0.2460059520600566,-0.33014879432701316,0.6986251007534472,-0.2882434869590613,0.7749610212794065,0.03712661186952548,0.05685962637731046,0.8627600383847147,0.5814261307065995,0.5530058423742541,0.06035488953471968,0.10627330867821616,0.7093480597627562,-0.12933565508025024,-0.6076215078977132,-0.049700094559015584,-0.6215298240372868,0.6271020592017444,0.5675041916401797,0.8938326086628006,-0.19422805901841023,0.013822523276608045,0.22348640070749637,0.01963749244312707,0.5632982810448837,0.19259653266917431,0.5937108792437096,0.9910874994464183,-0.7717595756591791,-0.8668834537102346,0.320337165147486,0.17036094790440348,0.4871145263952732,-0.6687592432715239,0.6807905815486923,0.8387754971310672,0.06546934672054006,-0.8741114667776084,-0.2502137818704264,0.6915474383087097,-0.27313091469068573,0.24497562183615296,-0.8226571277730454,-0.7645277923555098,-0.650804919258553,-0.2856110121837776,0.9854258444258015,-0.5319739116031201,-0.31222533540252173,-0.6356851811030113,-0.9580663177763393,0.002838160205647977,-0.8578113403113501,-0.5492046455497772,0.4510305819842486,-0.9967531668364744,0.19395342448934616,0.6657325734130384,0.1583684502180629,-0.8243644612966954,-0.07295005113995168,-0.39700318570834514,-0.6698115390536878,-0.517905793259094,0.8821434687575733,
-0.5053482988133704,0.7460525948617476,0.18191224921049232,-0.31400684653554656,0.03463782192443032,0.22645813780089763,0.37636103201026994,-0.2955244864411313,-0.9935334362794155,0.6077298634894142,-0.14790487120934626,-0.09143615938876248,0.7943100302623667,0.6857139453505523,-0.7615349323983962,-0.8644692194894592,0.24224259433185336,-0.18322768965282132,0.36253251027685907,-0.565382915251122,0.03448644216852048,0.4322573795730795,0.21836539470335814,0.25421284971921243,0.1688489206056285,0.84372560353174,-0.12432092765889058,-0.2020882299186877,0.9477164164992562,-0.7451706803185125,0.3987114642378051,-0.14989330961374492,0.11649263962948408,0.8788955645741852,0.5920964064761798,-0.13686171513101986,0.8056144113069974,-0.037904479073827435,0.6695798154250314,0.0770910695247018,0.9616189303645086,-0.49062480439679956,0.6487660112444409,0.8245136134557931,-0.0019808774534644247,0.32847196545391344,-0.09050764275412537,0.1527823181304666,-0.004722543706925819,-0.26449926577480665,0.9399409022169041,-0.10154217374404784,-0.6110937748253007,0.551152915219344,-0.6973709183757095,0.8591351752921548,-0.9123423012593403,0.5860981424988994,-0.8522083921095589,-0.8840664177202597,0.08479583887773456,-0.8502623774994686,-0.3634270331960503,0.9444173899794488,-0.05223763003769544,-0.45107435456777445,-0.4904805352115449,0.19668922840421899,-0.9515897747867708,-0.825962100938638,-0.4188926919268048,0.7468957163364371,0.8797676831459564,-0.13968582830628895,0.005478539466804433,0.3852646589345512,0.02649419063680436,-0.9355914700757837,-0.30620770563716126,0.5223407872713264,0.5893965301464064,-0.8250946506396883,-0.6526490557886362,-0.29289708694377836,-0.4126280517859402,0.5976638422675395,-0.1731407163737364,0.3845275913269406,-0.7412862742286188,0.5219969675476879,0.8897511523850163,-0.4324101366877895,0.30832431566848717,-0.36766527368432067,0.1407605339445177,-0.6402850497543346,-0.7088896945913419,0.02460483291962512,0.6534745267097013,-0.5117385233936673,0.6145641247898057,-0.5185859579653735,0.589183503754303,-0.8735087622372846,0.10730952944818117,0.3062226683915039,-0.0877399787564761,0.11721063887898509,0.974012150001109,-0.48880400325221474,0.33048307104867947,0.730553253374445,0.6159921584196966,0.11719323771547385,-0.06570248708678661,0.8173119484310334,0.10833894121843919,-0.4749136821994823,-0.34008905078194007,0.036816285138352355,-0.46548613659316046,-0.8189331163531843,0.7259932620599993,0.7402175449785824,0.5083154396242318,0.7340838230777373,0.027388103532098324,0.4825232564690498,0.5945207633461371,-0.19458151453750577,0.6197714978082758,-0.6209784011409041,-0.46592131748509896,0.32310072984826993,0.7437779110646406,-0.31838720990094505,0.8548426727958742,-0.42271050797071985,0.03734851934840133,0.3899895589012463,-0.550450791118148,-0.29325815396188415,0.40074550655087626,-0.4952737985876631,-0.5106481849056282,0.3659921993177261,-0.6823103082132516,0.3294402721493804,0.01651373976780073,-0.3055297641147648,-0.8338874275390395,0.8759041672263278,-0.17636570973177798,-0.55396719365404,0.5269570584699171,0.629964213644463,0.30794480528889817,-0.8230375985749032,0.3471690938740535,-0.7015266050287577,0.2563243040061634,0.40004067778509084,0.1502619047012332,-0.6626462148398102,0.2665504728386823,-0.41474362573427004,0.5793044771957041,0.886614402437472,0.973027902827837,0.5145124089014652,0.5901108205349079,0.7103361332051802,0.0916973846005364,-0.9058925150190577,0.045766597265273955,-0.3554638614109638,-0.04631891012734306,0.9291569712816585,-0.6049322637469646,0.889320080824759,0.17325625829102603,-0.6182020028744916,0.7187253920099262,0.923076603229566,0.3663905717331042,0.5787936011520947,-0.22846379399418157,0.6931662413796578,-0.27155525556516563,0.9895261728776413,0.3174020902510371,0.9772730583708278,-0.7631737765853264,0.5769734367355781,-0.6700471885310821,0.6452006890405697,0.6158848235783014,-0.4176215656127469,-0.6797212408191352,0.24702652100419872,-0.7801193177673542,0.6421279331948029,0.7800491811064519,0.25226823371895307,0.8318624220404076,0.4845900466089965,0.3264369469683471,0.8415246180576066,0.380475006804316,0.8363235652637068,-0.3266438477161383,0.563860505699016,0.5449876186824297,-0.4675304482442161,0.30408904883556337,-0.6125410853662094,-0.7029278216577687,0.151952186796314,-0.5866772623734055,-0.128886497990577,-0.8283031927953239,-0.5432713831148787,-0.5983714618351303,-0.4434044694254653,0.38128151954700873,-0.6228703467126402,0.6884666120723006,0.9990626583846133,-0.902660370173056,-0.29831900472461464,-0.8383889188381902,-0.74506280137911,-1.0242029633616572,-0.9293280051483527,0.265301482049395,0.3065634605192705,-0.0781655153429894,-0.052611068672773584,0.0740479778328582,0.40219059175546473,-0.4398822527344199,0.39371768872149326,-0.7116972901264121,-0.6662972381591505,0.6553946350886979,-0.4990765357254588,-0.3484299212522448,-0.4746224952230666,0.7921204094782134,0.05863164733358716,-0.7551196790380561,0.861373563152134,-0.7566803279222691,-0.7706884659281882,-0.10593241712964548,0.5728962905324391,-0.920099684905368,-0.5358930313310452,-0.3912231584792084,-0.972598503598425,0.09282768893003648,0.586019153933169,0.5080230856815958,-0.4669404057058322,-0.9771818863174767,0.7111523879933782,-0.4436109180964212,-0.2669588615563218,-0.3893986518559131,-0.8844327489279599,0.4375733215309546,-0.7402728739723836,-0.20403922828701015,0.36974769996782997,0.92682620202993,-0.8221962875042194,0.2998427737297519,-0.07799098276633355,0.6931711378976636,-0.10474580575154824,0.6267282034220605,0.2434228875965737,-0.7440244051213378,-0.5448099189468775,-0.12080126018035965,0.7689118254002788,-0.20651852457101105,0.23329727449347012,-0.5359601022770198,-0.7387874493968344,-0.05476446331871259,0.4234115476587671,-0.0928554545435802,0.27618457586552064,0.8399375687719445,-1.0388858854346623,-0.00022105425788253007,0.8630371825495383,-0.15194846694143122,0.33904385971833706,0.6156476698815156,0.21912809982981607,-0.32662709393163497,-0.7032188582419946,0.4203507612131709,0.265921675201759,0.658794071390829,0.830416157282468,-0.5091116966924025,-0.4829322563513275,0.6806528362473426,-0.8149258313549582,-0.6410390271958636,0.4554660657223724,0.2577401756629768,0.5963412709794156,-0.06574431494110423,0.44360643081262535,-0.6931640520058915,-0.48505643994833103,0.7305343908001319,-0.986172922304223,-0.9633082220248491,-0.3419754436911905,0.7980220776507158,-0.8926738026847578,0.43927080177740696,0.9741504316863441,0.7861564977495129,0.4759660511165242,-0.5928744310756455,-0.06225214336225591,0.07574494412002655,-0.15960529762963863,0.9411098420164322,-0.062441437034959524,-0.10587024043772976,0.46618633011805943,-0.7547715561723285,0.5318778104137174,0.8539649548082698,-0.812655591409489,-0.3054080747613791,0.8659439546970791,-0.33371095610332896,0.7834994859694565,0.6928513683290202,-1.027430127512929,0.4245580709695301,0.1433788046977806,0.7244389703860548,0.8621700192068166,-0.4973294419527564,0.15967715052719125,0.5879410996488337,0.7500049160242571,-0.757962303619418,-0.4071609608499069,-0.2495555691940778,-0.9672547050291244,-0.39803276111274594,0.21264752211091453,-0.31310960878079824,0.448469394288014,0.14286453857472392,0.36796071367963495,-0.7418322035928048,-0.07624371663382905,0.40005429805173365,-0.8083732633040795,0.593439468290467,-0.6826484617721824,0.841650373572626,-0.9490313568600603,-0.12382114657528705,-0.11083294446945102,0.5699488558587332,0.5350016327764288,0.05701951605962332,0.7824402359699372,0.876388591817391,0.43664207732719007,-0.5742616621842758,0.11811460852346772,0.8145438111847114,-0.08203755824670524,-0.11720930253757963,0.9514714842082155,-0.18069770223485196,-0.20550709193500227,0.36838121278398833,-0.6016658114747733,0.31436706916222784,-0.891840056425697,-0.2182288930820189,0.037616628466013956,0.43153690292060504,-0.5063784326097686,-0.027237855570557048,-0.8310417539277966,0.6722652461066511,-0.25225215520523453,-0.3312629579634436,0.4069826237641324,-1.0487786687392942,0.07054080358523428,0.0935454049095357,-0.15162494190622247,-0.5518891197279596,0.6108176293974608,0.00021660294956630182,0.7755800316543636,0.18349725235731984,0.3597151321120579,0.13972594870497318,-0.40083908154284154,-0.5667162167359647,0.17223945036951727,-0.07094825831044878,-0.0026812276795342704,-0.20836294867013405,-0.14610038781537293,-0.9174490057051297,-0.22473319998722,0.04330193088458274,0.8738042041743092,0.7453130557150893,-0.2982762260484718,0.11816573889734207,0.4118372111725309,0.43576538550727906,-0.6453090762057194,-0.5370504666573722,-0.8785462304145197,-0.882068264514585,-0.6851542966438537,-0.459160070352472,0.804483804457512,-0.7778764899928516,-0.18505701010118902,-0.10621175240751007,0.32037740581302876,-0.48967380140547234,-0.44347008162328705,-0.1267892868945896,0.13444623323353444,0.41852539054677124,0.8256351069427552,-0.009415558243025757,0.8997002046066188,0.10835705236230958,-0.9188483821178062,-0.035224376415515214,-0.5712794958376131,0.4145706127493536,0.13450105369009238,0.9637359769124565,0.26602472606513744,0.26258363044208166,0.9734375533595213,-2.777078416150055e-05,-1.0355654259637503,-0.4289122632032801,0.31240900110027386,0.6540471977671027,0.6993986259842937,-0.641994900738044,-0.7886425000743532,0.15135581051761668,0.04257523905384928,-0.059474559578740024,-0.2946883207311149,0.49067049086860925,-0.2546378223698512,-0.364047333889658,0.1978081633796458,0.9385472516482154,0.821394214978975,0.6873638359410146,-0.08042878083529559,-0.6841449393856035,-0.8852692672161346,-0.5078605684942523,-0.8567639740155784,0.8938772968730067,0.2492306625014102,0.7816138025135566,0.5632368965118558,-0.3743950618511513,-0.7907294323793992,-0.5241863460935099,0.5622450240361102,-0.7789875244104327,0.6043590120594702,-0.524601018704782,0.12476803965020793,0.1329960603060102,-0.44313200949448434,-0.499026236231839,0.3435539318182635,-0.9323640215395452,-0.3617969868261048,-0.49829712389346287,0.13093845577838303,-0.508101602436476,-0.7448844658142626,0.39864647799455083,0.8553185646605249,-0.7274391643303477,0.4756997694806906,0.549129853764109,-0.670433993173694,0.9208789311609731,-0.9522419245151049,-0.3001640238052752,0.5761163700249486,0.6612461837771153,-0.5974076602283968,-0.5866291809160212,-0.25983479781870916,0.16423621990261217,0.19977352124541017,0.597713030331602,-0.6094286886516828,-0.25324148477391556,0.8723015404174949,-0.004493232600639644,-0.4944600060131255,-0.501712739354312,0.7418791785843409,0.49575405062415656,-0.026869052678071936,-0.025645073530928375,0.725091669947411,0.6518930867702498,0.5831718742477945,-0.7935164361445876,0.9026352718760761,0.4579453786320705,0.29009937551380977,-0.8613100401097533,0.10037281522467036,0.4472960266212776,-0.8830533791372401,-0.4650533253066975,-0.4534616925358381,0.7799210451947335,0.8873390990400655,0.07544948725919388,0.4234159883618741,-0.47736814564401575,-0.3222265435951251,0.2250360527127791,0.38775462210576067,-0.11949997036784858,-0.21638887861169084,1.0013311105992295,0.10477497917269538,-0.009938649131246728,-0.017902020628202564,-0.6978130905148638,-0.4909360005246348,-0.5969848026512781,0.3121639818468084,-0.769380897555927,0.07157400133426531,0.3669673088008527,-0.46299323862628267,0.5271473212688261,-0.7201026759763117,0.5691712506644413,-0.9045643290070543,-0.42649687117159946,-0.4180799622017569,0.7161505505803673,0.9253426480013145,-0.8105443686232434,-0.14302070892268373,0.2642344026029825,-0.7795422316263221,-0.38210794003296344,0.4634559477527635,0.9225740851522268,0.5751489631718537,-0.635172119570608,-0.3651081769033567,-0.961157728554207,-0.7529087423989627,-0.546998964367517,0.3499432415661805,-0.04505841786502973,-0.3300585258079221,0.14002324381550413,0.25088560587191283,-0.10713961751386504,0.4482427443194094,-0.46060064554937463,-0.6815636906633177,0.18349576700538683,-0.29449881094932684,-0.8428414694742293,0.1598875252014638,-0.6913835665005469,0.781891785614047,0.7407837557049544,-0.43172578472019374,0.865992498273896,0.47814818213141824,0.8746264869599477,0.5861294752744622,0.935763179200675,-0.3283185301794953,-0.27694252205486225,-0.7711028303540554,0.14651730489998083,0.2005480760513494,-0.6350271245470929,-0.23088236825175068,-0.526156435467559,-0.6247912602648832,0.8487917430793824,-0.5324611158270057,0.37088805465819985,0.7415272828711369,-0.01061289906246369,0.9140325059163928,0.4241170597977259,-0.39368100301210623,-0.8738318690610486,-0.18613202475222732,-0.9357209026322563,0.22814189654038372,-0.18916350624463818,-1.051409623253164,-0.32580918007438786,-0.07312102025108155,-0.47325357117483113,-0.751722110437551,0.4862443674916607,-0.23514606755054082,0.1951287506879137,0.746461194121462,-0.5581036870099494,-0.4663111305874632,0.5694862493659971,0.7577585008355401,0.014649293222134485,-0.02683058848576514,0.37373199345406444,-0.3772356132865125,-0.8219461658009156,-0.5247718267861556,0.545328083960912,0.9049419474013786,-0.11139103104425448,-0.9982174385267935,0.3259085466231297,-0.8098464940522202,-0.2172569217643445,-0.2640389089571027,0.7674204659965017,-1.1555684426926656,-0.34706881570875026,-0.7831676666543845,0.5564068604801303,-0.5032750552101998,0.43246798079722526,0.6624834605970418,0.18909242739970258,-0.4256279102145664,0.3907242416195306,-0.7515761102997921,0.5082667177344453,0.633851220166076,-0.99192342779608,-0.2979709256262826,0.6068654567198328,-0.9294866674152573,-0.487780737370725,-0.10010636730213518,-0.4638649940424804,-0.757763592690444,0.43667257161388195,0.41801475997385085,-0.5293963208235022,0.07632067108729501,-0.7705891993297103,-0.04987082402953713,0.7600386383021733,-0.03684579526374954,0.5748155073360015,-0.04127179018141969,0.7694539249130685,-0.04156268796474083,0.8611755865775386,-0.49979911009077216,-0.16233508669483787,0.1250272976562936,-0.2443247376971951,0.6700942338492906,-0.6531449482608078,0.8090126082813607,0.2590280009979218,-0.18342037566987734,0.7753060930035631,-0.0430695464414832,0.11215143622884804,-0.30880661208308946,-0.25794224486492,0.15272715981494844,0.18617777505028976,-0.2251938203738555,-0.0817585314087359,-0.9093601732601388,0.19134267213704947,-0.3893920278896057,0.8764612773220584,0.35479382607623844,-0.047868513538729784,0.11892258314406501,-0.2964148700511531,0.8339877120620267,0.6523354158153021,-0.5820971026444899,-0.004227462905931789,-0.7433982877898939,0.14293179521840016,0.8313360212081891,0.5036003362768364,-0.2772985774510557,-0.013181762021250432,-0.262439970928283,-0.20917117348091163,-0.17146708579720316,0.7016179184598779,0.3171334418761591,0.9970761362328728,0.8070166036436224,-0.3999297607621952,-0.5196928284467932,-0.4016688883852293,-0.8972849948620669,-0.4478215710139086,0.8385314676580911,-0.9051329567819701,0.3026199417498012,0.8656227464410413,0.4578983252346607,-0.3165722695905866,0.5736974955085237,0.1452392625765757,-0.2111331768056317,0.8745221083886632,-0.2496523434442477,0.5107046971278273,-0.9135414402913382,0.40140737074463906,0.8793477487678811,0.13854064585746162,0.20527970884222357,-0.39708656595287506,-0.9095702726235904,-0.44644186310330647,0.6774885608463026,0.381733487423761,0.34888477161136877,0.05313403173825115,-0.45860666252766724,0.5601453123293656,-0.8739094070587856,0.8100392312327918,-0.26053960933452847,-0.027765202005067158,-0.5296346543605199,-0.3393259435107576,-0.14440004931277084,-0.8864044259919894,0.030471857441755734,0.24186566954861877,-0.47974299428636,0.19482854267867133,-0.7329229267899582,0.2888494490991578,-0.0887494598628411,
-0.11665279491789349,-0.48840387135595487,-0.11441724778257756,-0.06911065771559888,0.44662843792545615,0.9806035269229494,0.033042315085834106,0.806639801234946,-0.35424190463582916,0.027135676312948,0.38176239286863645,-0.6085112283323937,-0.7363494730496631,0.35987888254003564,0.28447934407577624,-0.6987613418160716,-0.9973476120496243,0.6413963694030242,-0.7105310889073981,0.02297547182752191,0.4415897784576335,0.3865673419881517,-0.9090001503382592,-0.460626941787436,0.5705130498486741,-0.23896942817265088,0.9311724419106873,0.7469010931464477,-0.35052072886542507,-0.6179964937990126,-0.3483928554212288,-0.5213227646641101,0.5522627579887311,0.3490440907718755,0.7407493704149524,-0.17640754693207872,-0.93560649631822,0.37414606627737945,-0.08352223032937967,-0.6361887217713236,-0.2666778314549414,-0.8025743523944555,0.765450783686493,0.4707523152287387,-0.5944321086021334,-0.998281362788846,0.8595611204734663,0.5265641809596864,0.2540285725567293,-0.5566727869069437,0.4197308619990472,0.7436290460625359,-0.9223332198016729,0.012788563390575547,-0.6335218909312021,0.7982857054965595,-0.8422455607398005,0.4366920183765588,-0.7989124081471031,-0.8416204321634775,-0.7476923454492417,0.4306647172389302,0.7820789207364187,0.5258908961777957,0.9009933455363424,0.3646989322000922,0.9789258953528284,-0.5726349469702399,-0.8101505957488324,-0.6595423163273011,-0.558784963425947,-0.47813424936322346,0.2806131785625652,0.5990829084490712,-0.772893928828094,-0.5788789159741252,-0.4842798309105454,-0.08472237896679324,-0.3796422479720609,-0.12733819228072774,-0.6303734446259781,0.6830081500359675,-0.7008476264070733,0.11779927949731417,-0.7280565837412218,0.629342073775597,-0.4468886736763864,-0.9487115889720021,-0.014049278240317431,-0.9484476072092596,0.2856155395180471,0.12522108939790288,0.4002938615907208,0.4897987145971021,-0.6353163396474768,-0.03373290288147124,-0.16190344526702627,0.8735569255992706,0.9099741652318112,-0.8455915662538143,0.98068725830651,0.6043340364286549,0.14994290485909945,-0.47675306857346533,0.6656811045946796,-0.1988602437366107,-0.4817502672636442,-0.7277464304350598,-0.1345374202785219,-0.8514870386742,0.6740907609421987,-0.524370276436718,0.2837282218522299,0.8419022408606365,-0.5201833491773586,0.5805291522054226,0.887721309213665,0.7861580825156607,0.22575351728050494,0.23036552225187004,0.7347305698197678,0.8084676872825909,-0.8461513312907342,0.6574450286298978,-1.0382259261999276,0.4489601839930719,0.7594768702349324,-0.7625744769857785,-0.27119084650944947,0.12980236986548221,0.5048465449418408,-0.6526565447322099,0.011647209780638433,0.8249966919554477,0.8186565046631911,-0.7943807398920758,0.6567613905398488,0.8164894930645041,-0.6703515219790845,-0.9705446663971309,-0.3895003963113599,0.0058445372593378675,-0.07592564778870492,-0.04634475099203631,0.05236082950594355,-0.8571240059198503,-0.05733190041729141,-0.892059098718586,-0.8424318679072006,-0.3373393544185681,0.6692012985759748,0.6525548241574923,-0.39126886091433893,-0.5500489064494845,0.9651898229631622,-0.35800057031598326,-0.16702051796341078,-0.9495288253102873,-0.3769191241098515,0.7755922690946521,-0.1183909330371109,-0.11403947811865763,-0.8555444965414722,0.2966118645679973,0.18675855722627324,0.5615825092959508,-0.252495950736608,-0.025650000716148202,0.8972279338802418,0.2398692249132648,-0.5356492242291498,-0.8417275152249757,0.8140783030452745,0.5586591801229738,0.6047955411586744,1.037515298807018,0.39093936318556044,0.30761542504772793,0.45923012191859947,0.9152357721062487,-0.9347191737839896,1.0101040666885823,0.1352323207038219,0.346232285802332,0.9923625016361767,-0.00903411105047197,0.9588842628294649,-0.2170605926687404,0.7113075763225127,-0.8453077957072559,0.7788515167639247,-0.4925753636591923,-0.3609164520097847,0.7191962928368549,-0.35023711586349804,-0.7787741231541945,-0.05227424223070898,-0.10016731873208906,-0.5447472301529502,-0.25750789151680753,0.47152862434411374,-0.7548444102929711,-0.572765959805496,-0.47693484998901614,0.6000030000217099,0.9930614250792835,0.37071351857854723,-0.05182685388855765,-0.6809537742661669,0.9639091454261445,0.1782645848830848,-0.40408455340997973,-0.12268719952214807,0.04788876704214587,-0.3454466294737655,0.2850565789538533,0.10214485904875095,0.36945087884303496,-0.9600272963810939,-0.6262279258059202,0.9503047867389912,0.044018571167464805,0.2915716145346159,0.7140812176134579,-0.21833542152586127,0.2986517390339052,0.49623402133210187,-0.7790730366993137,-0.5349482370704975,-0.8204906539651208,0.537673404960175,0.5338090624042285,0.35187717567790106,0.9613410183102105,0.14293856367382488,-0.5894463586061814,0.2068470600572774,0.5560735704736725,-0.03885434871952386,-0.08694000191362769,-0.8862586024129296,0.8199691471478755,-0.9398784793925365,0.011487350828980896,0.7142403054753326,-0.12059782752441903,0.286192752625442,0.3601710704187499,-0.33744549956743053,0.44699021091670843,0.7037338322891429,0.8736922724356808,0.9665596537726753,-0.11175920469276024,-0.5963305594942839,0.5632821057493335,-0.6887174891521297,0.32325384183930694,1.043413640464692,-0.642681025084606,-0.6089548989756194,-0.5323197964451787,0.7901716995658596,0.4169953548423743,0.6825563962151578,0.5746597021904198,-0.5432119340981652,-0.6467682667400634,-0.6933292428444742,0.08407565421738378,0.9296847230166361,-0.278314430322553,-0.20650613365158757,0.2788410253402053,0.3811672880866012,0.6700642776113553,-0.8385165160648105,0.9804264070127484,0.5676520667370027,0.25171263934573895,0.29538733640931025,-0.5563554253151078,0.1550897255203387,-0.13165378590320342,-0.889598428058206,-0.6676270458768991,-0.23468439600241695,-0.71549054854759,0.009615777931770169,0.1947381427963357,-0.7421710824632293,0.599310963593378,0.8905819537128188,0.6791339115471031,-0.8157004932698123,-0.9122715275231413,-0.8715026971818121,0.7016227945105359,0.4645336474004055,0.7312624900598026,0.5791680823980968,-0.1186814307811719,-0.5438386479338404,0.29704670115314297,-0.08457874950821138,0.8079177291407342,0.04189026970175735,-0.3587353160807183,0.8768550369593324,0.37890266185836946,0.6040970682572488,-0.8989790710576296,-0.9904414263918085,0.9256964177154511,-0.6303457285072381,0.3434674973024586,0.356201016976295,0.08241669810109117,-0.1282726069333199,0.3982670316045789,-0.8501834937744153,0.42485161743713423,-0.506713702781306,0.32019703723130893,0.8390562039866228,-0.2478944313045207,0.018155009947268597,-0.47246707485185047,0.8732238174629524,0.008148973620392729,-0.0355800320904485,-0.3008877273080911,0.7842249741474756,0.9502297668080618,0.8806251914756826,-0.06024857284533325,0.9064948251505176,0.6852596911857439,0.37156671019538806,-0.6253599439889939,0.29619618915801293,0.4986550686529916,0.5691922005837926,0.5660795850602781,0.12201037383253849,0.4654832338665875,0.7708219847423002,-0.0909840347096893,0.9190095176267635,0.5471868825461733,-0.5506652141248377,-0.171068329256272,0.2426610541824979,0.8794574112632528,-0.22698497552340186,-0.48047100267214243,-0.1632820935115302,0.6544655747768752,0.3135304690261771,-0.7854214396473579,-0.007910723760927467,-0.8475692454425611,0.8988087947930736,-0.19310918605461103,-0.6908781650200353,-0.5566221206737815,0.6542846079486131,-0.530327820851659,-0.61970020332998,0.7287151701489586,-0.7780364532574678,-0.5733475590417662,1.0079746354781671,0.23012127356669823,-0.14549827316959665,-0.6431508432861281,-0.9716617466866572,0.831244868231224,0.4797239946177294,0.30823164025078853,-0.13221302443013927,0.14625883629970401,-0.49478386574624045,-0.440030706700307,0.3089941483864456,0.1937223174048185,-0.8622000316928728,0.760620548373384,-0.37232393314646367,-0.21658408428771356,-0.19399731864389028,-0.8833077309982229,0.7625420494713484,-0.7515552762955083,0.9830382096544406,0.43587772205480463,-0.015850908350318462,0.1963268562470603,0.8781877651593247,0.6274671481880998,0.7965058295675482,0.6559402784474874,-0.27517680739465944,-0.7018938158387857,-0.5177342886512947,0.06523019728522916,-0.25840322027513196,0.12267179318590539,-0.3000388542343298,-0.2934008851238817,-0.14982125701143026,-0.42496225883129113,0.8902566536267522,-0.7735919856519523,-0.15559038713533566,-0.2701889707148918,-0.8680642883296343,0.0482951845091109,0.06482773727812499,-0.28255276722305034,0.01892652347821633,0.7740563453229105,0.26203645362024774,-0.4208687944055303,0.2919378433633778,0.4790446468922657,-0.4644439012962583,-0.4556369958547248,0.9538728902062544,-0.8545911843018802,0.5213654359429011,0.348693481155981,0.9409488357552138,-0.061756791183505376,0.7888018164473796,-0.19729581928753837,0.5340191333699372,-0.3626149665150279,0.9752709205712591,-0.19360312781184963,-0.3873002040845644,-0.23856554363542037,0.7265820963833466,-0.5810789300083874,0.6752203293099498,0.7946242469685759,0.17155385908681564,0.025333112240044642,-0.43103986273321926,0.5384789892114493,-0.4917917583322155,-0.6010883731456338,-0.14054621959119842,-0.8703117185295807,-0.9123374200489986,-0.7395245515476712,-0.6126680776607591,0.7909682629770374,-0.8511621135690064,-0.8452304232855612,0.8767670067556915,-0.20220706456730103,-0.02653401131746974,0.7701876106961641,0.8077737741224038,-0.16703826054446122,-0.8592112977578977,0.9795081779121135,0.8575969900975158,-0.8261271901334986,0.032460438502013,-0.5304506948583173,-0.3172491013173838,-0.9520414123676143,-0.48664390544731045,-0.4476586238368361,0.11402274352711528,0.18017767287783015,0.16962038255631937,-0.08632302884227457,0.9639221522878663,-0.7578036365300979,-0.5794206052661629,0.7247728923577278,-0.08141942122116803,0.1597536734513635,0.9202450520488418,-0.09814036441752191,-0.7797054641252564,0.4933455469370262,-0.35153219161189275,0.5522229549205502,0.27548254648875864,-0.710216086070282,-0.3290577929073764,0.1702386798468719,0.3230569354259272,0.08226516204930134,0.9812218501300835,-0.429316611505916,0.17179831301076176,0.1748433261562941,-0.7490794763777929,-0.16452978770301852,0.860633947824782,-0.6475292858997976,-0.3182087685920061,-0.1273288417212187,-0.548941616791115,-0.334073522426912,-0.8534752275548457,0.1310660374651458,0.4709135719608649,0.9090061668026724,-0.27387224861858883,-0.7618858525958098,-0.4450424297889797,-0.24348448945948706,-0.6177861130492555,-0.008784620127669009,0.5957418608481886,0.8717066670018302,-0.4227455725815269,-0.5152909941834206,0.8749335645113682,0.7487725629973756,-0.4728519919202485,0.1201129339496659,-0.47639448010019186,-0.7357043985314725,-0.8842049995351181,0.5081488474701508,-0.7241999832367405,-0.6131918106300542,0.9684781554473617,-0.5740376344746561,0.9066299387810779,0.48665399086819733,-0.9813739013396507,0.29784843892544854,-0.6478443096475136,0.8662787198867707,0.03437732079295142,1.0136159698552156,0.4129182766504486,-0.6875110191138106,-0.15319640444626118,-0.9751520188793606,0.06122752921935828,0.4530395196447784,-0.11154828469941434,0.7335039027765213,-0.28132997428209766,0.016750124571146267,0.1470797362096721,-0.8476957465683223,0.31080674729823304,-0.6901109090657093,0.7919546310095509,-0.09164434962880752,-0.044527755015542514,-0.13008695551026306,0.9917879127530214,0.34726131324597936,-0.5773124705891485,-0.6071311299778428,-0.19452836381187802,0.9684670481298575,-0.05738094076323127,0.9355263700433822,0.8039222303255011,0.7917351382538803,-0.2946081907471452,-0.43054783174905725,-0.458046600739619,0.05473828300401286,0.17247609686191795,-0.5863005624590778,-0.7820723276804817,0.8051483124961955,-0.45089646646799253,0.1229894905100501,0.22937038880409163,-0.3259582996056457,0.7005317502108496,0.505572694053303,0.31054109615900805,0.47145515610053823,-0.7662863685113181,0.8076528522015725,0.13956779805785535,0.04122925453878067,-0.8343143674688885,-0.3518098407654079,-0.5384629454994257,-0.5488561711724592,-0.8984330173738757,0.354103419362818,-0.371271523119536,-0.5273293407895977,-0.5175155996459676,0.7341772748940781,0.901260716218989,-0.3385484839243793,0.7410633731452109,-0.28506968854849024,0.8420927136282308,-0.02616202306178254,0.5942229777183359,1.02356382192457,0.05567557080770048,0.6215217643209414,0.05324690694183529,0.2704474186223746,-0.731845068050059,-0.5906012878361591,0.9639036027595782,-0.05060242918652391,0.10650376283038065,0.6998152421291655,-0.36524761903979225,-0.6797450970248188,0.4756651835794134,-0.5797267574621465,-0.13954599193434525,-0.2027821898527909,-0.15831268340411367,-0.4655152900042517,0.0018808315977405358,0.976429132195524,0.46831176855422607,-0.29713248259760516,-0.6426383474140772,0.1737316012898631,-0.12165567376966435,0.6535904950611102,0.741355297918968,0.8508436591638501,-0.02959777789796401,0.42601953930667014,0.8185273822015122,-0.7235614233281149,-0.9574354861742214,-0.6451959698333309,-0.03876259963988038,0.7800193639608797,-0.40635305971564617,0.24672875738327593,-0.977999775637576,-0.5129674210673091,-0.44458928880026205,-0.18435096129073064,-0.864630293444543,-0.9465698574641758,-0.4180990609481214,-0.8096134765038777,0.2265664567354487,0.7613831083309185,-0.3269585246784341,-0.44149147718717924,0.6243249070391808,0.4980436878286562,-0.8824906731978639,0.3014213254380886,-0.6801704675146594,0.6280851164385123,-0.35136860931397446,-0.6949068449310113,0.8211700891213137,0.6159957432233688,-0.35096084698445507,0.14184129554140257,-0.1859504979856781,0.0962732632435237,-0.003534333258553568,0.4908027764105791,0.41206153283998104,-0.8407820242551671,0.8715499142070828,0.009466024746868307,0.08857813865942799,0.7258108622664596,-0.4237622524895768,0.22834356568054326,-0.5487128672364567,0.6039261197036319,-0.09128378546720128,-0.7759973251362051,0.1447654010206827,-0.455613965764613,0.6064537501822385,-0.6920837313833379,0.7205020580451429,0.8003118485196288,-0.623112537240839,0.695874580891539,0.16461416100388293,0.9941011966571407,-0.7164416457191611,0.09079107044262202,0.5692840120866185,0.5775196276119388,-0.3316333647262617,0.7964620584319082,-0.21325680875185693,0.7614576172721372,-0.3407304361001233,0.12340151240034936,0.7593255594117172,-0.7559458174164364,-0.8378067453435021,0.04802984518520015,0.8243899513306576,0.8484060030044225,-0.4543366934110742,-0.35338076791962614,-0.7595870244107863,-0.9291524796482611,0.4498626215134176,0.012746344660301778,0.20807691329242783,0.7365013462943155,0.8888886819457356,0.916214092685621,-0.6650514935060747,-0.13066613679678407,0.8865317044495515,0.6364107830039485,-0.9608385922099356,-0.34283896027715155,-0.632518540676114,0.338542542010285,0.3745242640874249,-0.8477365433892146,0.9492971830462986,-0.44274749382420264,-0.23143988056000886,0.8867978915521377,-0.7750151532953367,0.36902618468414516,-0.9259609267860196,-0.29102747786299776,0.4807793043888382,-0.9250966461073806,-0.5382254291126487,-0.4502349736381692,0.46543734438690865,0.36016881057180505,-0.2732894414676452,-0.1464119070254024,0.2957447424876152,-0.99517365346554,-0.9146935300832515,-0.9680255860016334,-0.5938316594990041,-0.9916884840130209,0.4558682092151509,-0.11001524170595545,0.2038875441276251,-0.316901490027903,-0.09310702738470478,0.8125177070601888,0.9315483612245534,-0.9148704798727643,-0.021175891517035916,0.6655098068867418,-0.45076485310850134,0.5074626760829435,0.7831371729091783,-0.9750561669228428,0.13402012746801217,0.23164703490817073,0.7535554910975679,-0.9679673101969455,0.8151269700527173,-0.8893328741813282,0.884003563368962,-0.35441883439622934,-0.5213218237505044,0.4615292050878377,0.05505330744308412,-0.6056263346307249,0.6710565901181034,-0.7122229533948314,
-0.027980627364033728,0.1833901958716757,-0.5755897859975267,0.42787342873670653,-0.21729983338112002,0.45961736446508805,0.6271092382926735,-0.422323572501496,0.15455982927871625,-0.04277973185769368,-0.37887179841137675,0.6359085734931771,0.7352490670870415,-0.5973093970222321,-0.734456286903999,-0.13413896254841506,-0.9843351534581177,-0.8332986105140323,0.08682031185347383,-0.8607022611054529,0.8420990748308836,0.019723232478338293,-0.4847409960629083,-0.994879662591921,-0.9946874600989826,-0.23574294158371512,-0.0274342332814006,-0.5792210262315953,0.799107922429168,0.24286881391123916,0.7005905906610328,-0.3593404464066017,0.8558124269120988,-0.8544292578198993,0.9663595598431816,-0.34267416012656127,0.9855950316357012,-0.9013559168672338,-0.0630250995284658,0.5708785937274605,0.22387223144108925,0.3634167688866552,-0.7649653291764358,-0.9804918898014698,-0.7896001680833102,0.1070502647443008,0.35942140706191017,0.5643925994106176,-0.40247527370238534,0.3843091344916756,0.6219167109594579,-0.9868317225612719,-0.30792368738819476,-0.29598658176302894,0.21970932737981053,-0.7344517806629844,-0.7295969464241177,-0.8538892919969499,0.43601496416138086,-0.6124582355442152,-0.947125573794565,0.7942434906377276,0.636924111235506,-0.2958780049216003,-0.5143345284932153,-0.1612295544729081,-0.2674889450473912,0.07513233708352263,-0.22669166219229764,0.7633950488219727,0.6539835604698918,-0.557588714493368,0.45950792562654574,-0.8994971481652336,0.8821655876037608,0.8569051987584462,0.7294014611399051,-0.9991600854237539,-0.4528701790972125,-0.1779922908956062,-0.28624123450822436,-0.516494444548782,0.10341169458315891,0.5654709425165194,-0.3513727199231542,-0.9231035849285627,-0.7240596076759671,0.7531153958721866,0.15435039605111878,0.012324521493747742,-0.30393991524136155,-0.10085861533765272,-0.7696931028947618,0.7552995806430456,-0.8940288264729794,0.83571530018305,0.7719627222505412,0.7736109596969261,-0.7132159252929686,0.9822096150130082,-0.9892039889804773,0.7851717443276531,0.3520008701574404,0.5215892030343712,0.5988864489656485,0.9790085414750687,0.8350959397570932,0.9100428684740822,-0.5282043457220678,-0.15433876997726292,0.187127964894245,0.18238499091202653,-0.9320881789197035,0.450857398574968,0.6930835625271281,-0.01619020408006766,-0.938521937023776,-0.025605714579373915,0.46159753251000846,0.633084290016146,-0.27813384104898925,0.09618440846286246,0.1756255338842003,0.5554786656545916,-0.5947201988650598,0.6741228394091491,-0.6543267398622976,0.7075899201671584,-0.8927955049896679,0.6326287435750502,0.5014600704940445,0.20421001888303472,-0.6667386473837286,0.6853977404550996,-0.1517713819864874,0.2335596902147433,-0.3782962059375665,-0.492464734482825,0.8991867977459507,-0.9512681232306315,0.022077341595954536,-0.8971895823387224,0.5766270086488943,-0.5810969356480744,-0.5047738466213609,-0.39679967861289545,-0.4664625796808037,-0.9351592324273464,0.026913890313438896,-0.18576488915248665,-0.4248702398231179,-0.594891586280359,0.8427954231981439,0.4444535820576266,-0.2935868606077375,0.30970342399752127,0.009809938057853877,-0.06200034161177487,-0.7040287060707743,-0.3374241980946518,-0.9148054092896759,-0.0769264117689361,0.23563546386340273,-0.01841492246243006,0.9088118531028067,-0.4357258467210505,0.22298018912148043,-0.4522715987264221,0.26589072016421955,0.2964011058821494,0.8960412610414225,0.7897734573496222,0.2524433930427319,0.6681962527736377,-0.7374010639117294,0.6574198707008174,-0.23606007443788468,-0.3519493144963966,-0.2869374489908692,-0.6482069769441575,-0.3833187285867024,-0.2545938904775951,-0.17124458808506676,0.26715367229323034,0.6035357274860953,-0.3588044376476477,-0.9783449335552679,0.8720674064764076,-0.6571280827684243,-0.6124051641513377,0.59377589400583,-0.811090012048522,-0.2829118822131773,0.5620574691627775,0.517016537399702,0.14419724972880688,-0.45384135368613276,-0.9668694294033446,-0.5735051821119744,0.053316024286480246,0.2839736753575672,-0.5735062358829822,0.09117983135043316,0.8198254536374907,-0.18291622357369455,0.9368391518985328,-0.21980788448813693,0.8401655427940837,-0.17643577854704864,-0.3456853605170979,0.7166922905446756,-0.636912021794862,-0.1206711461476556,-0.45054104127167993,-0.6484387510609044,-0.005861323599869086,-0.20165815730137968,-0.07679418021470996,0.30736897204209684,-0.6358602464276234,-0.6952221602346296,-0.6081794401915351,0.21887268589429287,-0.10590672138197954,0.5158217286492464,-0.6102855199767512,-0.051165261060208155,-0.004188905966107154,-0.47114729287179014,-0.36069261417031107,-0.2071286099973422,-0.3940137305647222,-0.7359296191757876,-0.370648231457902,0.617895495532198,0.818837116346231,0.8358761592836478,-0.7908831092179781,0.5710152308358543,-0.7537544177590583,0.6670146661900119,0.07720409429663568,0.8707371068946593,-0.44932890747392484,-0.8931619038341642,-0.9728272882826497,-0.6266475929326394,0.5889473603232434,0.5089566526217454,0.146956335136419,-0.3467512370420025,-0.8531228621763809,-0.49856199898571907,0.18544940920605843,0.6908641047773221,-1.0133763247093233,-0.3790497122240257,0.6364972513079221,-0.4007006876527495,-0.568621200025117,0.328044217407464,0.06585594885036974,-1.0516706913121634,-1.066824706905182,-0.12446161815624758,0.576656875007505,-0.7931946041181445,0.4159606646011003,0.49485776751691946,0.21760050711010084,0.9061591801346948,0.12886908739680258,0.5043371597226644,-0.22267006310829313,0.13576011788929013,-0.7285444314051759,0.9706338773275442,-0.9255221478881065,-0.10358372866455638,-0.6279373266977577,0.6042142416680176,0.47419753178200635,0.5235295039212575,-0.8160121921283517,0.31614849093580355,-0.413321544001422,0.570882007436084,-0.9472186524036824,-0.6367957304748038,0.15854113161162683,-0.14966272552690457,0.7260508466443938,-0.6355396497361875,-0.16527621081411134,0.8125143946695286,-0.0654470004966535,-0.9575765687433831,-0.9026949965762276,0.8741431376687406,-0.663763779868786,-0.019301795228311852,-0.36722409761916724,-0.2535997631450108,0.6064630334869665,0.45401968775842283,0.4302069390024981,-0.4142104411589073,0.6505218788988305,-0.360677758701766,-0.7290401193325252,-0.9628283169752813,0.5550663308927246,0.03542236645221731,-0.7925336430159986,-0.12206431426940428,-0.63375064563207,0.38402268216044727,0.3011028146481941,-0.6874782590141637,-0.5128783400877223,-0.6711719732170507,0.7731096446937454,0.3506813001515041,-0.1260257114623547,0.586593818954023,-0.951883190775754,-0.6568855492482868,0.9114232488095457,0.11432893768689835,-0.2540458359317627,0.37779661173630247,0.5050386180280572,0.8840302218532635,-0.25284318351911245,0.06166186792419599,0.47000747557990885,-0.7692081692944382,-0.43594880116695645,0.6440296796553101,-0.6931373136139898,-0.1965464156457231,0.8624923826600466,0.054155904374867996,-0.6047086761601848,1.0075878284780528,-0.9533474620269046,0.22192003673592978,0.12954089148799294,0.4878000321934661,-0.7384603726316321,0.3830516970506485,1.0186018088972546,0.2865353655169829,-0.16955696128886544,-0.9366860482965327,-0.8761719097053063,-0.87680940089053,0.05676059382369886,-0.12828756325139629,0.4441734965352384,-0.6401604745686553,0.37727726045117005,-0.06363586798155858,-0.9122283717147828,0.7523253317715209,-0.46832243199515367,0.0973226639861854,-0.21039916837389036,-0.3623900006389117,0.79820978948885,0.5026871014072289,-0.5903419004330567,-0.6451099953188032,1.0220765981310014,-0.6383077780986185,-0.5156722749397581,0.21795062380957528,-0.389718523041696,-0.19753539189306393,0.7768284670251597,0.43564157427978395,-0.5488119336551299,1.030689432556918,0.9998431046567821,-0.15360472438882022,-0.5307017066514236,0.027007945563096845,-0.722869956017808,-0.7825225423866707,-0.4556458846896077,-0.802562164008955,0.9387766081442004,-0.03258993121691878,0.016777032912961114,-0.9808215329941824,0.6005206943748151,-0.211214749124996,0.7481862148239707,0.7217663322634729,0.8662849515582399,-0.24969100984681453,0.1767786920223282,0.4555691851114891,0.3649178037768072,0.4689941075600887,0.7675273609398192,-0.4322143442082067,0.9224041994236966,-0.35429791455558424,0.4268043158428785,-0.7840287259448351,0.4053193750611999,0.23314548034111518,-0.23327388082106223,0.818127498854753,-0.38697460358528035,-1.0114627564424128,-0.35004992453322475,0.039257694647258,-0.9478409168615114,0.21442830550028924,-0.7433493405371774,-0.37987325032813807,0.9166932763316517,-0.946676537533381,-0.0477082686619268,-1.0315287152618373,-0.6633123293948593,-0.8840221932372087,0.5165103368100474,0.8358052032253347,0.41211411900300443,-0.8733169251806477,-0.578696075316333,0.9369280240063602,0.4013689909631701,-0.6013049170978763,-0.9161240205468612,-0.5750256977300817,-0.5946796596825331,0.5730636405229207,-0.464687248967826,0.34922300632652165,0.21460740928026983,0.3340843156979342,-0.05828466445209055,0.4783677814765685,0.04079524211488805,-0.6488362571296264,0.5274516649617382,0.005861530318453601,0.1099175297895609,-0.5246372969699484,-0.6886951077574879,0.740028017732959,0.19780021745085594,0.35572633469267256,0.9543687648763868,0.415039055575884,-0.44641216655421384,1.0105767178077159,-0.014129257156083637,0.36160211265353764,0.9973755666064146,-0.9516914005206559,0.09334620435322598,-0.25056053033274867,-0.3119012104944541,0.6459782869557014,-0.3059491720936615,0.6785149535220528,0.47618466237078433,-0.2000036783927011,0.008814780746682705,-0.289244111187072,0.6003035551882256,-0.2803550170931637,0.9153373681571356,0.21330202068208692,-0.30412886276954326,0.15002387428419967,-0.0419398990053253,-0.5524672680383387,0.627637749218398,-0.5357020915624191,0.3229126559946539,0.813502703221166,-0.030786565376116556,-0.7336288254452682,-0.04376707597101929,0.3438722902214569,0.9071525671167403,-0.444415801589596,0.4347403887464969,0.4813862308665385,-0.5227507083678826,-0.7713152820366904,0.7563433649081474,-0.02673111884069864,0.9819172741223896,0.15753155709916705,-0.07038464274182359,0.4443487855895388,-0.23818409009189723,-0.23505896179761754,0.8608790377937282,-0.5299977372381477,0.18034774990616323,-0.34094808481625366,-0.9179981286535661,0.0030842064930373374,0.061957066905619564,0.5392970615555869,-0.47745219385677035,-0.7488476442294861,-0.0766013162222398,0.6694540224462879,-0.5983987953893888,0.2795184704394277,-0.682781050805702,0.3850591418673747,0.21714457555991526,0.12703796740347342,-0.0811261186405772,-0.2770313251281608,-0.747716959665685,0.7323915080241234,0.7478196786626603,-0.6201469159465013,-0.45478136425473403,-0.4931924772859087,-0.7212961823944266,-0.40155854942199354,-0.8676121927708518,0.020066450324013205,0.636977197666251,-0.3016890914784183,0.7391612847615315,0.7290032414262145,0.23324954634011205,0.6513796145067794,0.7165157787829154,-0.9240398555907507,0.5655632283986564,-0.43095923113116236,0.13279274914064426,-0.8823158618653247,0.6841253522408639,0.2985615335092348,-0.7064414505528785,-0.09681060004381341,0.4354392019421696,0.24131501126767538,0.006801721314419332,-0.6460430985063468,0.7288928677332833,-0.31958148002039616,0.37002584070416583,0.963480479347254,0.8749143717267209,-0.1575459133549042,0.1617963733648835,-0.5740998009396672,0.2276826197604769,0.42348676151019404,0.8377113555876706,0.3404168481220124,-0.8654862608093115,0.609966083629241,-0.4625020339817471,-0.3657204176344147,0.7022297967669459,-0.5471332352536333,0.008663731981483,-0.597906252132778,0.4075124985387339,-0.2179324760403341,-0.41682594249507804,0.835035709070902,-0.22251869078326894,0.2714646587085207,0.1692112961478152,-0.6369035830101193,-0.5601781349622308,-0.3969257332424861,-0.6051129001351719,-0.10988967889283652,-0.8593907018330926,0.8465365596035745,0.9144832827894827,-0.13129405583134468,0.6624457916095042,-0.5863794036312066,0.6508182192957038,-0.54519485660064,0.19739029497532237,-0.06765495296066439,-0.4168630629152504,-0.7424959217252871,-1.0001031607470425,0.7121884737578696,-0.00748705094667568,-0.7396438015590651,-0.6961941496062535,0.9372179975457909,0.44406956128775965,0.944855453610643,-0.053430350199542585,0.6929982301867276,0.6073959497486566,0.5234541514133434,-0.5047377441360227,-0.7616304022613842,-0.10321763853678713,-0.6360196944221299,0.9988140571566879,-0.40581227144923737,-0.7339907433227475,-0.30631823031186745,-0.21889643641134562,0.39679343977361686,-0.25132576189113454,-1.0195055565724644,0.37583712039244,-0.04749344922926165,0.7443948212725148,-0.6180048538946135,-0.10517942160884187,0.609910761340452,0.16454779490006785,-0.18331060101773747,0.4636940204079382,-0.5869684664532805,-0.3377027213209439,0.011043275048956172,0.8886073618186721,0.33907625185827694,0.13909359469925062,-0.5622772285830917,0.17092249671326823,0.16396459940138333,0.17152989612637812,-0.7154976651269027,-0.12284208095358706,-0.5645264784380115,-0.9173155369010397,0.41438941137898455,-0.31206217353259075,-0.09623233035975456,-0.01519834267279895,-0.4497842730374687,0.6221262110220178,-0.20287417090816048,0.7318396333172302,-0.291414116351836,0.6518502217127911,-0.8948275227085869,0.5034476271673337,-0.2539240187364167,0.19373603943223858,-0.20928834491120002,0.6888210909619251,-0.7365408917459987,0.9492242730535644,0.5529546004434255,-0.6106542562364675,0.4503909684522232,0.8697920746880358,0.7318710225844595,0.2578331250286218,-0.6085862442167658,-0.5299137900693607,-0.049739895303660964,0.7194040150975518,0.6048225679082679,0.37388529255655745,-0.17141518740528627,0.5543011841100807,0.210903632228036,0.6312661673952158,-0.24490499835260016,0.43194545184245037,-0.15052305571259872,0.8924646087870769,-0.4479869390152851,-0.3009301049558182,0.8772788272220033,0.7839481053363688,-0.8604454520296261,-0.2524642639644292,0.5543738461850263,0.07051688774671594,0.5704901381966567,0.5524641546908651,0.24803913228889796,-0.43550386247797945,-0.8187490514517983,0.8906522609883953,-0.9481312047827533,-0.026148500823196308,0.8235819714021426,-0.090249889441957,-0.7846869237350931,-0.8964915139817242,-0.1317267614413371,-0.9835816508815907,0.967267805839624,-0.19681824103331613,-0.20962698903535726,-0.18583321488134907,0.4358317210568714,-0.10007944357232135,0.9268724471842007,-0.6632318393854801,0.2198773746844167,-0.17189084656156384,-0.21721319343150092,0.7358972551283298,-0.627749613236072,0.1576743231902027,-0.36785247401120924,0.4807252418089165,-0.8169239615317181,0.4476066345243379,0.13499246670869303,0.6242991331214416,-0.3630179624890568,0.951869413461842,-0.6388641867554499,-0.6475974304557002,-0.12439792395398452,-0.42161699432378996,0.7881753007041592,0.5155913873727604,0.8697445980143448,-0.6133744993814267,-0.2979504684374381,0.9902382513000496,0.6100742438933402,-0.08517991567095295,0.44750810259772766,0.2725867138451965,0.8150302137345273,-0.5427263605572206,0.5829550637287599,0.7604418972207911,-0.405451754587715,-0.8050644109290839,0.19083724082382392,-0.29412121950474845,-0.7354607733325464,0.6563342666885235,0.6595517184980151,0.953743877141612,-0.111002649532147,0.38784976449219744,-0.2557041612655011,0.7262160299742997,0.747954470190314,-0.33101277935464535,0.6356750472274564,-0.5175522657536755,-0.6080245235439521,0.8446543535865791,-0.11469215887526185,0.03455589322218433,-0.7189974820567062,0.6502236473611367,-0.941650686621341,0.6992943594683902,0.7822859117815086,0.9011474242382409,-0.08608031700438623,0.7623672761829521,0.2998846299237239,-0.7415822662514271,0.24604854354221972,0.22456423317460183,0.3469627822174084,-0.8640035950606995,0.06111511929600799,-0.43778685476770374,-0.7765463053886343,-0.012879696688766762,
