0.9166456517923958,0.16440181167824752,0.16316062886557248,0.5935057304904479,-0.6660241949737473,0.39248026398686564,-0.8879379644941183,0.031070966741635342,-0.6516518340609347,0.9603764706124964,-0.6017124547204604,-0.10212761608760856,0.711993747637685,-0.31242742898480813,0.25193806329647317,0.23822211964479978,-0.18504013072541992,-0.567719046253081,0.5307945442818758,-0.49165779570774726,-0.9566562134771492,-0.17178659340489988,0.25450281220211246,-0.9679336502063369,0.3181405439914027,-0.5612758718250581,0.25506402940648876,-0.9543660794460076,-0.719732768241605,0.9958130472054656,0.7133997618018726,0.8116045091595376,-0.5602732766787857,-0.5718653947485894,-0.9043352389226371,0.661824754667118,-0.9596827672880739,-0.9411249621963224,0.5062563083781316,0.3641796453230182,1.029676728351424,0.3887936951870452,0.6882486433131697,0.9776459863929213,-0.3104188149034116,-0.890461371104065,-0.5109976719908359,0.5724986119200917,-0.324074131064273,0.04355571826960869,0.1589452852982829,-0.0807521025756679,0.5967228988475566,0.7984322728340985,0.13626527641336939,-0.6651934354628786,-0.26611580975168314,0.25178252059432915,0.25561732417143235,0.7702382996785775,-0.28502567740005746,-0.7538819988907124,-0.0994234088195376,-0.22510323942978752,-0.7653421715362997,0.5783132631875814,-0.17736673314995946,0.22506470334048626,0.7814107407671846,-0.281898329208419,-0.06815271489759687,0.8089377141458283,-0.12997912554772648,0.3799578925135132,-0.43585075174975046,0.49965852204795536,-0.2486192256599332,-0.5475358391123603,0.038044594159938994,-0.7644989932110795,0.6590965932144142,0.5009928288292305,-0.7687879773834438,0.9782372122354948,0.7597394571605494,-0.14739350654882521,-0.8240830654690765,0.6356393431903904,-0.21632151098074548,-0.6947708486366619,-0.30112849368929345,0.42061341230865024,-0.16973935368183746,-0.582617246906941,0.6456331273693228,0.773666002702377,-0.056042736603747416,-0.832386399623414,-0.13411254292559233,0.18952687489420544,0.5565583182709952,0.242129306485327,1.0111324666691994,0.1951900217246967,0.8629280382192167,0.5699402379319229,-0.374605380811627,0.6999267589971236,0.7468213835623161,0.7975896552593846,-0.5980166840767063,-0.35067410541273136,0.22501313912309473,0.048094457459214146,0.45105377920937717,0.9157490842508278,0.8617292513299118,0.8184064500763698,-0.8139556469969073,0.9338645647411615,-0.9879263087658136,0.4320132093955425,0.4965318449812074,0.9404011925661966,0.5638458257761502,-0.5603294155936062,-0.1762864077276567,-0.016942342228090292,-0.5763743824205193,-0.4617691056943395,0.9403026307397475,0.07174746152580763,0.8525389350392065,0.2624760786286685,-0.06483449819892687,-0.20216803064055255,0.05507414020123491,0.3535874244081696,-0.8785726966249303,0.2196015710276058,0.9453793606441034,-0.2731898012369125,-0.22157367264931427,-0.6091820993083614,0.9834236432292325,0.5373205135686071,0.6767662444589766,-0.19501018166516493,-0.3908695026026666,-0.7756655924648901,-0.7107103876328645,0.7800397127836747,-0.7987523621432701,-0.9017867703054429,-0.4481957106830272,-0.07970178059401077,0.8893181682591437,-0.2850068439523726,0.7010983839785391,0.542154864488045,0.12333195648504225,1.0707082038110103,0.6578684977815732,-0.5170087276568943,0.04721215257965982,-0.3225895306913493,-0.3779198015979637,0.17357607080713366,0.739352731384411,-0.1750171564698415,-0.30478049396378487,-0.6038258075791757,0.33270273391700306,-0.5868931922668168,-0.4316353890685818,-0.5786725864063553,-0.08783447909264638,0.09771902252233286,-0.7556499400744264,0.8480161403062856,0.36173239119415573,-0.13221405020120125,-0.3879080346359542,-0.15194192007929808,0.19066607971723626,0.4442608099083515,-0.5776179293369331,0.10544657166008438,-0.12744790591557112,0.00435144114402667,0.8046607923517977,0.6760430282757062,-0.7972010304328093,0.9063242286256892,-0.5700867810837031,0.4075282117405332,0.32887007288358294,-0.2911687847997897,-0.9730318624250828,-0.9822598543265592,0.19440010497630977,0.6989310095344116,0.15570130430920281,0.3409955889227278,0.42634176834122056,0.9187194467094639,0.22690030514951692,0.5274730258372883,0.6407500586219882,-0.6557842933916994,-0.903049227018897,-0.6893359226711403,-0.35372136692064027,-0.21971250372390483,0.5785597311547073,0.8058290926418685,0.4823572288272062,-0.9176488114147163,-0.38602848503560194,-0.7859770859965277,0.5107710692993701,0.7094052298237793,-0.9828118537002433,-0.10944457366784599,-0.33917534170866737,-0.916077343113864,0.6252642732377072,-0.6300592267253582,0.5086096972820069,-0.6923124016687476,-0.14335274698737965,0.7681191451368049,0.2109051350710203,-0.6075595830154504,0.8895159888553668,-0.46606259935443656,-0.6620336914528883,0.6632588585934811,-0.8540273977440151,-0.4230711147103548,-0.18461808767932525,-0.42238827238560994,-0.46814474098976794,0.7739119024476483,-0.15393862544230488,-0.9406758292572246,-0.00027080013506953083,-0.5546244882653659,-0.2346098392280029,0.944217108666295,0.7623086826466039,0.08843274254627542,0.08583260277109983,0.6262011623872816,0.5063903506439775,0.2582128139619636,0.9433074175575904,0.9321711722932494,-0.31194389619089713,0.617326344024154,-0.7129632282457237,-0.7100465563609564,0.7880047015650764,0.7991945130608821,0.5890078857610791,0.3308424831739994,-0.8236158057122617,-0.9174177276822706,0.5074623988330902,0.6898428580256195,-0.39079271339290944,0.060716997909121204,0.6741777925313457,0.8842721794094739,0.8552651305612575,0.3092507633566495,0.26895490680095946,0.7978089563704691,-0.0636197812900452,-0.4398519196146291,-0.6979601406796676,0.7641369618316576,0.20177898573125727,-0.35622935746830975,0.807392390785096,-0.6667036848505322,0.38271933428543675,-0.8278503750003317,0.10076803609756586,0.9868382615944338,-0.3150048825296257,-0.2857728170108391,-0.6737781291557127,0.6796511265868302,-0.5528074007154037,-0.16317167017145418,-0.23266743805163173,0.03799166120870271,-0.6576735257678902,0.9121878704739554,0.8518688143085633,0.6726913948326281,-0.7472721874054097,-0.2429213941720701,0.49480685172375505,0.05895715414992898,0.5463668020589443,0.04682898229634591,-0.4628669491823203,0.5629734971148452,-0.13955400081437566,-0.8460284518931122,0.15991576188112763,0.9709659528757699,0.1292054590276766,-0.759850917099335,-0.033994836635447716,0.4259634387702495,0.15512541355539963,-0.7127906762425281,0.487809951410632,-0.8108817310831752,0.20942635927073902,-0.3945116113906862,-0.9622478499482313,0.8699677674924247,-0.2899891746344331,0.4329025107426919,0.6429682446242004,-0.5337825308072888,-0.34208650179781463,0.5858336671018309,-0.2910965425141832,-0.26277281882161074,-0.1314575689758568,-0.46153287970727397,0.65039539646772,0.6113432126109052,0.9996049322872824,-0.32161446896954,0.6446414733978181,-0.5850682434846247,0.7643146478057659,0.6178292389963037,0.0713658606993309,0.14790510270469853,-0.8369449851892792,-1.010038080479586,-0.2815895006800877,-0.3898342614476976,-0.5287970277624932,0.46316485998029283,-0.8055067021366157,-0.0029023471722012762,-0.5934655925132698,-0.18259175310866338,-0.34207260800640465,0.8339134574870091,-0.8897387169636435,-0.004986493134382136,0.48480329247539194,0.7277946746030577,0.8692895869928935,0.24489492291341453,-0.3305283820274672,-0.24175401170074187,-0.04921159654377126,0.8897154553597851,0.5347190457189273,0.2583123970487389,-0.13372808086711735,0.675431796280648,0.9624338845456532,-0.6535002063855584,0.02900271777262552,-0.44864196779324816,0.5378861567815627,0.20053685693799136,0.936902330592449,-0.05255484581352837,-0.6610874034958576,0.23253983863876304,-0.22538556701788554,0.681564562870344,0.518175606181038,-0.003591431661071423,-0.7185302110721425,-0.08938329664930567,0.9683245821527997,0.22456392519702253,-0.674809740272111,0.7273909946742303,-0.5898833449584031,0.6228697889600353,-0.07824353561802541,-0.26405902373311557,-0.5894025703004795,0.8023809186372075,-0.4928853038079815,0.2633313577643903,0.0494554793575511,0.21559676727786437,-0.0528595173285934,0.1285292331580582,-0.20420146982379123,-0.16172301165540617,0.8998953243468224,0.3609385222498651,0.3118267040493284,0.6615000426276006,-0.305724789665356,-0.14003044515309895,0.33650155992549063,-0.22531718344562718,-0.8472486319299042,0.1319723964659577,0.3226837399415191,0.3129668245401955,-0.17674498851760878,0.2663138317640732,-0.5210971695585009,0.7089882622443616,0.06395038010718403,0.7666467363916145,0.05440620226950008,-0.858873660660212,-0.43386271603017346,-0.5346338212827891,0.2805251249451937,0.9029797483637516,-0.9846350607374235,0.5986207619664446,-0.8842132043797937,-0.4088464260631693,0.0004058601914392278,-0.8193663469706348,0.8866796363031553,-0.6253576677493371,0.5257628480098774,-0.8673978659714876,0.2474646803579777,0.5560184004088787,-0.025284709337660232,0.7446682010297928,-0.8326729096214692,-0.0052076342900648845,-0.6178971810415252,0.04546206793752372,-0.9864190405760518,0.31916747662536815,0.30105804640288486,-0.060355988411883735,0.3719056608972116,0.5455490118719191,-0.3752339387534576,0.9411250072473171,-0.8269141397607415,-0.9287587441294525,-0.7274384349707615,-0.7903488510809975,-0.790676760345196,-0.4363811031151273,-0.7928998871635412,0.7965849883412625,0.04374821713855215,0.2570205912134524,-0.6241182804977967,-0.18497064544095826,-0.3500974825103112,-0.9793525806682917,0.6277363286749522,-0.33041023004520725,0.6521816710806273,0.5619929025611469,0.8159622280120917,0.0402147795011929,0.5236040613282569,-0.8137761236121192,-0.9265052365012709,-0.3379862896313186,0.13064818682989698,0.17760685216488975,-0.10405976029778834,0.8315082852287681,-0.1320526031553416,0.3126209835574106,-0.8789870700316216,0.17637016464138025,0.0802168881587766,0.341309662256601,-0.6979745174001,-0.7062757402254113,-0.5775449519513839,0.4198341208204635,0.7812203456470186,-0.7207497255508278,-0.655477377000119,0.6246411009990812,-0.5318697669151701,0.9343705386850352,-0.44975181625031607,-0.9317516695471472,-0.10230092044349533,0.42375660417674554,-0.6785854362295713,0.5889192021113044,-0.5937836469967082,-0.09105912399914726,-0.15349774462118762,0.8308956554367328,-0.4987772824894765,-0.24049224485129192,0.6351432225461925,0.22388917425906568,0.8684116005638637,-0.5281230024684761,0.4041393357867635,0.24847141207166512,-0.8579136036172182,-0.6681750074235783,0.6381800947392821,-0.3414695236207812,-0.5887458007132397,0.807316682186644,-0.5382791433623048,-0.015453000730379713,-0.7705708300091006,-0.837051673969775,-0.7493584181563905,-0.6637346519429883,-0.11091107938266954,-0.7458907736073568,0.09817598640507841,0.24788413971118292,-0.44422675062437605,0.050365315181253326,-0.8614018204069427,0.16414121094328424,0.8509330760392056,-0.6479284923514751,-0.7410226423996825,0.24824765928191025,0.08767469414202965,-0.24954253768657927,0.36054375437259467,-0.6996271735806161,-0.8563561537783485,0.7532483179238028,-0.46864009295518466,-0.5091651689858477,0.5326942400923378,-0.18288635026308575,-0.580363792764155,0.7684126245507551,0.89488812341247,-0.3793183032659453,-0.11903173233019941,-0.7870340946139534,0.9602309583216889,-0.5094426559912402,0.6735041291885395,-0.23227814885549924,-0.6602630913593467,-0.48233005244809257,-0.9459914309838342,0.4216033139026914,0.047759284714683915,-0.00029720348396667463,0.047676571508960354,-0.37939212130933736,-0.37158147641731043,-0.5930743629816684,0.7923587944687615,0.024208179169535833,0.43138006362707537,1.0189729230794908,0.07665062254969085,-0.6209620174495198,0.6584326164106675,0.5091576897650897,0.5697836969751509,-0.7861280629418103,0.24604539532823178,-0.1400498381005954,0.4081515059224257,-0.28090778017091844,-0.6795273507750377,-0.4405923068366666,0.0769850072728624,0.050988017501906846,0.45761731371778086,0.0823976130737598,-0.23196354710346825,-0.2791908517916462,1.0405248841981758,0.5479269381705941,0.9061869168802347,0.7719177529962137,0.4174199028788625,-0.01263099855076721,0.05089888503987466,-0.3238631205268114,0.6280102330572934,-0.7085900312360427,-0.5835519364185688,-0.6926107034162591,0.02918253701808113,-0.16077199179610505,0.22546398505513113,-0.7376919656266211,-0.7193801798637892,-0.791286857502289,0.14035226841538193,0.22992756828967248,0.2911564028331244,0.8789073898003799,0.7207078393180513,-0.3812959164831864,-0.9223622329673049,0.386736075661023,0.15875277666510917,-0.31774842242214657,-0.07668818394635814,0.2881123672496969,1.05590119974695,0.8623760754530735,0.9850782242098003,-0.5223295904752938,-0.8211463370355467,0.4916712352215815,0.1466962915463303,-0.22507567487386504,-0.00041052593249405546,-0.22494078546233887,0.6792585951901384,-0.6954095265054915,-0.3878919034024197,0.7710060526588566,-0.45110858129031745,-0.6768138400227868,-0.551935899160398,-0.709753566465854,-0.662831632384842,0.21388222002176982,0.04410497774882138,0.17900567823507485,0.7132169962261892,-0.13549538509123496,0.5544165329532897,-0.36591748729514434,1.015999092323863,0.3152010861034644,0.16587251986675167,1.042330506847652,0.689688445967772,0.7082380452530305,-0.011254009387839608,-0.03910128144721959,1.0528929567640029,-0.05926323080963042,-0.07260004119876634,0.012674802655691698,0.5465012606672823,0.7246361783588109,1.0739980353180085,0.11751972722474736,0.70463533156828,0.9861069561157545,0.9170142507608564,0.26608366250160487,-0.7503777234472871,-0.4356668712613009,-0.7671666012400902,0.6560509108060699,0.09959565167790352,-0.12222242947155992,-0.7135797475694476,0.8928574518248678,-0.39689776585820796,0.6742904133414889,-0.16448530910411913,-0.5361572105244885,0.1430030327561485,-0.046929812212828666,-0.800381056420644,-0.46276173888799926,-0.5143430993751239,0.5948730886472693,-0.6428566533744688,1.03645497885191,0.05500985150626349,0.0763933226967277,-0.8744021607179644,-0.2088242381893411,-0.09451473695904726,-0.39590308467552093,-0.35822661435981273,0.18059369032203754,0.525531539791559,-0.45244406807771553,-0.8024142531260334,0.14584279114843457,-0.0966638065627563,-0.2950208039008557,0.5631992579134797,0.2302918697880192,0.017876298506428703,-0.32171938328221145,0.90797792093774,1.037677313470368,0.2718053713958916,-0.37240928929969674,-0.7087592289715556,-0.12257108152432959,-0.35083999829317414,-0.6668506642803438,0.8335738608345349,-0.021950522901647892,-0.22525465537278996,-0.10460364160838069,0.9449927709089315,0.7209222049475874,-0.8454114245813298,0.5262818712266634,-0.9278974324139088,0.19390741210610485,-0.7793528490905508,-0.22104876228296444,-0.48171329029096177,-0.6603378346993665,-0.523052480937124,0.2317442843745401,-0.46701334971353514,0.4807809442273565,-0.8770520496696383,0.951610565294338,-0.4536323532411864,-0.8169447579059056,-0.7660080005214196,0.8281940612155643,-0.5135426245531448,0.07207883816736087,0.9213807414265622,-0.25321936997040595,-0.5150451545127591,-0.22277274461000138,-0.9022882658672827,-0.6963489091477887,-0.96984296798715,0.08667707077708621,-0.8081997357795573,-0.987076599704338,-0.30381404333554207,0.2886352418043652,-0.31788672684779096,-0.7630453120600016,-0.49100659784208345,-0.9381673697857977,0.3340100981432541,-0.16920346003672893,0.4355076798595465,0.30444319897598837,0.8639108697943416,-0.2354636069588787,-0.6209106881460607,-0.6482812975530241,-0.6110846658936315,0.3602292443497397,0.8867382114017492,-0.36039870552495623,0.9178294258583135,-0.2034796226756137,0.9523546165394459,-0.5437472677227781,0.41446520493495376,-0.27419945964629777,0.17792346917753377,0.7749440677978703,-0.27175967086376374,-0.22842883954976068,-0.8421725203973924,-0.41036145239140254,0.8879357269368595,-0.7840832530037469,
-0.9086020898168345,0.6002284680780012,-0.869305361073307,0.3661829062597284,-0.7261009821572841,0.8919502713278518,-0.7575019211983114,0.5312617900409429,-0.19735634656780499,-0.9660220938467912,0.599448434441761,0.47801334299618103,-0.850099554488055,-0.8245922551718992,0.7952516625024488,0.23384014191942026,-0.5844670028092198,-0.5077726867369328,-0.7910744924708635,0.14705987648109287,0.7735291153478214,0.05976231460599468,-0.18845120856397068,0.6374582560296005,0.8143919453328421,-0.15541995234844408,0.025345406415122396,0.5343224443649854,0.35735543814220305,0.8364007549386201,-0.8749533249143826,-0.04844273226336804,-0.0458431055512496,-0.2888399240293953,0.7939543457180933,0.2707370429848637,-0.1024680300815919,-0.5955203405459787,0.4155965066883314,-0.5020351500031105,-0.7961746200446262,0.13990781020897997,0.9315136390189993,0.09758073058275467,0.8242312051681617,-0.09195248520706868,0.6554587787130339,-0.7615655844914191,0.9968216676284167,0.8471058036111916,-0.33762437435106585,0.8060590177055162,-0.34290510915427497,-0.8341120877139514,0.061953300864656446,0.7625997210234388,0.1827469730872937,0.5490174382095196,0.5440888877594876,-0.8492867318400834,0.6642195594362668,-0.2017274284693904,0.9801537444505797,-0.45524358218053484,-0.954100483533695,0.6497819587494258,-0.34616991348496057,-0.1687448054935693,-0.051845906853607744,-0.7987482557229827,-0.781639812783677,-0.13403564568035786,-0.2820126504596047,0.8186754668273768,0.13496844138836664,0.7947109078091794,0.9029141192033894,-0.829077944105638,0.32168314904384876,-0.7107969670959022,0.7766318251997006,0.20942643428370045,-0.9149899781648567,0.4347032854512882,-0.020771506836772424,0.5747122925407566,0.12643240202416184,0.4570617097100411,-0.5158067212070603,-0.47313173867772607,-0.4382970537650518,-0.20248614588829514,0.41214291452608676,-0.09816311518631786,-0.4768147366735843,0.8811984496347182,0.21480797127009568,-0.5351492451150938,-0.030212877551981078,-0.5420744355055976,-0.6530395778905475,0.7805107486648691,-0.06257349845840658,0.2116917457199036,-0.3075839449990596,-0.3242490413076231,0.31888685021721863,-0.06111520128166226,0.795929464862138,-0.24766513677502044,-0.7209262488612069,-0.9278667317155307,-0.6285236544252668,-0.6415212320542563,-0.33925754156109367,0.20074788419439016,-0.011147673530329864,0.385697625280074,1.0097592008014207,-0.6559619105710247,0.6757728802966001,0.6126316699868896,-0.6078538157480641,0.5222452991472561,0.5996207444879155,-0.023272176501988567,-0.37946320891375535,-0.03521410436290323,0.27557427658223654,-0.5371288296394977,-0.5327930035113659,0.6830889559743248,0.03301627182288499,-0.10494934948643181,0.3244178199144038,0.3259477061387195,0.888238481387118,-0.32039359561543024,0.7525429763249689,-0.6630083314187207,-0.18919877305772959,-0.08520434307335845,0.785589218319328,-0.7771839143643862,-0.9754442099732836,0.6439716328882354,0.03908758307707986,0.7218660802755965,0.5334215414533776,0.2993622037888796,0.481028426826956,-0.7112549513860517,0.08315889610514027,1.096880141982567,0.3887186841777868,-0.4410135833874861,0.7121764644010953,-0.5978407923723683,0.34676177567656036,0.31443950525976816,-0.10575218829174593,0.0359422220072273,0.7508428085122238,0.47019102463680673,0.06538375023596665,-0.0055577655520420155,-0.7623354257370809,0.39824916432313784,-0.3266787482198801,-0.5553269536245404,0.2607164628138916,0.09900956873117356,-0.7367348163070886,-0.009998687489430436,-0.2046325968006408,-0.043399138130038185,-0.3271513507884866,-0.40399907691552045,0.006087170857530682,-0.5528128753974484,-0.6333795877585496,-0.4232474004593126,0.11607304842956814,-0.6068089344275116,-0.49644709958892214,0.2547282762932925,0.13729256927282907,0.42367581164469703,0.3522935158533149,0.5191330505112299,-0.06088221709024493,0.7783848960538248,0.19229650862307499,0.2867120841753106,-0.29312351065497766,0.4617171542226186,-0.6465446054310107,-0.6591134078171015,0.5225938232877225,0.2719496688833517,-0.3213559036158331,0.11351419685654877,0.06378056370757484,-0.15182452638312557,-0.39663145405410277,0.8133533256778469,-0.728596973906846,0.033590191229586674,0.12725081277661396,0.35342807777248114,0.8983703244721792,-0.2367931908228954,-0.6011575115538984,0.8075355674498209,0.31870363584702777,0.4990633868237704,0.7308876397991352,-0.29585564863482966,-0.9430793446334054,0.6318541700961889,0.018326072384980314,-0.351871776804014,0.10285239338303276,-0.4886397250624206,0.8618903297962872,0.2764634663753718,-0.7539359827748915,-0.6978108724984728,-0.400137612850825,0.8159014866437678,0.12461384129187833,-0.4534388560928168,0.21899593787131272,-0.047184826861193706,-0.9515460366736911,-0.3624551198008919,0.7247186628687949,0.23957527179458674,0.9422139115519018,0.7090318247934172,-0.7725548235285923,0.6157526732810016,0.17103293052677723,-0.7187034594892213,0.9189758072307072,0.05867337259681882,-0.5561786634353726,-0.757871421273608,0.11165695689652583,0.3499830151093385,0.609978893239471,-0.8651813787246598,-0.0917932207573624,-0.22243723693882583,0.6922909984780844,-0.8177313394850976,0.4670971033324851,-1.0066675332454496,0.835540724540613,0.38435075170191446,-0.5653292623610546,-0.5587972453476674,0.39070418808208524,-0.56683400155966,0.07316100567564207,0.27814609998010154,0.08629220141836898,-0.20565675400139305,-0.6118482855559014,-0.34127695842702604,0.23039439463145667,-0.8651649835439116,-0.05371748194783065,0.7838324698817183,-0.34444739950124703,-0.6183317373729895,0.2430359944678262,-0.856900988991947,0.7696182545155468,0.06853531407843416,0.9636828596440392,0.5565101082044013,0.8853168212914974,0.8822943929401745,0.5357898261897581,0.34789717523757424,0.28662862099465464,0.2982466800893647,-0.9155948080486906,-0.06467977230802634,0.015639626599936722,-0.743730848017132,0.6703292163618029,-0.5907673048899622,-0.5784235756429026,0.9057194730234809,-0.3437150018970321,0.24398172251169348,0.6781934707720745,0.5002613173097503,0.9259580884511175,-0.7852318902417678,-0.9135316475223149,0.8631297939622649,-0.6637403025345402,-0.9835286067748212,-0.13983132114536123,-0.07487861012902441,-0.5230877132243468,0.11785463365094237,-0.9012442565271377,-0.47257609645230747,0.5364461421946296,0.14256088780990708,0.8294478287672385,-0.5723585352267151,-0.27425404673235004,0.4670861321229016,0.11011320424601637,0.39706842614973487,-0.4597378118730269,-0.7786798794588844,-0.2127759512789411,0.3998545638399662,0.2660836241970355,0.8661063739710935,-0.3853134377079165,-0.6810202867289871,0.06180345706797429,0.13693716644441165,0.040614399753806055,-0.5998752197090044,0.028910195624816094,0.25590788744980425,-0.7601476966266207,0.781421895161142,-0.03753747838509902,-0.5363029387976057,-0.6030303423410113,-0.43145131848788343,-0.9983047919705628,0.6216197677173481,-0.3518563288092363,-0.009401729703781387,0.6808896143748431,-0.635093659170591,0.33043431820452634,0.07100807646684504,-0.3442263942871084,0.39866657576542397,-0.5882274411573875,0.5239158054047701,-0.5603011651012345,-0.9423077552356183,-0.2277851161224666,0.5266957256612561,0.2014352213870559,-0.8084283179440501,-0.9231499759588,-0.26826165645008687,0.31605634708710306,-0.44629608390879366,0.08325813802078501,0.10336617561729056,-0.5993778329527598,-0.626104059967287,-0.7143923702025711,-0.7798344435502244,-0.3867412424078345,-0.7364618811924827,-0.8296961411720502,-0.2820793303824922,-0.8831090725654013,0.43870702618743157,0.5122521256074567,0.22101242982759273,0.6232196625287492,0.7550531255441183,-0.24544746143211713,-0.5923218723263421,-0.07054348058549366,0.021615271162154195,0.2998288316844577,-0.6054282360725419,-0.7562466142933576,-0.5061388138841061,0.38326484880965767,-0.40599159507680627,0.380137517154849,0.9609037992142927,0.1672063011864481,-0.7928140147414078,-0.24378326060015357,-0.329721546566726,-0.1566223983909515,-0.7053132135128475,-0.2774269709434379,-0.429047001907684,-0.08179238608248429,-0.28013058633442467,0.5326295696622709,0.39102994959763593,-0.5400543908009385,0.032154654732602664,-0.82773309840113,0.6277075491550314,-0.9270032575194866,0.4905326302585656,0.8912083476024134,-0.028570824880495154,0.10896957625026431,-0.8389282409829107,0.15152196662966705,0.18531466624412868,0.5873776965145745,0.6934256494202585,0.31549863438051406,-0.7425819358535143,-0.08187322642670065,-0.3890279849060654,0.014611505929749129,0.7552877274808529,-0.5959912278790747,0.8552732512459906,-0.9514803486970539,-0.13179171925334263,0.6754087201443115,0.7180602006886491,0.15297681815408132,-0.46564455627517354,-0.8478077782016333,-0.673319721415503,-0.44838107377197023,-0.8162642259402817,-0.5768403348025691,0.23357543123351293,-0.896719472621794,0.08983368144883974,-0.7386182093669396,0.4089170024993584,-0.16441989146577102,-0.9663793997243615,0.8444464579865925,-0.6352576992730274,-0.6476530459426846,-0.6463680377939646,-0.6612518514125434,-0.5695364626402053,-0.47195061248516446,0.6254028515418045,-0.03141852289459743,-0.17205295076439345,0.584124367640021,-0.6571950042790515,0.5197847808642829,0.7308174573225628,0.49099020704723045,0.3320341907640358,0.40804783218835267,-0.6360110904570538,0.6574151076344545,-0.9098525603359053,0.23930656558366056,-0.49175088350003376,0.534150420992085,0.8608495957547558,-0.7390285060738806,-0.9935869908823315,-0.07419703671373228,0.3940388870446414,0.7451404393952995,-0.07494231017594623,-0.685872763138813,-0.8929767431188685,-0.9474477058276154,0.026821823569282754,-0.051912852022159006,-0.9327673585745784,-0.1819578201090844,-0.491882028980197,-0.9481354100336369,-0.7800468104888101,0.41159446045187503,0.04426036639731652,-0.266128121243348,-0.9657283666233347,-0.449767631549316,0.9903348074688884,0.7283807621476479,0.5251410421899588,0.008421762258132287,-0.21711694473738194,-0.12609266554697923,-0.2877137704845877,0.6693121429025685,0.00697582667807186,-0.3824986670597731,0.1495208709875958,-0.23147490354662645,-0.1496466649844942,-0.1455097380615924,-0.1145110204270881,-0.5003572671444421,0.8295980086116665,0.9987949752648131,0.9740345699238264,0.6439908745604802,0.06301621219490225,0.7083813526593079,-0.11394221497730456,-0.03485570035264241,-0.8136274427171275,0.5375497900086793,0.24671312347874555,0.6906003322338403,0.8418389007506117,-0.8030571081271021,0.5364412100795767,0.1621129568630813,0.03722770208674073,0.6402311444283059,-0.7665348847585437,0.5380854485671295,0.63100503966491,0.5619698153317759,-0.8080005390909354,0.4092061215525035,-0.8286932066009841,-0.2619937728815391,0.1872409287185144,0.09114515202998263,0.45300402768179193,0.5658861696706767,0.056128730704016694,-0.13136344970240013,-0.8458985647857957,0.6243679653079647,0.011475654525052366,0.3283215998826499,-0.6192885166565505,0.9052503657582599,0.04840543316123807,-0.6762062995377628,0.5554650271839604,0.7427535799277319,-0.1336678825709164,-0.3022731505579017,-0.46605958418757265,0.09470754215745131,-0.08996194932178389,-0.678970976129546,-0.39940177071774097,0.014034501953044464,-0.5374221734970577,-0.509806928558196,0.18204054149069301,0.3039846256224698,-0.5532472587035993,-0.3903323968655781,-0.003984483062014377,0.9543818064144387,0.016925976376612528,0.289155630439906,0.8262987706770819,0.40326437282903715,0.8287216467862117,0.5420142223669248,0.9818029752595399,0.038876005519598376,-0.3541620045054547,0.7933987532061322,0.05771346844484442,-0.40651280790278516,0.3794496686260593,-0.926602630692148,0.44386375894354313,0.17353476901741233,-0.3405519577619031,0.7768445979635173,-0.3425712972154176,-0.8879255483165798,-0.8068173363524538,-0.30542684065914877,-0.46292029944956525,0.6071720869048859,-0.4272757982006128,0.2998992813013557,0.7710073337020957,-0.9962644687084028,-0.6669013793923171,-0.948008446007725,0.06237347827880218,0.579166146432392,1.0355251555076221,0.1164940587487763,-0.31878781486105756,0.49561205968723143,0.2539659147917462,0.7033467201556232,0.6600226770280128,-0.3852009679024,-0.8491783809155818,-0.7834095468816189,-0.2933643758902268,0.48250695921727477,-0.5635911198996356,0.07164192802472122,0.1002209093154013,-0.8952500760614509,-0.21729769124431958,0.5002438948148734,-0.7623179338351812,0.2715469569440497,-0.11169800390179607,0.4190866824966073,-0.5226042468795478,-0.4791164004951065,0.9226790667895597,0.8788031552844866,0.022201088759129697,0.7650147977445213,0.2914390117711291,-0.1262772749850087,-0.8706961997224429,1.0490961981797922,0.3312642431057119,-0.28949125288373717,0.16742026173418703,0.3308504228596353,-0.2670318318909303,0.477459468695549,0.5405060857295867,0.05641013750511518,0.00014756105217582442,-0.11418938420640408,0.6462906490613342,0.3593527979018693,0.09015661318432411,-0.41473418199691453,0.4610487168867183,0.7146137589418883,-0.4171617689726195,0.026207116393822893,-0.5794198691556638,0.24704614717981022,-0.33705399606128594,-0.6882674184039015,-0.7637995940270413,0.9992771593323059,0.34080378150054524,-0.8014355671632533,-0.1813038085824005,0.07113508725597863,0.8552717685838155,0.6653931711782927,0.9552678737703268,-0.6628634877060468,0.34168205848800065,-0.918909424784804,1.0526829718950816,-0.7374246012672486,-0.28922408107933695,0.08686839063157567,0.9219854343252237,-0.5046308991375033,-0.5905553256798941,0.8910743595546694,0.9018857049296016,-0.650820125408678,0.24221936409455094,-0.47240536102058767,-0.17936247991857313,-0.9234513260912862,0.06893008572093606,0.9258937264752267,-0.29251168160036456,0.7948948138593377,0.7752827946291232,0.08431608717358349,-0.8030327018779958,0.384377172758526,0.7212711306675855,0.8858346285359001,-0.25693093487981516,-0.47851959345378225,-0.8079894158836768,0.21208407459489073,-0.3808629052830267,-0.44301084787416106,0.2879689754556544,0.45485937862396647,0.24586020645027107,0.742847089286224,0.9870694762828527,-0.9247859214707996,-0.13366058858304183,0.3393830276808124,0.2133120003132858,-0.44200557274611296,0.2894218220637643,-0.13729272605215082,-0.03155796814842149,0.4788695381460797,-0.18726145936982164,0.7065368134694738,0.057269167531668996,-0.08215934617657489,0.8377860816436219,0.755573198507734,0.4257658556585833,0.8398761502862002,0.9371371279057554,-0.3347957632840001,-0.48659898564690623,0.09149998226887707,-0.1373405307873485,0.8802096416854961,-0.8268033463807751,-0.11806606902945489,-0.13184663926858484,-0.09987939778740593,-0.7703242022908289,0.3809967510346578,0.5988248731053586,0.5956894482089271,0.8509250237336248,-0.41926127434357086,0.9064571835789741,0.4033698459511983,-0.20028316636275534,0.31047894248991037,0.633675804329165,0.7280927881286814,0.8275646394650009,0.18611646389504555,0.5637788080700425,-0.5252713283141399,-0.2967084290764015,-0.2533957357564144,-0.7862030878180551,0.061410164315058614,-0.7415100824653221,0.7779060588768872,-0.09187783237735243,0.24276040055494094,0.40322527445159634,0.8467995357956991,-0.6688177874131521,0.45950716918970413,0.5546686562905555,0.33145110685741447,0.7671027037613964,0.5093568998509641,-0.5269458828008082,0.49670351361084664,-0.5496188658330365,0.3748406458975613,0.8790876487639316,-0.31974441303257906,-0.3248159071185588,-0.6485557839587588,-0.9719202798917925,-0.18110191712145718,-0.13394889785058472,0.8807800481646924,-0.7889029990280427,-0.027264936992101196,0.9955757903883964,0.21123552967944348,-0.3534450516786434,-0.043608632855281604,0.14795317359404225,0.8406659206825895,-0.8189243596922036,-0.44448171635082945,0.9286767238211402,-0.17993272938189486,0.4939973763923844,-0.8975993955904247,0.7328711739613276,0.1094226626542758,-0.8541900727969327,-0.5468570613285628,-0.9083179289913756,
0.03991216553771726,0.8576446297252736,0.7045728957042854,0.21875803574839225,0.08782516406702912,0.5954382126378011,0.2744633979318518,-0.7380822145913459,-0.8397708601648495,0.6162485568141063,-0.8949422132141978,-0.1449984883436064,-0.68015778379767,-0.3260702773144972,-0.9440852226789707,0.6433251851926611,-0.12522545022248988,0.7410007361052509,0.4924455692439531,-0.11429715520905015,-0.20018418462574838,-0.40817357196953985,-0.3990640907775427,0.9595029886213349,-0.25249619460367567,-0.6930865232090166,-0.06970650369263387,0.42673455296365614,-0.025345293065754726,-0.6950748740603645,-0.727814445823042,0.7479397758005748,0.7617344864148139,0.6415473880712432,-0.8996216463292444,0.37556360979536535,0.7016840161916147,0.7659275929297596,0.9459984550483167,0.36616678122801,0.41997035190435583,0.04663262125501273,-0.01986206301236816,0.08948560969945901,0.3600066860362827,-0.7457178161264629,0.23340786947092737,-0.7961797473624276,-0.7387254833025557,-0.254883070189855,0.09197265053158121,0.9220783857274275,-0.42522882706198684,0.07978010555276915,-0.849140373256374,-0.15504343056717684,0.4062885260566247,-0.5640479057503089,0.39479649619193147,-0.05458613057391282,0.7240299338252285,-0.6290748383828919,-0.6751345921679368,0.5976466258834999,-0.5856229720963885,-0.01386315230908495,0.5321601559799146,-0.1639481763801188,0.11231791238962732,-0.957082941246458,-0.23033252919996722,-0.8217955834593152,0.9512289979847961,0.5939382156871453,-0.22627526553882765,0.020427166457875238,-0.6689808006926224,-0.14420237200117092,-0.017378050091319208,0.5789552322738056,-0.498398379432504,-0.08299079602583515,0.17553276105790672,-0.5500949593831517,0.24371380234503204,0.05163887971103098,0.2641254607307879,0.23521534826218926,-0.7796659796163861,-0.8305632639530751,-0.8197107964749103,-0.9448317791264131,0.7868240454840926,0.05461733438484165,0.5553761765886192,0.8129788063611706,0.7816101323362693,-0.022460824186390768,-0.9835649757279883,-0.22157401831146137,-0.8676673422706389,-0.040546617210091354,-0.863858439557023,0.8514855863148545,0.37584015510156116,0.9744999574563624,0.8912671230476155,-0.6439340141971712,0.08795542992328609,0.7941149883056917,-0.9792612233613474,0.4112705448891105,0.39752388387191084,0.6931186719593727,-0.5794741973766213,0.7874711676148505,0.7882613009995135,0.8886485052641457,-0.8952232927199497,-1.018990901557889,0.14053984996788987,0.2852779389997713,0.3238629159292111,0.35077818692931545,-0.7608185282526955,-0.7767921725098024,0.6144441204895789,0.015176180701552397,-0.1601294950959715,0.6105958973338944,0.943246668778318,0.3011991578159374,0.11133597024809708,-0.1516108572770238,-0.2638110635674733,0.37424899205130724,0.11547348977647776,-0.36922029080325824,-0.5771397964395713,0.11373815279063337,0.5906827557679082,-0.8913342709427265,-0.3928859524646682,-0.6749573397744122,-0.035168824073184904,-0.1537146087909514,0.45530926665228405,-0.4750403355080751,0.7448961983636558,-0.1316900358295781,0.8086734750214707,-0.7776678408241995,0.4001768979266512,-0.11145659897206861,0.23515977894959167,0.7962409358219261,-0.042618899773307524,0.46400924649521946,0.014977081784964307,-0.20098907398370283,-0.004977850056738624,-0.9203726732805151,0.3142317142088723,0.15323739596888328,-0.6766464146220823,-0.05864188580490182,-0.4085478387961543,-0.9438234951701787,-0.4142369534362702,-0.5240910698247456,-0.03324906634771674,0.09638601049338691,0.44331537437231855,-0.8742434419810365,0.3425816978933724,0.7480409901698425,-0.7651066482968097,0.0700297999178096,-0.4762499369803339,-0.7279012806319061,-0.7779321791789984,-0.9405032739752919,-0.8385989671442172,0.35575940047726123,0.2568946249716183,-0.6643260731999163,-0.21841358202348848,0.6734763694551699,-0.8495559241160215,-0.07727999643966461,-0.795729096137687,0.8766939304812166,0.37281263226848965,-0.08193552342597621,0.043551286833839464,0.15115752746390143,0.7728141519679281,0.3477332610646853,0.7914545567884649,0.5995496644305068,-0.5777734495178473,-0.0051664431175741515,-0.6849866216571602,-0.5156311283021946,-0.5710578433919631,-0.8727190356061615,0.5820675146801962,0.11837875473685457,-0.1240816014113338,-0.025480426848824362,0.27836101102689614,-0.3815695166962164,-0.635979003096148,-0.7470913465204413,0.27737988915361056,-0.8087669035527544,0.7273566058837323,0.16782639279478895,-0.23601891302518374,0.06633770059781602,-0.5383816280659353,-0.6547058896849933,0.8836518215555187,-0.760294996450158,0.7037782335405864,0.5964323640979148,0.045384073312655204,-0.708871053924506,-0.44324309395478306,0.2772474390054159,0.8385010829887267,0.055947673924628634,-0.04806796138199216,0.5596808007133206,-0.5812917534068057,-0.68393209026923,0.6103637561848649,-0.72022794046094,0.9138751044517788,-0.2766287941568908,0.39687158862614763,0.5057863245817124,0.6428559838766942,-0.048576552846178594,0.24496725963166982,-0.3837247309305452,0.6180572762622004,-0.4582726679379254,-0.566978118929239,-0.2600913196184774,-0.9024277985024558,-0.4130023076397107,-0.14192553747317493,0.9374060900037926,0.7121766397807863,-0.8487693113811806,0.23010368873661222,-0.06268590855000256,-0.40778067930437745,-0.4074375300336073,0.9559175549368294,0.5615795585001696,-0.2244391682075014,0.12315433289831748,0.04477404116162275,0.701599027448507,0.8565213695409142,0.7070881827470878,-0.44863474389565483,-0.20063126142088358,-0.693649696503411,-0.04441175810115885,0.3065234146676508,-0.6188625553658407,0.5105541121839725,-0.061617297765796594,0.2088738506672198,-0.38192341866192187,0.9465469191237328,-0.056056443143894574,-0.01643082737131607,0.2953006235251815,-0.7485958869230048,0.930261792075922,-0.5023127193245647,0.2850044088347815,-0.43209359941622316,0.5506153741700395,0.9323070530029585,0.11131085057245813,-0.856683309865879,-0.8037574214195538,0.9581006278248844,0.5842131412420217,0.9309813031979127,0.7582333436068378,0.6600838740387655,0.6669621172206014,-0.7630617152397455,-0.8070534897746479,-0.16728283348094491,-0.843812283352773,-0.8713670057930605,0.7836090095658611,-0.577023742189779,0.2212246793049324,-0.7236620457411362,-0.7679756351510663,-0.47045693796658816,-0.005653264511521131,-0.4969508543698376,0.6347955014264606,0.4713804513080334,-0.313512194479197,-0.06861060625544567,0.9750970246658677,-0.45494178557329945,0.5348888268106573,0.18035136748442035,0.8179132665690398,-0.3763239584417287,-0.6802112443420948,-0.3388395899822851,0.3874540440304665,0.7553050865432173,-0.3226649798723151,0.3592968632524305,0.5377795445329854,-0.9229058314747492,-0.33352985545708236,-0.33075332572705546,-0.4357636374645991,-0.32608034970288746,0.011826440271143693,-0.46571252621323783,0.9427906065771439,0.2791560085448268,0.4395232611328571,-0.3821516764314804,-0.06910919373249536,-0.7417506287695049,-0.7372432145445661,0.6408986461864431,-0.5942214948581823,0.8528270923518358,-0.7397598000076264,-0.07599148069158676,0.3875232962346795,0.7461019534097112,-0.5817496543921554,0.9107300460857235,0.8621067536806627,0.6881581056123234,-0.048649450933230615,-0.0805564924594095,-0.09566347758572402,0.301286001336613,-0.0293199574725075,0.5619222616689662,0.08629036027910562,-0.2039875923474357,-0.5647538174529142,-0.421163638925665,0.7315394379052478,0.1360251398754495,-0.6962907061637758,0.5365622778174068,0.4098003234244785,0.09622054938979469,-0.6415421482228697,-0.8038739606795083,-0.5414879005329984,-0.33597778947238255,-0.8412760705795498,0.6649241367883759,-0.5643535136831661,-0.07401240647436594,-0.07937135934182933,0.26601729658586937,0.0293034869852171,-0.0640324243929716,-0.0011356501344030445,0.7840880972358132,0.640813534997169,0.558723281304454,0.8567805548371593,-0.021365643054857997,0.6483715964823631,-0.5625057597848993,-0.16300493537763666,-0.7729409048730478,-0.09045055772212862,0.25151926530702595,-0.0879761363196686,0.1438560219371974,0.02409172132255863,-0.12108719983784468,0.9073406382899374,0.44215555358139014,-0.2966321099783656,-0.5467183701952896,0.6696601108749118,0.4751350700763052,-0.46843978164927863,0.6116092699987407,-0.028001343845895255,-0.5116374363697948,-0.9056895568643883,0.6145121911080642,0.09871012884007624,-0.23279768512938748,0.25141773022832453,-0.7292742796138358,0.23174236846679463,-0.6264743485489412,0.03446489451089998,-0.6022080500914035,-0.9685146044385333,0.8607264635713309,-0.08926012271049144,0.837887430870069,-0.35399928823662596,-0.028947636778237612,-0.3775857736435866,0.18170303040154842,-0.49129424753142037,-0.4866487768965747,-0.08688044512537296,0.6442036674756343,0.49208426026587165,0.16704111803917698,0.6851296226617656,0.08216145719953798,0.17085694779018074,-0.6086638815182702,-0.858057206312241,0.3613635932895524,0.022515333510817772,-0.00463842566911735,-0.7727753225317037,-0.39748899844198377,-0.25303287164988636,-0.8452319837671879,0.1203475669488909,-0.4976676883595387,-0.9028045318922359,0.6956111642337263,0.42573591697973256,-0.7081740383709194,-0.7005556683820948,-0.7122865755790391,-0.6118866606375595,0.697876109490747,-0.902948232610876,-0.3664426084162588,-0.5787159704858226,-0.5989999638185073,-0.2549637225077995,0.3147212795397279,0.5015837254986217,-0.4401060138151756,-0.015282995159130824,0.9781495649241021,-0.1792536321204736,-0.2900974556280006,0.15196983091183353,0.48347478074443323,0.3713488825269539,-0.26896708735610847,-0.6373053650683606,0.19630483859876133,0.5512335853659692,0.8516002174131778,0.6953409572929435,0.15401568227734716,0.4437719247403744,-0.9456715409550667,-0.6278353133546104,0.03587612078892313,0.630370642261736,0.432995968372869,0.6025285565994345,-0.29849615437802157,-0.002202202765987386,-0.7167333783670309,0.7754046992864436,0.8830052303852701,-0.3095676796799011,-0.11253150818456852,0.5267359845348075,0.09017805672259445,-0.5892238999317616,-0.3677377858906194,0.6575793756156254,0.39196248035266334,-0.41877705002608023,-0.6879255431116728,-0.4729797125120445,0.2776906887145296,-0.02252874339215054,0.5628583398144943,-0.004409885504317909,-0.13003364530964126,0.5061842390064522,-0.5792350204159036,0.6641574304564841,0.4115909090953525,0.7119256089250988,1.0001425231703769,0.6095358253952475,0.27213440480617723,0.7938245453114273,0.4896841618911152,-0.9598681059376789,-0.5979106609440301,0.4454878355109141,0.043252029724936955,-0.5444075311421431,0.4420578096564699,-0.06493684443902292,0.953891942384184,0.8590911511304065,0.0843627992095994,-0.7765715027263849,0.10809881832774793,-0.8122343805156959,-0.5297602523585716,0.5909374695703519,-0.539756261840811,0.40651272792200704,-0.8689384200184785,0.3922175884171586,0.5495617040289265,-0.8504689483585857,0.19677669976325385,-0.20093319019241493,-0.6892455055351766,-0.834381921804755,0.43935234168836695,-0.8642813414203508,-0.054420971226971974,-0.3596032073684975,0.6327600956817623,-0.8211169379155016,-0.08449420239426478,1.0942631124689843,0.7775051058211084,-0.30756166532978696,0.6252984936877309,0.8003009065604164,0.38433454190619426,0.08008078765720207,-0.3268208296257335,0.04838774682797438,-0.9312080129469549,-0.9292785442322162,0.9214668335704861,0.16008071259937295,0.7186122217981171,0.1614173787934825,0.9468606248314153,-0.9489181559742057,-0.36154435748195435,-0.6277961794493029,-1.0098760260836193,-0.6853801670289016,0.5100209284751057,-0.240281365022364,0.03236722627619537,-0.28732765748794376,0.530884848691085,-0.09629568431512121,0.0040074454249410885,-0.6496457226517591,-0.9178768259445246,-0.14026929340576572,-0.447857348288011,-0.35770048124331677,1.0195695114162695,-0.12044007678026082,-0.05090529242938764,-0.9343945688581428,0.9588015978901647,-0.9700948498902663,0.09040652149487607,-0.2334580194126979,-0.9978946543639029,-0.929849705393706,-0.9886197333312035,-0.281406406333943,0.5843573473262702,-0.6934417870551273,-0.486192377350179,0.3692459895748968,-0.7180435232082506,0.5944497467298029,-0.05250030827702366,0.7404759220310061,0.11023749387539926,-0.8999912438617015,0.1082389783554152,-0.7145542810254575,-0.7709974848235867,-0.14085386673987235,-0.067195488615312,-0.15362187661215437,0.8004353969439262,-0.34188283168929023,0.19127932319074378,0.7194105087511322,-0.42256819717081867,-0.0982800176990182,0.5809176909324917,-0.7544154635675986,-0.17253523932599624,-0.39890210076893773,0.06279818151884298,-0.23546161561533108,-0.9510983225642433,0.17954691281462948,0.4654922409018976,-0.7604822907635848,0.6408621465957525,0.6244485925461877,0.42281380869322577,-0.5959222203439474,-0.7999838632610428,0.9507705443221671,0.7837274627285753,0.02675297355180456,0.660931669809973,0.1346331936077359,-0.9148439256593165,0.5634117679349305,0.44275247916148164,-0.3259151901562524,0.0780139074637711,-0.39600665875171775,-0.2534513754108136,0.28258314079635793,0.7135530773502926,-0.8329134331083171,-0.5306849628913679,0.6665349522877115,0.6127101229817673,-0.35380340163298074,-0.3181332810035473,0.6080092360437662,0.8507419555414985,0.42811863289946234,-0.5401659901662809,-0.6331171351494089,-0.9748967487584471,-0.26560740055036025,-0.19531346959536852,0.016077847136028233,0.5324644147076242,-1.0073223731723226,-0.384797229825404,0.1414107759622985,0.37401297718964294,-0.05771193506309086,-0.5069468354541362,0.6209849264163597,-0.9718698676086095,0.8127053903028957,0.010792519811888978,0.3802245659799771,0.016803168127101722,0.06642797538607054,-0.8885282156583232,0.9934647498700375,-0.9620613311400632,-0.40499461695981,-0.805144991640258,-0.20336549087801004,-0.6678784463819842,0.7137359707109858,-0.7456568916752355,0.2425403640203417,-0.7955150824730325,0.7449678076607202,0.8405085118801454,0.8474057451478629,-0.3590084210653409,0.5766158514628461,0.743464816070562,0.5284576212549966,-1.001749890254503,-0.6928761731585397,-0.25306354579910173,-0.9753626953391956,-0.5083767980344355,0.7634442240532378,-0.571976042822982,0.9889687261712561,-0.02123182070856222,-0.004727708001098563,-0.06334719432146341,-0.3473972695713923,0.4873392221838868,0.4226864496892344,0.7119688523066192,0.26544438164323836,-0.07609890171142242,-0.9970809779967023,-0.23245498908629303,0.5766266096443653,-0.7545979430787624,0.4808761359182094,-0.5533314244544753,-0.7034096758305003,0.00045028208549202577,0.1074790507444123,0.8091535155182702,-0.5247045177594635,-0.1907751651858924,-0.9783236007405277,0.6559932927254383,-0.7622849779123566,0.5085228060024947,-0.3908927532857788,0.6067507142925029,-0.8534449817875831,0.11967547217758567,0.8033781518593786,0.07233052285321806,-0.6008823602705378,0.6275055891810757,-0.6247437147149602,-0.03899476678769598,-0.6259411999008015,0.18246353387719916,-0.852009303077155,-0.9337623479228165,0.5120404823931565,-0.726746734175046,0.38666282203450314,-0.6250662805450268,-0.9970980443537997,0.20898448160236405,-0.8777930771456516,0.5427540486625054,-0.6205314547612699,0.03811311963601778,0.8315151344393323,-0.19776445374070645,-0.20098144637305634,0.5540529777686558,0.1979869296810678,0.6578554220794799,-0.9169082630778498,0.3489736069460674,0.49248964467483747,-0.1875445621933889,0.6823811661249068,0.6181136382614867,0.32585982089668986,-0.526714573256233,-0.8588764338808317,-0.8910112592669401,-0.8190833593486428,0.8407645247028193,-0.4548851029751837,-0.9310473134296846,0.8666555817079225,0.396136566310914,-0.8465586855012814,0.5801792370739844,-0.6142652706190572,0.8964022488908092,0.4527460660563649,-0.5953545945856598,-0.13574219807229326,-0.5585235134426734,0.5241363269281893,-0.046676298652406745,-0.22719889079813482,0.12170582650056505,0.13353918307341295,-0.17368070803020585,-0.32469274842858864,0.5227226911959129,0.9902089620022483,
-0.9759915331637821,-0.5413540767735465,0.13269107126136004,-0.681492455175106,0.8256289177813763,0.9231126491563699,0.6777166529632741,0.32233603252768983,0.10302624040594743,0.3890662005278691,0.34643284401330754,0.2625074411913846,0.8656767610004996,0.8388910532357834,0.7585675292823653,0.7750415567954128,-0.07658601914267749,0.5275684450075124,0.4103951040249909,-0.6973099109699528,0.777072498528838,-0.23027862072410743,-0.6564002745217239,-0.47441114812506235,-0.4400309801151798,0.9403307824475915,0.911328949201627,-0.5869634097133876,-0.018804100858604622,0.013433726403582646,-0.08774410916231967,-0.35758743642346213,-0.2395087119081647,-0.6630253007416755,0.4229273844950332,-0.31730146378880425,0.47056743512617016,-0.9862062558708513,0.029050342124502342,0.9044547098044978,0.39589005602308236,-1.0314243959241984,-0.5825357397028073,0.4452914487760148,-0.5539450147256136,0.9488400468147802,-0.5980277010924203,-0.4336688374886189,0.5159853793718037,0.8180885349589904,0.05570704420095729,0.7931609169527496,-0.44698523939805357,-0.13838861619388054,0.21004183458396986,0.6180205187881194,0.8202138530347938,-0.931710769156562,0.5835489441467245,-0.2649226896822974,0.040630922727826535,0.9398374898891166,0.5620499198788909,-0.14156645779965046,0.48646733454944513,-0.3883675136172724,0.3632901157096053,-0.6592145739244109,0.43704745556768876,-0.8892671576603781,-0.791293838675603,0.2545517741732675,-0.18254734066357317,-0.778228314697799,0.9171746077294104,-0.8337824809632362,-0.7547254911189735,-0.9517299050511661,0.9855061259646929,-0.8492794822968757,-0.061353035887972585,0.9893495624245976,0.9226296491553789,-0.4824005919739178,0.4979290386482489,0.9089704265180567,0.26957619712944414,-0.875521775335663,-0.9393862551933692,0.1931865747091306,0.46977654210214037,0.01849619170287999,-0.6428753651138337,0.9304653397802738,0.8577725093849975,-0.427304691753005,-0.2377629203424571,-0.08211183435523686,-0.34067309495444764,-0.6664916124325755,0.9339257771637308,-0.18040365897922395,0.09882369856958409,-0.40705408845242536,-0.2548584755234009,-0.8534570955785519,-0.9227162403959799,0.8847974739509041,0.2729441370719332,-0.3338214599125562,-0.94007654228577,-0.1015017102155964,-0.8874610053231728,-0.7048159458057788,-0.29879252888457297,0.6376496796842421,0.819047277246556,-0.05623037090862149,0.39796560907697315,0.38634125889185766,0.24400235815978644,-0.12697289713815688,0.6612341765910916,-0.03862112912174979,-0.7997588632982082,-0.03930942987435413,0.5315787669405246,0.7986881096241125,0.0853797398601328,-0.741742656196617,-0.7954773401034657,-0.9860807343146789,0.9002512490158057,0.7814358224422607,0.8852106103078046,0.9116637834872715,-0.2621386234653529,0.5170011068232545,-0.019791536003362475,-0.8603517123930613,0.5109779426888541,0.8693323481202591,-0.8182921513038486,-0.9449101943165636,0.7116389804158509,0.9663468193373904,-0.49360021263600934,-0.6206723186194824,0.8125754439368268,-0.3447581868508824,-0.6154501322236601,0.2552406348248497,-0.35954529690584885,0.6129795677167418,-0.5219080445055433,-0.7270727066117478,0.9264445665088353,-0.8735926851165124,-0.6876905594864005,-0.01309515438551544,-0.8577159468517614,-0.9005733021240448,-0.9125387259296294,-0.9671751260472091,0.18562950551914348,0.4897842961114569,0.9960246718653185,0.21128451109678825,0.6172395727781255,-0.77295047040116,-0.5997973448689937,-0.9083671120485081,-0.80748074337533,-0.42676216621088836,0.4887274266541234,-0.27788732993660353,-0.9888078167491912,0.7410208547456134,-0.9905701811446247,-0.9382002824169823,0.8303126611373227,-0.14220306418871634,-0.6375173376634624,-0.8337402436204682,0.35426747815321225,-0.9458797726667335,0.0890286045142069,0.7769749530613828,0.7015032526475911,0.1930851404915692,0.47643223807280055,0.9051677635831522,0.37224384382192616,0.44980390841984885,-0.9299214789883088,-0.7834963215976976,0.9438335231070549,-0.6966213445283482,0.6168580435713895,-0.8688635692867501,-0.5019614333163731,0.03572703085280084,0.009253309997615151,0.34474298706511225,-0.7349649958586519,-0.18467546128660894,-0.6410483561384278,-0.2741631442511396,-0.12289672023511304,-0.916111904025244,0.8156153697737669,0.2344348101006675,0.7875032843825059,0.5211313440801135,0.2262742106247459,0.16057129835522727,-0.6516667117053891,-0.36827285820991074,-0.5591279801539002,-0.9275025095124508,0.7048594813204924,-0.6885229941351256,-0.9785354594748787,-0.3041408540480537,0.8121821365675497,-0.0051864227256579465,0.7434436944598768,-0.92439686806932,0.5838428548260355,-0.6782516053013353,-1.0115267461500839,-0.9726817939886281,0.6594125316301039,-0.9984430971304349,-0.30946127791239214,-0.7707224435961684,0.4052360500269058,0.7703817219340039,-0.7349595392723179,0.38838233094595814,0.06370377967223219,0.6340413449619821,-0.42821680375354854,-0.9878593795621842,0.009797889668793277,0.38441496156831,0.7750071209824254,-0.6114436456896687,0.7799696537299706,-0.034659424075937396,0.8273865287479707,-0.8511107104326434,-0.3137334177499649,-0.30417036615153537,0.42465057483125257,0.944035838572469,0.8452457968988266,-0.9329170323265539,-0.5325228972777099,0.701015182278916,0.4858129015602082,0.8643222927880606,0.6502955036036443,-0.6977068942259638,0.61889923300515,0.26479647897552283,-0.3660704497934692,0.4584839773001956,0.5163144817565973,-0.22376737015833628,0.9177161540501715,0.19665562665447964,0.2656718864045037,0.7388181700515956,0.868587892776923,0.8948840645478706,-0.13701238722118442,0.5349957002380331,0.5304535095088707,0.9928038805297104,-0.6821646093082407,0.4913611461974714,-0.6913302192340998,0.7932267311367881,-0.12452475156002388,0.7501404939735477,-0.7434180139784999,0.5305213355165526,-0.1506295370440712,-0.26822343945690846,-0.46049646249648973,-0.5498303072523615,0.4544365440532991,0.7198920319052867,-0.5183504462374855,-0.6441610573909327,-0.2788339467067919,-0.2983316344008281,0.3878031810637575,0.7394471340359343,-0.4384984449173124,0.21892117322264942,-0.025035402713177203,0.6002883277411241,0.38213709576918303,0.2325298897945764,0.17318359639684577,0.6254665272607873,-0.2672914114256568,-0.04185828551793929,-0.8901903682954793,0.22121978734225675,-0.060883829168118395,-0.21440320706426516,0.05129091765167051,-0.041238856957585515,-0.8842840865187065,-0.7159536180613432,-0.2629779718141858,0.806425746391307,-0.35409581765372167,-0.2194066284393748,0.11022410101808716,-0.6805036271410172,-0.5235270375117904,-0.10313998531064816,-0.6839202610763401,-0.1766720288921618,-0.08016594617650072,0.3865528337821637,0.9392748063060297,0.9532771241547072,-0.20395532056068713,0.9152005207838301,0.5554451111481497,-0.40647467160905415,-0.24536383330686018,-0.9775448646134611,-0.21415838601536236,-0.8069254855982004,-0.8473862108637327,0.8754192579852962,0.714833381420718,-0.016162810852949336,-0.04936534618721303,-1.087003616410039,0.38861604257957827,-0.5709221606342666,-0.6444573993627498,0.3163694834216032,-0.3729597869073136,-0.9007975750397091,0.6471463964125126,-0.5246750375872945,-0.8162480908317736,-0.40085978748243145,0.2597089951418561,-0.3633551850435469,0.6606122929368689,0.13410806389516908,-0.6277889356840591,0.17653851910161955,-0.12366455387913847,-0.7894427048908716,-0.009526768087678716,-0.9595213135898152,-0.07748097831547006,-0.47764516326779366,-0.8721114496561754,-0.6893469597496945,-0.06953220760360086,0.03195974908560974,0.8549654894028668,-0.27726383234576213,-0.8744843234207852,-0.0681255281196146,0.7205177083973858,-0.33376586416874177,-1.0341256337935045,-0.1720599484451725,-0.7993400084308484,0.8998155778447098,0.7019002516873397,-0.21204692830239186,0.45948560084593776,0.7304510759405242,-0.9111307158114528,0.29484902091661697,-0.23928617513342315,0.6724225310625024,-0.1468328307022819,0.7446006919356731,-0.09945337922080522,-0.2465294912355663,0.042693605778177386,0.320800072039068,-0.7171924214505858,-0.2257127097628382,-0.3621245116959642,-0.5766969850384285,-0.5980026960220469,-0.9642172555953711,0.9158654909749625,0.08496369946823307,-0.6823905002477392,0.8084119830855495,0.08078181879640031,0.4716532004554508,0.6918330134403091,-0.958820543915328,0.45199819273486463,-0.46924294982055126,0.7605101532831355,-0.7169609260358705,0.23995120993382654,-0.0759435801218467,0.8187482631197698,0.08206333763601206,-0.025837948763634457,0.18733544943175207,-0.4766746167407714,-0.5263148093478692,-0.8596806545665243,0.09918577002404395,-0.4202029690418879,-0.5902790601624331,0.9775965278263961,0.4229652085891945,0.04733300900136411,-0.7353485972816243,0.5217108581348244,1.0052630535439122,0.6233169822448184,-0.09079939848593681,0.6036339441307553,-0.8185801471184923,0.16588872727326714,-0.646176006360802,0.25149233620990025,-0.62754441225051,0.8991893867692509,0.3543868766572212,-0.59659042092748,0.353464687339445,-0.005870442123476172,-0.1077535373059948,0.8861438264793289,0.5747674444214557,0.22496972645861613,-0.7368147053386059,-0.8562805856533457,-0.9687740510458337,0.25840310153853496,-0.9852348317754158,-0.5718968288539618,-0.5271303292023475,-0.8307563165820578,0.36946653433946913,0.8268701143008798,0.8194777678384271,-0.9146513875530144,0.1957775684339264,0.14234237471148348,0.6771377710330285,-0.9108614924941852,0.2505197568088769,-0.43631682107038317,-0.3220459075008243,0.2538976928797364,0.3410443751271745,0.14351265932341734,0.6754691579662389,-0.8458233683128573,-0.21897745809412159,-0.011240605978951627,0.17616643230855455,-0.23976201400850727,0.5483643300526161,0.9579084055772144,0.5287299746026581,-0.15789481781965467,0.9614405536423222,-0.28262723860030814,-0.3161589540796472,-0.7666185026314275,-0.21132412808999584,-0.4558602137513931,0.2764501668299399,-0.776909857203758,-0.49103602350251446,-0.7090195437062511,0.7498340135857086,0.41931890866681215,0.16617015509172495,0.6559676379875797,0.22527415072793272,-0.2814897493417241,0.7302208368042075,0.4214186859484933,-0.7594066091440701,-0.1281709158651373,-0.380990128349752,-0.7276760529185625,-0.2992209146660767,0.9200035394106549,-0.25668851150989425,-0.19382879938989922,-0.27258790635038266,0.9063877895937775,0.3593720322760168,0.44396250610900795,0.5256852347076252,-0.7594523953847724,-0.4648509106549682,0.06109848358355149,-0.013136307307246079,-0.7761079800699889,0.5056735174527327,0.4426384185723931,-0.27524465239127166,-0.25460227431117916,-0.6179920516775042,0.18441494161055783,0.9221027623707838,-0.7767683321950575,-0.9747084438062477,-0.2102590545037986,0.7645779335475623,-0.19610388751715058,0.2596462516825229,-0.7187429701486655,0.22403337980880034,0.8944132828087492,-0.503509928273006,-0.9612646974416632,-0.4914896215213022,0.8136594766486315,-0.19369591340187875,0.7403627615900513,0.9243217225966002,-0.42295337346668244,0.4212933224159247,-0.8443412024713542,0.6976632047797616,-0.3409374338669043,-0.5021980120556337,-0.07660019161939276,-0.5543872246595575,-0.24696815012583997,-0.0026434601274646016,-0.1997975792058192,0.06336525609021092,0.15586065681059386,-0.17275681900583476,-0.546377092032094,-0.022074782416334402,-0.07542961295560531,-0.44748961786370867,0.4967015260342538,0.870309111194979,-0.820548667897905,-0.26346465924200424,-0.5246701965131466,-0.963823707210946,0.3468398691991167,-0.9375698989296912,-0.13081123635726816,0.49378195689631893,-0.42116318295020666,0.8234047921697605,-0.9909841801219051,-0.4330450902332542,0.8805665083494669,-0.13185728069667782,0.4637656232407569,0.859897252070637,0.5848544723845783,-0.473347600383082,0.23886567046673512,0.11132719358527661,-0.8567644759080576,0.2654345067568622,-0.4343811134998262,-0.532490695532525,0.7527288660328514,0.03920841572559278,0.07683565249836333,-0.6049530379146613,0.10410995088526809,-0.044653355225429125,-0.9434584179182472,-0.9093754712650078,0.5840426241619614,0.056336487304346594,-0.25441171697925224,-0.06686194423090613,-0.8777152148467225,-0.9205960499743184,-0.7893698551834711,0.06877028107963502,-0.8371639942671536,0.05327117546222173,0.5337615817625869,0.5814260106056292,0.1993905535907513,0.5358986324964745,0.2785372850626013,0.5321006993179271,0.6960882417227291,-0.16743045534813034,0.9740592433462135,-0.5761035550138462,0.41200335838556285,-0.7787015570128698,0.5238520205360966,-0.11154177977349544,-0.5126855191019364,0.7203562139220439,-0.5343373512412068,0.6906183450188609,0.19230152086972577,0.3127799523039445,0.45155638833457534,0.918867243634027,-0.883790224005876,0.5559347727794343,-0.07862301162155227,0.7272542706457544,-0.7388795934450182,0.6860795225616093,0.7978195207052328,-0.6104307692738937,0.5980179247383224,-0.024574874286649676,0.3843692660814987,-0.43836971059860874,-0.876306141498456,0.3386711312449906,0.509443106227628,0.7700951454343441,-0.3980454196809309,-0.29236618591257596,0.7049587747574915,0.009111087248117489,-0.44293337938452115,0.9185850572242216,0.6698386586735641,0.6458972206978928,0.4816194594223869,0.5472343723347307,0.14431126966128482,0.2895571529340281,-0.21421470007597787,0.5819789734552976,0.06767781468385303,-0.5874157448388247,-0.7324007715087334,-0.6757697915251143,-0.08673206704617169,-0.6677345976678191,0.7385147999943766,-0.8503371012147954,0.00476387634917011,0.7738671894098409,-0.4406833142037418,-0.5316081609653128,-0.9944055683109334,-0.3354422099185537,-0.3471200783026442,0.9632349760280821,-0.1885049686163336,-0.5436688419339213,-0.9942978474566133,-0.7624253814171207,0.6243946064559591,-0.8263032026438222,0.11429643848614579,-0.6970609235145017,0.1585512561484555,0.8666272866728381,0.30193167662201004,-0.4596540281848862,0.7112256348469408,-0.6782046720641621,0.9065102905593232,0.8367319888573046,-0.9547971769032706,0.8593713342397304,0.8732434075593724,-0.48807011178200316,-0.39356768540235076,-0.10306069011718516,-0.9718618464790724,-0.4170819192323597,-0.17419094347823014,-0.9042904231356006,-0.4081151390406088,-0.9042373312290097,-0.541026848008084,-0.06999660169263677,-0.896201302891412,-0.8736773286873878,0.6083437972621586,-0.005817526863341138,-0.6764660296476104,-0.10169170762585611,0.0941839359665672,-0.5764039223228955,0.08005198711120573,-0.5305057424490783,0.05190277535766841,-0.8780303749014924,0.606519631817777,0.7700441492229071,-0.3535679843235559,-0.6569959566270483,-0.4692334703372843,0.05067673073109554,0.19530304682538277,-0.5946618943368931,0.027671338944274176,0.43541275111310823,-0.01820175554509973,-0.7508763216438343,0.8320353802159901,0.7340072742823556,0.18729698773683845,-0.053020337003986784,0.1144951612760432,-0.9351338933184796,0.5261391180190433,-0.682269329479047,0.03385913681191477,-0.04411235882912812,0.03062974060693927,0.905297982454661,0.5999406293857881,0.5762293899677357,0.01993183872734932,-0.5800500840428829,0.495530803564614,0.8861898050802158,-0.46118319999345697,0.4825948157310768,-0.004243839397745912,0.2601166047160586,-0.973281665301084,0.8878872162787089,0.26341562205003094,-0.5243435606611556,0.0857311176448969,-0.658020109787306,0.49466540341041904,-0.9553447558211643,-0.0006676780726027065,-0.7380140189929352,0.40270346232225873,-0.4858932604098414,-0.7420622063755633,-0.6344218241983581,-0.49719274801437563,-0.39759267513791774,0.008047801074428262,-0.2718001349538228,-0.6219803104998516,-0.6452376994122384,-0.3570794169052933,-0.30849137644089253,-0.5165674617535394,0.6158332332948315,0.30616067067114017,0.9146572314256982,0.8020190258455899,0.3508355426053764,0.9432940562429792,0.4501247018764305,0.6395225016013373,-0.10846037010714782,0.24757080007607368,-0.029795942230062877,-0.77104240462941,-0.1592161447474416,0.7302854474764049,0.028546501267793012,
0.7081006283580369,-0.8255843118125821,-0.9108453571670287,0.29314075337683865,0.3544929307315894,0.80314010079374,-0.2965295847537446,0.5629278053737505,0.8893141132214963,0.06695932120318271,0.7540571308779724,-0.06353810442307273,0.7814265974874282,-0.14001367034879175,-0.2449877898360906,-0.8065410379413116,0.9898446368081137,-0.9210011469369606,0.7700154409749422,0.25369140319762695,0.011179816777901586,0.7711793479427853,0.518008002977538,0.25575459283116864,0.24193022414081256,0.46754855832836006,0.9486052588890004,-0.7698865804611934,0.2547093114457686,0.6178877635223592,0.16376328212407154,-0.12174187861779995,0.4199043672445224,0.4025811585533261,-0.8486205700882103,0.38389225641884506,0.5255361740856304,-0.21464735509266566,-0.08738691886381605,0.3965476613328823,-0.17842269102526215,0.5609818606807235,-0.14835051811456001,-0.6383531867018453,-0.6401165986604206,0.02721008857607355,0.6302220009957981,-0.1888963582856708,-0.5233586644170258,-0.6591089942173833,0.9461956698342058,0.5907132513171416,0.9093206393349293,-0.9965655881867699,0.9611449431338099,-0.15771189263519148,-0.7217356521940308,0.12212932626986928,-0.4186229972825284,-0.9545584992832483,0.5517934670994074,-0.3629015194861622,-0.5351955409907849,0.2195325682989937,0.6883413666229161,0.3134574402708436,0.419127082635942,-0.18291997289212913,0.05349815522781989,-0.693495355287313,-0.23330047652132307,-0.4271345102364911,-0.9455696110217402,0.1445546818195341,-0.5566255276979614,0.11505855957701382,-0.7326020494166678,0.33483094206756614,0.6774158804041839,0.05876005799350903,0.7633557723928746,-0.5903540042448445,-0.13959840917282484,-0.5106494514199242,0.07521299799480219,0.46039323093647977,-0.9457719436922354,-0.29208371380884635,-0.8219591602225558,-0.3507998007940871,-0.13744503596908014,-0.3022798510168695,-0.5969261680595523,-0.6317269714557897,0.4668485575696668,-0.5220490045168559,-0.31102360131495954,-0.2987041941645198,-0.9838691527670135,0.9365675572797398,-0.45601037989181464,-0.23917960056528015,0.6658423950042666,-0.5449439431325934,0.7209761373802233,-0.3151320535847712,-0.3578230157320479,0.1009934344019745,-0.9483688987638272,0.7245061203656142,0.7372000289475975,0.9083242257708952,-0.9181391638369023,0.6089631064636405,-0.8228241136641685,-0.6259182810226418,-0.6967470087433927,-0.06935895235859312,0.06756977262370979,0.5979150736364192,-0.04645023174264241,-0.9948981848171526,0.13780434570912528,-0.09749853135894415,0.6324812224207901,0.0785010931683859,0.34208755565207016,-0.2789070882011217,-0.7016398240539314,-0.8104304303441484,-0.3190956939472968,-0.5593763867517418,-1.1030563448476078,-0.1917547541295717,0.010819701934052323,0.6999015339534502,-0.4242037931636855,-0.29032085562854926,0.13629766009924804,0.014476555088581478,-0.2913966293435373,0.6988614608486536,0.4976726903888946,0.2881281291977027,0.05815748337838261,0.38551870912506037,-0.2526526315253635,0.24400089859998061,-0.05880622036009189,-0.8194480572177391,-0.7565796883088357,0.6686677234796473,-0.4568655618766924,0.9047427733775323,0.729445017871747,-0.13737238049431008,-0.5857054668933468,-0.8945465976352427,-0.9903811288506101,0.07735286575845975,-0.12988989046654856,0.6068845201901276,0.4177833807784552,0.7418045511116644,-0.9471040599888134,-0.4161739335694268,0.8365404985413809,-0.04489626582184214,-0.7601243817312091,0.6667806945185619,0.7817473908174322,0.8010870139374117,0.051284995742410557,0.7841666789298674,-0.4265665749864732,-0.0223342631657456,-0.7661255322345493,0.19327794390068043,-0.5338419894080054,-0.7480345628317806,0.5362393193115749,-0.8202698132493066,0.36052339414131634,0.04052077447908315,-0.0569199685301253,0.4415160152168093,-0.9040613067463829,0.8651677575431264,0.7210590294509012,0.758698139068852,0.7836702614535915,-0.9002897831990849,0.6022387262251924,-0.26430527786743974,-0.3721959467131215,0.296522706942393,0.08912930905473382,-0.8690469108899654,0.2501566675832949,-0.603130669068777,-0.8095899631670209,0.902911359333016,0.8967749159590113,-0.7707656601324715,-0.5323862258021973,-0.3038812012274577,0.5918434492516231,-0.6853876375553439,0.6467103257113025,0.24936687188537637,0.16546108900401077,-1.0526464393088288,-0.4947320972812749,-0.3263827903042473,0.13966615171833616,-0.11444445981650594,-0.32571689966002043,-0.16580002728312138,-0.3475630554586951,-0.20816822403024196,-0.7165070529931471,-0.4832252490662674,0.6493881878630525,0.6765868426072159,-0.2601600989058934,-0.7856470810721718,-0.726920332767745,0.547418323429034,0.7509610040501353,-0.2576182368660085,-0.16094435792238498,-0.9155772072962154,0.4031901158492768,0.5366996445967873,-0.2787687166167895,-0.18912634062300623,0.898743205575581,-0.9881932450612729,-0.3919907774018567,-0.6267974414132005,0.2981924015261449,0.21625187674259452,-0.17946258095107617,0.5939498127748323,-0.9730353902266418,0.8580659696244237,-0.10954542363559584,0.8353502457946322,0.024289931399668015,-0.128030604197513,-0.9045646870650041,0.8816682431740495,-0.6421833841384343,-0.8535573321925958,-0.0419536866252536,-0.510554360164138,-0.39605096114582716,0.02256270906439775,-0.03923732408187208,0.2475430749121804,0.1155853743695591,-0.3164866761657685,0.8151690301606841,-0.050618185581503085,0.8231162800480973,-0.5258207790510672,-0.8874137298017778,0.952474761354261,-0.4471391473511412,-0.3094503164534533,0.4023088735386862,-0.23656518877035615,-0.40759415745093,0.9595209901665209,0.25193471216812025,0.13029045724269545,0.7277605303531434,-0.11540852343632402,0.7965161054883498,0.3944326597460255,-0.1670091194823371,-0.04695461721221234,0.7346371297568662,-0.711003294706677,-0.7488848460963697,-0.9166161896476588,-0.5791186812922485,0.05110099314531373,0.3655016993474503,-0.9056432938874668,-0.07433977364779995,-0.3169571551302996,-0.6051574135204704,-0.7419876679905204,-0.5673434881548467,-0.5123369111215857,0.729309704781845,0.3279208043676032,-0.023706227415606813,-0.43928353959022487,0.30946490285713274,0.9356727551498184,-0.6999865729050692,0.5583732283983799,-0.21965182575485742,-0.6243115614890289,-0.8856646385399984,-0.6923125336289992,0.7550140979146587,-0.7484834739842909,-0.3239372925630695,0.4375312232494384,-0.047784409589980426,0.1492528813382712,-0.5590228686614703,-0.4083955968883907,-0.17513103070996106,0.5252933103011873,0.7504320257939083,-0.18196383041386538,0.8344342587827402,-0.6894339215198182,-0.8677703503414286,0.5635571038204723,-0.9627850652537878,-0.35501787152545256,-0.6446206966682251,0.5479797381857227,-0.514533783902909,0.09190630983241103,0.46789257163439213,-0.3269858439085312,-0.0345087525520345,0.12066881926362265,-0.5230162036003427,-0.5154586167278066,0.23433844569235746,-0.9588238620078392,0.2744172428958154,-0.10419852858971282,0.46683138618620335,-0.7334523617999757,0.2914113240731409,-0.6944746182993491,-0.863886629974279,-0.5753028961682887,-0.6424581794281493,0.48020943369689695,-0.6721571122619044,0.6321224209924,0.2719483526767437,-0.9058317837067581,-0.8237511299182664,0.7851922775534994,-0.3165582026657622,-0.418263070728045,-0.7807273349858024,0.10581504603109067,0.1219315370904293,-0.31697096693738114,0.8887765235647784,0.21806076111134348,-0.40340346627782636,0.194111559409049,-0.40842913710620715,-0.9998358344542099,0.2550619547284367,-0.015689545241503827,0.5891887875877572,-0.3385814343768116,-0.22017322866534964,0.6769899560569332,0.2258963748812809,0.08910427773830977,-0.22713055742282062,-1.0177712109934094,0.6524190894758849,0.4379875687091028,0.8784966961130982,1.0444120545078264,-0.2931929947030296,-0.6955435865124008,0.5139076284844141,-0.1409887638433166,0.788481737629681,0.26042288895195026,-0.17055090028133899,-0.7408353098479393,0.27467763287822056,-0.8195222931059534,-0.7363246208001543,-0.5213763143206418,0.9938230504282856,0.39454989820752745,0.8887966257608388,0.6077937010598724,0.5143684504117086,0.8327595264916802,-0.5702937708464818,-0.3272346909279928,-0.1643424629699122,-0.5463642808739999,-0.1427687334745202,0.7761806066278266,0.2948799216738562,0.5579696539806784,0.7606509322823494,0.9676985859515203,0.45121656213528377,0.6701887165139716,0.12019361067707802,-0.12591994133147244,-0.1932241096968186,0.7026659749836286,0.7267996909854156,-0.9444600495532006,-0.8574118933658147,0.10179017558210673,-0.21425304254964486,0.22998414128497702,0.9074686659634125,0.22699761180012223,0.6454391992470155,-0.6576307407135538,0.03003815219084764,-0.9367714488616649,0.7079840829061768,-0.6254036436804867,0.20004253271749722,-0.16502154232858945,-0.20977599346369397,-0.3509327336795367,0.07317202629149482,-0.08275848401722287,-0.8071503330610805,0.052141933236758815,-0.72799208634622,0.322342704688422,0.9200330057592297,0.8878098855296758,-0.22007916350605516,-0.2809265371643586,0.6532901158276786,-0.9064983138419426,0.7175319709842467,0.17287605084441743,0.6431162172233265,0.8963244660751255,-0.6422021242074194,0.5087653442824601,0.7353918934247253,0.8278289454225068,0.028793296966631264,0.9912022383973137,-0.24300153107906952,0.6840512223304502,0.19977317841725942,0.14229258162457342,-0.6239920088503138,0.3749610061266557,0.7903801912100281,1.0842406561862974,-0.6578352770929654,0.4396561319166627,0.3645955201864721,0.28935043288008117,0.19906214587841348,0.13298620189942456,0.8122522385523301,0.1312869294114991,0.0020542209429053066,0.9877732551562299,-0.45269373480277325,0.5891677984417386,-0.9668431808553566,0.25966463504647397,0.3908005881146963,-0.2596542705565812,-0.8623767468756613,0.8567043574070289,0.5518215460991881,0.06034265135612287,0.9502419182426386,0.444985555751215,0.7309113442112214,-0.7091618626424147,0.8210065182071171,0.7822436010897026,-0.4855302959088807,-0.5162081141052539,0.1469957447318408,-0.7089625447551272,0.6707166810168758,0.3101224440424543,0.29192735272344544,0.7644062614084884,0.5504436664739594,-0.282049364685602,0.24310968302791758,0.01880334773071308,0.7776088313825358,-0.7409454268127884,0.29953935525134007,-0.9435206412544737,0.3882451841669985,0.10712459541750115,0.20500909811680268,0.5421886314752411,-0.6758465044517739,1.0275066105267436,1.0305557363703601,1.008890729539323,0.8353076674525943,-0.7080152503052817,-0.5431089068206088,-0.151271242342508,0.8187848515453132,0.9767925254343202,-0.06680329137573943,-0.030481937424443148,0.08949294907025875,0.42173619665272427,0.12762125572621244,-0.025607617675587658,-0.5020751624846963,0.4340740061414457,0.326575923092788,-0.536933617054436,-0.35592221532120166,0.7947410181586342,0.13185004274115805,0.7892554886544065,-0.26395136089760407,-0.3607253621928424,-0.15853488160789903,-0.3156539741651737,0.21862491634584316,0.7134027882956043,0.5944884423528719,0.14462683322407388,-0.02788966779636593,-0.7866219588510993,-0.9467843028607003,-0.4085378303021193,0.0013385381532703675,0.35266904372442787,0.12818315828513271,0.42049135130188786,-0.9626877489687733,0.5184885006953561,0.10555154792153715,0.8992596182356746,0.19446286022473588,0.03932541048874506,0.17311562239401504,-0.8294341534127994,0.391116896359027,-0.4834993422820812,-0.8265498329634764,-0.7428139776031426,-0.9318027369209319,-0.4293882412007919,0.8748101931840937,-0.8136223078214976,0.5985499542646849,-0.7139532416604113,0.5893954291126239,-0.22279647156903853,-0.3249964282974639,-0.4355498306976551,0.4858086207014613,0.7211506479138824,-0.10358090689182425,-0.5399359560614425,-0.5157987041673566,0.007737798136934139,-0.2688064646168743,-0.9211944607416253,-0.2418316552765402,-0.784548600118199,-0.64386550410926,-0.8026965952542557,0.3309230866750454,0.553732314937438,0.945164697593502,0.3211972524270216,0.22733974865454187,-0.26771107038344355,0.8379438129188574,0.17258787029551348,-0.2636349778906664,0.4691232997854534,0.557555971994435,0.3996131801994331,0.5738324705113159,-0.963178880612393,-0.7972539938113236,-0.26863458781397886,0.2505337291821578,0.8467667931919781,-0.37516744537336544,0.5428533389134086,0.10388986483930368,0.30632933790896394,-0.03842425766060208,-0.42883017902774606,-0.6271729277433715,-0.4759621753731833,-1.007114240642288,0.09431778935318721,0.7802590636078448,0.3292277608951504,-0.1345838889046138,0.22893373288048208,-0.5185956623971888,0.25315120531289725,0.16485283223518254,0.019450255922749626,-0.746410400944727,-0.9169265644328265,0.8425093025946123,-0.7926406072318591,-0.5253302245364299,-0.30984984654859,0.8549036712475316,0.6330125201789545,0.8726512894978049,0.4064146117807693,-0.9276815107040156,0.5298141061249249,0.3467856612329173,-0.023324714756896733,-0.33637900324953196,0.007606881967881641,1.1170202001748142,-0.8585671993989518,-0.4746710531452201,-0.25833083308930244,-0.763461790045692,0.7854705706160512,0.24477774728645585,0.8415661088191851,-0.654477213696917,0.3850004631206476,0.47702470592785184,-0.5816536548369846,0.9464185137687255,0.01919168181163071,-0.3208204089568224,0.35608017705448947,-0.26651809918635455,0.3389765159969564,-0.5221092141021992,-0.595705012055258,-0.2855245431214388,0.3803322253329552,-0.8501527465360618,0.45482238912530243,0.7196623107699467,0.5954590336378706,0.35172426603031454,-0.7491816765265383,-0.6898724090626962,-0.3987748654773328,-0.12048567218829796,-0.8267790605332334,-0.2394122421664005,0.10057233193196245,0.3279561793294321,0.8884874363940527,-0.5232425524398361,0.7583067485269843,0.16968268304480305,0.3587374637367202,-0.720721465580501,0.7715307163828407,-0.22334162960975257,0.05370652525788153,-0.6834291326412949,-0.5360518959983919,-0.6194128022927639,0.022943937633266277,-0.7199304270837078,0.6419943936567012,0.060993459630270364,-0.5690866296085522,0.027881206115922808,-0.29964745551549876,-0.7133094404767523,0.03471701421345437,-0.8364917025561542,0.9486003594268514,0.7779199568765275,0.053445220417627975,-0.9802047250203684,-0.2328080536917263,-0.11444675316728503,0.46540120244213834,0.9854444979990291,-0.466728737597665,0.693885285908775,-0.6661803370320842,-0.9739987514037252,0.097668821196365,0.5759053951218893,0.022494674577382634,0.40701933021615744,-0.7759787089677544,-0.25156267834929197,0.6609867665682293,0.4921262942427869,-0.32818249802433774,-0.32063682641418156,-0.940792988503031,0.9103883090005603,0.5358991048536502,-0.5164367543163412,0.5780346138543095,0.3529861772669317,-0.9026981617442209,0.537211535308787,-0.6475796691714144,-0.8304407007077813,0.8598018503456624,-0.7389231136301244,0.018838518580095887,-0.18150269168969801,-0.5838700501548928,-0.5249887067347028,0.4891194155085794,-0.5716571381558642,-0.23546504939422364,0.8432332462019363,-0.9136549041018458,0.376928706481322,-0.278723034238515,-0.044736834340425594,0.08008282122304933,0.6411212575197468,0.19580278824693403,0.17341761270570283,-0.9460749691729354,-0.2052506204835825,-0.8642666544635229,0.10940846141070762,0.0005566205311198203,0.2186017017322721,0.36789817743521086,-0.19344565359577634,0.906544049522287,0.40002930248555457,-0.6770899257537502,-0.224488988100773,-0.9855541718235563,0.7870239050227887,-0.24641151484575952,-0.14081493296616054,0.5833619160236536,-0.01594657924010856,-0.2803666475892306,-0.7869267847084731,-0.2680589302001597,0.2588195246591878,0.028484226019227288,0.28437185498187123,-0.42632266351022574,-0.2260448396932584,-0.3263613227384994,-0.8461181780664897,0.2010886573921793,-0.11487638866765892,-0.27341617556478415,-0.355556523359982,0.9175904340173486,0.9469535833522889,0.7264605781513631,0.8025932726504139,0.6313079450825549,-0.6866099942757342,-0.7119037030403017,0.1654367749652128,0.28427503768260864,0.585229939977221,0.9302473499377699,
-0.5641602404666908,0.1530590553231237,-0.7998659585947099,-0.079302769636451,-0.8341108908999633,0.5363199441315216,-0.09989669720418815,-0.9093042146480226,0.3857140747851171,-0.4599123731318866,-0.4261640203122907,0.0790792483041014,-0.8972026015183039,0.014571590563875692,0.1618495896186647,-0.38052579568312295,-0.2599581186440725,-0.366915782252623,0.32764574591047335,-0.6742611069675912,-0.9939399965119775,-0.14035181552291998,0.12165744357169705,-0.6450587147375171,-0.09841439966302801,0.45781023723586833,0.7848161454499907,-0.22498253107073318,-0.7645872810765102,0.5199307907541817,0.4496375575395126,-0.3759715033767803,-0.42066460428319163,0.6554644481331586,-0.664683709523729,0.37286182934877377,-0.6253281048465302,0.9461786163873204,-0.5790606269791541,0.8036404168821929,0.8759554684004626,-0.780822381625395,-0.22417025789881492,-0.4591307397334737,-0.8397407623055861,0.22006442428255696,0.21373062406761253,-0.053131178053557146,0.3293821063780092,-0.5901826054054813,-0.27432298173023417,0.7223481117245811,-0.7663762636996154,-0.6905172490822338,-0.7484537260645494,0.008441680822427466,0.15251251161068446,-0.34183369050313384,0.6332149237838154,-0.1937079245850042,-0.3911571702639631,0.5678727649865836,0.9610462712147543,-0.7105906010638617,-0.5399187255286135,-0.453368078118517,0.3309039651713283,0.18604525037851355,0.12743189208773975,-0.38360684169530535,-0.9081311279315379,0.29094098071243407,-0.15738961590487535,-0.15262858020416464,0.8073018616188365,0.6681601611209174,0.07172220674820862,0.40595094655645675,0.9662387948972171,-0.021426715043322497,-0.7638733640178659,0.005418185609441073,0.3402309615549175,-0.690088969757457,0.5252262017591032,0.9972843824475552,-0.25543498334874815,0.2357191305177031,-0.477682954287038,-0.2601499199727698,0.6328272676940319,-0.951004009184253,0.5228105909173131,-0.8503783563756524,1.0079126324174694,0.534450974846111,-0.658108921629629,0.2513112845407912,0.914098325388947,0.6576620585129402,0.29346275785246145,0.8730856643232364,-0.4407154842353687,-0.9362526084000571,0.0032123779843074617,-0.4109265202477653,-0.4025081764389753,0.4367404650113018,-0.9717817528786479,-0.4821939649745961,-0.855282901060324,-0.72514406113655,0.24313336356072246,-0.6735845559987472,0.5362013290096816,-0.4487544331722564,-0.29776262301337414,0.6043975163144596,0.19898883524966315,-0.9747883457726318,0.30999379215025397,-0.2697743615592329,-0.07393428783205275,0.22111914808696911,-1.040699316099837,-0.5434606946009138,0.4046406064181613,-0.8983782110312181,0.19043252477329273,-0.253034134296442,0.5530656450538841,-0.9408116012000179,0.17791838307984334,-1.0020720406891732,0.5770177453940332,-0.7509482768751312,0.09102455096426265,0.06579098273997164,0.9704499927934631,0.08050953561408325,-0.13516412047598436,-0.7648385279871364,-0.805304460992792,0.3808537400356818,-0.166238230639469,0.12537680123264378,-0.5590124874971207,-0.7771165998161437,0.7262105618988866,0.9701728466914407,0.08541598420894758,-0.7691610377981812,-0.7740267359661924,-0.3080717500545782,0.47386359292951835,-0.20657439371679037,-0.924044825074154,0.17144122436963513,-0.203401808878472,0.39751312135611766,-0.18730189870732025,0.4712459040542538,-0.8421582882804567,0.603000914085777,0.0734820571119317,0.8084995247335662,0.6181965115840453,0.8771861863380657,-0.20560628795198133,0.2329522458855855,0.9031596293345054,0.27922947366822026,-0.6887834505017341,0.8482657930248532,0.2702363423591353,-0.3626672060226584,0.6208418188363186,0.4557480820059461,0.761769620787633,-0.72261042834294,-0.2372716541385641,0.7917873572715258,-0.629671888777004,0.6282390122234095,0.0001392149324341582,-0.6601322829495708,-0.6615493372135872,-0.9137946332128141,0.8662682727485986,-0.8075893273919954,-0.6223326152335257,0.9837723735788291,-0.684098597336283,-0.1732187075953986,-0.7136531570055815,-0.8265538932173051,0.6785095126356053,0.6441129333064912,0.9585495731384708,0.45851528203014214,0.463725442609442,-0.44770853669957955,0.4195115022493971,-0.35105449582280474,0.24573364464941788,0.9111572063134575,-0.8826422578921609,-0.13466773512312002,0.23798665144946768,0.4213638387175302,-0.2616150343372414,0.20381531239286646,0.8631859541153534,0.12297674775249903,-0.06796940572317302,-0.7113917141601723,-0.3513482038123664,0.34263433826444517,-0.22292185389584768,0.7399419458995405,0.33106238566981677,-0.5450731358074983,0.5185206431515135,0.47565105201652647,-0.33579743888026625,0.21476728035980996,-0.7147564744931855,0.6074157157645121,-0.011283821070394483,0.2730412510133705,0.7198632816849614,0.5244089336577281,0.07904099183636296,0.08309522737013801,0.6292238438267581,-0.016125002853561745,-0.7666415174661388,0.566173015142933,-0.18761375761440624,-0.018148331578989527,0.42772929619156336,0.18003615233201173,-0.501345347206162,0.8624523145243033,0.19687477477394008,0.8227626532302735,-0.6652501561262213,-0.3413451832192183,-0.9698200796677375,0.8804249878001247,-0.33102111675564583,-0.8105677699877831,0.988466225072651,-0.8685016395433464,0.01241613656759855,0.8459090865583756,0.23231109363380817,-0.10677300832108591,0.7077909955318018,0.8360083169617991,-0.30440026387251434,0.0950794883890487,0.18824457583671397,0.47297055596632265,-0.053591721525701935,-0.032069776850387095,0.17654063065290976,-0.7743524831800483,0.41799069097112945,-0.6355062033933394,-0.29927367948730643,0.22980669881870297,-0.6759877849270044,0.9563134935238949,0.2885392847810583,-0.45673248423060875,-0.34262840014084633,-0.47401023654150765,-0.795942077615765,0.7299302043317644,0.5038088784938444,0.8970641907735558,0.15245442178662783,0.9725154021377805,0.35430121126060976,0.838326795507548,-0.7959508990422928,-1.0270003851934464,-0.32186666558766996,-0.14431119227368935,-0.8511716862785744,0.7154427379674958,-0.7425749007663238,0.771938958148315,0.9728424194257437,0.94587697075186,-0.2854247224319062,0.7646503485202527,-0.08310330384738156,-0.4560018278784099,0.8545457141756239,0.25381020520474895,0.5814256938124521,-0.2212611660448485,0.557779799068601,0.8582499390268995,0.3916317470835825,0.2972522050780275,0.982524622270093,0.6394916853449054,0.18708823523647297,0.26334505868872454,0.5724639307345792,-0.4681976031728589,-0.5850076314637424,0.8625982205173256,0.31962426964916635,0.9252625790567587,0.6581042561630426,-0.5424157976302882,0.6773198193664567,0.7866934315561155,0.3340630834980382,0.44194385074080617,-0.10302014174279356,0.6202445097308102,-0.854576843523666,0.606870923022368,0.7396397794684056,-0.4059496547883431,0.6888737732204708,0.9354834074423657,0.12708388926668557,0.30064246297568464,-0.44112382113561044,0.6327722409386216,-0.03745820094948815,0.8277924580490349,0.13403947344789047,0.29427624148246306,-0.30197401831620035,-1.0406956614023526,0.08616919304062243,0.22093178742029346,-0.9524113663106238,-0.314529726459204,0.4433339895255245,0.5661085053031378,0.9118232099953097,0.02628006898654754,-0.8253319704822414,-0.33567152850809356,-0.3042062972095391,-0.355543030361496,0.2480061819813522,0.08345190326800696,-0.9315106838796936,0.2500074791450004,0.1341399858825028,-0.4286816112253889,-0.815423969532243,0.9808356567078617,0.9638887831926297,0.4249223174398642,0.22056831688953715,-0.2799445912539378,0.7621432240373742,0.10114610742058179,-0.16552942797501166,-0.8423553154681235,-0.42924552174095887,0.7283856032185413,0.03753044452193975,-0.0835186132798299,-0.36719147401122193,0.1320103391587185,-0.04093001503750917,-0.7133806561729348,0.12926949216935238,0.5471836581497955,0.7163854338422245,-0.7699975770208294,0.7021337976068488,-0.3006861875227671,-0.9075743098097383,-0.10703273102362007,0.6432228695657486,0.3704952606937658,-0.1339790530986407,-0.7574797125924838,0.896266426467472,0.738931160341828,-0.6106423594144594,-0.5590979199526496,-0.15952166261359588,0.17792001767443516,-0.05251073837533129,0.5494107376623837,0.15546561471824052,0.13591451745390315,0.06573411672182493,-0.108610418752627,-0.9523000114070079,-0.5172484767720108,0.9170054124838316,0.720871430563768,0.005816005250524247,0.15626885816813926,0.9845613805306861,0.4707451952356793,-0.4110035631448916,0.23530238841568743,-0.33620196416430714,-0.1963468742145573,-0.5323889262167618,-0.9991535043287686,0.8990126779678139,-0.5390587932275576,-0.2244511405402309,0.6569118038331727,0.5016728960126213,-0.3171218185647606,-0.40725765926462854,0.42169571979215936,-0.5054545682717027,0.619986624255521,0.12080484673899058,-0.5277916300749852,0.5085471135116545,0.27673162752259617,0.237656458714982,0.03456084349694396,-0.6184454983881593,-0.13307826709111015,-0.5635744242388387,-0.39845920655219047,-0.5133151596487731,0.323479311907015,-0.10153031319229108,-0.8941105804914545,-0.5819193637050445,-0.7945701311898373,0.4138007868007837,-0.10857534442808713,0.07816799407122947,0.5256526187413808,0.8780517431631858,0.8189174154520336,-0.8769751454372747,-0.15062887101665917,-0.5658825143465571,0.6532597620419748,0.24826172668302243,-0.845439954583709,-0.6543546349038386,-0.20606794537185089,0.575324666831244,-0.5409322472063455,0.7224631009407301,0.40250517191929686,0.42605839054824407,-0.31543827075117054,0.11743450037301664,-0.8636747536608289,0.2453574612349379,-0.05896446009221407,0.4543109652230875,-0.4810095452602523,-0.9526594822097927,0.791113350826784,0.9033298093337896,-0.2081034893840657,0.40047761165549356,-0.38574680363710023,-0.06993094781810422,0.2572053325151764,0.9801501065656664,-0.7243062914949483,-0.023324268589229,0.5342095607538112,0.6361426317460245,0.34121155936432324,-0.5706780887990716,0.4656976493008697,-0.17356660534086682,0.8649032362682305,-0.8057052044218349,0.11758395073698116,-1.0974093265528153,0.03509483049806947,0.287868331862147,0.11480667849349156,0.5574810703213792,0.6919721526200818,0.3327166848577657,-0.21791407718690223,0.7057237718690583,-0.45779423766082067,0.7006764735372609,0.8316808403458534,0.3321510149201065,-0.9923413617722047,0.4477855984341566,-0.705856484331433,0.5762963694200096,-0.6782628754663216,0.3365654865945599,-0.18962230145660494,0.2590685821086273,0.1267097031620911,0.48025663033152854,0.8657393355773516,0.012675148478343395,-0.4232593325616927,0.8130998967549259,-1.1188101871120795,-0.14148911991725308,-0.19704020357957405,-0.5418548394791007,-0.02653472209621717,0.5547289019667083,-0.14084677420520483,0.22713871291692847,-0.21412844267548437,0.883431327087023,-0.8786000281210771,-0.5066373847876713,0.24694279258604465,0.8521423539559255,-0.8700089017441109,0.2066091704961195,0.5227048752790708,0.24544892446781263,0.7899929620976611,-0.13393235793936237,-0.9394329815450945,0.37012706359258424,0.8028380002276045,0.880905103955427,0.567545596672404,-0.1827192209693717,-0.3803533226337573,-0.05541677019343174,0.32470646549192816,0.5589557701740336,-1.0147268948591581,-0.1943513139880487,0.47560364925833964,0.8979434913647086,-0.7276651486670141,0.954422315884559,-0.16319185482887416,0.08597216548988648,0.002720479260117552,0.6627269496438409,0.39292897638213276,-0.33459109007541876,-0.7770472922246185,-0.7015990635602725,-0.6258905244938706,-0.5419977571112478,-0.6195349577539602,-0.14270586775636188,-0.9291686784822197,0.6251215313518362,-0.7332495799903724,0.8705087362168821,-0.10493055285825893,-0.9611495039588132,0.4201605578416084,-0.03351761427829259,-0.3927964313920866,0.7414425617769062,-0.6424120121211274,-0.44796086562405296,0.7371091721752124,-0.35498030652165796,-0.11032568359312553,-0.9288729834867979,0.7541407970467036,0.16779195941331762,0.9456616822119926,-0.5187440949081735,-0.9946054867646403,0.6977123910839361,0.19477619709854554,0.39668412720709467,-0.7074251785806689,0.05172146489580309,0.7637940037550528,-0.9464009456954989,-0.19584302675822376,0.8612503004280774,0.4544106525726167,-0.8068452574068686,-0.9387225363993194,-0.7012187945609266,-0.0663566286016131,0.5097038567090605,0.6124422192146378,0.6114162972726881,-0.46160107275299045,-0.9843018819364265,-0.5657105151165819,-0.9864557754240606,-0.9419899428653249,-0.8411675098410515,-0.0051095106329713405,0.12754766885185595,-0.7288546812449807,0.6781218475918137,0.05832797695117052,-0.8005869599934511,0.831579446935387,0.6899246702840558,-0.2634046818489648,-0.6611343617571601,0.9593804907783479,0.908412617812679,0.766013309934307,-0.9659774226551592,0.6092591144534893,-0.9704139513272976,0.7772636987138444,-0.6656030687095826,0.5004578032389552,0.9125280324477313,-0.5277513625815459,0.20407792063420396,-0.5520528670778682,-0.3477600439678726,0.6105363628559878,0.7269874676284662,-0.8189779249094883,-0.9250995733140902,0.8788466883005613,0.9600052593926687,1.0000272930471221,-0.8183545528830085,-0.638095753028488,0.41059311252832054,-0.10538240791355169,0.8642142819610066,0.6727250801268099,0.13425293013853734,-0.9818459861950681,-0.7290525485712369,0.1875068792089519,-0.9599847435186237,0.8406863344251325,0.7950577691214699,-0.11586153331978066,-0.254709990318767,0.8285813777932812,-0.8641629639979109,0.7621495051965882,0.19497248682781243,-0.8320170973628346,-0.35535674607915974,0.8427692872699113,-0.7472810880301846,-0.15546143884552505,0.6953935101702517,-0.23075299122716816,-0.16488666832160703,-0.7351202238510018,-0.9639215614239849,-0.9211679497132549,0.5563063678510688,0.30436654675563846,-0.9986010887824082,-0.6258430332116078,-0.6294750061694581,0.7402623026016093,-0.5062220400631374,0.2667580609584135,0.7343989687235162,0.6969400591046542,-0.9341542833260427,0.3455200624383001,0.7717474696995251,0.21012726501288384,-0.44012866301840115,0.2853495861007905,0.9792862884687024,-0.6986493137891329,-0.5264360866999477,-0.5374102009519947,-0.26104363726713564,-0.14814179942595052,-0.8122347579317718,0.27915349993835775,0.9439678378865146,-0.07050014074841165,0.4413753281224941,0.5963256364962213,0.8010661998722093,-0.6436004299462983,0.7316116489161613,-0.15838171392633327,0.7628085233592283,0.7354513225777322,-0.12789729771557412,-0.7310737566839274,0.8361812382175815,-0.7582784437629357,0.9823688410391272,0.047039892212277244,0.6947442638178856,0.16916209073594138,-0.5354205342265171,-0.510021761464543,0.9084802702538747,-0.8990862658207126,-0.7417792556255245,-0.8946308571765721,0.7687732903479791,0.6612761212998315,-0.15093892870836761,0.9042234151613332,0.6230783675105536,-0.6211351883064337,0.027804734192330916,-0.27990571982947804,-0.46121624960720337,0.5715433285314211,0.10416004451585992,-0.48427060018382884,-0.3804007973213037,-0.07538188383204103,-0.7159592358172728,-0.7876871841342583,-0.5357391028720457,-0.9694173731370066,0.5129251706969791,0.13170473609672145,-0.4654911993669118,0.7000946996292601,-0.9709945321870591,0.5027481160949077,-0.3813347460780015,0.5141047927275353,0.1999671322290216,-0.820448725212427,-0.12946988837257367,0.9857848479885459,0.5622296547946201,-0.4066981041732275,0.3299670768582896,0.21837531150115422,-0.20847335837135383,0.5671862862181953,-0.42246031752323554,0.9514388787237065,-0.19100551895913775,-0.3584867038409725,0.5134352100567641,-0.8086084317383015,-0.10203072957088577,-0.7422761973414054,0.8911169091004343,-0.039498862126867484,-0.030375296509632888,-0.20470661002425294,-0.11981145880721633,0.9267209162549017,-0.8616605569437801,0.8491027021747541,-0.6159511786233138,0.47715611524519774,-0.007000838735599313,0.34640810393240407,0.775235655255466,-0.9820696036557444,0.8314730156850478,0.7278905278666603,-0.46970528346511586,0.6708816639631363,-0.8015949854219222,0.3515347330085785,0.15307721658518592,0.3093463075536398,-0.10497857442707481,-0.6028739300875205,
